{"learner":{"attributes":{"best_iteration":"99","best_ntree_limit":"100","scikit_learn":"{\"use_label_encoder\": false, \"n_estimators\": 100, \"objective\": \"multi:softprob\", \"max_depth\": null, \"max_leaves\": null, \"max_bin\": null, \"grow_policy\": null, \"learning_rate\": null, \"verbosity\": null, \"booster\": null, \"tree_method\": \"gpu_hist\", \"gamma\": null, \"min_child_weight\": null, \"max_delta_step\": null, \"subsample\": null, \"sampling_method\": null, \"colsample_bytree\": null, \"colsample_bylevel\": null, \"colsample_bynode\": null, \"reg_alpha\": null, \"reg_lambda\": null, \"scale_pos_weight\": null, \"base_score\": null, \"missing\": NaN, \"num_parallel_tree\": null, \"random_state\": null, \"n_jobs\": null, \"monotone_constraints\": null, \"interaction_constraints\": null, \"importance_type\": null, \"gpu_id\": 0, \"validate_parameters\": null, \"predictor\": null, \"enable_categorical\": false, \"max_cat_to_onehot\": null, \"eval_metric\": null, \"early_stopping_rounds\": null, \"callbacks\": null, \"kwargs\": {\"num_class\": 14}, \"classes_\": [0, 1, 2, 3, 4, 5, 6, 7, 8, 9, 10, 11, 12, 13], \"n_classes_\": 14, \"_estimator_type\": \"classifier\"}"},"feature_names":[],"feature_types":[],"gradient_booster":{"model":{"gbtree_model_param":{"num_parallel_tree":"1","num_trees":"1400","size_leaf_vector":"0"},"tree_info":[0,1,2,3,4,5,6,7,8,9,10,11,12,13,0,1,2,3,4,5,6,7,8,9,10,11,12,13,0,1,2,3,4,5,6,7,8,9,10,11,12,13,0,1,2,3,4,5,6,7,8,9,10,11,12,13,0,1,2,3,4,5,6,7,8,9,10,11,12,13,0,1,2,3,4,5,6,7,8,9,10,11,12,13,0,1,2,3,4,5,6,7,8,9,10,11,12,13,0,1,2,3,4,5,6,7,8,9,10,11,12,13,0,1,2,3,4,5,6,7,8,9,10,11,12,13,0,1,2,3,4,5,6,7,8,9,10,11,12,13,0,1,2,3,4,5,6,7,8,9,10,11,12,13,0,1,2,3,4,5,6,7,8,9,10,11,12,13,0,1,2,3,4,5,6,7,8,9,10,11,12,13,0,1,2,3,4,5,6,7,8,9,10,11,12,13,0,1,2,3,4,5,6,7,8,9,10,11,12,13,0,1,2,3,4,5,6,7,8,9,10,11,12,13,0,1,2,3,4,5,6,7,8,9,10,11,12,13,0,1,2,3,4,5,6,7,8,9,10,11,12,13,0,1,2,3,4,5,6,7,8,9,10,11,12,13,0,1,2,3,4,5,6,7,8,9,10,11,12,13,0,1,2,3,4,5,6,7,8,9,10,11,12,13,0,1,2,3,4,5,6,7,8,9,10,11,12,13,0,1,2,3,4,5,6,7,8,9,10,11,12,13,0,1,2,3,4,5,6,7,8,9,10,11,12,13,0,1,2,3,4,5,6,7,8,9,10,11,12,13,0,1,2,3,4,5,6,7,8,9,10,11,12,13,0,1,2,3,4,5,6,7,8,9,10,11,12,13,0,1,2,3,4,5,6,7,8,9,10,11,12,13,0,1,2,3,4,5,6,7,8,9,10,11,12,13,0,1,2,3,4,5,6,7,8,9,10,11,12,13,0,1,2,3,4,5,6,7,8,9,10,11,12,13,0,1,2,3,4,5,6,7,8,9,10,11,12,13,0,1,2,3,4,5,6,7,8,9,10,11,12,13,0,1,2,3,4,5,6,7,8,9,10,11,12,13,0,1,2,3,4,5,6,7,8,9,10,11,12,13,0,1,2,3,4,5,6,7,8,9,10,11,12,13,0,1,2,3,4,5,6,7,8,9,10,11,12,13,0,1,2,3,4,5,6,7,8,9,10,11,12,13,0,1,2,3,4,5,6,7,8,9,10,11,12,13,0,1,2,3,4,5,6,7,8,9,10,11,12,13,0,1,2,3,4,5,6,7,8,9,10,11,12,13,0,1,2,3,4,5,6,7,8,9,10,11,12,13,0,1,2,3,4,5,6,7,8,9,10,11,12,13,0,1,2,3,4,5,6,7,8,9,10,11,12,13,0,1,2,3,4,5,6,7,8,9,10,11,12,13,0,1,2,3,4,5,6,7,8,9,10,11,12,13,0,1,2,3,4,5,6,7,8,9,10,11,12,13,0,1,2,3,4,5,6,7,8,9,10,11,12,13,0,1,2,3,4,5,6,7,8,9,10,11,12,13,0,1,2,3,4,5,6,7,8,9,10,11,12,13,0,1,2,3,4,5,6,7,8,9,10,11,12,13,0,1,2,3,4,5,6,7,8,9,10,11,12,13,0,1,2,3,4,5,6,7,8,9,10,11,12,13,0,1,2,3,4,5,6,7,8,9,10,11,12,13,0,1,2,3,4,5,6,7,8,9,10,11,12,13,0,1,2,3,4,5,6,7,8,9,10,11,12,13,0,1,2,3,4,5,6,7,8,9,10,11,12,13,0,1,2,3,4,5,6,7,8,9,10,11,12,13,0,1,2,3,4,5,6,7,8,9,10,11,12,13,0,1,2,3,4,5,6,7,8,9,10,11,12,13,0,1,2,3,4,5,6,7,8,9,10,11,12,13,0,1,2,3,4,5,6,7,8,9,10,11,12,13,0,1,2,3,4,5,6,7,8,9,10,11,12,13,0,1,2,3,4,5,6,7,8,9,10,11,12,13,0,1,2,3,4,5,6,7,8,9,10,11,12,13,0,1,2,3,4,5,6,7,8,9,10,11,12,13,0,1,2,3,4,5,6,7,8,9,10,11,12,13,0,1,2,3,4,5,6,7,8,9,10,11,12,13,0,1,2,3,4,5,6,7,8,9,10,11,12,13,0,1,2,3,4,5,6,7,8,9,10,11,12,13,0,1,2,3,4,5,6,7,8,9,10,11,12,13,0,1,2,3,4,5,6,7,8,9,10,11,12,13,0,1,2,3,4,5,6,7,8,9,10,11,12,13,0,1,2,3,4,5,6,7,8,9,10,11,12,13,0,1,2,3,4,5,6,7,8,9,10,11,12,13,0,1,2,3,4,5,6,7,8,9,10,11,12,13,0,1,2,3,4,5,6,7,8,9,10,11,12,13,0,1,2,3,4,5,6,7,8,9,10,11,12,13,0,1,2,3,4,5,6,7,8,9,10,11,12,13,0,1,2,3,4,5,6,7,8,9,10,11,12,13,0,1,2,3,4,5,6,7,8,9,10,11,12,13,0,1,2,3,4,5,6,7,8,9,10,11,12,13,0,1,2,3,4,5,6,7,8,9,10,11,12,13,0,1,2,3,4,5,6,7,8,9,10,11,12,13,0,1,2,3,4,5,6,7,8,9,10,11,12,13,0,1,2,3,4,5,6,7,8,9,10,11,12,13,0,1,2,3,4,5,6,7,8,9,10,11,12,13,0,1,2,3,4,5,6,7,8,9,10,11,12,13,0,1,2,3,4,5,6,7,8,9,10,11,12,13,0,1,2,3,4,5,6,7,8,9,10,11,12,13,0,1,2,3,4,5,6,7,8,9,10,11,12,13,0,1,2,3,4,5,6,7,8,9,10,11,12,13,0,1,2,3,4,5,6,7,8,9,10,11,12,13,0,1,2,3,4,5,6,7,8,9,10,11,12,13,0,1,2,3,4,5,6,7,8,9,10,11,12,13,0,1,2,3,4,5,6,7,8,9,10,11,12,13,0,1,2,3,4,5,6,7,8,9,10,11,12,13,0,1,2,3,4,5,6,7,8,9,10,11,12,13,0,1,2,3,4,5,6,7,8,9,10,11,12,13,0,1,2,3,4,5,6,7,8,9,10,11,12,13],"trees":[{"base_weights":[-1.556251E-1,-5.371933E-1,6.7899895E0,-1.6140512E-1,-7.040799E-9,5.141079E-1,2.0631926E0],"categories":[],"categories_nodes":[],"categories_segments":[],"categories_sizes":[],"default_left":[0,0,0,0,0,0,0],"id":0,"left_children":[1,3,5,-1,-1,-1,-1],"loss_changes":[3.3925288E3,5.3674316E-1,1.7763184E1,0E0,0E0,0E0,0E0],"parents":[2147483647,0,0,1,1,2,2],"right_children":[2,4,6,-1,-1,-1,-1],"split_conditions":[3.1063594E-2,2.8314644E-2,3.189266E-2,-1.6140512E-1,-7.040799E-9,5.141079E-1,2.0631926E0],"split_indices":[14,42,28,0,0,0,0],"split_type":[0,0,0,0,0,0,0],"sum_hessian":[1.2777142E3,1.212051E3,6.566326E1,1.2101938E3,1.8571428E0,1.4591837E0,6.420408E1],"tree_param":{"num_deleted":"0","num_feature":"57","num_nodes":"7","size_leaf_vector":"0"}},{"base_weights":[6.5065354E-1,-5.222063E-1,2.085058E0,-5.342422E-1,2.5981088E0,-5.3702736E-1,3.645833E-1,1.0862069E0,-8.316832E-2,-1.6138756E-1,-8.4337376E-2,3.223256E-1,-1.022472E-1,6.2376235E-2,-9.210527E-2],"categories":[],"categories_nodes":[],"categories_segments":[],"categories_sizes":[],"default_left":[0,0,0,0,0,0,0,0,0,0,0,0,0,0,0],"id":1,"left_children":[1,3,-1,5,7,9,11,-1,-1,-1,13,-1,-1,-1,-1],"loss_changes":[9.45138E3,4.1908447E1,0E0,2.8885193E0,1.3694897E1,4.0679932E-1,2.3282042E0,0E0,0E0,0E0,2.8431076E-1,0E0,0E0,0E0,0E0],"parents":[2147483647,0,0,1,1,3,3,4,4,5,5,6,6,10,10],"right_children":[2,4,-1,6,8,10,12,-1,-1,-1,14,-1,-1,-1,-1],"split_conditions":[9.821853E-1,6.7331654E-1,2.085058E0,1.396537E-2,4.4629185E-9,1.0713694E-2,8.119011E-4,1.0862069E0,-8.316832E-2,-1.6138756E-1,6.731316E-8,3.223256E-1,-1.022472E-1,6.2376235E-2,-9.210527E-2],"split_indices":[1,15,0,1,26,15,2,0,0,0,20,0,0,0,0],"split_type":[0,0,0,0,0,0,0,0,0,0,0,0,0,0,0],"sum_hessian":[1.2777142E3,1.0779387E3,1.997755E2,1.0746224E3,3.3163264E0,1.0717041E3,2.9183674E0,2.255102E0,1.0612245E0,1.0693163E3,2.387755E0,1.1938775E0,1.7244897E0,1.0612245E0,1.3265306E0],"tree_param":{"num_deleted":"0","num_feature":"57","num_nodes":"15","size_leaf_vector":"0"}},{"base_weights":[-3.5191602E-1,-5.268178E-1,2.003575E0,-5.3321713E-1,7.35E-1,-5.3641176E-1,-5.3435147E-2,-1.614072E-1,-2.508671E-1,-1.3744295E-1,7.039106E-1,-1.3921016E-1,1.3228346E-1,4.236842E-1,-9.210527E-2],"categories":[],"categories_nodes":[],"categories_segments":[],"categories_sizes":[],"default_left":[0,0,0,0,0,0,0,0,0,0,0,0,0,0,0],"id":2,"left_children":[1,3,-1,5,-1,7,9,-1,11,-1,13,-1,-1,-1,-1],"loss_changes":[1.5758851E3,2.5091919E1,0E0,1.8822327E0,0E0,4.3511963E-1,3.190492E0,0E0,1.5062735E0,0E0,3.0495934E0,0E0,0E0,0E0,0E0],"parents":[2147483647,0,0,1,1,3,3,5,5,6,6,8,8,10,10],"right_children":[2,4,-1,6,-1,8,10,-1,12,-1,14,-1,-1,-1,-1],"split_conditions":[6.064073E-1,9.076928E-1,2.003575E0,5.7566212E-3,7.35E-1,1.7819875E-4,5.879693E-4,-1.614072E-1,9.739331E-3,-1.3744295E-1,1.37881525E-2,-1.3921016E-1,1.3228346E-1,4.236842E-1,-9.210527E-2],"split_indices":[44,2,0,2,0,16,1,0,45,0,39,0,0,0,0],"split_type":[0,0,0,0,0,0,0,0,0,0,0,0,0,0,0],"sum_hessian":[1.2777142E3,1.247602E3,3.0112244E1,1.2457449E3,1.8571428E0,1.2373877E3,8.357142E0,1.2295612E3,7.8265305E0,5.7040815E0,2.6530612E0,6.2346935E0,1.5918367E0,1.3265306E0,1.3265306E0],"tree_param":{"num_deleted":"0","num_feature":"57","num_nodes":"15","size_leaf_vector":"0"}},{"base_weights":[3.683387E-1,-5.0697863E-1,2.0741549E0,-5.246541E-1,1.2233945E0,-5.344014E-1,8.092967E-1,-5.370823E-1,5.0602406E-1,-1.3356891E-1,2.509434E0,-1.6139328E-1,-1.4583336E-1,-9.210527E-2,3.5346535E-1,9.425197E-1,1.8558139E-1,-1.0500001E-1,6.2376235E-2],"categories":[],"categories_nodes":[],"categories_segments":[],"categories_sizes":[],"default_left":[0,0,0,0,0,0,0,0,0,0,0,0,0,0,0,0,0,0,0],"id":3,"left_children":[1,3,-1,5,-1,7,9,11,13,-1,15,-1,17,-1,-1,-1,-1,-1,-1],"loss_changes":[7.329769E3,9.362036E1,0E0,1.5065002E1,0E0,3.389618E0,1.9377228E1,3.1225586E-1,2.2132146E0,0E0,2.5825882E0,0E0,3.5577554E-1,0E0,0E0,0E0,0E0,0E0,0E0],"parents":[2147483647,0,0,1,1,3,3,5,5,6,6,7,7,8,8,10,10,12,12],"right_children":[2,4,-1,6,-1,8,10,12,14,-1,16,-1,18,-1,-1,-1,-1,-1,-1],"split_conditions":[9.74376E-1,8.197371E-1,2.0741549E0,2.3968277E-2,1.2233945E0,5.300942E-1,1.0194853E-2,8.337772E-2,9.3982286E-5,-1.3356891E-1,4.5609576E-7,-1.6139328E-1,1.3034912E-4,-9.210527E-2,3.5346535E-1,9.425197E-1,1.8558139E-1,-1.0500001E-1,6.2376235E-2],"split_indices":[3,45,0,3,0,17,47,31,0,0,24,0,0,0,0,0,0,0,0],"split_type":[0,0,0,0,0,0,0,0,0,0,0,0,0,0,0,0,0,0,0],"sum_hessian":[1.2777142E3,1.1278163E3,1.4989795E2,1.1243673E3,3.4489794E0,1.1168062E3,7.5612245E0,1.1144183E3,2.387755E0,4.77551E0,2.7857141E0,1.1115E3,2.9183674E0,1.3265306E0,1.0612245E0,1.5918367E0,1.1938775E0,1.8571428E0,1.0612245E0],"tree_param":{"num_deleted":"0","num_feature":"57","num_nodes":"19","size_leaf_vector":"0"}},{"base_weights":[-3.5426214E-1,-5.316232E-1,2.0325027E0,-1.6140862E-1,9.746835E-1,-1.8203312E-1,8.105263E-1,-1.11912236E-1,6.2376235E-2],"categories":[],"categories_nodes":[],"categories_segments":[],"categories_sizes":[],"default_left":[0,0,0,0,0,0,0,0,0],"id":4,"left_children":[1,3,-1,-1,5,7,-1,-1,-1],"loss_changes":[1.6204781E3,1.2571808E1,0E0,0E0,1.1764723E1,3.9906096E-1,0E0,0E0,0E0],"parents":[2147483647,0,0,1,1,4,4,5,5],"right_children":[2,4,-1,-1,6,8,-1,-1,-1],"split_conditions":[9.7538614E-1,1.3610472E-4,2.0325027E0,-1.6140862E-1,3.0046595E-2,2.028242E-4,8.105263E-1,-1.11912236E-1,6.2376235E-2],"split_indices":[4,18,0,0,32,9,0,0,0],"split_type":[0,0,0,0,0,0,0,0,0],"sum_hessian":[1.2777142E3,1.247602E3,3.0112244E1,1.2429591E3,4.642857E0,3.3163264E0,1.3265306E0,2.255102E0,1.0612245E0],"tree_param":{"num_deleted":"0","num_feature":"57","num_nodes":"9","size_leaf_vector":"0"}},{"base_weights":[1.7986813E-1,-5.2160054E-1,2.070228E0,-5.3367114E-1,1.0324023E0,-1.6139759E-1,-1.3539685E-2,-1.4175001E-1,1.0963855E0,4.8837204E-2,4.590698E-1],"categories":[],"categories_nodes":[],"categories_segments":[],"categories_sizes":[],"default_left":[0,0,0,0,0,0,0,0,0,0,0],"id":5,"left_children":[1,3,-1,5,-1,-1,7,-1,9,-1,-1],"loss_changes":[6.032092E3,5.7267365E1,0E0,2.591034E0,0E0,0E0,5.892855E0,0E0,1.1230593E0,0E0,0E0],"parents":[2147483647,0,0,1,1,3,3,6,6,8,8],"right_children":[2,4,-1,6,-1,-1,8,-1,10,-1,-1],"split_conditions":[9.6281374E-1,8.6394954E-1,2.070228E0,4.800578E-3,1.0324023E0,-1.6139759E-1,6.385119E-4,-1.4175001E-1,1.9060785E-7,4.8837204E-2,4.590698E-1],"split_indices":[5,47,0,19,0,0,12,0,18,0,0],"split_type":[0,0,0,0,0,0,0,0,0,0,0],"sum_hessian":[1.2777142E3,1.1577959E3,1.19918365E2,1.1551428E3,2.6530612E0,1.1455918E3,9.55102E0,7.163265E0,2.387755E0,1.1938775E0,1.1938775E0],"tree_param":{"num_deleted":"0","num_feature":"57","num_nodes":"11","size_leaf_vector":"0"}},{"base_weights":[-9.697244E-2,-5.3552175E-1,6.8422747E0,1.6578947E-1,-5.37182E-1,2.0720077E0,3.5346535E-1,-1.6140354E-1,-2.8925622E-1,6.2376235E-2,-1.2994014E-1],"categories":[],"categories_nodes":[],"categories_segments":[],"categories_sizes":[],"default_left":[0,0,0,0,0,0,0,0,0,0,0],"id":6,"left_children":[1,3,5,-1,7,-1,-1,-1,9,-1,-1],"loss_changes":[3.89505E3,2.471344E0,1.9621826E1,0E0,9.173584E-2,0E0,0E0,0E0,5.316618E-1,0E0,0E0],"parents":[2147483647,0,0,1,1,2,2,4,4,8,8],"right_children":[2,4,6,-1,8,-1,-1,-1,10,-1,-1],"split_conditions":[3.058617E-1,5.3281314E-3,5.335256E-4,1.6578947E-1,9.0943456E-1,2.0720077E0,3.5346535E-1,-1.6140354E-1,5.759521E-3,6.2376235E-2,-1.2994014E-1],"split_indices":[6,33,9,0,42,0,0,0,54,0,0],"split_type":[0,0,0,0,0,0,0,0,0,0,0],"sum_hessian":[1.2777142E3,1.2026326E3,7.508163E1,1.3265306E0,1.201306E3,7.402041E1,1.0612245E0,1.1961326E3,5.173469E0,1.0612245E0,4.1122446E0],"tree_param":{"num_deleted":"0","num_feature":"57","num_nodes":"11","size_leaf_vector":"0"}},{"base_weights":[4.4888836E-1,-5.190386E-1,6.730673E0,-5.325413E-1,2.2814815E0,1.880597E0,6.890882E0,-5.352449E-1,1.19544566E-1,-8.316832E-2,2.9541285E0,-1.014493E-1,3.0614657E0,2.074333E0,6.8157893E-1,-5.37052E-1,-2.746554E-1,-1.2292684E-1,3.223256E-1,1.1969284E0,1.4813277E-1,-9.585063E-2,6.2376235E-2,1.2191011E0,2.480315E-1,-1.6139019E-1,-4.5751657E-2,2.745098E-1,-1.4000002E-1,-8.316832E-2,6.2376235E-2,-8.316832E-2,2.0792079E-1],"categories":[],"categories_nodes":[],"categories_segments":[],"categories_sizes":[],"default_left":[0,0,0,0,0,0,0,0,0,0,0,0,0,0,0,0,0,0,0,0,0,0,0,0,0,0,0,0,0,0,0,0,0],"id":7,"left_children":[1,3,5,7,9,11,13,15,17,-1,19,21,23,-1,-1,25,27,-1,-1,-1,-1,-1,-1,-1,-1,-1,29,31,-1,-1,-1,-1,-1],"loss_changes":[7.77847E3,4.314801E1,1.19754395E2,2.0110474E0,1.0302624E1,1.631221E1,2.2426758E0,3.704834E-1,3.1581469E0,0E0,9.366047E0,3.0391434E-1,6.307205E0,0E0,0E0,4.66156E-1,1.1427526E0,0E0,0E0,0E0,0E0,0E0,0E0,0E0,0E0,0E0,2.4098879E-1,9.1322064E-1,0E0,0E0,0E0,0E0,0E0],"parents":[2147483647,0,0,1,1,2,2,3,3,4,4,5,5,6,6,7,7,8,8,10,10,11,11,12,12,15,15,16,16,26,26,27,27],"right_children":[2,4,6,8,10,12,14,16,18,-1,20,22,24,-1,-1,26,28,-1,-1,-1,-1,-1,-1,-1,-1,-1,30,32,-1,-1,-1,-1,-1],"split_conditions":[3.0062267E-1,7.3714465E-1,9.477091E-2,4.8303142E-2,1.8466087E-2,3.6351404E-3,5.2688154E-4,7.8004533E-3,5.21978E-1,-8.316832E-2,3.288499E-8,9.5506795E-5,1.4623661E-2,2.074333E0,6.8157893E-1,7.184854E-1,2.9902355E-4,-1.2292684E-1,3.223256E-1,1.1969284E0,1.4813277E-1,-9.585063E-2,6.2376235E-2,1.2191011E0,2.480315E-1,-1.6139019E-1,6.254702E-5,1.5965979E-4,-1.4000002E-1,-8.316832E-2,6.2376235E-2,-8.316832E-2,2.0792079E-1],"split_indices":[49,7,21,49,35,7,10,7,56,0,16,0,41,0,0,21,5,0,0,0,0,0,0,0,0,0,0,13,0,0,0,0,0],"split_type":[0,0,0,0,0,0,0,0,0,0,0,0,0,0,0,0,0,0,0,0,0,0,0,0,0,0,0,0,0,0,0,0,0],"sum_hessian":[1.2777142E3,1.1079183E3,1.6979591E2,1.1034081E3,4.510204E0,5.836735E0,1.6395918E2,1.0990306E3,4.377551E0,1.0612245E0,3.4489794E0,2.5204082E0,3.3163264E0,1.6263264E2,1.3265306E0,1.0904081E3,8.622449E0,3.1836734E0,1.1938775E0,1.9897959E0,1.4591837E0,1.4591837E0,1.0612245E0,1.7244897E0,1.5918367E0,1.0882856E3,2.122449E0,2.122449E0,6.5E0,1.0612245E0,1.0612245E0,1.0612245E0,1.0612245E0],"tree_param":{"num_deleted":"0","num_feature":"57","num_nodes":"33","size_leaf_vector":"0"}},{"base_weights":[2.1349566E-1,-5.3105074E-1,2.0811841E0,-5.353876E-1,6.4455444E-1,-1.6139768E-1,1.9157892E-1,-1.1565219E-1,2.9473683E-1],"categories":[],"categories_nodes":[],"categories_segments":[],"categories_sizes":[],"default_left":[0,0,0,0,0,0,0,0,0],"id":8,"left_children":[1,3,-1,5,-1,-1,7,-1,-1],"loss_changes":[6.4051445E3,1.4539398E1,0E0,2.2826538E0,0E0,0E0,2.5909076E0,0E0,0E0],"parents":[2147483647,0,0,1,1,3,3,6,6],"right_children":[2,4,-1,6,-1,-1,8,-1,-1],"split_conditions":[9.682335E-1,8.988722E-1,2.0811841E0,5.0092903E-3,6.4455444E-1,-1.6139768E-1,3.9277266E-4,-1.1565219E-1,2.9473683E-1],"split_indices":[22,50,0,22,0,0,12,0,0],"split_type":[0,0,0,0,0,0,0,0,0],"sum_hessian":[1.2777142E3,1.1511632E3,1.2655102E2,1.150102E3,1.0612245E0,1.1462551E3,3.8469386E0,2.5204082E0,1.3265306E0],"tree_param":{"num_deleted":"0","num_feature":"57","num_nodes":"9","size_leaf_vector":"0"}},{"base_weights":[-3.8006932E-1,-5.2606565E-1,1.985514E0,7.35E-1,-5.3243876E-1,-5.3722394E-1,1.4103921E-1,-1.6140804E-1,-2.7208483E-1,-3.403417E-1,4.2000002E-1,6.2376235E-2,-1.2727274E-1,6.2376235E-2,-1.3744295E-1],"categories":[],"categories_nodes":[],"categories_segments":[],"categories_sizes":[],"default_left":[0,0,0,0,0,0,0,0,0,0,0,0,0,0,0],"id":9,"left_children":[1,3,-1,-1,5,7,9,-1,11,13,-1,-1,-1,-1,-1],"loss_changes":[1.3100051E3,2.5079712E1,0E0,0E0,4.109436E0,1.1819458E-1,6.3080635E0,0E0,5.1003194E-1,5.967883E-1,0E0,0E0,0E0,0E0,0E0],"parents":[2147483647,0,0,1,1,4,4,5,5,6,6,8,8,9,9],"right_children":[2,4,-1,-1,6,8,10,-1,12,14,-1,-1,-1,-1,-1],"split_conditions":[2.6994774E-1,8.4639E-4,1.985514E0,7.35E-1,7.8566006E-4,5.335256E-4,1.7924998E-4,-1.6140804E-1,1.6103475E-4,1.0860211E-2,4.2000002E-1,6.2376235E-2,-1.2727274E-1,6.2376235E-2,-1.3744295E-1],"split_indices":[9,32,0,0,9,9,23,0,3,34,0,0,0,0,0],"split_type":[0,0,0,0,0,0,0,0,0,0,0,0,0,0,0],"sum_hessian":[1.2777142E3,1.2525101E3,2.520408E1,1.8571428E0,1.2506531E3,1.2420305E3,8.622449E0,1.2372551E3,4.77551E0,6.765306E0,1.8571428E0,1.0612245E0,3.7142856E0,1.0612245E0,5.7040815E0],"tree_param":{"num_deleted":"0","num_feature":"57","num_nodes":"15","size_leaf_vector":"0"}},{"base_weights":[2.0802142E-1,-5.2499384E-1,2.0761828E0,-5.327814E-1,2.0726256E0,-5.362489E-1,3.978947E-1,9.394737E-1,3.68421E-2,-1.6139679E-1,-2.2750004E-1,-1.1385543E-1,3.921162E-1,-1.3879313E-1,2.0792079E-1],"categories":[],"categories_nodes":[],"categories_segments":[],"categories_sizes":[],"default_left":[0,0,0,0,0,0,0,0,0,0,0,0,0,0,0],"id":10,"left_children":[1,3,-1,5,7,9,11,-1,-1,-1,13,-1,-1,-1,-1],"loss_changes":[6.2954565E3,2.4443695E1,0E0,3.9281616E0,7.158139E0,4.9404907E-1,3.9218278E0,0E0,0E0,0E0,2.087714E0,0E0,0E0,0E0,0E0],"parents":[2147483647,0,0,1,1,3,3,4,4,5,5,6,6,10,10],"right_children":[2,4,-1,6,8,10,12,-1,-1,-1,14,-1,-1,-1,-1],"split_conditions":[9.7368234E-1,5.023255E-1,2.0761828E0,4.7742976E-3,2.0879121E-1,5.5056403E-4,1.2733635E-2,9.394737E-1,3.68421E-2,-1.6139679E-1,9.923379E-1,-1.1385543E-1,3.921162E-1,-1.3879313E-1,2.0792079E-1],"split_indices":[10,24,0,10,56,24,52,0,0,0,15,0,0,0,0],"split_type":[0,0,0,0,0,0,0,0,0,0,0,0,0,0,0],"sum_hessian":[1.2777142E3,1.1527551E3,1.2495918E2,1.150102E3,2.6530612E0,1.1462551E3,3.8469386E0,1.3265306E0,1.3265306E0,1.1390918E3,7.163265E0,2.387755E0,1.4591837E0,6.102041E0,1.0612245E0],"tree_param":{"num_deleted":"0","num_feature":"57","num_nodes":"15","size_leaf_vector":"0"}},{"base_weights":[-4.6922495E-3,-5.0183284E-1,6.4839215E0,-5.227883E-1,3.1970148E0,1.506329E0,6.7338843E0,-5.337276E-1,4.378219E-1,-9.585063E-2,1.2631879E0,8.217392E-1,-1.0980394E-1,4.4831464E-1,2.0468738E0,-5.36273E-1,-2.1915288E-1,-1.4037435E-1,1.3328632E0,-1.6114001E-1,1.6535427E-2,-3.8286898E-1,1.8558139E-1,8.8161185E-2,2.2195122E0,-1.4323701E-1,6.2376235E-2,-1.0750855E-1,2.0792079E-1,8.959045E-1,4.8837204E-2],"categories":[],"categories_nodes":[],"categories_segments":[],"categories_sizes":[],"default_left":[0,0,0,0,0,0,0,0,0,0,0,0,0,0,0,0,0,0,0,0,0,0,0,0,0,0,0,0,0,0,0],"id":11,"left_children":[1,3,5,7,9,11,13,15,17,-1,-1,-1,-1,-1,-1,19,21,-1,23,-1,-1,25,-1,27,29,-1,-1,-1,-1,-1,-1],"loss_changes":[4.128071E3,9.38042E1,1.031687E2,1.2663086E1,2.5714035E1,1.4027546E1,3.0119873E1,8.192444E-1,1.1865528E1,0E0,0E0,0E0,0E0,0E0,0E0,6.19751E-1,1.7567389E0,0E0,7.7886324E0,0E0,0E0,6.518152E-1,0E0,1.3425719E0,6.1122074E0,0E0,0E0,0E0,0E0,0E0,0E0],"parents":[2147483647,0,0,1,1,2,2,3,3,4,4,5,5,6,6,7,7,8,8,15,15,16,16,18,18,21,21,23,23,24,24],"right_children":[2,4,6,8,10,12,14,16,18,-1,-1,-1,-1,-1,-1,20,22,-1,24,-1,-1,26,-1,28,30,-1,-1,-1,-1,-1,-1],"split_conditions":[3.011513E-1,9.1172314E-1,2.5605424E-3,1.1838334E-2,5.2930013E-4,8.362671E-3,3.8399731E-3,1.9838633E-2,7.6965876E-3,-9.585063E-2,1.2631879E0,8.217392E-1,-1.0980394E-1,4.4831464E-1,2.0468738E0,5.032728E-1,4.2785984E-2,-1.4037435E-1,4.4993634E-8,-1.6114001E-1,1.6535427E-2,8.506623E-4,1.8558139E-1,2.1867378E-4,7.256465E-8,-1.4323701E-1,6.2376235E-2,-1.0750855E-1,2.0792079E-1,8.959045E-1,4.8837204E-2],"split_indices":[53,11,25,25,25,51,11,53,53,0,0,0,0,0,0,11,39,0,16,0,0,10,0,8,27,0,0,0,0,0,0],"split_type":[0,0,0,0,0,0,0,0,0,0,0,0,0,0,0,0,0,0,0,0,0,0,0,0,0,0,0,0,0,0,0],"sum_hessian":[1.2777142E3,1.1876428E3,9.007143E1,1.181806E3,5.836735E0,4.642857E0,8.5428566E1,1.1689387E3,1.2867347E1,1.4591837E0,4.377551E0,2.5204082E0,2.122449E0,1.7244897E0,8.370408E1,1.158857E3,1.0081633E1,6.6326528E0,6.2346935E0,1.1572653E3,1.5918367E0,8.887754E0,1.1938775E0,3.0510204E0,3.1836734E0,7.8265305E0,1.0612245E0,1.9897959E0,1.0612245E0,1.9897959E0,1.1938775E0],"tree_param":{"num_deleted":"0","num_feature":"57","num_nodes":"31","size_leaf_vector":"0"}},{"base_weights":[-3.2767293E-1,-5.332037E-1,2.0253177E0,4.236842E-1,-5.3641814E-1,-1.6116567E-1,-2.4513622E-1,-1.2292684E-1,6.2376235E-2],"categories":[],"categories_nodes":[],"categories_segments":[],"categories_sizes":[],"default_left":[0,0,0,0,0,0,0,0,0],"id":12,"left_children":[1,3,-1,-1,5,-1,7,-1,-1],"loss_changes":[1.8639978E3,8.53421E0,0E0,0E0,1.5808105E-1,0E0,4.7637284E-1,0E0,0E0],"parents":[2147483647,0,0,1,1,4,4,6,6],"right_children":[2,4,-1,-1,6,-1,8,-1,-1],"split_conditions":[9.480174E-1,1.6639916E-4,2.0253177E0,4.236842E-1,5.743447E-2,-1.6116567E-1,4.2548424E-1,-1.2292684E-1,6.2376235E-2],"split_indices":[12,38,0,0,40,0,3,0,0],"split_type":[0,0,0,0,0,0,0,0,0],"sum_hessian":[1.2777142E3,1.2425612E3,3.515306E1,1.3265306E0,1.2412346E3,1.2369897E3,4.244898E0,3.1836734E0,1.0612245E0],"tree_param":{"num_deleted":"0","num_feature":"57","num_nodes":"9","size_leaf_vector":"0"}},{"base_weights":[-3.9805612E-1,-5.364365E-1,6.23676E0,-5.372318E-1,-1.014493E-1,1.9440638E0,1.8558139E-1,-1.6140881E-1,-2.8925622E-1,-9.585063E-2,6.2376235E-2,-1.2994014E-1,6.2376235E-2],"categories":[],"categories_nodes":[],"categories_segments":[],"categories_sizes":[],"default_left":[0,0,0,0,0,0,0,0,0,0,0,0,0],"id":13,"left_children":[1,3,5,7,9,-1,-1,-1,11,-1,-1,-1,-1],"loss_changes":[1.1773694E3,3.7911987E-1,3.183191E1,9.182739E-2,3.0391434E-1,0E0,0E0,0E0,5.316618E-1,0E0,0E0,0E0,0E0],"parents":[2147483647,0,0,1,1,2,2,3,3,4,4,8,8],"right_children":[2,4,6,8,10,-1,-1,-1,12,-1,-1,-1,-1],"split_conditions":[1.6665438E-1,1.2363065E-1,1.6815622E-3,9.0922123E-1,1.6744407E-4,1.9440638E0,1.8558139E-1,-1.6140881E-1,1.03599414E-4,-9.585063E-2,6.2376235E-2,-1.2994014E-1,6.2376235E-2],"split_indices":[13,27,0,47,9,0,0,0,6,0,0,0,0],"split_type":[0,0,0,0,0,0,0,0,0,0,0,0,0],"sum_hessian":[1.2777142E3,1.2525101E3,2.520408E1,1.2499897E3,2.5204082E0,2.4010204E1,1.1938775E0,1.2448163E3,5.173469E0,1.4591837E0,1.0612245E0,4.1122446E0,1.0612245E0],"tree_param":{"num_deleted":"0","num_feature":"57","num_nodes":"13","size_leaf_vector":"0"}},{"base_weights":[-1.2291697E-1,-5.1998276E-1,3.6293334E-1,-1.5693435E-1,2.8956592E-1,2.265059E-1,-1.0770188E-1],"categories":[],"categories_nodes":[],"categories_segments":[],"categories_sizes":[],"default_left":[0,0,0,0,0,0,0],"id":14,"left_children":[1,3,-1,-1,5,-1,-1],"loss_changes":[5.4406647E2,2.1592712E0,0E0,0E0,1.386652E0,0E0,0E0],"parents":[2147483647,0,0,1,1,4,4],"right_children":[2,4,-1,-1,6,-1,-1],"split_conditions":[5.1739377E-1,6.009498E-2,3.6293334E-1,-1.5693435E-1,2.6164085E-2,2.265059E-1,-1.0770188E-1],"split_indices":[0,28,0,0,35,0,0],"split_type":[0,0,0,0,0,0,0],"sum_hessian":[1.0259668E3,7.909264E2,2.350404E2,7.882309E2,2.695488E0,1.4737278E0,1.2217602E0],"tree_param":{"num_deleted":"0","num_feature":"57","num_nodes":"7","size_leaf_vector":"0"}},{"base_weights":[3.5684264E-1,-5.1926094E-1,1.1822871E0,-1.5690948E-1,2.7726042E-1,-1.03365414E-1,1.1866175E0,2.6627344E-1,-1.01196334E-1,5.858824E-3,1.1887568E0,1.1900518E0,4.019964E-2,1.8742349E0,1.1821862E0,6.7151314E-1,3.9121952E-2,3.550338E-1,9.642985E-2],"categories":[],"categories_nodes":[],"categories_segments":[],"categories_sizes":[],"default_left":[0,0,0,0,0,0,0,0,0,0,0,0,0,0,0,0,0,0,0],"id":15,"left_children":[1,3,5,-1,7,-1,9,-1,-1,-1,11,13,-1,15,17,-1,-1,-1,-1],"loss_changes":[1.0440071E3,2.2492523E0,5.322632E0,0E0,1.7827244E0,0E0,1.8275146E0,0E0,0E0,0E0,8.511963E-1,1.7606201E0,0E0,3.9560604E0,4.1467285E-1,0E0,0E0,0E0,0E0],"parents":[2147483647,0,0,1,1,2,2,4,4,6,6,10,10,11,11,13,13,14,14],"right_children":[2,4,6,-1,8,-1,10,-1,-1,-1,12,14,-1,16,18,-1,-1,-1,-1],"split_conditions":[1.0713694E-2,1.396537E-2,1.557274E-3,-1.5690948E-1,3.7695692E-4,-1.03365414E-1,5.782852E-3,2.6627344E-1,-1.01196334E-1,5.858824E-3,1.7365323E-4,9.821853E-1,4.019964E-2,1.2190484E-4,5.806318E-2,6.7151314E-1,3.9121952E-2,3.550338E-1,9.642985E-2],"split_indices":[15,1,1,0,11,0,45,0,0,0,14,1,0,25,41,0,0,0,0],"split_type":[0,0,0,0,0,0,0,0,0,0,0,0,0,0,0,0,0,0,0],"sum_hessian":[1.441795E3,6.996146E2,7.421804E2,6.9666003E2,2.954586E0,1.8768209E0,7.403036E2,1.2595627E0,1.6950232E0,1.3730116E0,7.389306E2,7.3789636E2,1.0342206E0,5.6896863E0,7.3220667E2,4.4722104E0,1.2174758E0,7.307623E2,1.444341E0],"tree_param":{"num_deleted":"0","num_feature":"57","num_nodes":"19","size_leaf_vector":"0"}},{"base_weights":[-3.0258402E-1,-5.15829E-1,1.2010818E0,-5.2178156E-1,-7.45216E-2,-1.2329402E-1,1.240869E0,-1.5690488E-1,-5.918319E-2,-1.419062E-1,7.1500164E-1,1.2579067E0,-8.012362E-3,-8.643387E-2,6.589276E-2,-9.432476E-2,3.950338E-1,1.2713141E0,8.321494E-3,5.93697E-1,3.7123212E-1],"categories":[],"categories_nodes":[],"categories_segments":[],"categories_sizes":[],"default_left":[0,0,0,0,0,0,0,0,0,0,0,0,0,0,0,0,0,0,0,0,0],"id":16,"left_children":[1,3,5,7,9,-1,11,-1,13,-1,15,17,-1,-1,-1,-1,-1,19,-1,-1,-1],"loss_changes":[2.970788E2,2.0900269E0,7.8945465E0,4.2565918E-1,4.0987487E0,0E0,2.465561E0,0E0,2.710958E-1,0E0,3.144304E0,1.79776E0,0E0,0E0,0E0,0E0,0E0,1.8598938E-1,0E0,0E0,0E0],"parents":[2147483647,0,0,1,1,2,2,3,3,4,4,6,6,8,8,10,10,11,11,17,17],"right_children":[2,4,6,8,10,-1,12,-1,14,-1,16,18,-1,-1,-1,-1,-1,20,-1,-1,-1],"split_conditions":[1.8589769E-2,2.5504227E-3,1.0929429E-3,4.6610567E-3,1.410189E-6,-1.2329402E-1,8.39101E-4,-1.5690488E-1,2.0317513E-2,-1.419062E-1,2.2764737E-6,9.907794E-1,-8.012362E-3,-8.643387E-2,6.589276E-2,-9.432476E-2,3.950338E-1,6.064073E-1,8.321494E-3,5.93697E-1,3.7123212E-1],"split_indices":[44,2,2,16,15,0,0,0,40,0,19,21,0,0,0,0,0,44,0,0,0],"split_type":[0,0,0,0,0,0,0,0,0,0,0,0,0,0,0,0,0,0,0,0,0],"sum_hessian":[9.235594E2,8.0942615E2,1.1413323E2,7.9847363E2,1.0952473E1,2.524353E0,1.1160888E2,7.96218E2,2.2556643E0,7.5450897E0,3.4073834E0,1.10136154E2,1.4727272E0,1.2203711E0,1.0352933E0,1.4332122E0,1.9741712E0,1.0891565E2,1.220506E0,2.352193E0,1.0656345E2],"tree_param":{"num_deleted":"0","num_feature":"57","num_nodes":"21","size_leaf_vector":"0"}},{"base_weights":[2.2811666E-1,-5.1382434E-1,1.1866235E0,-5.20499E-1,8.502084E-1,-1.8684681E-1,1.1992537E0,-1.5693493E-1,-1.793472E-1,-8.98721E-2,4.5737374E-1,-1.5106617E-1,2.091193E-1,-3.136696E-2,1.2037213E0,2.055725E-1,-1.3317922E-1,1.7823554E0,1.1898339E0,1.9575442E0,5.018135E-2,3.574841E-1,1.3647471E-1,1.656701E-1,6.285999E-1],"categories":[],"categories_nodes":[],"categories_segments":[],"categories_sizes":[],"default_left":[0,0,0,0,0,0,0,0,0,0,0,0,0,0,0,0,0,0,0,0,0,0,0,0,0],"id":17,"left_children":[1,3,5,7,9,11,13,-1,15,-1,-1,-1,-1,-1,17,-1,-1,19,21,23,-1,-1,-1,-1,-1],"loss_changes":[9.216023E2,7.095093E0,1.0031616E1,5.560303E-1,3.5100465E0,2.035368E0,3.3899536E0,0E0,1.9198576E0,0E0,0E0,0E0,0E0,0E0,2.3673706E0,0E0,0E0,2.8082504E0,1.7523193E-1,7.607422E-1,0E0,0E0,0E0,0E0,0E0],"parents":[2147483647,0,0,1,1,2,2,3,3,4,4,5,5,6,6,8,8,14,14,17,17,18,18,19,19],"right_children":[2,4,6,8,10,12,14,-1,16,-1,-1,-1,-1,-1,18,-1,-1,20,22,24,-1,-1,-1,-1,-1],"split_conditions":[2.3968277E-2,5.300942E-1,6.3497355E-5,4.334199E-2,4.0373876E-4,2.8734572E-2,7.31634E-3,-1.5693493E-1,5.293089E-12,-8.98721E-2,4.5737374E-1,-1.5106617E-1,2.091193E-1,-3.136696E-2,9.74376E-1,2.055725E-1,-1.3317922E-1,3.011513E-1,7.5899693E-3,6.594547E-3,5.018135E-2,3.574841E-1,1.3647471E-1,1.656701E-1,6.285999E-1],"split_indices":[3,17,17,31,3,34,45,0,20,0,0,0,0,0,3,0,0,53,11,54,0,0,0,0,0],"split_type":[0,0,0,0,0,0,0,0,0,0,0,0,0,0,0,0,0,0,0,0,0,0,0,0,0],"sum_hessian":[1.294065E3,7.296988E2,5.6436615E2,7.267609E2,2.9378443E0,5.0168357E0,5.593493E2,7.206981E2,6.062803E0,1.2915547E0,1.6462896E0,4.0102625E0,1.0065732E0,1.8336381E0,5.575157E2,1.0480767E0,5.014726E0,1.0082355E1,5.4743335E2,8.904448E0,1.177907E0,5.4549084E2,1.9424647E0,1.2422756E0,7.6621714E0],"tree_param":{"num_deleted":"0","num_feature":"57","num_nodes":"25","size_leaf_vector":"0"}},{"base_weights":[-3.0705294E-1,-1.5692629E-1,1.2094382E0,-1.04965314E-1,1.2395148E0,1.247936E0,4.4558275E-2,5.9512466E-1,3.6426795E-1],"categories":[],"categories_nodes":[],"categories_segments":[],"categories_sizes":[],"default_left":[0,0,0,0,0,0,0,0,0],"id":18,"left_children":[1,-1,3,-1,5,7,-1,-1,-1],"loss_changes":[3.0329642E2,0E0,5.8504944E0,0E0,8.577118E-1,3.8243103E-1,0E0,0E0,0E0],"parents":[2147483647,0,0,2,2,4,4,5,5],"right_children":[2,-1,4,-1,6,8,-1,-1,-1],"split_conditions":[1.3610472E-4,-1.5692629E-1,1.5205309E-2,-1.04965314E-1,2.4739325E-2,9.7538614E-1,4.4558275E-2,5.9512466E-1,3.6426795E-1],"split_indices":[18,0,32,0,43,4,0,0,0],"split_type":[0,0,0,0,0,0,0,0,0],"sum_hessian":[9.2284064E2,8.083418E2,1.1449884E2,1.9654766E0,1.1253336E2,1.11528625E2,1.0047368E0,2.3515058E0,1.0917712E2],"tree_param":{"num_deleted":"0","num_feature":"57","num_nodes":"9","size_leaf_vector":"0"}},{"base_weights":[1.1918098E-1,-5.179972E-1,1.1913866E0,-5.2050513E-1,1.7261857E-1,-1.6780862E-1,1.2041632E0,-1.5691154E-1,-2.1618111E-1,-1.4983982E-1,1.4909938E-1,1.9460161E0,1.1910429E0,2.0426719E-1,-1.3752297E-1,6.7431873E-1,1.5616044E-1,1.193243E0,9.400933E-2,3.5861492E-1,9.700868E-2],"categories":[],"categories_nodes":[],"categories_segments":[],"categories_sizes":[],"default_left":[0,0,0,0,0,0,0,0,0,0,0,0,0,0,0,0,0,0,0,0,0],"id":19,"left_children":[1,3,5,7,-1,9,11,-1,13,-1,-1,15,17,-1,-1,-1,-1,19,-1,-1,-1],"loss_changes":[8.1997565E2,2.3642426E0,7.970825E0,4.6650696E-1,0E0,1.3603168E0,1.9970703E0,0E0,2.0311513E0,0E0,0E0,1.4648895E0,4.72229E-1,0E0,0E0,0E0,0E0,4.2651367E-1,0E0,0E0,0E0],"parents":[2147483647,0,0,1,1,2,2,3,3,5,5,6,6,8,8,11,11,12,12,17,17],"right_children":[2,4,6,8,-1,10,12,-1,14,-1,-1,16,18,-1,-1,-1,-1,20,-1,-1,-1],"split_conditions":[3.1665724E-2,9.062052E-1,1.6188925E-2,4.800578E-3,1.7261857E-1,9.761834E-3,9.6281374E-1,-1.5691154E-1,7.0935935E-3,-1.4983982E-1,1.4909938E-1,7.5765285E-3,1.2590459E-6,2.0426719E-1,-1.3752297E-1,6.7431873E-1,1.5616044E-1,4.433565E-2,9.400933E-2,3.5861492E-1,9.700868E-2],"split_indices":[5,47,47,19,0,30,5,0,45,0,0,42,14,0,0,0,0,36,0,0,0],"split_type":[0,0,0,0,0,0,0,0,0,0,0,0,0,0,0,0,0,0,0,0,0],"sum_hessian":[1.19832E3,7.519666E2,4.4635333E2,7.5076855E2,1.1980921E0,4.0437346E0,4.423096E2,7.438576E2,6.9109583E0,2.8637679E0,1.1799667E0,5.126468E0,4.371831E2,1.0843242E0,5.8266344E0,3.7548969E0,1.3715711E0,4.3573132E2,1.4517907E0,4.342887E2,1.4426447E0],"tree_param":{"num_deleted":"0","num_feature":"57","num_nodes":"21","size_leaf_vector":"0"}},{"base_weights":[-7.579297E-2,-5.176094E-1,1.2032752E0,-5.2185553E-1,5.3274786E-1,3.5718903E-1,5.577192E-1,-1.569362E-1,-1.921806E-1,2.1522495E-1,2.5786437E-2,-1.1329068E-1,6.883707E-2],"categories":[],"categories_nodes":[],"categories_segments":[],"categories_sizes":[],"default_left":[0,0,0,0,0,0,0,0,0,0,0,0,0],"id":20,"left_children":[1,3,5,7,9,-1,-1,-1,11,-1,-1,-1,-1],"loss_changes":[5.980443E2,3.7855682E0,3.9794922E-2,2.2634888E-1,2.4042559E-1,0E0,0E0,0E0,4.44543E-1,0E0,0E0,0E0,0E0],"parents":[2147483647,0,0,1,1,2,2,3,3,4,4,8,8],"right_children":[2,4,6,8,10,-1,-1,-1,12,-1,-1,-1,-1],"split_conditions":[7.222665E-1,9.050216E-1,1.5381958E-4,9.0943456E-1,1.5572973E-2,3.5718903E-1,5.577192E-1,-1.569362E-1,1.6336633E-9,2.1522495E-1,2.5786437E-2,-1.1329068E-1,6.883707E-2],"split_indices":[20,48,1,42,37,0,0,0,17,0,0,0,0],"split_type":[0,0,0,0,0,0,0,0,0,0,0,0,0],"sum_hessian":[1.056171E3,7.854543E2,2.7071674E2,7.8279297E2,2.661326E0,2.683577E2,2.3590336E0,7.7921606E2,3.5769284E0,1.4544649E0,1.2068611E0,2.5567257E0,1.0202026E0],"tree_param":{"num_deleted":"0","num_feature":"57","num_nodes":"13","size_leaf_vector":"0"}},{"base_weights":[2.7158388E-1,-5.041638E-1,1.1833607E0,-5.1881105E-1,1.1030474E0,-1.2176883E-1,1.1915321E0,-5.215455E-1,-1.8688793E-1,4.564785E-1,-1.3204255E-3,5.1528406E-1,1.1979707E0,-1.568787E-1,4.1693943E-3,1.2150847E-1,-1.3045278E-1,7.4167424E-1,-1.1146057E-1,1.1994767E0,4.477697E-2,2.8841704E-1,-4.9817837E-3,1.1895264E0,1.5372804E0,3.5767657E-1,5.936176E-2,1.2667863E-1,4.8629463E-1],"categories":[],"categories_nodes":[],"categories_segments":[],"categories_sizes":[],"default_left":[0,0,0,0,0,0,0,0,0,0,0,0,0,0,0,0,0,0,0,0,0,0,0,0,0,0,0,0,0],"id":21,"left_children":[1,3,5,7,9,-1,11,13,15,-1,-1,17,19,-1,-1,-1,-1,21,-1,23,-1,-1,-1,25,27,-1,-1,-1,-1],"loss_changes":[9.444567E2,1.7562057E1,8.453857E0,5.5229187E-1,3.1761055E0,0E0,2.0424194E0,5.3279114E-1,1.2633661E0,0E0,0E0,1.7845035E0,7.753906E-1,0E0,0E0,0E0,0E0,1.0691094E0,0E0,1.9934082E-1,0E0,0E0,0E0,1.3618774E0,6.0741043E-1,0E0,0E0,0E0,0E0],"parents":[2147483647,0,0,1,1,2,2,3,3,4,4,6,6,7,7,8,8,11,11,12,12,17,17,19,19,23,23,24,24],"right_children":[2,4,6,8,10,-1,12,14,16,-1,-1,18,20,-1,-1,-1,-1,22,-1,24,-1,-1,-1,26,28,-1,-1,-1,-1],"split_conditions":[4.8303142E-2,7.3714465E-1,4.2161486E-5,7.8004533E-3,3.288499E-8,-1.2176883E-1,6.4122877E-3,7.184854E-1,2.9902355E-4,4.564785E-1,-1.3204255E-3,2.492487E-2,4.7800243E-2,-1.568787E-1,4.1693943E-3,1.2150847E-1,-1.3045278E-1,7.7197566E-3,-1.1146057E-1,3.4901896E-7,4.477697E-2,2.8841704E-1,-4.9817837E-3,4.286951E-3,1.1319727E-4,3.5767657E-1,5.936176E-2,1.2667863E-1,4.8629463E-1],"split_indices":[49,7,21,7,16,0,44,21,5,0,0,37,34,0,0,0,0,51,0,22,0,0,0,5,2,0,0,0,0],"split_type":[0,0,0,0,0,0,0,0,0,0,0,0,0,0,0,0,0,0,0,0,0,0,0,0,0,0,0,0,0],"sum_hessian":[1.3334385E3,7.2070416E2,6.127343E2,7.1486646E2,5.837696E0,2.8853664E0,6.0984894E2,7.084586E2,6.407881E0,3.9651494E0,1.872547E0,6.515897E0,6.0333307E2,7.066562E2,1.8024093E0,1.7047744E0,4.7031064E0,5.3211617E0,1.1947346E0,6.0232434E2,1.008721E0,3.9180343E0,1.4031278E0,5.8948193E2,1.2842383E1,5.876626E2,1.8193334E0,1.318817E0,1.1523566E1],"tree_param":{"num_deleted":"0","num_feature":"57","num_nodes":"29","size_leaf_vector":"0"}},{"base_weights":[1.3687462E-1,-5.2195E-1,1.1884941E0,-1.5692255E-1,-1.623005E-1,-9.6914686E-2,3.5826904E-1,6.955784E-2,-1.1700573E-1],"categories":[],"categories_nodes":[],"categories_segments":[],"categories_sizes":[],"default_left":[0,0,0,0,0,0,0,0,0],"id":22,"left_children":[1,3,5,-1,7,-1,-1,-1,-1],"loss_changes":[8.439861E2,2.182312E-1,4.4535522E0,0E0,4.3026257E-1,0E0,0E0,0E0,0E0],"parents":[2147483647,0,0,1,1,2,2,4,4],"right_children":[2,4,6,-1,8,-1,-1,-1,-1],"split_conditions":[5.1074494E-3,5.0092903E-3,5.0092903E-3,-1.5692255E-1,2.7422985E-4,-9.6914686E-2,3.5826904E-1,6.955784E-2,-1.1700573E-1],"split_indices":[8,22,22,0,3,0,0,0,0],"split_type":[0,0,0,0,0,0,0,0,0],"sum_hessian":[1.2162716E3,7.481008E2,4.681708E2,7.453147E2,2.7861204E0,1.560754E0,4.6661008E2,1.013559E0,1.7725614E0],"tree_param":{"num_deleted":"0","num_feature":"57","num_nodes":"9","size_leaf_vector":"0"}},{"base_weights":[-3.3179936E-1,-5.1824677E-1,1.2214744E0,-5.218481E-1,1.1259379E-1,1.2676706E0,-2.3737656E-1,-1.5691346E-1,-2.2068554E-1,3.573615E-1,-1.2357726E-1,3.8376158E-1,4.4717647E-2,4.5917224E-2,-1.3022366E-1,7.046458E-2,-1.1901011E-1],"categories":[],"categories_nodes":[],"categories_segments":[],"categories_sizes":[],"default_left":[0,0,0,0,0,0,0,0,0,0,0,0,0,0,0,0,0],"id":23,"left_children":[1,3,5,7,9,11,13,-1,15,-1,-1,-1,-1,-1,-1,-1,-1],"loss_changes":[2.6410913E2,1.9057312E0,6.891968E0,1.7596436E-1,3.5668502E0,1.0345001E0,3.6166787E-1,0E0,4.885012E-1,0E0,0E0,0E0,0E0,0E0,0E0,0E0,0E0],"parents":[2147483647,0,0,1,1,2,2,3,3,4,4,5,5,6,6,8,8],"right_children":[2,4,6,8,10,12,14,-1,16,-1,-1,-1,-1,-1,-1,-1,-1],"split_conditions":[2.2733186E-3,7.8566006E-4,1.6978383E-3,5.335256E-4,2.5058954E-4,3.1063594E-2,1.0929429E-3,-1.5691346E-1,1.793119E-4,3.573615E-1,-1.2357726E-1,3.8376158E-1,4.4717647E-2,4.5917224E-2,-1.3022366E-1,7.046458E-2,-1.1901011E-1],"split_indices":[9,9,5,9,6,14,2,0,5,0,0,0,0,0,0,0,0],"split_type":[0,0,0,0,0,0,0,0,0,0,0,0,0,0,0,0,0],"sum_hessian":[9.087811E2,8.119812E2,9.6799904E1,8.075439E2,4.4373116E0,9.395574E1,2.8441632E0,8.0361383E2,3.9300423E0,1.0359508E0,3.401361E0,9.2854706E1,1.1010376E0,1.0271862E0,1.816977E0,1.0020524E0,2.92799E0],"tree_param":{"num_deleted":"0","num_feature":"57","num_nodes":"17","size_leaf_vector":"0"}},{"base_weights":[1.3552156E-1,-5.1333606E-1,1.1943533E0,-5.20388E-1,3.3305717E-1,-9.751258E-2,1.198788E0,-1.569109E-1,-1.16389036E-1,-1.3866138E-1,1.0142033E0,1.1891068E0,1.8402765E0,2.197647E-1,-1.2714769E-1,4.620466E-1,9.506799E-3,3.5732487E-1,1.4678293E-1,1.976676E-1,6.553366E-1],"categories":[],"categories_nodes":[],"categories_segments":[],"categories_sizes":[],"default_left":[0,0,0,0,0,0,0,0,0,0,0,0,0,0,0,0,0,0,0,0,0],"id":24,"left_children":[1,3,5,7,9,-1,11,-1,13,-1,15,17,19,-1,-1,-1,-1,-1,-1,-1,-1],"loss_changes":[8.3429706E2,4.6683197E0,3.498413E0,7.386017E-1,4.1698523E0,0E0,6.699829E-1,0E0,1.9163017E0,0E0,2.014779E0,4.815674E-2,6.004238E-1,0E0,0E0,0E0,0E0,0E0,0E0,0E0,0E0],"parents":[2147483647,0,0,1,1,2,2,3,3,4,4,6,6,8,8,10,10,11,11,12,12],"right_children":[2,4,6,8,10,-1,12,-1,14,-1,16,18,20,-1,-1,-1,-1,-1,-1,-1,-1],"split_conditions":[5.023255E-1,4.7742976E-3,6.9585033E-3,5.5056403E-4,1.2733635E-2,-9.751258E-2,1.2384044E-4,-1.569109E-1,1.1023588E-11,-1.3866138E-1,1.2144063E-2,2.6164085E-2,1.2890372E-4,2.197647E-1,-1.2714769E-1,4.620466E-1,9.506799E-3,3.5732487E-1,1.4678293E-1,1.976676E-1,6.553366E-1],"split_indices":[24,10,52,24,52,0,12,0,17,0,53,35,1,0,0,0,0,0,0,0,0],"split_type":[0,0,0,0,0,0,0,0,0,0,0,0,0,0,0,0,0,0,0,0,0],"sum_hessian":[1.212459E3,7.5208966E2,4.6036926E2,7.462572E2,5.8324814E0,1.129397E0,4.5923987E2,7.411045E2,5.1527286E0,2.83913E0,2.9933517E0,4.552234E2,4.016492E0,1.0022918E0,4.1504364E0,1.5799948E0,1.4133568E0,4.532417E2,1.981701E0,1.56366E0,2.4528317E0],"tree_param":{"num_deleted":"0","num_feature":"57","num_nodes":"21","size_leaf_vector":"0"}},{"base_weights":[5.1207924E-3,-5.075953E-1,1.1562873E0,-5.139747E-1,4.12432E-1,-2.5314692E-1,1.203906E0,-5.2026945E-1,-7.118499E-2,-1.4402404E-1,1.798347E-1,-1.3547815E-1,1.2131724E0,-5.2158135E-1,7.797119E-3,-1.4067018E-1,4.9969986E-1,-1.01674914E-1,4.3901715E-2,1.2193481E0,-8.531783E-2,-3.1270984E-1,-1.5687495E-1,3.8848475E-1,-1.1136463E-1,1.230618E0,4.729311E-1,-1.3170847E-1,6.8560675E-2,5.1972514E-1,3.6071396E-1,-1.0831163E-1,2.6344073E-1],"categories":[],"categories_nodes":[],"categories_segments":[],"categories_sizes":[],"default_left":[0,0,0,0,0,0,0,0,0,0,0,0,0,0,0,0,0,0,0,0,0,0,0,0,0,0,0,0,0,0,0,0,0],"id":25,"left_children":[1,3,5,7,-1,9,11,13,15,-1,-1,17,19,21,-1,-1,23,-1,-1,25,-1,27,-1,-1,-1,29,31,-1,-1,-1,-1,-1,-1],"loss_changes":[6.493545E2,9.847107E0,2.3057922E1,2.0794067E0,0E0,2.5913444E0,4.236664E0,5.499878E-1,2.9139385E0,0E0,0E0,2.3042047E-1,3.3613586E0,4.473877E-2,0E0,0E0,4.17229E0,0E0,0E0,2.150238E0,0E0,5.947157E-1,0E0,0E0,0E0,2.4421692E0,2.4984882E0,0E0,0E0,0E0,0E0,0E0,0E0],"parents":[2147483647,0,0,1,1,2,2,3,3,5,5,6,6,7,7,8,8,11,11,12,12,13,13,16,16,19,19,21,21,25,25,26,26],"right_children":[2,4,6,8,-1,10,12,14,16,-1,-1,18,20,22,-1,-1,24,-1,-1,26,-1,28,-1,-1,-1,30,32,-1,-1,-1,-1,-1,-1],"split_conditions":[1.2247256E-3,9.9422395E-1,7.740484E-3,1.9838633E-2,4.12432E-1,9.9422395E-1,1.3925348E-2,5.032728E-1,3.288499E-8,-1.4402404E-1,1.798347E-1,6.900465E-5,9.74376E-1,2.4671646E-5,7.797119E-3,-1.4067018E-1,8.365092E-3,-1.01674914E-1,4.3901715E-2,4.8796228E-5,-8.531783E-2,6.0305003E-5,-1.5687495E-1,3.8848475E-1,-1.1136463E-1,3.011513E-1,3.011513E-1,-1.3170847E-1,6.8560675E-2,5.1972514E-1,3.6071396E-1,-1.0831163E-1,2.6344073E-1],"split_indices":[25,11,53,53,0,11,41,11,16,0,0,4,3,13,0,0,54,0,0,22,0,6,0,0,0,53,53,0,0,0,0,0,0],"split_type":[0,0,0,0,0,0,0,0,0,0,0,0,0,0,0,0,0,0,0,0,0,0,0,0,0,0,0,0,0,0,0,0,0],"sum_hessian":[1.0981931E3,7.6017786E2,3.3801526E2,7.583348E2,1.8430617E0,1.0905794E1,3.2710947E2,7.4753284E2,1.0801943E1,8.958305E0,1.947489E0,2.1539547E0,3.249555E2,7.457869E2,1.7459023E0,6.4718633E0,4.330079E0,1.1332636E0,1.0206912E0,3.23806E2,1.149529E0,6.23106E0,7.395559E2,2.0088642E0,2.321215E0,3.1835065E2,5.455352E0,5.20512E0,1.0259398E0,1.3745193E1,3.0460544E2,1.8195177E0,3.6358342E0],"tree_param":{"num_deleted":"0","num_feature":"57","num_nodes":"33","size_leaf_vector":"0"}},{"base_weights":[-2.7982837E-1,-5.143309E-1,3.690007E-1,7.823E-1,-5.19907E-1,4.2394215E-1,-1.0551355E-1,-1.5655987E-1,1.04905434E-1],"categories":[],"categories_nodes":[],"categories_segments":[],"categories_sizes":[],"default_left":[0,0,0,0,0,0,0,0,0],"id":26,"left_children":[1,3,-1,5,7,-1,-1,-1,-1],"loss_changes":[3.3279935E2,6.2830048E0,0E0,3.2723162E0,1.5622711E0,0E0,0E0,0E0,0E0],"parents":[2147483647,0,0,1,1,3,3,4,4],"right_children":[2,4,-1,6,8,-1,-1,-1,-1],"split_conditions":[9.8677164E-1,1.6639916E-4,3.690007E-1,7.2180415E-3,9.480174E-1,4.2394215E-1,-1.0551355E-1,-1.5655987E-1,1.04905434E-1],"split_indices":[26,38,0,46,12,0,0,0,0],"split_type":[0,0,0,0,0,0,0,0,0],"sum_hessian":[9.371674E2,8.1174835E2,1.2541907E2,2.8794723E0,8.088689E2,1.692055E0,1.1874171E0,8.074496E2,1.4193205E0],"tree_param":{"num_deleted":"0","num_feature":"57","num_nodes":"9","size_leaf_vector":"0"}},{"base_weights":[-3.5243827E-1,-5.206502E-1,1.2094886E0,-5.218567E-1,-4.5464397E-3,1.2599843E0,3.28378E-1,-1.5691905E-1,-2.0706367E-1,4.1853613E-1,3.8579935E-1,-1.4216778E-1,6.701758E-1,-1.158654E-1,6.996879E-2,2.569953E-1,-1.1701104E-1,2.7886632E-1,5.5158986E-3],"categories":[],"categories_nodes":[],"categories_segments":[],"categories_sizes":[],"default_left":[0,0,0,0,0,0,0,0,0,0,0,0,0,0,0,0,0,0,0],"id":27,"left_children":[1,3,5,7,-1,9,11,-1,13,15,-1,-1,17,-1,-1,-1,-1,-1,-1],"loss_changes":[2.3779865E2,4.8953247E-1,3.5044556E0,2.0077515E-1,0E0,1.2772217E0,1.9973856E0,0E0,4.6574548E-1,1.7403681E0,0E0,0E0,7.791703E-1,0E0,0E0,0E0,0E0,0E0,0E0],"parents":[2147483647,0,0,1,1,2,2,3,3,5,5,6,6,8,8,9,9,12,12],"right_children":[2,4,6,8,-1,10,12,-1,14,16,-1,-1,18,-1,-1,-1,-1,-1,-1],"split_conditions":[1.6665438E-1,1.2363065E-1,2.512679E-2,9.0922123E-1,-4.5464397E-3,6.15361E-3,2.2866405E-11,-1.5691905E-1,8.532544E-7,2.4355108E-4,3.8579935E-1,-1.4216778E-1,2.1695644E-3,-1.158654E-1,6.996879E-2,2.569953E-1,-1.1701104E-1,2.7886632E-1,5.5158986E-3],"split_indices":[13,27,34,47,0,45,26,0,25,0,0,0,4,0,0,0,0,0,0],"split_type":[0,0,0,0,0,0,0,0,0,0,0,0,0,0,0,0,0,0,0],"sum_hessian":[9.016935E2,8.146286E2,8.706487E1,8.126566E2,1.9719892E0,8.193903E1,5.125844E0,8.088941E2,3.7625039E0,2.9696596E0,7.896937E1,1.4159185E0,3.7099254E0,2.7616215E0,1.0008824E0,1.8874882E0,1.0821713E0,2.3489907E0,1.3609347E0],"tree_param":{"num_deleted":"0","num_feature":"57","num_nodes":"19","size_leaf_vector":"0"}},{"base_weights":[-1.140536E-1,-5.1606536E-1,9.179766E-1,-1.552922E-1,3.9856054E-2,-1.0410299E-1,9.2480916E-1,9.2733055E-1,9.010616E-2,4.7560865E-1,2.7493766E-1],"categories":[],"categories_nodes":[],"categories_segments":[],"categories_sizes":[],"default_left":[0,0,0,0,0,0,0,0,0,0,0],"id":28,"left_children":[1,3,5,-1,-1,-1,7,9,-1,-1,-1],"loss_changes":[3.6050076E2,7.078247E-1,2.42659E0,0E0,0E0,0E0,1.0342407E-1,2.721405E-1,0E0,0E0,0E0],"parents":[2147483647,0,0,1,1,2,2,6,6,7,7],"right_children":[2,4,6,-1,-1,-1,8,10,-1,-1,-1],"split_conditions":[3.1063594E-2,2.8314644E-2,1.6815622E-3,-1.552922E-1,3.9856054E-2,-1.0410299E-1,2.4115948E-2,3.189266E-2,9.010616E-2,4.7560865E-1,2.7493766E-1],"split_indices":[14,42,0,0,0,0,17,28,0,0,0],"split_type":[0,0,0,0,0,0,0,0,0,0,0],"sum_hessian":[8.6676855E2,6.2414307E2,2.4262552E2,6.228334E2,1.3096741E0,1.0359777E0,2.4158954E2,2.4013492E2,1.4546211E0,1.5490739E0,2.3858585E2],"tree_param":{"num_deleted":"0","num_feature":"57","num_nodes":"11","size_leaf_vector":"0"}},{"base_weights":[3.0615544E-1,-5.131533E-1,9.0609866E-1,-1.5525891E-1,2.3911147E-1,-9.759091E-2,9.091926E-1,2.1826632E-1,-9.6015625E-2,-1.351074E-3,9.108966E-1,9.1191864E-1,2.9829267E-2,2.7384773E-1,1.1268468E-1],"categories":[],"categories_nodes":[],"categories_segments":[],"categories_sizes":[],"default_left":[0,0,0,0,0,0,0,0,0,0,0,0,0,0,0],"id":29,"left_children":[1,3,5,-1,7,-1,9,-1,-1,-1,11,13,-1,-1,-1],"loss_changes":[6.447603E2,1.949997E0,3.1800537E0,0E0,1.2959591E0,0E0,1.1802368E0,0E0,0E0,0E0,5.3466797E-1,2.34375E-2,0E0,0E0,0E0],"parents":[2147483647,0,0,1,1,2,2,4,4,6,6,10,10,11,11],"right_children":[2,4,6,-1,8,-1,10,-1,-1,-1,12,14,-1,-1,-1],"split_conditions":[1.0713694E-2,1.396537E-2,1.557274E-3,-1.5525891E-1,1.9083284E-4,-9.759091E-2,5.782852E-3,2.1826632E-1,-9.6015625E-2,-1.351074E-3,1.7365323E-4,4.433565E-2,2.9829267E-2,2.7384773E-1,1.1268468E-1],"split_indices":[15,1,1,0,2,0,45,0,0,0,14,36,0,0,0],"split_type":[0,0,0,0,0,0,0,0,0,0,0,0,0,0,0],"sum_hessian":[1.3097723E3,5.5372534E2,7.56047E2,5.508329E2,2.8924499E0,1.6338494E0,7.5441315E2,1.3831162E0,1.5093336E0,1.4012597E0,7.5301184E2,7.5194104E2,1.0708213E0,7.4997046E2,1.9706013E0],"tree_param":{"num_deleted":"0","num_feature":"57","num_nodes":"15","size_leaf_vector":"0"}},{"base_weights":[-2.8667042E-1,-5.1336205E-1,8.853709E-1,-1.5531045E-1,-2.1755868E-1,-1.7260547E-1,9.389577E-1,-1.3814594E-1,3.819144E-1,-1.3173454E-1,1.8513307E-1,9.4940436E-1,-1.2791975E-3,2.579497E-1,-8.935672E-2,9.5975965E-1,1.3411931E-2,2.7918735E-1,1.3315883E0,4.3700236E-1,1.2562245E-1],"categories":[],"categories_nodes":[],"categories_segments":[],"categories_sizes":[],"default_left":[0,0,0,0,0,0,0,0,0,0,0,0,0,0,0,0,0,0,0,0,0],"id":30,"left_children":[1,3,5,-1,7,9,11,-1,13,-1,-1,15,-1,-1,-1,17,-1,-1,19,-1,-1],"loss_changes":[2.0277597E2,7.072449E-1,7.179657E0,0E0,1.7718482E0,1.7046857E0,1.1664581E0,0E0,1.4604205E0,0E0,0E0,1.050209E0,0E0,0E0,0E0,1.0002136E-2,0E0,0E0,8.175182E-2,0E0,0E0],"parents":[2147483647,0,0,1,1,2,2,4,4,5,5,6,6,8,8,11,11,15,15,18,18],"right_children":[2,4,6,-1,8,10,12,-1,14,-1,-1,16,-1,-1,-1,18,-1,-1,20,-1,-1],"split_conditions":[5.7566212E-3,1.0929429E-3,8.517936E-3,-1.5531045E-1,5.985953E-2,1.572994E-6,9.907794E-1,-1.3814594E-1,6.977927E-3,-1.3173454E-1,1.8513307E-1,6.9778314E-4,-1.2791975E-3,2.579497E-1,-8.935672E-2,9.722857E-3,1.3411931E-2,2.7918735E-1,1.8590963E-2,4.3700236E-1,1.2562245E-1],"split_indices":[2,2,44,0,53,27,21,0,54,0,0,8,0,0,0,51,0,0,21,0,0],"split_type":[0,0,0,0,0,0,0,0,0,0,0,0,0,0,0,0,0,0,0,0,0],"sum_hessian":[7.604889E2,6.3770795E2,1.2278096E2,6.277487E2,9.959255E0,5.812015E0,1.1696895E2,7.2522388E0,2.7070165E0,4.677449E0,1.1345662E0,1.1568116E2,1.2877854E0,1.4339672E0,1.2730492E0,1.14311874E2,1.369288E0,1.0925394E2,5.0579333E0,3.9244254E0,1.1335077E0],"tree_param":{"num_deleted":"0","num_feature":"57","num_nodes":"21","size_leaf_vector":"0"}},{"base_weights":[1.994553E-1,-5.062912E-1,9.0606564E-1,-5.1435024E-1,6.454894E-1,-3.7484154E-2,9.1656435E-1,-1.5527843E-1,-1.5133987E-1,-9.070218E-2,3.2884002E-1,-1.5457198E-1,2.1736243E-1,9.19015E-1,4.0107526E-2,1.7953968E-1,-1.287072E-1,2.9966727E-2,9.2045444E-1,1.1758028E0,2.738815E-1,5.0968796E-2,3.7567443E-1],"categories":[],"categories_nodes":[],"categories_segments":[],"categories_sizes":[],"default_left":[0,0,0,0,0,0,0,0,0,0,0,0,0,0,0,0,0,0,0,0,0,0,0],"id":31,"left_children":[1,3,5,7,9,11,13,-1,15,-1,-1,-1,-1,17,-1,-1,-1,-1,19,21,-1,-1,-1],"loss_changes":[5.774385E2,5.7109833E0,5.7650146E0,6.001282E-1,2.2406976E0,3.04071E0,9.7488403E-1,0E0,1.613455E0,0E0,0E0,0E0,0E0,5.803833E-1,0E0,0E0,0E0,0E0,1.8798828E-2,7.7148247E-1,0E0,0E0,0E0],"parents":[2147483647,0,0,1,1,2,2,3,3,4,4,5,5,6,6,8,8,13,13,18,18,19,19],"right_children":[2,4,6,8,10,12,14,-1,16,-1,-1,-1,-1,18,-1,-1,-1,-1,20,22,-1,-1,-1],"split_conditions":[2.3968277E-2,5.300942E-1,2.989393E-4,4.334199E-2,1.2135375E-2,2.5146304E-2,3.0046595E-2,-1.5527843E-1,4.158917E-11,-9.070218E-2,3.2884002E-1,-1.5457198E-1,2.1736243E-1,7.146938E-3,4.0107526E-2,1.7953968E-1,-1.287072E-1,2.9966727E-2,9.74376E-1,6.739344E-3,2.738815E-1,5.0968796E-2,3.7567443E-1],"split_indices":[3,17,17,31,32,28,32,0,22,0,0,0,0,45,0,0,0,0,3,54,0,0,0],"split_type":[0,0,0,0,0,0,0,0,0,0,0,0,0,0,0,0,0,0,0,0,0,0,0],"sum_hessian":[1.1559958E3,5.784933E2,5.775026E2,5.7502325E2,3.4700089E0,6.3267646E0,5.7117584E2,5.6950726E2,5.5160427E0,1.2242216E0,2.2457874E0,4.087771E0,2.2389936E0,5.692201E2,1.9557583E0,1.1785384E0,4.3375044E0,1.1220112E0,5.680981E2,1.1799418E1,5.5629865E2,1.0609761E0,1.0738442E1],"tree_param":{"num_deleted":"0","num_feature":"57","num_nodes":"23","size_leaf_vector":"0"}},{"base_weights":[-2.9217675E-1,-1.5528555E-1,9.148918E-1,-9.800682E-2,9.351084E-1,2.8255546E-1,3.0896196E-2],"categories":[],"categories_nodes":[],"categories_segments":[],"categories_sizes":[],"default_left":[0,0,0,0,0,0,0],"id":32,"left_children":[1,-1,3,-1,5,-1,-1],"loss_changes":[2.0696542E2,0E0,3.3120422E0,0E0,5.6578064E-1,0E0,0E0],"parents":[2147483647,0,0,2,2,4,4],"right_children":[2,-1,4,-1,6,-1,-1],"split_conditions":[1.3610472E-4,-1.5528555E-1,1.5205309E-2,-9.800682E-2,2.4739325E-2,2.8255546E-1,3.0896196E-2],"split_indices":[18,0,32,0,43,0,0],"split_type":[0,0,0,0,0,0,0],"sum_hessian":[7.5781647E2,6.3903613E2,1.187803E2,1.6602218E0,1.1712007E2,1.1604781E2,1.0722601E0],"tree_param":{"num_deleted":"0","num_feature":"57","num_nodes":"7","size_leaf_vector":"0"}},{"base_weights":[1.05976276E-1,-5.1129234E-1,9.100837E-1,-5.1435953E-1,1.4544174E-1,-1.6038558E-1,9.193843E-1,-1.552652E-1,-1.7787325E-1,-1.440482E-1,1.2678403E-1,9.218395E-1,8.074338E-2,1.7331272E-1,-1.320301E-1,1.2479255E0,9.1391283E-1,1.3288482E-1,4.033628E-1,6.6666335E-2,2.7471283E-1],"categories":[],"categories_nodes":[],"categories_segments":[],"categories_sizes":[],"default_left":[0,0,0,0,0,0,0,0,0,0,0,0,0,0,0,0,0,0,0,0,0],"id":33,"left_children":[1,3,5,7,-1,9,11,-1,13,-1,-1,15,-1,-1,-1,17,19,-1,-1,-1,-1],"loss_changes":[5.232206E2,2.0716858E0,4.704712E0,5.469513E-1,0E0,1.0966976E0,4.7659302E-1,0E0,1.6638705E0,0E0,0E0,2.7374268E-2,0E0,0E0,0E0,2.5568962E-2,3.493042E-1,0E0,0E0,0E0,0E0],"parents":[2147483647,0,0,1,1,2,2,3,3,5,5,6,6,8,8,11,11,15,15,16,16],"right_children":[2,4,6,8,-1,10,12,-1,14,-1,-1,16,-1,-1,-1,18,20,-1,-1,-1,-1],"split_conditions":[3.1665724E-2,9.062052E-1,1.6188925E-2,4.800578E-3,1.4544174E-1,9.761834E-3,1.8590963E-2,-1.552652E-1,7.0935935E-3,-1.440482E-1,1.2678403E-1,9.6281374E-1,8.074338E-2,1.7331272E-1,-1.320301E-1,5.828448E-11,2.7487678E-2,1.3288482E-1,4.033628E-1,6.6666335E-2,2.7471283E-1],"split_indices":[5,47,47,19,0,30,21,0,45,0,0,5,0,0,0,26,19,0,0,0,0],"split_type":[0,0,0,0,0,0,0,0,0,0,0,0,0,0,0,0,0,0,0,0,0],"sum_hessian":[1.0521984E3,5.954605E2,4.5673782E2,5.9411475E2,1.3457606E0,3.7941978E0,4.529436E2,5.8800024E2,6.1144767E0,2.5641541E0,1.2300435E0,4.508237E2,2.1199E0,1.2653638E0,4.849113E0,6.9863443E0,4.4383737E2,1.3471329E0,5.6392117E0,1.4728478E0,4.4236453E2],"tree_param":{"num_deleted":"0","num_feature":"57","num_nodes":"21","size_leaf_vector":"0"}},{"base_weights":[-6.976656E-2,-5.111458E-1,9.210634E-1,-5.160551E-1,4.405601E-1,2.7386475E-1,4.6457872E-1,-1.5529338E-1,-1.517803E-1,1.1914153E-2,1.8720125E-1,-1.0574008E-1,6.988857E-2],"categories":[],"categories_nodes":[],"categories_segments":[],"categories_sizes":[],"default_left":[0,0,0,0,0,0,0,0,0,0,0,0,0],"id":34,"left_children":[1,3,5,7,9,-1,-1,-1,11,-1,-1,-1,-1],"loss_changes":[3.9388522E2,3.1380768E0,1.1413574E-2,2.8056335E-1,2.499814E-1,0E0,0E0,0E0,3.9941683E-1,0E0,0E0,0E0,0E0],"parents":[2147483647,0,0,1,1,2,2,3,3,4,4,8,8],"right_children":[2,4,6,8,10,-1,-1,-1,12,-1,-1,-1,-1],"split_conditions":[7.222665E-1,9.050216E-1,2.2361324E-4,9.0943456E-1,6.396068E-3,2.7386475E-1,4.6457872E-1,-1.5529338E-1,1.6336633E-9,1.1914153E-2,1.8720125E-1,-1.0574008E-1,6.988857E-2],"split_indices":[20,48,1,42,47,0,0,0,17,0,0,0,0],"split_type":[0,0,0,0,0,0,0,0,0,0,0,0,0],"sum_hessian":[8.9857886E2,6.2198914E2,2.7658972E2,6.192525E2,2.736602E0,2.7545343E2,1.1363024E0,6.16143E2,3.109503E0,1.2411146E0,1.4954875E0,2.098688E0,1.0108153E0],"tree_param":{"num_deleted":"0","num_feature":"57","num_nodes":"13","size_leaf_vector":"0"}},{"base_weights":[2.364084E-1,-4.9497736E-1,9.0421194E-1,-5.12258E-1,7.5976944E-1,-1.15286015E-1,9.0986836E-1,-2.4783541E-1,-1.5524648E-1,-8.755721E-2,9.7159964E-1,4.0691432E-1,9.145558E-1,-1.4121972E-1,5.04714E-1,3.5333955E-1,2.7653964E-2,5.990599E-1,-1.08677864E-1,9.168349E-1,3.0203605E-1,-9.1565825E-2,3.710767E-1,2.3113708E-1,-1.2094196E-2,9.1860986E-1,4.124881E-1,1.6431476E-1,-2.8527172E-2,2.7361417E-1,3.7441003E-1,2.070244E-1,-1.8080859E-2],"categories":[],"categories_nodes":[],"categories_segments":[],"categories_sizes":[],"default_left":[0,0,0,0,0,0,0,0,0,0,0,0,0,0,0,0,0,0,0,0,0,0,0,0,0,0,0,0,0,0,0,0,0],"id":35,"left_children":[1,3,5,7,9,-1,11,13,-1,-1,15,17,19,-1,21,-1,-1,23,-1,25,27,-1,-1,-1,-1,29,31,-1,-1,-1,-1,-1,-1],"loss_changes":[5.871242E2,1.2833801E1,4.9283447E0,6.5553284E-1,2.1101913E0,0E0,1.1032104E0,2.4034023E0,0E0,0E0,1.170927E0,1.3372691E0,5.874634E-1,0E0,2.4134376E0,0E0,0E0,7.369809E-1,0E0,1.729126E-1,4.2153782E-1,0E0,0E0,0E0,0E0,1.8792725E-1,5.6346995E-1,0E0,0E0,0E0,0E0,0E0,0E0],"parents":[2147483647,0,0,1,1,2,2,3,3,4,4,6,6,7,7,10,10,11,11,12,12,14,14,17,17,19,19,20,20,25,25,26,26],"right_children":[2,4,6,8,10,-1,12,14,-1,-1,16,18,20,-1,22,-1,-1,24,-1,26,28,-1,-1,-1,-1,30,32,-1,-1,-1,-1,-1,-1],"split_conditions":[4.8303142E-2,7.3714465E-1,4.2161486E-5,6.2616407E-3,1.8466087E-2,-1.15286015E-1,6.4122877E-3,6.0568484E-3,-1.5524648E-1,-8.755721E-2,3.288499E-8,2.492487E-2,4.0151265E-2,-1.4121972E-1,9.5698306E-5,3.5333955E-1,2.7653964E-2,5.768264E-3,-1.08677864E-1,4.286951E-3,9.763303E-5,-9.1565825E-2,3.710767E-1,2.3113708E-1,-1.2094196E-2,2.9122835E-4,2.0886557E-1,1.6431476E-1,-2.8527172E-2,2.7361417E-1,3.7441003E-1,2.070244E-1,-1.8080859E-2],"split_indices":[49,7,21,44,35,0,44,44,0,0,16,37,28,0,8,0,0,44,0,5,3,0,0,0,0,8,11,0,0,0,0,0,0],"split_type":[0,0,0,0,0,0,0,0,0,0,0,0,0,0,0,0,0,0,0,0,0,0,0,0,0,0,0,0,0,0,0,0,0],"sum_hessian":[1.2001675E3,5.729381E2,6.272293E2,5.657384E2,7.1997266E0,2.44889E0,6.2478046E2,1.1911676E1,5.538267E2,1.1437606E0,6.055966E0,6.579867E0,6.1820056E2,9.478678E0,2.432998E0,4.630869E0,1.4250975E0,5.4416623E0,1.1382048E0,6.154138E2,2.786721E0,1.4320669E0,1.0009311E0,4.1296177E0,1.3120445E0,6.1243713E2,2.9766974E0,1.4873712E0,1.2993498E0,6.0416974E2,8.267396E0,1.5858352E0,1.3908623E0],"tree_param":{"num_deleted":"0","num_feature":"57","num_nodes":"33","size_leaf_vector":"0"}},{"base_weights":[1.2076638E-1,-5.161489E-1,9.110501E-1,-1.5527532E-1,-1.3827242E-1,-9.173363E-2,9.152268E-1,6.951836E-2,-1.1154871E-1,9.172294E-1,9.535135E-2,4.5613548E-1,2.732198E-1],"categories":[],"categories_nodes":[],"categories_segments":[],"categories_sizes":[],"default_left":[0,0,0,0,0,0,0,0,0,0,0,0,0],"id":36,"left_children":[1,3,5,-1,7,-1,9,-1,-1,11,-1,-1,-1],"loss_changes":[5.3886096E2,2.5004578E-1,2.7077332E0,0E0,3.9799234E-1,0E0,2.783203E-1,0E0,0E0,4.7366333E-1,0E0,0E0,0E0],"parents":[2147483647,0,0,1,1,2,2,4,4,6,6,9,9],"right_children":[2,4,6,-1,8,-1,10,-1,-1,12,-1,-1,-1],"split_conditions":[5.1074494E-3,5.0092903E-3,5.0092903E-3,-1.5527532E-1,9.968294E-5,-9.173363E-2,3.1665724E-2,6.951836E-2,-1.1154871E-1,9.682335E-1,9.535135E-2,4.5613548E-1,2.732198E-1],"split_indices":[8,22,22,0,11,0,5,0,0,22,0,0,0],"split_type":[0,0,0,0,0,0,0,0,0,0,0,0,0],"sum_hessian":[1.0686283E3,5.9192426E2,4.7670407E2,5.893158E2,2.6084664E0,1.3836627E0,4.753204E2,1.0124204E0,1.596046E0,4.7319873E2,2.1216686E0,2.559114E0,4.7063962E2],"tree_param":{"num_deleted":"0","num_feature":"57","num_nodes":"13","size_leaf_vector":"0"}},{"base_weights":[-3.1609112E-1,-5.1067334E-1,9.22514E-1,1.7279741E-1,-5.1327914E-1,-9.7714104E-2,9.4572324E-1,-1.552609E-1,-2.0019081E-1,9.5863736E-1,-2.4401129E-3,4.8996323E-1,-1.4285077E-1,9.6719015E-1,3.8123965E-2,-9.176358E-2,3.440269E-1,5.158819E-1,9.804735E-1,2.387914E-1,-1.6042676E-2,5.4788244E-1,2.7991262E-1],"categories":[],"categories_nodes":[],"categories_segments":[],"categories_sizes":[],"default_left":[0,0,0,0,0,0,0,0,0,0,0,0,0,0,0,0,0,0,0,0,0,0,0],"id":37,"left_children":[1,3,5,-1,7,-1,9,-1,11,13,-1,15,-1,17,-1,-1,-1,19,21,-1,-1,-1,-1],"loss_changes":[1.801514E2,2.1219177E0,3.2507248E0,0E0,7.5468445E-1,0E0,1.2393494E0,0E0,2.1892588E0,5.7871246E-1,0E0,2.1417024E0,0E0,7.865906E-2,0E0,0E0,0E0,8.236432E-1,2.050911E0,0E0,0E0,0E0,0E0],"parents":[2147483647,0,0,1,1,2,2,4,4,6,6,8,8,9,9,11,11,13,13,17,17,18,18],"right_children":[2,4,6,-1,8,-1,10,-1,12,14,-1,16,-1,18,-1,-1,-1,20,22,-1,-1,-1,-1],"split_conditions":[2.7560822E-3,8.069418E-3,7.8566006E-4,1.7279741E-1,5.335256E-4,-9.7714104E-2,1.6978383E-3,-1.552609E-1,2.8008046E-11,3.1063594E-2,-2.4401129E-3,1.0037235E-9,-1.4285077E-1,7.186914E-3,3.8123965E-2,-9.176358E-2,3.440269E-1,8.4639E-4,2.6994774E-1,2.387914E-1,-1.6042676E-2,5.4788244E-1,2.7991262E-1],"split_indices":[23,36,9,0,9,0,5,0,26,14,0,19,0,52,0,0,0,32,9,0,0,0,0],"split_type":[0,0,0,0,0,0,0,0,0,0,0,0,0,0,0,0,0,0,0,0,0,0,0],"sum_hessian":[7.445286E2,6.439527E2,1.0057591E2,1.0140946E0,6.429386E2,1.59802E0,9.897789E1,6.336694E2,9.2692175E0,9.7650795E1,1.3270952E0,2.4262917E0,6.842926E0,9.649521E1,1.1555835E0,1.3385924E0,1.0876993E0,3.8979309E0,9.259728E1,2.345882E0,1.5520488E0,2.9255383E0,8.9671745E1],"tree_param":{"num_deleted":"0","num_feature":"57","num_nodes":"23","size_leaf_vector":"0"}},{"base_weights":[1.20345086E-1,-5.1109236E-1,9.089467E-1,-1.5526494E-1,6.306079E-2,-1.2554836E-1,9.167608E-1,4.53073E-1,-1.3397205E-1,9.20987E-1,3.553001E-2,2.740147E-1,4.5345876E-1,1.13105506E-1,-1.0224218E-1],"categories":[],"categories_nodes":[],"categories_segments":[],"categories_sizes":[],"default_left":[0,0,0,0,0,0,0,0,0,0,0,0,0,0,0],"id":38,"left_children":[1,3,5,-1,7,-1,9,-1,-1,11,13,-1,-1,-1,-1],"loss_changes":[5.319644E2,2.232666E0,5.3104553E0,0E0,6.199279E0,0E0,1.7270508E0,0E0,0E0,7.310791E-1,5.519985E-1,0E0,0E0,0E0,0E0],"parents":[2147483647,0,0,1,1,2,2,4,4,6,6,9,9,10,10],"right_children":[2,4,6,-1,8,-1,10,-1,-1,12,14,-1,-1,-1,-1],"split_conditions":[4.7742976E-3,5.5056403E-4,7.838539E-3,-1.5526494E-1,4.510281E-5,-1.2554836E-1,2.989393E-4,4.53073E-1,-1.3397205E-1,2.9122835E-4,7.518853E-3,2.740147E-1,4.5345876E-1,1.13105506E-1,-1.0224218E-1],"split_indices":[10,24,52,0,7,0,17,0,0,8,55,0,0,0,0],"split_type":[0,0,0,0,0,0,0,0,0,0,0,0,0,0,0],"sum_hessian":[1.0663704E3,5.9239136E2,4.7397897E2,5.859004E2,6.49097E0,2.4662108E0,4.7151276E2,1.179166E0,5.3118043E0,4.6921735E2,2.295402E0,4.6576617E2,3.4511871E0,1.2024708E0,1.0929313E0],"tree_param":{"num_deleted":"0","num_feature":"57","num_nodes":"15","size_leaf_vector":"0"}},{"base_weights":[6.1419765E-3,-4.9865258E-1,8.7408346E-1,-5.06299E-1,9.4943243E-1,-2.1996517E-1,9.050318E-1,-5.14091E-1,-4.7343828E-2,6.0056366E-2,3.5022217E-1,-1.3914558E-1,4.883799E-1,-1.442617E-3,9.146932E-1,-5.1573855E-1,1.2941951E-2,-1.3543797E-1,4.1003755E-1,1.759568E-1,4.492634E-2,-1.1531019E-1,1.8100895E-1,-3.2593563E-2,9.208145E-1,-2.6831675E-1,-1.5522695E-1,-1.1065609E-1,1.0084506E0,9.316821E-1,4.1459608E-1,-1.24739416E-1,6.95881E-2,4.6045265E-1,2.9193742E-2,1.818558E-2,2.8094894E-1,-1.4455989E-1,1.8634816E-1],"categories":[],"categories_nodes":[],"categories_segments":[],"categories_sizes":[],"default_left":[0,0,0,0,0,0,0,0,0,0,0,0,0,0,0,0,0,0,0,0,0,0,0,0,0,0,0,0,0,0,0,0,0,0,0,0,0,0,0],"id":39,"left_children":[1,3,5,7,9,11,13,15,17,-1,-1,-1,19,21,23,25,-1,-1,27,-1,-1,-1,-1,-1,29,31,-1,-1,33,35,37,-1,-1,-1,-1,-1,-1,-1,-1],"loss_changes":[4.1891165E2,7.1746216E0,1.2103699E1,2.1285706E0,3.4170341E-1,2.0361886E0,2.9974976E0,5.656128E-1,2.2463284E0,0E0,0E0,0E0,1.7520905E-2,1.2987144E0,2.220581E0,1.07177734E-1,0E0,0E0,3.0544188E0,0E0,0E0,0E0,0E0,0E0,1.4655151E0,5.441847E-1,0E0,0E0,1.5400524E0,1.3217773E0,1.9429824E0,0E0,0E0,0E0,0E0,0E0,0E0,0E0,0E0],"parents":[2147483647,0,0,1,1,2,2,3,3,4,4,5,5,6,6,7,7,8,8,12,12,13,13,14,14,15,15,18,18,24,24,25,25,28,28,29,29,30,30],"right_children":[2,4,6,8,10,12,14,16,18,-1,-1,-1,20,22,24,26,-1,-1,28,-1,-1,-1,-1,-1,30,32,-1,-1,34,36,38,-1,-1,-1,-1,-1,-1,-1,-1],"split_conditions":[1.2247256E-3,9.9422395E-1,7.740484E-3,1.9838633E-2,3.2217181E-7,9.9422395E-1,3.493925E-4,5.032728E-1,3.288499E-8,6.0056366E-2,3.5022217E-1,-1.3914558E-1,1.2086681E-3,9.990418E-1,1.3925348E-2,3.849342E-5,1.2941951E-2,-1.3543797E-1,1.9275503E-2,1.759568E-1,4.492634E-2,-1.1531019E-1,1.8100895E-1,-3.2593563E-2,3.9426444E-4,7.5956285E-1,-1.5522695E-1,-1.1065609E-1,1.7819875E-4,3.441247E-5,1.6446538E-2,-1.24739416E-1,6.95881E-2,4.6045265E-1,2.9193742E-2,1.818558E-2,2.8094894E-1,-1.4455989E-1,1.8634816E-1],"split_indices":[25,11,53,53,17,11,11,11,16,0,0,0,28,7,41,7,0,0,36,0,0,0,0,0,0,56,0,0,16,13,35,0,0,0,0,0,0,0,0],"split_type":[0,0,0,0,0,0,0,0,0,0,0,0,0,0,0,0,0,0,0,0,0,0,0,0,0,0,0,0,0,0,0,0,0,0,0,0,0,0,0],"sum_hessian":[9.5413605E2,6.035418E2,3.5059427E2,6.0101855E2,2.5232472E0,9.476724E0,3.4111755E2,5.908669E2,1.0151628E1,1.0009797E0,1.5222676E0,7.3065825E0,2.1701407E0,3.6063213E0,3.3751123E2,5.891993E2,1.6676346E0,5.3965187E0,4.755109E0,1.1149338E0,1.0552068E0,2.4313946E0,1.1749268E0,1.9073187E0,3.356039E2,5.0684032E0,5.8413086E2,2.2326791E0,2.5224297E0,3.2772772E2,7.8761764E0,4.0448494E0,1.023554E0,1.1648996E0,1.35753E0,1.876105E0,3.2585162E2,1.2253883E0,6.650788E0],"tree_param":{"num_deleted":"0","num_feature":"57","num_nodes":"39","size_leaf_vector":"0"}},{"base_weights":[-2.6522356E-1,-5.133245E-1,9.06312E-1,-4.190338E-2,-1.5481564E-1,-9.703731E-2,9.237528E-1,-1.1465521E-1,1.8064941E-1,9.398158E-1,-1.0322606E-2,9.436057E-1,9.711963E-2,1.1983364E-1,-1.2857921E-1,2.775862E-1,4.907026E-1],"categories":[],"categories_nodes":[],"categories_segments":[],"categories_sizes":[],"default_left":[0,0,0,0,0,0,0,0,0,0,0,0,0,0,0,0,0],"id":40,"left_children":[1,3,5,7,-1,-1,9,-1,-1,11,13,15,-1,-1,-1,-1,-1],"loss_changes":[2.2534198E2,8.001709E-1,3.2065735E0,1.2744421E0,0E0,0E0,2.0192947E0,0E0,0E0,1.9836426E-3,7.2883046E-1,1.3911438E-1,0E0,0E0,0E0,0E0,0E0],"parents":[2147483647,0,0,1,1,2,2,3,3,6,6,9,9,10,10,11,11],"right_children":[2,4,6,8,-1,-1,10,-1,-1,12,14,16,-1,-1,-1,-1,-1],"split_conditions":[1.0653275E-2,4.9935756E-3,7.491358E-3,1.1085515E-6,-1.5481564E-1,-9.703731E-2,3.6241768E-6,-1.1465521E-1,1.8064941E-1,9.935859E-3,4.8796228E-5,5.972273E-4,9.711963E-2,1.1983364E-1,-1.2857921E-1,2.775862E-1,4.907026E-1],"split_indices":[26,38,54,25,0,0,27,0,0,48,22,6,0,0,0,0,0],"split_type":[0,0,0,0,0,0,0,0,0,0,0,0,0,0,0,0,0],"sum_hessian":[7.7267883E2,6.3810626E2,1.3457256E2,3.7649465E0,6.343413E2,1.6364783E0,1.3293608E2,2.7294858E0,1.0354607E0,1.3068262E2,2.253462E0,1.2935526E2,1.3273512E0,1.1610458E0,1.0924163E0,1.2829637E2,1.0588876E0],"tree_param":{"num_deleted":"0","num_feature":"57","num_nodes":"17","size_leaf_vector":"0"}},{"base_weights":[-3.3717582E-1,-5.1456594E-1,9.023574E-1,-5.1609325E-1,5.5245785E-3,9.4212246E-1,2.7777454E-1,-1.5528305E-1,-1.6893029E-1,3.3652687E-1,2.879798E-1,-1.4216597E-1,5.9544444E-1,-1.08384304E-1,6.493003E-2,2.0846033E-1,-1.0835782E-1,2.3436943E-1,7.6705744E-3],"categories":[],"categories_nodes":[],"categories_segments":[],"categories_sizes":[],"default_left":[0,0,0,0,0,0,0,0,0,0,0,0,0,0,0,0,0,0,0],"id":41,"left_children":[1,3,5,7,-1,9,11,-1,13,15,-1,-1,17,-1,-1,-1,-1,-1,-1],"loss_changes":[1.6255211E2,5.3497314E-1,2.039444E0,2.5151062E-1,0E0,6.119461E-1,1.9449961E0,0E0,3.9579841E-1,1.2551703E0,0E0,0E0,5.452119E-1,0E0,0E0,0E0,0E0,0E0,0E0],"parents":[2147483647,0,0,1,1,2,2,3,3,5,5,6,6,8,8,9,9,12,12],"right_children":[2,4,6,8,-1,10,12,-1,14,16,-1,-1,18,-1,-1,-1,-1,-1,-1],"split_conditions":[1.6665438E-1,1.05651245E-1,2.1183375E-2,9.0922123E-1,5.5245785E-3,6.15361E-3,4.6913178E-11,-1.5528305E-1,1.0458528E-2,2.4355108E-4,2.879798E-1,-1.4216597E-1,2.1695644E-3,-1.08384304E-1,6.493003E-2,2.0846033E-1,-1.0835782E-1,2.3436943E-1,7.6705744E-3],"split_indices":[13,41,34,47,0,45,26,0,31,0,0,0,4,0,0,0,0,0,0],"split_type":[0,0,0,0,0,0,0,0,0,0,0,0,0,0,0,0,0,0,0],"sum_hessian":[7.3616156E2,6.4451025E2,9.165126E1,6.427002E2,1.8100672E0,8.568744E1,5.9638267E0,6.3941547E2,3.2847242E0,3.016412E0,8.267102E1,1.6256065E0,4.33822E0,2.2327576E0,1.0519667E0,1.995588E0,1.0208241E0,2.9919314E0,1.3462889E0],"tree_param":{"num_deleted":"0","num_feature":"57","num_nodes":"19","size_leaf_vector":"0"}},{"base_weights":[-1.07545584E-1,-5.0913477E-1,7.759561E-1,-1.5397245E-1,1.8641503E-1,3.792862E-2,2.3364672E-1,-1.0181091E-1,1.5855207E-1],"categories":[],"categories_nodes":[],"categories_segments":[],"categories_sizes":[],"default_left":[0,0,0,0,0,0,0,0,0],"id":42,"left_children":[1,3,5,-1,7,-1,-1,-1,-1],"loss_changes":[2.53792E2,1.4999161E0,3.177948E-1,0E0,8.303206E-1,0E0,0E0,0E0,0E0],"parents":[2147483647,0,0,1,1,2,2,4,4],"right_children":[2,4,6,-1,8,-1,-1,-1,-1],"split_conditions":[5.1739377E-1,6.009498E-2,1.4282446E-2,-1.5397245E-1,8.39101E-4,3.792862E-2,2.3364672E-1,-1.0181091E-1,1.5855207E-1],"split_indices":[0,28,28,0,0,0,0,0,0],"split_type":[0,0,0,0,0,0,0,0,0],"sum_hessian":[7.1318713E2,4.9060843E2,2.225787E2,4.879893E2,2.619133E0,1.1760743E0,2.2140262E2,1.035523E0,1.5836098E0],"tree_param":{"num_deleted":"0","num_feature":"57","num_nodes":"9","size_leaf_vector":"0"}},{"base_weights":[2.73986E-1,-1.5392587E-1,7.588724E-1,-1.6189303E-1,7.643476E-1,1.1194324E-1,-1.1737773E-1,-7.860122E-3,7.660259E-1,7.6723313E-1,1.231133E-2,7.6789516E-1,6.893138E-2,2.2911192E-1,3.140494E-1],"categories":[],"categories_nodes":[],"categories_segments":[],"categories_sizes":[],"default_left":[0,0,0,0,0,0,0,0,0,0,0,0,0,0,0],"id":43,"left_children":[1,-1,3,5,7,-1,-1,-1,9,11,-1,13,-1,-1,-1],"loss_changes":[4.3193704E2,0E0,3.6532593E0,7.5514126E-1,9.4369507E-1,0E0,0E0,0E0,5.765381E-1,7.03125E-2,0E0,9.307861E-3,0E0,0E0,0E0],"parents":[2147483647,0,0,2,2,3,3,4,4,8,8,9,9,11,11],"right_children":[2,-1,4,6,8,-1,-1,-1,10,12,-1,14,-1,-1,-1],"split_conditions":[1.557274E-3,-1.5392587E-1,1.4217402E-3,5.576412E-5,5.782852E-3,1.1194324E-1,-1.1737773E-1,-7.860122E-3,1.7365323E-4,5.9206367E-2,1.231133E-2,3.6107723E-4,6.893138E-2,2.2911192E-1,3.140494E-1],"split_indices":[1,0,15,13,45,0,0,0,14,25,0,3,0,0,0],"split_type":[0,0,0,0,0,0,0,0,0,0,0,0,0,0,0],"sum_hessian":[1.1297697E3,4.3066003E2,6.991096E2,3.9637258E0,6.9514594E2,1.0012597E0,2.9624662E0,1.4416814E0,6.937042E2,6.9249286E2,1.2113833E0,6.912127E2,1.280134E0,6.84669E2,6.543686E0],"tree_param":{"num_deleted":"0","num_feature":"57","num_nodes":"15","size_leaf_vector":"0"}},{"base_weights":[-2.740847E-1,-5.0793207E-1,7.3525083E-1,-5.117462E-1,-8.3955556E-2,-1.4478047E-1,7.7787375E-1,-1.645022E-1,-1.5399106E-1,-1.2137925E-1,1.7587422E-1,-1.2847829E-1,1.919734E-1,2.3927686E-1,2.3932709E-1,3.8711235E-2,-9.757638E-2,2.0093597E-1,-1.3228512E-1],"categories":[],"categories_nodes":[],"categories_segments":[],"categories_sizes":[],"default_left":[0,0,0,0,0,0,0,0,0,0,0,0,0,0,0,0,0,0,0],"id":44,"left_children":[1,3,5,7,9,11,13,15,-1,-1,-1,-1,-1,-1,17,-1,-1,-1,-1],"loss_changes":[1.4576364E2,7.667389E-1,4.474106E0,1.8380737E-1,1.4536184E0,1.6564561E0,9.883499E-1,2.159156E-1,0E0,0E0,0E0,0E0,0E0,0E0,1.8622847E0,0E0,0E0,0E0,0E0],"parents":[2147483647,0,0,1,1,2,2,3,3,4,4,5,5,6,6,7,7,14,14],"right_children":[2,4,6,8,10,12,14,16,-1,-1,-1,-1,-1,-1,18,-1,-1,-1,-1],"split_conditions":[5.7566212E-3,1.7819875E-4,8.517936E-3,4.9943123E-3,7.359261E-1,3.7161133E-6,8.316427E-3,6.444725E-3,-1.5399106E-1,-1.2137925E-1,1.7587422E-1,-1.2847829E-1,1.919734E-1,2.3927686E-1,3.0455407E-4,3.8711235E-2,-9.757638E-2,2.0093597E-1,-1.3228512E-1],"split_indices":[2,16,44,50,53,22,52,28,0,0,0,0,0,0,9,0,0,0,0],"split_type":[0,0,0,0,0,0,0,0,0,0,0,0,0,0,0,0,0,0,0],"sum_hessian":[6.149806E2,4.9970377E2,1.1527684E2,4.950432E2,4.6605473E0,5.2146077E0,1.1006223E2,2.6862874E0,4.923569E2,3.4204323E0,1.2401149E0,4.1643944E0,1.0502133E0,1.05711235E2,4.350995E0,1.0203615E0,1.665926E0,2.674238E0,1.6767573E0],"tree_param":{"num_deleted":"0","num_feature":"57","num_nodes":"19","size_leaf_vector":"0"}},{"base_weights":[1.8074422E-1,-5.050904E-1,7.557208E-1,-5.110378E-1,3.912386E-1,5.7948027E-2,7.7232707E-1,-1.5395656E-1,6.5644016E-3,-8.827159E-2,2.553874E-1,-1.465336E-1,5.8939594E-1,7.7648515E-1,2.978478E-1,2.4436708E-1,-1.7832108E-2,3.2340306E-1,7.663815E-1,1.8500811E-1,-1.2590678E-1,2.3031951E-1,4.68966E-2],"categories":[],"categories_nodes":[],"categories_segments":[],"categories_sizes":[],"default_left":[0,0,0,0,0,0,0,0,0,0,0,0,0,0,0,0,0,0,0,0,0,0,0],"id":45,"left_children":[1,3,5,7,9,11,13,-1,-1,-1,-1,-1,15,17,19,-1,-1,-1,21,-1,-1,-1,-1],"loss_changes":[3.903407E2,2.6071777E0,6.192993E0,5.258789E-1,1.3677669E0,4.235537E0,8.0596924E-1,0E0,0E0,0E0,0E0,0E0,1.1214409E0,7.596741E-1,1.6748712E0,0E0,0E0,0E0,2.9766846E-1,0E0,0E0,0E0,0E0],"parents":[2147483647,0,0,1,1,2,2,3,3,4,4,5,5,6,6,12,12,13,13,14,14,18,18],"right_children":[2,4,6,8,10,12,14,-1,-1,-1,-1,-1,16,18,20,-1,-1,-1,22,-1,-1,-1,-1],"split_conditions":[6.3031917E-3,5.300942E-1,1.5695563E-2,8.337772E-2,7.340866E-3,4.065812E-3,1.7365323E-4,-1.5395656E-1,6.5644016E-3,-8.827159E-2,2.553874E-1,-1.465336E-1,1.6339502E-4,9.74376E-1,1.3566496E-2,2.4436708E-1,-1.7832108E-2,3.2340306E-1,6.973479E-1,1.8500811E-1,-1.2590678E-1,2.3031951E-1,4.68966E-2],"split_indices":[3,17,45,31,51,17,14,0,0,0,0,0,4,3,29,0,0,0,25,0,0,0,0],"split_type":[0,0,0,0,0,0,0,0,0,0,0,0,0,0,0,0,0,0,0,0,0,0,0],"sum_hessian":[9.878931E2,4.5057126E2,5.373219E2,4.4802832E2,2.5429337E0,1.2594789E1,5.247271E2,4.4626434E2,1.7639654E0,1.1660084E0,1.3769253E0,6.2499714E0,6.344817E0,5.195376E2,5.189477E0,4.5206404E0,1.8241769E0,1.3417653E1,5.0611996E2,3.6902242E0,1.4992528E0,5.0474442E2,1.3755447E0],"tree_param":{"num_deleted":"0","num_feature":"57","num_nodes":"23","size_leaf_vector":"0"}},{"base_weights":[-2.813239E-1,-1.5396474E-1,7.613579E-1,7.8012484E-1,-1.0100804E-1,3.650394E-2,2.3579551E-1],"categories":[],"categories_nodes":[],"categories_segments":[],"categories_sizes":[],"default_left":[0,0,0,0,0,0,0],"id":46,"left_children":[1,-1,3,5,-1,-1,-1],"loss_changes":[1.4832669E2,0E0,2.5648499E0,3.2935333E-1,0E0,0E0,0E0],"parents":[2147483647,0,0,2,2,3,3],"right_children":[2,-1,4,6,-1,-1,-1],"split_conditions":[1.3610472E-4,-1.5396474E-1,1.4217402E-3,7.5524375E-3,-1.0100804E-1,3.650394E-2,2.3579551E-1],"split_indices":[18,0,15,30,0,0,0],"split_type":[0,0,0,0,0,0,0],"sum_hessian":[6.108381E2,5.0011957E2,1.10718506E2,1.0914267E2,1.5758344E0,1.1547879E0,1.07987885E2],"tree_param":{"num_deleted":"0","num_feature":"57","num_nodes":"7","size_leaf_vector":"0"}},{"base_weights":[9.6915856E-2,-5.0534505E-1,7.627777E-1,-5.092309E-1,1.9194953E-1,-1.63655E-1,7.7110976E-1,-1.5396985E-1,-1.484046E-1,-1.3859984E-1,1.0644635E-1,7.734948E-1,5.0420325E-2,-1.2832233E-1,1.9038607E-1,2.3291698E-1,2.2188187E-1,1.36829E-1,-4.0245492E-2],"categories":[],"categories_nodes":[],"categories_segments":[],"categories_sizes":[],"default_left":[0,0,0,0,0,0,0,0,0,0,0,0,0,0,0,0,0,0,0],"id":47,"left_children":[1,3,5,7,-1,9,11,-1,13,-1,-1,15,-1,-1,-1,-1,17,-1,-1],"loss_changes":[3.5733386E2,2.4083023E0,3.3923492E0,5.981064E-1,0E0,8.749319E-1,4.733734E-1,0E0,1.6994925E0,0E0,0E0,4.9464417E-1,0E0,0E0,0E0,0E0,3.5975474E-1,0E0,0E0],"parents":[2147483647,0,0,1,1,2,2,3,3,5,5,6,6,8,8,11,11,16,16],"right_children":[2,4,6,8,-1,10,12,-1,14,-1,-1,16,-1,-1,-1,-1,18,-1,-1],"split_conditions":[3.1665724E-2,8.0718666E-1,1.6188925E-2,4.800578E-3,1.9194953E-1,9.761834E-3,4.334199E-2,-1.5396985E-1,3.4289324E-4,-1.3859984E-1,1.0644635E-1,1.7819875E-4,5.0420325E-2,-1.2832233E-1,1.9038607E-1,2.3291698E-1,8.0161255E-5,1.36829E-1,-4.0245492E-2],"split_indices":[5,33,47,19,0,30,31,0,27,0,0,16,0,0,0,0,9,0,0],"split_type":[0,0,0,0,0,0,0,0,0,0,0,0,0,0,0,0,0,0,0],"sum_hessian":[8.8909564E2,4.6697006E2,4.2212555E2,4.6594434E2,1.0257484E0,3.5964837E0,4.1852905E2,4.6041547E2,5.528855E0,2.352007E0,1.2444767E0,4.1659882E2,1.9302621E0,4.40953E0,1.1193246E0,4.1401834E2,2.580461E0,1.3869883E0,1.1934729E0],"tree_param":{"num_deleted":"0","num_feature":"57","num_nodes":"19","size_leaf_vector":"0"}},{"base_weights":[-6.572652E-2,-5.056051E-1,7.738353E-1,-5.112158E-1,3.71581E-1,2.3274295E-1,6.5357655E-2,-1.5397058E-1,-1.1087068E-1,8.469712E-3,1.585475E-1,-9.4067745E-2,5.28933E-2],"categories":[],"categories_nodes":[],"categories_segments":[],"categories_sizes":[],"default_left":[0,0,0,0,0,0,0,0,0,0,0,0,0],"id":48,"left_children":[1,3,5,7,9,-1,-1,-1,11,-1,-1,-1,-1],"loss_changes":[2.7510306E2,2.5952759E0,1.1216736E-1,3.3605194E-1,1.8362093E-1,0E0,0E0,0E0,2.715265E-1,0E0,0E0,0E0,0E0],"parents":[2147483647,0,0,1,1,2,2,3,3,4,4,8,8],"right_children":[2,4,6,8,10,-1,-1,-1,12,-1,-1,-1,-1],"split_conditions":[7.222665E-1,3.058617E-1,8.7979E-7,9.0943456E-1,1.0671606E-2,2.3274295E-1,6.5357655E-2,-1.5397058E-1,1.9314404E-11,8.469712E-3,1.585475E-1,-9.4067745E-2,5.28933E-2],"split_indices":[20,6,19,42,39,0,0,0,16,0,0,0,0],"split_type":[0,0,0,0,0,0,0,0,0,0,0,0,0],"sum_hessian":[7.4286115E2,4.8772244E2,2.5513869E2,4.850372E2,2.68522E0,2.5384178E2,1.296913E0,4.8232224E2,2.7149713E0,1.2123368E0,1.4728832E0,1.5377802E0,1.1771913E0],"tree_param":{"num_deleted":"0","num_feature":"57","num_nodes":"13","size_leaf_vector":"0"}},{"base_weights":[2.1358769E-1,-4.864576E-1,7.5672036E-1,-5.06407E-1,5.805595E-1,-1.08443715E-1,7.613368E-1,-2.0617364E-1,-1.5390734E-1,-8.441519E-2,7.3681766E-1,4.7245404E-1,7.6857644E-1,-1.3729364E-1,4.78673E-1,9.330254E-4,9.012324E-1,1.1376307E-1,6.5013754E-1,7.6981455E-1,1.9313175E-2,-9.205133E-2,3.5521543E-1,3.0855712E-1,3.8543537E-2,1.818716E-1,-3.0633444E-1,2.2770262E-1,-1.74252E-2,7.708375E-1,5.2815463E-2,-1.8217526E-1,9.9648245E-2,1.06470086E-1,2.317777E-1],"categories":[],"categories_nodes":[],"categories_segments":[],"categories_sizes":[],"default_left":[0,0,0,0,0,0,0,0,0,0,0,0,0,0,0,0,0,0,0,0,0,0,0,0,0,0,0,0,0,0,0,0,0,0,0],"id":49,"left_children":[1,3,5,7,9,-1,11,13,-1,-1,15,17,19,-1,21,-1,23,25,27,29,-1,-1,-1,-1,-1,-1,31,-1,-1,33,-1,-1,-1,-1,-1],"loss_changes":[3.9321735E2,9.915756E0,3.2806396E0,7.7684784E-1,1.3874242E0,0E0,8.501892E-1,2.1569507E0,0E0,0E0,9.252906E-1,9.954016E-1,4.4250488E-1,0E0,2.308635E0,0E0,4.8575306E-1,1.58641E0,8.928838E-1,2.0639038E-1,0E0,0E0,0E0,0E0,0E0,0E0,1.031332E0,0E0,0E0,1.3601685E-1,0E0,0E0,0E0,0E0,0E0],"parents":[2147483647,0,0,1,1,2,2,3,3,4,4,6,6,7,7,10,10,11,11,12,12,14,14,16,16,17,17,18,18,19,19,26,26,29,29],"right_children":[2,4,6,8,10,-1,12,14,-1,-1,16,18,20,-1,22,-1,24,26,28,30,-1,-1,-1,-1,-1,-1,32,-1,-1,34,-1,-1,-1,-1,-1],"split_conditions":[4.8303142E-2,7.3714465E-1,4.2161486E-5,6.2616407E-3,1.8466087E-2,-1.08443715E-1,6.7875823E-3,6.0568484E-3,-1.5390734E-1,-8.441519E-2,6.689808E-3,6.7031733E-3,4.7800243E-2,-1.3729364E-1,1.279311E-9,9.330254E-4,6.9949017E-3,7.107241E-9,2.064486E-6,5.300942E-1,1.9313175E-2,-9.205133E-2,3.5521543E-1,3.0855712E-1,3.8543537E-2,1.818716E-1,9.278817E-3,2.2770262E-1,-1.74252E-2,6.973229E-4,5.2815463E-2,-1.8217526E-1,9.9648245E-2,1.06470086E-1,2.317777E-1],"split_indices":[49,7,21,44,35,0,44,44,0,0,48,45,34,0,16,0,46,16,17,17,0,0,0,0,0,0,47,0,0,21,0,0,0,0,0],"split_type":[0,0,0,0,0,0,0,0,0,0,0,0,0,0,0,0,0,0,0,0,0,0,0,0,0,0,0,0,0,0,0,0,0,0,0],"sum_hessian":[1.0322225E3,4.5101385E2,5.8120874E2,4.4325198E2,7.761851E0,2.0718088E0,5.791369E2,1.0252425E1,4.3299957E2,1.0682821E0,6.6935687E0,1.5778679E1,5.633582E2,7.7415333E0,2.510892E0,1.4118862E0,5.2816825E0,5.77033E0,1.0008349E1,5.622765E2,1.081762E0,1.4552857E0,1.0556062E0,4.2505326E0,1.0311499E0,2.452363E0,3.3179672E0,8.612659E0,1.3956896E0,5.610117E2,1.2647479E0,2.288401E0,1.029566E0,3.2107933E0,5.578009E2],"tree_param":{"num_deleted":"0","num_feature":"57","num_nodes":"35","size_leaf_vector":"0"}},{"base_weights":[1.0998407E-1,-1.5395664E-1,7.6459426E-1,-1.16088435E-1,7.708644E-1,2.7865076E-2,7.7342904E-1,1.178741E0,2.3019795E-1,1.2699379E-1,4.130293E-1],"categories":[],"categories_nodes":[],"categories_segments":[],"categories_sizes":[],"default_left":[0,0,0,0,0,0,0,0,0,0,0],"id":50,"left_children":[1,-1,3,-1,5,-1,7,9,-1,-1,-1],"loss_changes":[3.689904E2,0E0,3.4830322E0,0E0,6.914978E-1,0E0,1.7697144E-1,1.0836458E-1,0E0,0E0,0E0],"parents":[2147483647,0,0,2,2,4,4,6,6,7,7],"right_children":[2,-1,4,-1,6,-1,8,10,-1,-1,-1],"split_conditions":[5.0092903E-3,-1.5395664E-1,1.3032656E-3,-1.16088435E-1,9.897451E-3,2.7865076E-2,9.682335E-1,3.7704918E-1,2.3019795E-1,1.2699379E-1,4.130293E-1],"split_indices":[22,0,8,0,50,0,22,56,0,0,0],"split_type":[0,0,0,0,0,0,0,0,0,0,0],"sum_hessian":[9.025698E2,4.6249857E2,4.4007126E2,2.0543993E0,4.3801685E2,1.7908862E0,4.3622595E2,3.6203287E0,4.3260562E2,1.4035797E0,2.216749E0],"tree_param":{"num_deleted":"0","num_feature":"57","num_nodes":"11","size_leaf_vector":"0"}},{"base_weights":[-3.0288374E-1,-5.1124746E-1,7.3025006E-1,-1.5394464E-1,-1.6941659E-1,-1.407423E-1,7.7950567E-1,5.88918E-2,-1.0741356E-1,1.7379382E-1,-1.2707321E-1,7.978134E-1,-3.9504346E-2,8.050552E-1,3.2833908E-2,8.125035E-1,3.6198344E-2,3.526693E-1,2.3387152E-1],"categories":[],"categories_nodes":[],"categories_segments":[],"categories_sizes":[],"default_left":[0,0,0,0,0,0,0,0,0,0,0,0,0,0,0,0,0,0,0],"id":51,"left_children":[1,3,5,-1,7,9,11,-1,-1,-1,-1,13,-1,15,-1,17,-1,-1,-1],"loss_changes":[1.297643E2,2.3854065E-1,4.455227E0,0E0,3.6436516E-1,1.5220251E0,1.7068787E0,0E0,0E0,0E0,0E0,3.8183975E-1,0E0,3.7672424E-1,0E0,1.8302155E-1,0E0,0E0,0E0],"parents":[2147483647,0,0,1,1,2,2,4,4,5,5,6,6,11,11,13,13,15,15],"right_children":[2,4,6,-1,8,10,12,-1,-1,-1,-1,14,-1,16,-1,18,-1,-1,-1],"split_conditions":[7.8566006E-4,5.335256E-4,1.7924998E-4,-1.5394464E-1,2.9697425E-9,1.0674494E-2,1.6978383E-3,5.88918E-2,-1.0741356E-1,1.7379382E-1,-1.2707321E-1,3.0062267E-1,-3.9504346E-2,3.1063594E-2,3.2833908E-2,2.6994774E-1,3.6198344E-2,3.526693E-1,2.3387152E-1],"split_indices":[9,9,23,0,19,36,5,0,0,0,0,49,0,14,0,9,0,0,0],"split_type":[0,0,0,0,0,0,0,0,0,0,0,0,0,0,0,0,0,0,0],"sum_hessian":[6.0007025E2,4.997793E2,1.0029098E2,4.9651642E2,3.262892E0,5.2685914E0,9.5022385E1,1.0964122E0,2.1664798E0,1.1902249E0,4.0783663E0,9.327276E1,1.7496276E0,9.213397E1,1.1387862E0,9.095689E1,1.1770817E0,4.67873E0,8.627816E1],"tree_param":{"num_deleted":"0","num_feature":"57","num_nodes":"19","size_leaf_vector":"0"}},{"base_weights":[1.0986166E-1,-5.112219E-1,7.5867015E-1,-1.5396616E-1,-7.775269E-3,7.702246E-1,-1.06176525E-1,-8.387056E-2,7.73601E-1,-1.3865875E-1,1.5849082E-1,1.3299261E-2,7.7629E-1,2.302928E-1,1.0708028E0,3.654766E-1,1.20464906E-1],"categories":[],"categories_nodes":[],"categories_segments":[],"categories_sizes":[],"default_left":[0,0,0,0,0,0,0,0,0,0,0,0,0,0,0,0,0],"id":52,"left_children":[1,3,5,-1,-1,7,9,-1,11,-1,-1,-1,13,-1,15,-1,-1],"loss_changes":[3.640943E2,4.345398E-1,4.496994E0,0E0,0E0,1.762146E0,1.7585261E0,0E0,8.1863403E-1,0E0,0E0,0E0,2.8164673E-1,0E0,4.8072815E-1,0E0,0E0],"parents":[2147483647,0,0,1,1,2,2,5,5,6,6,8,8,12,12,14,14],"right_children":[2,4,6,-1,-1,8,10,-1,12,-1,-1,-1,14,-1,16,-1,-1],"split_conditions":[5.5056403E-4,4.3443467E-2,3.583996E-5,-1.5396616E-1,-7.775269E-3,7.0611914E-3,9.048122E-1,-8.387056E-2,6.3774E-4,-1.3865875E-1,1.5849082E-1,1.3299261E-2,6.26756E-5,2.302928E-1,9.029421E-3,3.654766E-1,1.20464906E-1],"split_indices":[24,52,17,0,0,52,52,0,10,0,0,0,4,0,45,0,0],"split_type":[0,0,0,0,0,0,0,0,0,0,0,0,0,0,0,0,0],"sum_hessian":[9.015774E2,4.607389E2,4.408385E2,4.5879196E2,1.9469255E0,4.351345E2,5.7040052E0,1.1327814E0,4.340017E2,3.8277254E0,1.87628E0,1.658656E0,4.3234305E2,4.2351443E2,8.828615E0,6.5624332E0,2.266182E0],"tree_param":{"num_deleted":"0","num_feature":"57","num_nodes":"17","size_leaf_vector":"0"}},{"base_weights":[7.822955E-3,-4.989946E-1,7.1589917E-1,-5.108973E-1,1.059388E-1,-2.1256644E-1,7.441379E-1,-1.5391614E-1,-3.24912E-3,-2.8804436E-1,6.253439E-1,-1.3761604E-1,3.7958995E-1,-2.1898523E-1,7.5507814E-1,6.174008E-2,-1.2785706E-1,3.3852008E-1,-9.4895154E-2,-8.646206E-2,2.4458149E-1,-1.1945107E-1,5.0628226E-2,7.6235217E-1,-1.08590804E-1,7.6741636E-1,-1.12053104E-1,-3.6549125E-2,2.3200494E-1],"categories":[],"categories_nodes":[],"categories_segments":[],"categories_sizes":[],"default_left":[0,0,0,0,0,0,0,0,0,0,0,0,0,0,0,0,0,0,0,0,0,0,0,0,0,0,0,0,0],"id":53,"left_children":[1,3,5,7,9,11,13,-1,-1,15,17,-1,19,21,23,-1,-1,-1,-1,-1,-1,-1,-1,25,-1,27,-1,-1,-1],"loss_changes":[2.8898065E2,3.4335175E0,8.965729E0,4.909973E-1,2.2029164E0,1.7327882E0,3.6027985E0,0E0,0E0,5.179007E-1,2.5260825E0,0E0,1.3077059E0,3.7562945E-1,2.898819E0,0E0,0E0,0E0,0E0,0E0,0E0,0E0,0E0,2.133255E0,0E0,1.7822418E0,0E0,0E0,0E0],"parents":[2147483647,0,0,1,1,2,2,3,3,4,4,5,5,6,6,9,9,10,10,12,12,13,13,14,14,23,23,25,25],"right_children":[2,4,6,8,10,12,14,-1,-1,16,18,-1,20,22,24,-1,-1,-1,-1,-1,-1,-1,-1,26,-1,28,-1,-1,-1],"split_conditions":[2.5810453E-4,1.9838633E-2,5.575327E-4,1.2190484E-4,7.5899693E-3,1.879475E-1,7.261904E-3,-1.5391614E-1,-3.24912E-3,2.3657622E-13,3.4092268E-4,-1.3761604E-1,8.275721E-3,3.583996E-5,9.044421E-1,6.174008E-2,-1.2785706E-1,3.3852008E-1,-9.4895154E-2,-8.646206E-2,2.4458149E-1,-1.1945107E-1,5.0628226E-2,2.1695644E-3,-1.08590804E-1,1.3925348E-2,-1.12053104E-1,-3.6549125E-2,2.3200494E-1],"split_indices":[25,53,11,25,11,25,53,0,0,14,12,0,53,17,45,0,0,0,0,0,0,0,0,4,0,41,0,0,0],"split_type":[0,0,0,0,0,0,0,0,0,0,0,0,0,0,0,0,0,0,0,0,0,0,0,0,0,0,0,0,0],"sum_hessian":[8.032663E2,4.683396E2,3.3492673E2,4.5945483E2,8.884775E0,9.693243E0,3.2523346E2,4.574561E2,1.9987284E0,5.305694E0,3.5790813E0,7.0061812E0,2.687062E0,3.4392877E0,3.217942E2,1.0527139E0,4.25298E0,2.2035747E0,1.3755068E0,1.1945667E0,1.4924954E0,2.3338747E0,1.1054131E0,3.2002774E2,1.7664486E0,3.1893018E2,1.0975469E0,1.9844571E0,3.1694574E2],"tree_param":{"num_deleted":"0","num_feature":"57","num_nodes":"29","size_leaf_vector":"0"}},{"base_weights":[-2.5392747E-1,-5.0793326E-1,7.5622827E-1,-1.5336223E-1,-5.8184857E-3,7.743575E-1,-2.181613E-1,1.5497208E-1,-1.0795693E-1,2.3606394E-1,-3.8604755E-2,1.2177656E-2,-1.0878352E-1],"categories":[],"categories_nodes":[],"categories_segments":[],"categories_sizes":[],"default_left":[0,0,0,0,0,0,0,0,0,0,0,0,0],"id":54,"left_children":[1,3,5,-1,7,9,11,-1,-1,-1,-1,-1,-1],"loss_changes":[1.6104819E2,8.2055664E-1,2.3985214E0,0E0,9.7318053E-1,1.5049362E0,1.30051E-1,0E0,0E0,0E0,0E0,0E0,0E0],"parents":[2147483647,0,0,1,1,2,2,4,4,5,5,6,6],"right_children":[2,4,6,-1,8,10,12,-1,-1,-1,-1,-1,-1],"split_conditions":[1.0653275E-2,2.5466142E-2,2.0221983E-6,-1.5336223E-1,7.012209E-3,4.065812E-3,2.0671642E-4,1.5497208E-1,-1.0795693E-1,2.3606394E-1,-3.8604755E-2,1.2177656E-2,-1.0878352E-1],"split_indices":[26,54,24,0,44,17,0,0,0,0,0,0,0],"split_type":[0,0,0,0,0,0,0,0,0,0,0,0,0],"sum_hessian":[6.251621E2,4.9994666E2,1.2521547E2,4.9668982E2,3.256841E0,1.2312984E2,2.0856316E0,1.130164E0,2.1266768E0,1.2157264E2,1.5571917E0,1.0047734E0,1.0808582E0],"tree_param":{"num_deleted":"0","num_feature":"57","num_nodes":"13","size_leaf_vector":"0"}},{"base_weights":[-3.2515976E-1,-5.0934154E-1,7.438936E-1,-5.11276E-1,2.0221062E-2,7.7954906E-1,2.1189675E-1,-1.5396154E-1,-1.3102973E-1,7.938774E-1,2.0160869E-1,-1.3737512E-1,4.997591E-1,6.734111E-2,-1.0149347E-1,2.4111722E-1,4.914204E-2,1.0502163E-1,-1.1324939E-2,-8.748205E-3,2.003782E-1],"categories":[],"categories_nodes":[],"categories_segments":[],"categories_sizes":[],"default_left":[0,0,0,0,0,0,0,0,0,0,0,0,0,0,0,0,0,0,0,0,0],"id":55,"left_children":[1,3,5,7,-1,9,11,-1,13,15,17,-1,19,-1,-1,-1,-1,-1,-1,-1,-1],"loss_changes":[1.17019516E2,5.98938E-1,1.4939232E0,3.026886E-1,0E0,5.1566315E-1,1.5529468E0,0E0,3.6248648E-1,3.602333E-1,1.3099806E-1,0E0,4.892267E-1,0E0,0E0,0E0,0E0,0E0,0E0,0E0,0E0],"parents":[2147483647,0,0,1,1,2,2,3,3,5,5,6,6,8,8,9,9,10,10,12,12],"right_children":[2,4,6,8,-1,10,12,-1,14,16,18,-1,20,-1,-1,-1,-1,-1,-1,-1,-1],"split_conditions":[1.6665438E-1,1.2363065E-1,2.1183375E-2,9.0922123E-1,2.0221062E-2,7.1812065E-7,4.6913178E-11,-1.5396154E-1,8.2663894E-1,1.5365274E-3,2.6468583E-10,-1.3737512E-1,7.2458643E-3,6.734111E-2,-1.0149347E-1,2.4111722E-1,4.914204E-2,1.0502163E-1,-1.1324939E-2,-8.748205E-3,2.003782E-1],"split_indices":[13,27,34,47,0,14,26,0,33,11,16,0,51,0,0,0,0,0,0,0,0],"split_type":[0,0,0,0,0,0,0,0,0,0,0,0,0,0,0,0,0,0,0,0,0],"sum_hessian":[5.9138464E2,5.049184E2,8.6466255E1,5.0334363E2,1.5747819E0,8.059903E1,5.8672266E0,5.0045502E2,2.8885953E0,7.828456E1,2.31447E0,1.5860257E0,4.281201E0,1.0333751E0,1.8552202E0,7.68086E1,1.4759585E0,1.1429846E0,1.1714854E0,1.232225E0,3.0489757E0],"tree_param":{"num_deleted":"0","num_feature":"57","num_nodes":"21","size_leaf_vector":"0"}},{"base_weights":[-1.0299367E-1,-5.0494766E-1,6.8723965E-1,-1.5289402E-1,1.4637552E-1,3.0130593E-2,2.0713814E-1,1.2802683E-1,-4.250142E-2],"categories":[],"categories_nodes":[],"categories_segments":[],"categories_sizes":[],"default_left":[0,0,0,0,0,0,0,0,0],"id":56,"left_children":[1,3,5,-1,7,-1,-1,-1,-1],"loss_changes":[1.8290494E2,1.2423325E0,2.9769135E-1,0E0,3.4392014E-1,0E0,0E0,0E0,0E0],"parents":[2147483647,0,0,1,1,2,2,4,4],"right_children":[2,4,6,-1,8,-1,-1,-1,-1],"split_conditions":[5.1739377E-1,6.009498E-2,1.4282446E-2,-1.5289402E-1,4.274807E-12,3.0130593E-2,2.0713814E-1,1.2802683E-1,-4.250142E-2],"split_indices":[0,28,28,0,18,0,0,0,0],"split_type":[0,0,0,0,0,0,0,0,0],"sum_hessian":[5.7373676E2,3.8053683E2,1.9319992E2,3.7802704E2,2.5097992E0,1.2303113E0,1.9196962E2,1.0278018E0,1.4819975E0],"tree_param":{"num_deleted":"0","num_feature":"57","num_nodes":"9","size_leaf_vector":"0"}},{"base_weights":[2.5217712E-1,-1.5283395E-1,6.7140037E-1,-1.5717934E-1,6.765009E-1,8.982932E-2,-1.1180317E-1,6.820891E-1,3.5790604E-1,2.0542622E-1,1.294528E-1,-2.1926811E-1,5.6915784E-1,-1.1116797E-1,1.5442538E-1,5.3591724E-3,2.1094625E-1,9.828286E-2,-9.293899E-2],"categories":[],"categories_nodes":[],"categories_segments":[],"categories_sizes":[],"default_left":[0,0,0,0,0,0,0,0,0,0,0,0,0,0,0,0,0,0,0],"id":57,"left_children":[1,-1,3,5,7,-1,-1,9,11,-1,13,-1,15,-1,-1,17,-1,-1,-1],"loss_changes":[3.006831E2,0E0,2.6722412E0,5.5694133E-1,8.305054E-1,0E0,0E0,7.833557E-1,3.2931623E0,0E0,9.7573906E-1,0E0,8.301499E-1,0E0,0E0,4.191048E-1,0E0,0E0,0E0],"parents":[2147483647,0,0,2,2,3,3,4,4,7,7,8,8,10,10,12,12,15,15],"right_children":[2,-1,4,6,8,-1,-1,10,12,-1,14,-1,16,-1,-1,18,-1,-1,-1],"split_conditions":[1.557274E-3,-1.5283395E-1,1.4217402E-3,8.3703824E-5,5.5056403E-4,8.982932E-2,-1.1180317E-1,4.286951E-3,4.6967773E-5,2.0542622E-1,3.1665724E-2,-2.1926811E-1,6.1085876E-3,-1.1116797E-1,1.5442538E-1,4.7742976E-3,2.1094625E-1,9.828286E-2,-9.293899E-2],"split_indices":[1,0,15,2,24,0,0,5,7,0,5,0,54,0,0,10,0,0,0],"split_type":[0,0,0,0,0,0,0,0,0,0,0,0,0,0,0,0,0,0,0],"sum_hessian":[9.3965186E2,3.33518E2,6.0613385E2,3.5259826E0,6.026079E2,1.0056543E0,2.5203285E0,5.9109906E2,1.1508837E1,5.880244E2,3.0746233E0,1.4704189E0,1.0038418E1,1.3547624E0,1.719861E0,2.1273673E0,7.9110503E0,1.0323064E0,1.095061E0],"tree_param":{"num_deleted":"0","num_feature":"57","num_nodes":"19","size_leaf_vector":"0"}},{"base_weights":[-2.6412737E-1,-5.0292414E-1,6.4482576E-1,-1.5290594E-1,-1.4079204E-1,-1.1642457E-1,6.8212545E-1,-1.2889032E-1,3.7603095E-1,-1.22538604E-1,1.5876558E-1,6.926455E-1,-2.6472101E-2,-4.644763E-3,2.0435251E-1,2.1220021E-1,2.0707224E-1,1.5974735E-1,-1.15547255E-1],"categories":[],"categories_nodes":[],"categories_segments":[],"categories_sizes":[],"default_left":[0,0,0,0,0,0,0,0,0,0,0,0,0,0,0,0,0,0,0],"id":58,"left_children":[1,3,5,-1,7,9,11,-1,13,-1,-1,15,-1,-1,-1,-1,17,-1,-1],"loss_changes":[1.0673407E2,8.803787E-1,2.988041E0,0E0,1.431788E0,1.279399E0,8.5369873E-1,0E0,4.3870485E-1,0E0,0E0,5.424614E-1,0E0,0E0,0E0,0E0,1.0241745E0,0E0,0E0],"parents":[2147483647,0,0,1,1,2,2,4,4,5,5,6,6,8,8,11,11,16,16],"right_children":[2,4,6,-1,8,10,12,-1,14,-1,-1,16,-1,-1,-1,-1,18,-1,-1],"split_conditions":[5.7566212E-3,1.0929429E-3,8.517936E-3,-1.5290594E-1,5.985953E-2,3.7161133E-6,2.5529416E-2,-1.2889032E-1,4.1926135E-8,-1.22538604E-1,1.5876558E-1,1.5255218E-2,-2.6472101E-2,-4.644763E-3,2.0435251E-1,2.1220021E-1,4.0044286E-4,1.5974735E-1,-1.15547255E-1],"split_indices":[2,2,44,0,53,22,41,0,24,0,0,31,0,0,0,0,9,0,0],"split_type":[0,0,0,0,0,0,0,0,0,0,0,0,0,0,0,0,0,0,0],"sum_hessian":[4.8924323E2,3.878068E2,1.0143645E2,3.8029776E2,7.509038E0,4.638941E0,9.679751E1,4.925162E0,2.5838761E0,3.447103E0,1.1918375E0,9.559299E1,1.2045195E0,1.547555E0,1.0363212E0,9.234293E1,3.2500513E0,2.1626096E0,1.0874418E0],"tree_param":{"num_deleted":"0","num_feature":"57","num_nodes":"19","size_leaf_vector":"0"}},{"base_weights":[1.6784689E-1,-4.9949175E-1,6.6795695E-1,-5.067919E-1,3.441126E-1,-1.276641E-1,6.802224E-1,-1.5286548E-1,1.2117755E-2,-8.409944E-2,2.2164057E-1,-1.4410864E-1,3.734129E-1,7.6413183E-3,6.830506E-1,-1.1500102E-2,1.6739523E-1,6.849957E-1,-1.34200165E-2,2.058407E-1,6.8109E-2],"categories":[],"categories_nodes":[],"categories_segments":[],"categories_sizes":[],"default_left":[0,0,0,0,0,0,0,0,0,0,0,0,0,0,0,0,0,0,0,0,0],"id":59,"left_children":[1,3,5,7,9,11,13,-1,-1,-1,-1,-1,15,-1,17,-1,-1,19,-1,-1,-1],"loss_changes":[2.732128E2,2.3349533E0,4.6519623E0,5.4641724E-1,1.0957149E0,1.5833495E0,8.3599854E-1,0E0,0E0,0E0,0E0,0E0,3.135531E-1,0E0,6.802063E-1,0E0,0E0,8.31604E-2,0E0,0E0,0E0],"parents":[2147483647,0,0,1,1,2,2,3,3,4,4,5,5,6,6,12,12,14,14,17,17],"right_children":[2,4,6,8,10,12,14,-1,-1,-1,-1,-1,16,-1,18,-1,-1,20,-1,-1,-1],"split_conditions":[6.3031917E-3,5.300942E-1,2.989393E-4,8.337772E-2,4.0373876E-4,2.5146304E-2,7.4303043E-3,-1.5286548E-1,1.2117755E-2,-8.409944E-2,2.2164057E-1,-1.4410864E-1,1.3694628E-3,7.6413183E-3,4.0151265E-2,-1.1500102E-2,1.6739523E-1,3.0046595E-2,-1.34200165E-2,2.058407E-1,6.8109E-2],"split_indices":[3,17,17,31,3,28,45,0,0,0,0,0,10,0,28,0,0,32,0,0,0],"split_type":[0,0,0,0,0,0,0,0,0,0,0,0,0,0,0,0,0,0,0,0,0],"sum_hessian":[8.1663324E2,3.4982877E2,4.668045E2,3.472233E2,2.6054554E0,6.944237E0,4.5986026E2,3.4554935E2,1.6739676E0,1.1212499E0,1.4842054E0,4.099807E0,2.8444307E0,2.0208447E0,4.5783942E2,1.1256372E0,1.7187935E0,4.5667764E2,1.1617733E0,4.5504675E2,1.6308776E0],"tree_param":{"num_deleted":"0","num_feature":"57","num_nodes":"21","size_leaf_vector":"0"}},{"base_weights":[-2.7283493E-1,-1.5288982E-1,6.6880614E-1,6.867836E-1,-9.6762106E-2,6.953967E-1,4.8769258E-2,6.427058E-2,2.103835E-1],"categories":[],"categories_nodes":[],"categories_segments":[],"categories_sizes":[],"default_left":[0,0,0,0,0,0,0,0,0],"id":60,"left_children":[1,-1,3,5,-1,7,-1,-1,-1],"loss_changes":[1.0855724E2,0E0,1.9672394E0,3.2279968E-1,0E0,1.1765671E-1,0E0,0E0,0E0],"parents":[2147483647,0,0,2,2,3,3,5,5],"right_children":[2,-1,4,6,-1,8,-1,-1,-1],"split_conditions":[1.3610472E-4,-1.5288982E-1,1.4217402E-3,8.166358E-3,-9.6762106E-2,6.477475E-3,4.8769258E-2,6.427058E-2,2.103835E-1],"split_indices":[18,0,15,37,0,53,0,0,0],"split_type":[0,0,0,0,0,0,0,0,0],"sum_hessian":[4.8432208E2,3.8736807E2,9.695402E1,9.5528885E1,1.425133E0,9.366342E1,1.8654698E0,1.5830364E0,9.208038E1],"tree_param":{"num_deleted":"0","num_feature":"57","num_nodes":"9","size_leaf_vector":"0"}},{"base_weights":[9.05162E-2,-5.0627357E-1,6.6997164E-1,-1.41702825E-2,-1.52451E-1,-1.1870475E-1,6.795974E-1,-1.0150759E-1,6.8397593E-1,6.888357E-1,1.9493221E-1,6.917112E-1,5.2923826E-3,1.7107251E-1,-1.249099E-1,2.7969152E-1,2.0488663E-1],"categories":[],"categories_nodes":[],"categories_segments":[],"categories_sizes":[],"default_left":[0,0,0,0,0,0,0,0,0,0,0,0,0,0,0,0,0],"id":61,"left_children":[1,3,5,-1,-1,-1,7,-1,9,11,13,15,-1,-1,-1,-1,-1],"loss_changes":[2.5278566E2,2.895584E-1,4.0726166E0,0E0,0E0,0E0,1.8710632E0,0E0,7.3703E-1,6.876526E-1,1.3850136E0,1.2385559E-1,0E0,0E0,0E0,0E0,0E0],"parents":[2147483647,0,0,1,1,2,2,6,6,8,8,9,9,10,10,11,11],"right_children":[2,4,6,-1,-1,-1,8,-1,10,12,14,16,-1,-1,-1,-1,-1],"split_conditions":[4.800578E-3,6.8892404E-3,1.0314055E-3,-1.41702825E-2,-1.52451E-1,-1.1870475E-1,7.978517E-3,-1.0150759E-1,2.5423167E-2,1.2590459E-6,6.3966303E-3,9.6281374E-1,5.2923826E-3,1.7107251E-1,-1.249099E-1,2.7969152E-1,2.0488663E-1],"split_indices":[19,34,5,0,0,0,28,0,31,14,51,5,0,0,0,0,0],"split_type":[0,0,0,0,0,0,0,0,0,0,0,0,0,0,0,0,0],"sum_hessian":[7.290085E2,3.5919476E2,3.6981375E2,1.5844002E0,3.5761035E2,2.9514873E0,3.6686224E2,1.2445648E0,3.6561768E2,3.616157E2,4.001977E0,3.6004263E2,1.573061E0,2.5212238E0,1.4807533E0,8.938961E0,3.511037E2],"tree_param":{"num_deleted":"0","num_feature":"57","num_nodes":"17","size_leaf_vector":"0"}},{"base_weights":[-6.294168E-2,-5.070386E-1,6.7564577E-1,-1.5289399E-1,-4.263084E-2,-9.8219015E-2,6.847673E-1,7.002289E-2,-8.3800286E-2,1.0256004E-2,2.0630196E-1],"categories":[],"categories_nodes":[],"categories_segments":[],"categories_sizes":[],"default_left":[0,0,0,0,0,0,0,0,0,0,0],"id":62,"left_children":[1,3,5,-1,7,-1,9,-1,-1,-1,-1],"loss_changes":[1.9734927E2,4.332657E-1,2.2915726E0,0E0,2.7357662E-1,0E0,4.0042114E-1,0E0,0E0,0E0,0E0],"parents":[2147483647,0,0,1,1,2,2,4,4,6,6],"right_children":[2,4,6,-1,8,-1,10,-1,-1,-1,-1],"split_conditions":[3.4156332E-3,1.2556593E-3,1.29382005E-2,-1.5289399E-1,1.828192E-9,-9.8219015E-2,1.2608853E-3,7.002289E-2,-8.3800286E-2,1.0256004E-2,2.0630196E-1],"split_indices":[6,6,48,0,18,0,20,0,0,0,0],"split_type":[0,0,0,0,0,0,0,0,0,0,0],"sum_hessian":[5.9962213E2,3.7466034E2,2.2496178E2,3.7247122E2,2.1891365E0,1.7128804E0,2.2324889E2,1.0170183E0,1.1721182E0,1.0494708E0,2.2219942E2],"tree_param":{"num_deleted":"0","num_feature":"57","num_nodes":"11","size_leaf_vector":"0"}},{"base_weights":[1.9822402E-1,-4.9379808E-1,6.583242E-1,-5.0735724E-1,3.5843945E-1,-9.355309E-2,6.72301E-1,-1.5285434E-1,-1.8828782E-1,-1.00202665E-1,6.364446E-1,6.102444E-1,-3.8945866E-1,6.829148E-1,4.5056158E-1,3.2187097E-2,-1.00105464E-1,2.5396484E-1,7.60445E-3,3.0532394E-2,2.4262093E-1,-1.3333578E-1,-3.040737E-3,6.844064E-1,1.04402015E-2,5.203972E-1,-1.0985442E-1,6.7796314E-1,9.773914E-1,-1.1816654E-1,5.7689893E-1,9.645218E-2,2.051331E-1,3.9262673E-1,1.746233E-1,7.084679E-2,2.1427773E-1],"categories":[],"categories_nodes":[],"categories_segments":[],"categories_sizes":[],"default_left":[0,0,0,0,0,0,0,0,0,0,0,0,0,0,0,0,0,0,0,0,0,0,0,0,0,0,0,0,0,0,0,0,0,0,0,0,0],"id":63,"left_children":[1,3,5,7,9,11,13,-1,15,-1,17,19,21,23,25,-1,-1,-1,-1,-1,-1,-1,-1,27,-1,29,-1,31,33,-1,35,-1,-1,-1,-1,-1,-1],"loss_changes":[2.740664E2,4.155945E0,5.4942017E0,1.3735199E-1,1.3621997E0,2.3848016E0,8.867645E-1,0E0,2.0178881E-1,0E0,5.698402E-1,2.6500857E-1,1.5964055E-1,4.425354E-1,1.6805344E0,0E0,0E0,0E0,0E0,0E0,0E0,0E0,0E0,2.4583435E-1,0E0,1.491734E0,0E0,7.627716E-1,2.9811573E-1,0E0,9.293122E-1,0E0,0E0,0E0,0E0,0E0,0E0],"parents":[2147483647,0,0,1,1,2,2,3,3,4,4,5,5,6,6,8,8,10,10,11,11,12,12,13,13,14,14,23,23,25,25,27,27,28,28,30,30],"right_children":[2,4,6,8,10,12,14,-1,16,-1,18,20,22,24,26,-1,-1,-1,-1,-1,-1,-1,-1,28,-1,30,-1,32,34,-1,36,-1,-1,-1,-1,-1,-1],"split_conditions":[6.973229E-4,3.8196262E-2,1.8769493E-2,3.6351404E-3,1.930886E-6,6.1342786E-3,1.08648586E-4,-1.5285434E-1,6.8963696E-3,-1.00202665E-1,3.169179E-12,2.5810453E-4,9.2401E-1,6.7167714E-2,1.0223483E-3,3.2187097E-2,-1.00105464E-1,2.5396484E-1,7.60445E-3,3.0532394E-2,2.4262093E-1,-1.3333578E-1,-3.040737E-3,1.4130074E-4,1.04402015E-2,6.300669E-3,-1.0985442E-1,7.016446E-3,8.237081E-1,-1.1816654E-1,7.276627E-3,9.645218E-2,2.051331E-1,3.9262673E-1,1.746233E-1,7.084679E-2,2.1427773E-1],"split_indices":[21,7,35,7,21,50,0,0,45,0,14,25,21,36,19,0,0,0,0,0,0,0,0,9,0,45,0,54,49,0,42,0,0,0,0,0,0],"split_type":[0,0,0,0,0,0,0,0,0,0,0,0,0,0,0,0,0,0,0,0,0,0,0,0,0,0,0,0,0,0,0,0,0,0,0,0,0],"sum_hessian":[8.5874176E2,3.429094E2,5.158324E2,3.3793744E2,4.9719296E0,9.310003E0,5.0652237E2,3.3507513E2,2.862318E0,1.3665965E0,3.605333E0,2.4412677E0,6.8687353E0,4.8139978E2,2.5122612E1,1.0301696E0,1.8321483E0,2.3961887E0,1.2091444E0,1.1101571E0,1.3311107E0,5.849045E0,1.0196902E0,4.8023856E2,1.1612223E0,2.3477966E1,1.644645E0,4.7314716E2,7.0913796E0,1.0189248E0,2.2459042E1,8.496767E0,4.646504E2,2.600709E0,4.4906707E0,7.233781E0,1.5225262E1],"tree_param":{"num_deleted":"0","num_feature":"57","num_nodes":"37","size_leaf_vector":"0"}},{"base_weights":[1.024326E-1,-1.5287362E-1,6.7794234E-1,-1.08484395E-1,6.837284E-1,2.3731166E-2,6.8626213E-1,6.879777E-1,6.353748E-2,3.2222486E-1,2.044114E-1],"categories":[],"categories_nodes":[],"categories_segments":[],"categories_sizes":[],"default_left":[0,0,0,0,0,0,0,0,0,0,0],"id":64,"left_children":[1,-1,3,-1,5,-1,7,9,-1,-1,-1],"loss_changes":[2.6108832E2,0E0,2.5446777E0,0E0,5.2812195E-1,0E0,1.6235352E-1,2.2891235E-1,0E0,0E0,0E0],"parents":[2147483647,0,0,2,2,4,4,6,6,7,7],"right_children":[2,-1,4,-1,6,-1,8,10,-1,-1,-1],"split_conditions":[5.0092903E-3,-1.5287362E-1,1.3032656E-3,-1.08484395E-1,9.897451E-3,2.3731166E-2,3.1665724E-2,9.682335E-1,6.353748E-2,3.2222486E-1,2.044114E-1],"split_indices":[22,0,8,0,50,0,5,22,0,0,0],"split_type":[0,0,0,0,0,0,0,0,0,0,0],"sum_hessian":[7.3928735E2,3.5833722E2,3.8095013E2,1.7682167E0,3.7918192E2,1.716802E0,3.7746512E2,3.7565686E2,1.8082361E0,3.6011984E0,3.7205566E2],"tree_param":{"num_deleted":"0","num_feature":"57","num_nodes":"11","size_leaf_vector":"0"}},{"base_weights":[-2.9215237E-1,-5.0711733E-1,6.3255924E-1,-1.5286557E-1,-1.4567453E-1,-1.1550638E-1,6.757165E-1,6.817203E-2,-1.040752E-1,1.6852291E-1,-1.2429794E-1,6.945781E-1,-4.333807E-2,7.020554E-1,2.5756452E-2,7.0969945E-1,3.1382468E-2,5.2008912E-2,2.1449621E-1],"categories":[],"categories_nodes":[],"categories_segments":[],"categories_sizes":[],"default_left":[0,0,0,0,0,0,0,0,0,0,0,0,0,0,0,0,0,0,0],"id":65,"left_children":[1,3,5,-1,7,9,11,-1,-1,-1,-1,13,-1,15,-1,17,-1,-1,-1],"loss_changes":[9.528412E1,2.673416E-1,3.0015335E0,0E0,3.7882584E-1,1.4051636E0,1.4270439E0,0E0,0E0,0E0,0E0,3.2208252E-1,0E0,3.0411148E-1,0E0,1.0754776E-1,0E0,0E0,0E0],"parents":[2147483647,0,0,1,1,2,2,4,4,5,5,6,6,11,11,13,13,15,15],"right_children":[2,4,6,-1,8,10,12,-1,-1,-1,-1,14,-1,16,-1,18,-1,-1,-1],"split_conditions":[7.8566006E-4,5.335256E-4,1.7924998E-4,-1.5286557E-1,3.0765086E-9,1.4826276E-2,1.6978383E-3,6.817203E-2,-1.040752E-1,1.6852291E-1,-1.2429794E-1,3.0062267E-1,-4.333807E-2,3.1063594E-2,2.5756452E-2,8.985223E-5,3.1382468E-2,5.2008912E-2,2.1449621E-1],"split_indices":[9,9,23,0,21,41,5,0,0,0,0,49,0,14,0,10,0,0,0],"split_type":[0,0,0,0,0,0,0,0,0,0,0,0,0,0,0,0,0,0,0],"sum_hessian":[4.7672934E2,3.871754E2,8.955393E1,3.8417798E2,2.9974253E0,4.793277E0,8.476065E1,1.0053217E0,1.9921036E0,1.1980749E0,3.595202E0,8.300492E1,1.7557312E0,8.184624E1,1.1586821E0,8.062677E1,1.2194692E0,1.1170019E0,7.9509766E1],"tree_param":{"num_deleted":"0","num_feature":"57","num_nodes":"19","size_leaf_vector":"0"}},{"base_weights":[1.0254274E-1,-5.07048E-1,6.7197645E-1,-1.5288031E-1,-3.320017E-3,6.8251544E-1,-1.0615344E-1,-4.684659E-3,6.862396E-1,-1.3174164E-1,1.3789321E-1,6.877661E-1,6.427675E-2,7.0712775E-2,2.0664886E-1],"categories":[],"categories_nodes":[],"categories_segments":[],"categories_sizes":[],"default_left":[0,0,0,0,0,0,0,0,0,0,0,0,0,0,0],"id":66,"left_children":[1,3,5,-1,-1,7,9,-1,11,-1,-1,13,-1,-1,-1],"loss_changes":[2.5739355E2,4.4795227E-1,3.2158203E0,0E0,0E0,9.9432373E-1,1.3299044E0,0E0,1.237793E-1,0E0,0E0,1.776123E-2,0E0,0E0,0E0],"parents":[2147483647,0,0,1,1,2,2,5,5,6,6,8,8,11,11],"right_children":[2,4,6,-1,-1,8,10,-1,12,-1,-1,14,-1,-1,-1],"split_conditions":[5.5056403E-4,4.3443467E-2,3.583996E-5,-1.5288031E-1,-3.320017E-3,6.3774E-4,9.048122E-1,-4.684659E-3,8.315909E-3,-1.3174164E-1,1.3789321E-1,8.590477E-3,6.427675E-2,7.0712775E-2,2.0664886E-1],"split_indices":[24,52,17,0,0,10,52,0,46,0,0,30,0,0,0],"split_type":[0,0,0,0,0,0,0,0,0,0,0,0,0,0,0],"sum_hessian":[7.395269E2,3.572224E2,3.8230453E2,3.5536575E2,1.8566554E0,3.7731705E2,4.987491E0,1.9851682E0,3.7533188E2,3.280624E0,1.7068671E0,3.736662E2,1.6656669E0,1.3995132E0,3.722667E2],"tree_param":{"num_deleted":"0","num_feature":"57","num_nodes":"15","size_leaf_vector":"0"}},{"base_weights":[8.982582E-3,-4.9203622E-1,6.2211066E-1,-5.0664186E-1,1.0533227E-1,-1.5495028E-3,6.534498E-1,-1.528255E-1,7.3324367E-3,4.05475E-1,-1.1775779E-1,-1.309222E-1,2.8773957E-1,6.761071E-1,3.2397813E-1,-1.5791167E-1,8.3505166E-1,6.2957406E-1,-1.2970696E-1,6.8435353E-1,2.6767984E-1,-1.3503103E-1,4.1126302E-1,4.650797E-2,-1.0093839E-1,3.1606758E-1,4.3541096E-2,8.3082587E-1,-8.0166906E-2,6.879217E-1,-9.751333E-3,1.8064122E-1,-1.3223201E-1,2.031684E-2,6.52139E-1,1.2214761E-2,3.152841E-1,1.1412888E-3,2.0748802E-1,-1.2846775E-1,1.2328862E-1,1.7367452E-2,2.1794453E-1],"categories":[],"categories_nodes":[],"categories_segments":[],"categories_sizes":[],"default_left":[0,0,0,0,0,0,0,0,0,0,0,0,0,0,0,0,0,0,0,0,0,0,0,0,0,0,0,0,0,0,0,0,0,0,0,0,0,0,0,0,0,0,0],"id":67,"left_children":[1,3,5,7,9,11,13,-1,-1,15,-1,-1,17,19,21,23,25,27,-1,29,31,-1,33,-1,-1,-1,-1,35,-1,37,-1,-1,-1,39,41,-1,-1,-1,-1,-1,-1,-1,-1],"loss_changes":[2.0376959E2,3.2384262E0,5.8310547E0,5.381317E-1,1.584765E0,2.0464756E0,1.9011383E0,0E0,0E0,1.6914166E0,0E0,0E0,2.6776576E0,7.087631E-1,1.5495944E0,2.5491738E-1,4.2223525E-1,1.4914663E0,0E0,6.846924E-1,1.8964509E0,0E0,1.7449968E0,0E0,0E0,0E0,0E0,9.9862194E-1,0E0,6.5055084E-1,0E0,0E0,0E0,1.6040916E0,4.6690607E-1,0E0,0E0,0E0,0E0,0E0,0E0,0E0,0E0],"parents":[2147483647,0,0,1,1,2,2,3,3,4,4,5,5,6,6,9,9,12,12,13,13,14,14,15,15,16,16,17,17,19,