{"learner":{"attributes":{"best_iteration":"99","best_ntree_limit":"100","scikit_learn":"{\"use_label_encoder\": false, \"n_estimators\": 100, \"objective\": \"multi:softprob\", \"max_depth\": null, \"max_leaves\": null, \"max_bin\": null, \"grow_policy\": null, \"learning_rate\": null, \"verbosity\": null, \"booster\": null, \"tree_method\": \"gpu_hist\", \"gamma\": null, \"min_child_weight\": null, \"max_delta_step\": null, \"subsample\": null, \"sampling_method\": null, \"colsample_bytree\": null, \"colsample_bylevel\": null, \"colsample_bynode\": null, \"reg_alpha\": null, \"reg_lambda\": null, \"scale_pos_weight\": null, \"base_score\": null, \"missing\": NaN, \"num_parallel_tree\": null, \"random_state\": null, \"n_jobs\": null, \"monotone_constraints\": null, \"interaction_constraints\": null, \"importance_type\": null, \"gpu_id\": 0, \"validate_parameters\": null, \"predictor\": null, \"enable_categorical\": false, \"max_cat_to_onehot\": null, \"eval_metric\": null, \"early_stopping_rounds\": null, \"callbacks\": null, \"kwargs\": {\"num_class\": 14}, \"classes_\": [0, 1, 2, 3, 4, 5, 6, 7, 8, 9, 10, 11, 12, 13], \"n_classes_\": 14, \"_estimator_type\": \"classifier\"}"},"feature_names":[],"feature_types":[],"gradient_booster":{"model":{"gbtree_model_param":{"num_parallel_tree":"1","num_trees":"1400","size_leaf_vector":"0"},"tree_info":[0,1,2,3,4,5,6,7,8,9,10,11,12,13,0,1,2,3,4,5,6,7,8,9,10,11,12,13,0,1,2,3,4,5,6,7,8,9,10,11,12,13,0,1,2,3,4,5,6,7,8,9,10,11,12,13,0,1,2,3,4,5,6,7,8,9,10,11,12,13,0,1,2,3,4,5,6,7,8,9,10,11,12,13,0,1,2,3,4,5,6,7,8,9,10,11,12,13,0,1,2,3,4,5,6,7,8,9,10,11,12,13,0,1,2,3,4,5,6,7,8,9,10,11,12,13,0,1,2,3,4,5,6,7,8,9,10,11,12,13,0,1,2,3,4,5,6,7,8,9,10,11,12,13,0,1,2,3,4,5,6,7,8,9,10,11,12,13,0,1,2,3,4,5,6,7,8,9,10,11,12,13,0,1,2,3,4,5,6,7,8,9,10,11,12,13,0,1,2,3,4,5,6,7,8,9,10,11,12,13,0,1,2,3,4,5,6,7,8,9,10,11,12,13,0,1,2,3,4,5,6,7,8,9,10,11,12,13,0,1,2,3,4,5,6,7,8,9,10,11,12,13,0,1,2,3,4,5,6,7,8,9,10,11,12,13,0,1,2,3,4,5,6,7,8,9,10,11,12,13,0,1,2,3,4,5,6,7,8,9,10,11,12,13,0,1,2,3,4,5,6,7,8,9,10,11,12,13,0,1,2,3,4,5,6,7,8,9,10,11,12,13,0,1,2,3,4,5,6,7,8,9,10,11,12,13,0,1,2,3,4,5,6,7,8,9,10,11,12,13,0,1,2,3,4,5,6,7,8,9,10,11,12,13,0,1,2,3,4,5,6,7,8,9,10,11,12,13,0,1,2,3,4,5,6,7,8,9,10,11,12,13,0,1,2,3,4,5,6,7,8,9,10,11,12,13,0,1,2,3,4,5,6,7,8,9,10,11,12,13,0,1,2,3,4,5,6,7,8,9,10,11,12,13,0,1,2,3,4,5,6,7,8,9,10,11,12,13,0,1,2,3,4,5,6,7,8,9,10,11,12,13,0,1,2,3,4,5,6,7,8,9,10,11,12,13,0,1,2,3,4,5,6,7,8,9,10,11,12,13,0,1,2,3,4,5,6,7,8,9,10,11,12,13,0,1,2,3,4,5,6,7,8,9,10,11,12,13,0,1,2,3,4,5,6,7,8,9,10,11,12,13,0,1,2,3,4,5,6,7,8,9,10,11,12,13,0,1,2,3,4,5,6,7,8,9,10,11,12,13,0,1,2,3,4,5,6,7,8,9,10,11,12,13,0,1,2,3,4,5,6,7,8,9,10,11,12,13,0,1,2,3,4,5,6,7,8,9,10,11,12,13,0,1,2,3,4,5,6,7,8,9,10,11,12,13,0,1,2,3,4,5,6,7,8,9,10,11,12,13,0,1,2,3,4,5,6,7,8,9,10,11,12,13,0,1,2,3,4,5,6,7,8,9,10,11,12,13,0,1,2,3,4,5,6,7,8,9,10,11,12,13,0,1,2,3,4,5,6,7,8,9,10,11,12,13,0,1,2,3,4,5,6,7,8,9,10,11,12,13,0,1,2,3,4,5,6,7,8,9,10,11,12,13,0,1,2,3,4,5,6,7,8,9,10,11,12,13,0,1,2,3,4,5,6,7,8,9,10,11,12,13,0,1,2,3,4,5,6,7,8,9,10,11,12,13,0,1,2,3,4,5,6,7,8,9,10,11,12,13,0,1,2,3,4,5,6,7,8,9,10,11,12,13,0,1,2,3,4,5,6,7,8,9,10,11,12,13,0,1,2,3,4,5,6,7,8,9,10,11,12,13,0,1,2,3,4,5,6,7,8,9,10,11,12,13,0,1,2,3,4,5,6,7,8,9,10,11,12,13,0,1,2,3,4,5,6,7,8,9,10,11,12,13,0,1,2,3,4,5,6,7,8,9,10,11,12,13,0,1,2,3,4,5,6,7,8,9,10,11,12,13,0,1,2,3,4,5,6,7,8,9,10,11,12,13,0,1,2,3,4,5,6,7,8,9,10,11,12,13,0,1,2,3,4,5,6,7,8,9,10,11,12,13,0,1,2,3,4,5,6,7,8,9,10,11,12,13,0,1,2,3,4,5,6,7,8,9,10,11,12,13,0,1,2,3,4,5,6,7,8,9,10,11,12,13,0,1,2,3,4,5,6,7,8,9,10,11,12,13,0,1,2,3,4,5,6,7,8,9,10,11,12,13,0,1,2,3,4,5,6,7,8,9,10,11,12,13,0,1,2,3,4,5,6,7,8,9,10,11,12,13,0,1,2,3,4,5,6,7,8,9,10,11,12,13,0,1,2,3,4,5,6,7,8,9,10,11,12,13,0,1,2,3,4,5,6,7,8,9,10,11,12,13,0,1,2,3,4,5,6,7,8,9,10,11,12,13,0,1,2,3,4,5,6,7,8,9,10,11,12,13,0,1,2,3,4,5,6,7,8,9,10,11,12,13,0,1,2,3,4,5,6,7,8,9,10,11,12,13,0,1,2,3,4,5,6,7,8,9,10,11,12,13,0,1,2,3,4,5,6,7,8,9,10,11,12,13,0,1,2,3,4,5,6,7,8,9,10,11,12,13,0,1,2,3,4,5,6,7,8,9,10,11,12,13,0,1,2,3,4,5,6,7,8,9,10,11,12,13,0,1,2,3,4,5,6,7,8,9,10,11,12,13,0,1,2,3,4,5,6,7,8,9,10,11,12,13,0,1,2,3,4,5,6,7,8,9,10,11,12,13,0,1,2,3,4,5,6,7,8,9,10,11,12,13,0,1,2,3,4,5,6,7,8,9,10,11,12,13,0,1,2,3,4,5,6,7,8,9,10,11,12,13,0,1,2,3,4,5,6,7,8,9,10,11,12,13,0,1,2,3,4,5,6,7,8,9,10,11,12,13,0,1,2,3,4,5,6,7,8,9,10,11,12,13,0,1,2,3,4,5,6,7,8,9,10,11,12,13,0,1,2,3,4,5,6,7,8,9,10,11,12,13,0,1,2,3,4,5,6,7,8,9,10,11,12,13,0,1,2,3,4,5,6,7,8,9,10,11,12,13,0,1,2,3,4,5,6,7,8,9,10,11,12,13,0,1,2,3,4,5,6,7,8,9,10,11,12,13],"trees":[{"base_weights":[-1.556251E-1,-5.371933E-1,6.7899895E0,-1.6140458E-1,-3.3689842E-1,5.141079E-1,2.0631926E0,-1.3695654E-1,6.2376235E-2],"categories":[],"categories_nodes":[],"categories_segments":[],"categories_sizes":[],"default_left":[0,0,0,0,0,0,0,0,0],"id":0,"left_children":[1,3,5,-1,7,-1,-1,-1,-1],"loss_changes":[3.3925288E3,1.8432617E-2,1.7763184E1,0E0,5.92364E-1,0E0,0E0,0E0,0E0],"parents":[2147483647,0,0,1,1,2,2,4,4],"right_children":[2,4,6,-1,8,-1,-1,-1,-1],"split_conditions":[3.1063594E-2,1.6643136E-4,3.189266E-2,-1.6140458E-1,1.0314055E-3,5.141079E-1,2.0631926E0,-1.3695654E-1,6.2376235E-2],"split_indices":[14,28,42,0,5,0,0,0,0],"split_type":[0,0,0,0,0,0,0,0,0],"sum_hessian":[1.2777142E3,1.212051E3,6.566326E1,1.2054183E3,6.6326528E0,1.4591837E0,6.420408E1,5.5714283E0,1.0612245E0],"tree_param":{"num_deleted":"0","num_feature":"57","num_nodes":"9","size_leaf_vector":"0"}},{"base_weights":[6.5065354E-1,-5.222063E-1,2.085058E0,-5.3703004E-1,2.614786E0,-1.6138774E-1,-1.586902E-1,1.2144578E0,-7.040799E-9,-1.0750855E-1,6.2376235E-2],"categories":[],"categories_nodes":[],"categories_segments":[],"categories_sizes":[],"default_left":[0,0,0,0,0,0,0,0,0,0,0],"id":1,"left_children":[1,3,-1,5,7,-1,9,-1,-1,-1,-1],"loss_changes":[9.45138E3,5.1577026E1,0E0,2.9241943E-1,1.965815E1,0E0,3.7105283E-1,0E0,0E0,0E0,0E0],"parents":[2147483647,0,0,1,1,3,3,4,4,6,6],"right_children":[2,4,-1,6,8,-1,10,-1,-1,-1,-1],"split_conditions":[9.821853E-1,4.6546867E-1,2.085058E0,1.0713694E-2,4.4629185E-9,-1.6138774E-1,1.557274E-3,1.2144578E0,-7.040799E-9,-1.0750855E-1,6.2376235E-2],"split_indices":[1,29,0,15,26,0,1,0,0,0,0],"split_type":[0,0,0,0,0,0,0,0,0,0,0],"sum_hessian":[1.2777142E3,1.0779387E3,1.997755E2,1.0736938E3,4.244898E0,1.0706428E3,3.0510204E0,2.387755E0,1.8571428E0,1.9897959E0,1.0612245E0],"tree_param":{"num_deleted":"0","num_feature":"57","num_nodes":"11","size_leaf_vector":"0"}},{"base_weights":[-3.5191602E-1,-5.292106E-1,6.475936E0,-5.3401595E-1,6.3609964E-1,3.223256E-1,6.6479425E0,-5.3721875E-1,-3.1890694E-2,4.990099E-1,2.030426E0,-1.6140765E-1,-1.586902E-1,-1.3744295E-1,8.557993E-1,-1.0750855E-1,6.2376235E-2,-8.790698E-2,4.990099E-1],"categories":[],"categories_nodes":[],"categories_segments":[],"categories_sizes":[],"default_left":[0,0,0,0,0,0,0,0,0,0,0,0,0,0,0,0,0,0,0],"id":2,"left_children":[1,3,5,7,-1,-1,9,11,13,-1,-1,-1,15,-1,17,-1,-1,-1,-1],"loss_changes":[1.5513636E3,1.701239E1,2.2996094E1,1.9864197E0,0E0,0E0,7.4538574E0,2.9263306E-1,3.7820544E0,0E0,0E0,0E0,3.7105283E-1,0E0,3.50733E0,0E0,0E0,0E0,0E0],"parents":[2147483647,0,0,1,1,2,2,3,3,6,6,7,7,8,8,12,12,14,14],"right_children":[2,4,6,8,-1,-1,10,12,14,-1,-1,-1,16,-1,18,-1,-1,-1,-1],"split_conditions":[3.6627433E-1,7.718916E-1,5.5126183E-2,5.7566212E-3,6.3609964E-1,3.223256E-1,3.511115E-1,1.602217E-2,2.2764737E-6,4.990099E-1,2.030426E0,-1.6140765E-1,7.282799E-4,-1.3744295E-1,7.978517E-3,-1.0750855E-1,6.2376235E-2,-8.790698E-2,4.990099E-1],"split_indices":[30,44,2,2,0,0,16,30,19,0,0,0,5,0,42,0,0,0,0],"split_type":[0,0,0,0,0,0,0,0,0,0,0,0,0,0,0,0,0,0,0],"sum_hessian":[1.2777142E3,1.2462755E3,3.1438774E1,1.2448163E3,1.4591837E0,1.1938775E0,3.0244898E1,1.236857E3,7.9591837E0,1.0612245E0,2.9183672E1,1.233806E3,3.0510204E0,5.7040815E0,2.255102E0,1.9897959E0,1.0612245E0,1.1938775E0,1.0612245E0],"tree_param":{"num_deleted":"0","num_feature":"57","num_nodes":"19","size_leaf_vector":"0"}},{"base_weights":[3.683387E-1,-5.13159E-1,6.914376E0,-5.335232E-1,2.6565096E0,4.990099E-1,2.0820916E0,-5.370854E-1,4.5211577E-1,-6.5830745E-2,3.8702595E0,-1.613937E-1,-4.5751657E-2,-1.1565219E-1,4.990099E-1,-8.790698E-2,6.2376235E-2,1.2853904E0,3.5346535E-1,-8.316832E-2,6.2376235E-2],"categories":[],"categories_nodes":[],"categories_segments":[],"categories_sizes":[],"default_left":[0,0,0,0,0,0,0,0,0,0,0,0,0,0,0,0,0,0,0,0,0],"id":3,"left_children":[1,3,5,7,9,-1,-1,11,13,15,17,-1,19,-1,-1,-1,-1,-1,-1,-1,-1],"loss_changes":[7.382135E3,7.422003E1,9.127441E0,4.1805115E0,2.4598263E1,0E0,0E0,4.6621704E-1,5.2896333E0,2.633744E-1,6.545639E-1,0E0,2.4098879E-1,0E0,0E0,0E0,0E0,0E0,0E0,0E0,0E0],"parents":[2147483647,0,0,1,1,2,2,3,3,4,4,7,7,8,8,9,9,10,10,12,12],"right_children":[2,4,6,8,10,-1,-1,12,14,16,18,-1,20,-1,-1,-1,-1,-1,-1,-1,-1],"split_conditions":[6.5168905E-1,4.2548424E-1,1.149531E-2,8.337772E-2,1.472454E-2,4.990099E-1,2.0820916E0,5.300942E-1,6.0868374E-4,5.2214327E-4,3.214535E-4,-1.613937E-1,6.3131585E-5,-1.1565219E-1,4.990099E-1,-8.790698E-2,6.2376235E-2,1.2853904E0,3.5346535E-1,-8.316832E-2,6.2376235E-2],"split_indices":[31,3,46,45,45,0,0,17,13,0,8,0,9,0,0,0,0,0,0,0,0],"split_type":[0,0,0,0,0,0,0,0,0,0,0,0,0,0,0,0,0,0,0,0,0],"sum_hessian":[1.2777142E3,1.1268877E3,1.5082652E2,1.1205204E3,6.367347E0,1.0612245E0,1.497653E2,1.1169387E3,3.5816326E0,2.255102E0,4.1122446E0,1.1148163E3,2.122449E0,2.5204082E0,1.0612245E0,1.1938775E0,1.0612245E0,3.0510204E0,1.0612245E0,1.0612245E0,1.0612245E0],"tree_param":{"num_deleted":"0","num_feature":"57","num_nodes":"21","size_leaf_vector":"0"}},{"base_weights":[-3.5426214E-1,-5.316232E-1,2.0325027E0,-1.6140884E-1,1.8869565E0,8.105263E-1,4.8837204E-2],"categories":[],"categories_nodes":[],"categories_segments":[],"categories_sizes":[],"default_left":[0,0,0,0,0,0,0],"id":4,"left_children":[1,3,-1,-1,5,-1,-1],"loss_changes":[1.6204781E3,2.0361237E1,0E0,0E0,4.5058136E0,0E0,0E0],"parents":[2147483647,0,0,1,1,4,4],"right_children":[2,4,-1,-1,6,-1,-1],"split_conditions":[9.7538614E-1,5.029453E-2,2.0325027E0,-1.6140884E-1,8.166358E-3,8.105263E-1,4.8837204E-2],"split_indices":[4,32,0,0,51,0,0],"split_type":[0,0,0,0,0,0,0],"sum_hessian":[1.2777142E3,1.247602E3,3.0112244E1,1.2450815E3,2.5204082E0,1.3265306E0,1.1938775E0],"tree_param":{"num_deleted":"0","num_feature":"57","num_nodes":"7","size_leaf_vector":"0"}},{"base_weights":[1.7986813E-1,-5.2762395E-1,6.845246E0,-5.3366894E-1,8.105263E-1,1.6578947E-1,2.0728283E0,-1.6139759E-1,1.4256586E-2,-1.410853E-1,1.2352941E0,-8.316832E-2,6.4455444E-1],"categories":[],"categories_nodes":[],"categories_segments":[],"categories_sizes":[],"default_left":[0,0,0,0,0,0,0,0,0,0,0,0,0],"id":5,"left_children":[1,3,5,7,-1,-1,-1,-1,9,-1,11,-1,-1],"loss_changes":[6.033647E3,2.4026947E1,4.57666E1,2.744995E0,0E0,0E0,0E0,0E0,6.5094395E0,0E0,4.9085608E0,0E0,0E0],"parents":[2147483647,0,0,1,1,2,2,3,3,8,8,10,10],"right_children":[2,4,6,8,-1,-1,-1,-1,10,-1,12,-1,-1],"split_conditions":[4.4736576E-1,9.6281374E-1,3.1665724E-2,4.800578E-3,8.105263E-1,1.6578947E-1,2.0728283E0,-1.6139759E-1,1.967618E-4,-1.410853E-1,8.6335733E-4,-8.316832E-2,6.4455444E-1],"split_indices":[33,5,5,19,0,0,0,0,36,0,17,0,0],"split_type":[0,0,0,0,0,0,0,0,0,0,0,0,0],"sum_hessian":[1.2777142E3,1.1559387E3,1.21775505E2,1.1546122E3,1.3265306E0,1.3265306E0,1.20448975E2,1.1455918E3,9.020408E0,6.8979588E0,2.122449E0,1.0612245E0,1.0612245E0],"tree_param":{"num_deleted":"0","num_feature":"57","num_nodes":"13","size_leaf_vector":"0"}},{"base_weights":[-9.697244E-2,-5.3552175E-1,6.8422747E0,1.6578947E-1,-1.611546E-1,2.0720077E0,3.5346535E-1],"categories":[],"categories_nodes":[],"categories_segments":[],"categories_sizes":[],"default_left":[0,0,0,0,0,0,0],"id":6,"left_children":[1,3,5,-1,-1,-1,-1],"loss_changes":[3.89505E3,2.471344E0,1.9621826E1,0E0,0E0,0E0,0E0],"parents":[2147483647,0,0,1,1,2,2],"right_children":[2,4,6,-1,-1,-1,-1],"split_conditions":[3.058617E-1,5.3281314E-3,5.335256E-4,1.6578947E-1,-1.611546E-1,2.0720077E0,3.5346535E-1],"split_indices":[6,47,9,0,0,0,0],"split_type":[0,0,0,0,0,0,0],"sum_hessian":[1.2777142E3,1.2026326E3,7.508163E1,1.3265306E0,1.201306E3,7.402041E1,1.0612245E0],"tree_param":{"num_deleted":"0","num_feature":"57","num_nodes":"7","size_leaf_vector":"0"}},{"base_weights":[4.4888836E-1,-5.15437E-1,6.7185254E0,-5.244275E-1,8.959045E-1,1.7931689E0,6.837499E0,-5.316218E-1,8.75E-1,-9.210527E-2,2.556675E0,7.716868E-1,2.0651941E0,-5.343363E-1,1.9351536E-1,-1.4583336E-1,5.627451E-1,2.280899E-1,1.0684211E0,-1.6138834E-1,-3.5890195E-1,-1.0500001E-1,6.2376235E-2,-1.5176035E-1,-2.1966537E-2],"categories":[],"categories_nodes":[],"categories_segments":[],"categories_sizes":[],"default_left":[0,0,0,0,0,0,0,0,0,0,0,0,0,0,0,0,0,0,0,0,0,0,0,0,0],"id":7,"left_children":[1,3,5,7,-1,9,11,13,15,-1,17,-1,-1,19,-1,21,-1,-1,-1,-1,23,-1,-1,-1,-1],"loss_changes":[7.7345312E3,3.6486206E1,8.766797E1,1.1612335E1,0E0,9.407873E0,1.5232422E1,3.8650208E0,6.4452615E0,0E0,4.6038284E0,0E0,0E0,5.0653076E-1,0E0,3.5577554E-1,0E0,0E0,0E0,0E0,1.024158E0,0E0,0E0,0E0,0E0],"parents":[2147483647,0,0,1,1,2,2,3,3,5,5,6,6,7,7,8,8,10,10,13,13,15,15,20,20],"right_children":[2,4,6,8,-1,10,12,14,16,-1,18,-1,-1,20,-1,22,-1,-1,-1,-1,24,-1,-1,-1,-1],"split_conditions":[4.3386832E-1,8.802147E-1,3.0511985E-2,2.615703E-1,8.959045E-1,1.386636E-2,9.477091E-2,7.3714465E-1,1.8769493E-2,-9.210527E-2,3.901099E-1,7.716868E-1,2.0651941E0,4.3051268E-4,1.9351536E-1,3.2480678E-4,5.627451E-1,2.280899E-1,1.0684211E0,-1.6138834E-1,1.5010731E-4,-1.0500001E-1,6.2376235E-2,-1.5176035E-1,-2.1966537E-2],"split_indices":[35,49,49,21,0,43,21,7,49,0,56,0,0,35,0,3,0,0,0,0,9,0,0,0,0],"split_type":[0,0,0,0,0,0,0,0,0,0,0,0,0,0,0,0,0,0,0,0,0,0,0,0,0],"sum_hessian":[1.2777142E3,1.1081836E3,1.6953061E2,1.1061938E3,1.9897959E0,4.377551E0,1.6515306E2,1.1011531E3,5.0408163E0,1.3265306E0,3.0510204E0,2.387755E0,1.627653E2,1.0991632E3,1.9897959E0,2.9183674E0,2.122449E0,1.7244897E0,1.3265306E0,1.0748877E3,2.4275509E1,1.8571428E0,1.0612245E0,1.5520408E1,8.755102E0],"tree_param":{"num_deleted":"0","num_feature":"57","num_nodes":"25","size_leaf_vector":"0"}},{"base_weights":[2.1349566E-1,-5.3105074E-1,2.0811841E0,-1.6139795E-1,1.7988826E0,-8.316832E-2,8.267717E-1],"categories":[],"categories_nodes":[],"categories_segments":[],"categories_sizes":[],"default_left":[0,0,0,0,0,0,0],"id":8,"left_children":[1,3,-1,-1,5,-1,-1],"loss_changes":[6.4051445E3,1.960437E1,0E0,0E0,8.022226E0,0E0,0E0],"parents":[2147483647,0,0,1,1,4,4],"right_children":[2,4,-1,-1,6,-1,-1],"split_conditions":[9.682335E-1,1.2842335E-1,2.0811841E0,-1.6139795E-1,6.9746164E-10,-8.316832E-2,8.267717E-1],"split_indices":[22,36,0,0,16,0,0],"split_type":[0,0,0,0,0,0,0],"sum_hessian":[1.2777142E3,1.1511632E3,1.2655102E2,1.1485101E3,2.6530612E0,1.0612245E0,1.5918367E0],"tree_param":{"num_deleted":"0","num_feature":"57","num_nodes":"7","size_leaf_vector":"0"}},{"base_weights":[-3.8006932E-1,-5.308449E-1,6.525512E0,5.9527564E-1,-5.3563243E-1,1.9969627E0,5.9581393E-1,-1.6140799E-1,-2.8083214E-1,1.8558139E-1,-4.1578522E-1,3.68421E-2,-1.4713377E-1],"categories":[],"categories_nodes":[],"categories_segments":[],"categories_sizes":[],"default_left":[0,0,0,0,0,0,0,0,0,0,0,0,0],"id":9,"left_children":[1,3,5,-1,7,-1,-1,-1,9,-1,11,-1,-1],"loss_changes":[1.3348527E3,1.614209E1,3.0761719E0,0E0,6.1187744E-1,0E0,0E0,0E0,1.9243481E0,0E0,5.64517E-1,0E0,0E0],"parents":[2147483647,0,0,1,1,2,2,4,4,8,8,10,10],"right_children":[2,4,6,-1,8,-1,-1,-1,10,-1,12,-1,-1],"split_conditions":[3.3937272E-1,8.4639E-4,2.5844745E-5,5.9527564E-1,5.335256E-4,1.9969627E0,5.9581393E-1,-1.6140799E-1,1.2044752E-4,1.8558139E-1,8.566519E-3,3.68421E-2,-1.4713377E-1],"split_indices":[37,46,31,0,9,0,0,0,2,0,46,0,0],"split_type":[0,0,0,0,0,0,0,0,0,0,0,0,0],"sum_hessian":[1.2777142E3,1.2513163E3,2.6397959E1,1.5918367E0,1.2497245E3,2.520408E1,1.1938775E0,1.2369897E3,1.2734694E1,1.1938775E0,1.1540816E1,1.3265306E0,1.0214286E1],"tree_param":{"num_deleted":"0","num_feature":"57","num_nodes":"13","size_leaf_vector":"0"}},{"base_weights":[2.0802142E-1,-5.2499384E-1,2.0761828E0,-5.327814E-1,2.0726256E0,-5.362489E-1,3.978947E-1,9.394737E-1,3.68421E-2,-1.6139679E-1,-2.2750004E-1,-1.0750855E-1,3.15E-1,-1.3879313E-1,2.0792079E-1],"categories":[],"categories_nodes":[],"categories_segments":[],"categories_sizes":[],"default_left":[0,0,0,0,0,0,0,0,0,0,0,0,0,0,0],"id":10,"left_children":[1,3,-1,5,7,9,11,-1,-1,-1,13,-1,-1,-1,-1],"loss_changes":[6.2954565E3,2.4443695E1,0E0,3.9281616E0,7.158139E0,4.9404907E-1,2.7665906E0,0E0,0E0,0E0,2.087714E0,0E0,0E0,0E0,0E0],"parents":[2147483647,0,0,1,1,3,3,4,4,5,5,6,6,10,10],"right_children":[2,4,-1,6,8,10,12,-1,-1,-1,14,-1,-1,-1,-1],"split_conditions":[9.7368234E-1,5.023255E-1,2.0761828E0,4.7742976E-3,2.0879121E-1,5.5056403E-4,5.5668445E-4,9.394737E-1,3.68421E-2,-1.6139679E-1,9.923379E-1,-1.0750855E-1,3.15E-1,-1.3879313E-1,2.0792079E-1],"split_indices":[10,24,0,10,56,24,38,0,0,0,15,0,0,0,0],"split_type":[0,0,0,0,0,0,0,0,0,0,0,0,0,0,0],"sum_hessian":[1.2777142E3,1.1527551E3,1.2495918E2,1.150102E3,2.6530612E0,1.1462551E3,3.8469386E0,1.3265306E0,1.3265306E0,1.1390918E3,7.163265E0,1.9897959E0,1.8571428E0,6.102041E0,1.0612245E0],"tree_param":{"num_deleted":"0","num_feature":"57","num_nodes":"15","size_leaf_vector":"0"}},{"base_weights":[-4.6922495E-3,-5.0104165E-1,6.5976734E0,-5.2529955E-1,2.226361E0,2.8066561E0,2.0428848E0,-5.3121024E-1,1.3224181E0,-6.5830745E-2,2.8474576E0,1.0437126E0,3.68421E-2,-5.337516E-1,2.480315E-1,-9.210527E-2,6.6853935E-1,6.2376235E-2,-8.790698E-2,-8.316832E-2,3.33518E0,1.1797752E-1,-5.35448E-1,1.1962025E0,2.280899E-1,-1.6140014E-1,-2.000001E-2],"categories":[],"categories_nodes":[],"categories_segments":[],"categories_sizes":[],"default_left":[0,0,0,0,0,0,0,0,0,0,0,0,0,0,0,0,0,0,0,0,0,0,0,0,0,0,0],"id":11,"left_children":[1,3,5,7,9,11,-1,13,15,17,19,-1,-1,21,-1,-1,-1,-1,-1,-1,23,-1,25,-1,-1,-1,-1],"loss_changes":[4.193755E3,7.9916565E1,5.2782715E1,1.3595612E1,1.5397503E1,1.1192047E1,0E0,4.505066E0,6.6648774E0,2.633744E-1,1.3769569E1,0E0,0E0,2.059784E0,0E0,0E0,0E0,0E0,0E0,0E0,9.339958E0,0E0,1.3690796E0,0E0,0E0,0E0,0E0],"parents":[2147483647,0,0,1,1,2,2,3,3,4,4,5,5,7,7,8,8,9,9,10,10,13,13,20,20,22,22],"right_children":[2,4,6,8,10,12,-1,14,16,18,20,-1,-1,22,-1,-1,-1,-1,-1,-1,24,-1,26,-1,-1,-1,-1],"split_conditions":[5.1570773E-1,2.1124654E-1,4.2785984E-2,9.1172314E-1,1.5710102E-2,2.5844745E-5,2.0428848E0,9.16432E-1,5.1830096E-10,4.180914E-5,2.491111E-12,1.0437126E0,3.68421E-2,1.2086681E-3,2.480315E-1,-9.210527E-2,6.6853935E-1,6.2376235E-2,-8.790698E-2,-8.316832E-2,7.256465E-8,1.1797752E-1,5.315313E-2,1.1962025E0,2.280899E-1,-1.6140014E-1,-2.000001E-2],"split_indices":[39,39,53,11,55,31,0,25,30,0,18,0,0,42,0,0,0,0,0,0,27,0,11,0,0,0,0],"split_type":[0,0,0,0,0,0,0,0,0,0,0,0,0,0,0,0,0,0,0,0,0,0,0,0,0,0,0],"sum_hessian":[1.2777142E3,1.1892346E3,8.847959E1,1.179551E3,9.683673E0,5.4387755E0,8.304082E1,1.1765E3,3.0510204E0,2.255102E0,7.428571E0,4.1122446E0,1.3265306E0,1.1749081E3,1.5918367E0,1.3265306E0,1.7244897E0,1.0612245E0,1.1938775E0,1.0612245E0,6.367347E0,1.7244897E0,1.1731836E3,4.642857E0,1.7244897E0,1.1666836E3,6.5E0],"tree_param":{"num_deleted":"0","num_feature":"57","num_nodes":"27","size_leaf_vector":"0"}},{"base_weights":[-3.2767293E-1,-5.332037E-1,2.0253177E0,4.236842E-1,-5.3641814E-1,-1.6116567E-1,-2.4513622E-1,-1.2292684E-1,6.2376235E-2],"categories":[],"categories_nodes":[],"categories_segments":[],"categories_sizes":[],"default_left":[0,0,0,0,0,0,0,0,0],"id":12,"left_children":[1,3,-1,-1,5,-1,7,-1,-1],"loss_changes":[1.8639978E3,8.53421E0,0E0,0E0,1.5808105E-1,0E0,4.7637284E-1,0E0,0E0],"parents":[2147483647,0,0,1,1,4,4,6,6],"right_children":[2,4,-1,-1,6,-1,8,-1,-1],"split_conditions":[9.480174E-1,1.6639916E-4,2.0253177E0,4.236842E-1,5.743447E-2,-1.6116567E-1,4.2548424E-1,-1.2292684E-1,6.2376235E-2],"split_indices":[12,52,0,0,54,0,3,0,0],"split_type":[0,0,0,0,0,0,0,0,0],"sum_hessian":[1.2777142E3,1.2425612E3,3.515306E1,1.3265306E0,1.2412346E3,1.2369897E3,4.244898E0,3.1836734E0,1.0612245E0],"tree_param":{"num_deleted":"0","num_feature":"57","num_nodes":"9","size_leaf_vector":"0"}},{"base_weights":[-3.9805612E-1,-5.3563964E-1,6.302491E0,-5.372335E-1,1.8558139E-1,6.512438E0,3.223256E-1,-1.6140907E-1,-2.5237194E-1,1.9975164E0,5.9581393E-1,6.2376235E-2,-1.24113485E-1],"categories":[],"categories_nodes":[],"categories_segments":[],"categories_sizes":[],"default_left":[0,0,0,0,0,0,0,0,0,0,0,0,0],"id":13,"left_children":[1,3,5,7,-1,9,-1,-1,11,-1,-1,-1,-1],"loss_changes":[1.1822031E3,2.6391296E0,2.1328125E1,1.4852905E-1,0E0,3.0356445E0,0E0,0E0,4.8537484E-1,0E0,0E0,0E0,0E0],"parents":[2147483647,0,0,1,1,2,2,3,3,5,5,8,8],"right_children":[2,4,6,8,-1,10,-1,-1,12,-1,-1,-1,-1],"split_conditions":[3.5446146E-1,1.6665438E-1,8.1282353E-4,2.637554E-3,1.8558139E-1,1.4483489E-5,3.223256E-1,-1.6140907E-1,7.0013026E-5,1.9975164E0,5.9581393E-1,6.2376235E-2,-1.24113485E-1],"split_indices":[41,13,11,41,0,31,0,0,12,0,0,0,0],"split_type":[0,0,0,0,0,0,0,0,0,0,0,0,0],"sum_hessian":[1.2777142E3,1.2529081E3,2.4806122E1,1.2517142E3,1.1938775E0,2.3612244E1,1.1938775E0,1.2473367E3,4.377551E0,2.2418367E1,1.1938775E0,1.0612245E0,3.3163264E0],"tree_param":{"num_deleted":"0","num_feature":"57","num_nodes":"13","size_leaf_vector":"0"}},{"base_weights":[-1.23115085E-1,-5.2014923E-1,3.6327654E-1,-1.5694298E-1,2.4823338E-1,2.048207E-1,-1.08224414E-1],"categories":[],"categories_nodes":[],"categories_segments":[],"categories_sizes":[],"default_left":[0,0,0,0,0,0,0],"id":14,"left_children":[1,3,-1,-1,5,-1,-1],"loss_changes":[5.447406E2,1.952713E0,0E0,0E0,1.2395281E0,0E0,0E0],"parents":[2147483647,0,0,1,1,4,4],"right_children":[2,4,-1,-1,6,-1,-1],"split_conditions":[5.1739377E-1,6.009498E-2,3.6327654E-1,-1.5694298E-1,2.6164085E-2,2.048207E-1,-1.08224414E-1],"split_indices":[0,42,0,0,49,0,0],"split_type":[0,0,0,0,0,0,0],"sum_hessian":[1.0262866E3,7.9137024E2,2.3491638E2,7.886166E2,2.7536588E0,1.5363657E0,1.2172929E0],"tree_param":{"num_deleted":"0","num_feature":"57","num_nodes":"7","size_leaf_vector":"0"}},{"base_weights":[3.5637406E-1,-5.182934E-1,1.1857669E0,-5.2165896E-1,1.387838E-1,3.560183E-1,1.17465615E-1,-1.5691584E-1,-9.3947396E-2,6.956014E-2,-9.5782645E-2],"categories":[],"categories_nodes":[],"categories_segments":[],"categories_sizes":[],"default_left":[0,0,0,0,0,0,0,0,0,0,0],"id":15,"left_children":[1,3,5,7,-1,-1,-1,-1,9,-1,-1],"loss_changes":[1.0476685E3,2.5627747E0,1.0083008E-1,3.68927E-1,0E0,0E0,0E0,0E0,3.3075032E-1,0E0,0E0],"parents":[2147483647,0,0,1,1,2,2,3,3,8,8],"right_children":[2,4,6,8,-1,-1,-1,-1,10,-1,-1],"split_conditions":[4.6546867E-1,9.821853E-1,5.9206367E-2,1.0713694E-2,1.387838E-1,3.560183E-1,1.17465615E-1,-1.5691584E-1,4.0061195E-8,6.956014E-2,-9.5782645E-2],"split_indices":[29,1,25,15,0,0,0,0,36,0,0],"split_type":[0,0,0,0,0,0,0,0,0,0,0],"sum_hessian":[1.4423303E3,7.021874E2,7.40143E2,7.002529E2,1.9344337E0,7.387552E2,1.3878286E0,6.977561E2,2.4968364E0,1.0089372E0,1.4878993E0],"tree_param":{"num_deleted":"0","num_feature":"57","num_nodes":"11","size_leaf_vector":"0"}},{"base_weights":[-3.0255252E-1,-5.158185E-1,1.202807E0,-1.5692224E-1,3.391199E-1,-1.5240413E-2,1.2583464E0,1.4197923E0,-1.2832914E-1,-1.2306304E-1,1.7232725E-1,1.2686307E0,3.763596E-2,5.7222813E-1,6.042987E-2,7.068962E-1,3.6697614E-1],"categories":[],"categories_nodes":[],"categories_segments":[],"categories_sizes":[],"default_left":[0,0,0,0,0,0,0,0,0,0,0,0,0,0,0,0,0],"id":16,"left_children":[1,3,5,-1,7,9,11,13,-1,-1,-1,15,-1,-1,-1,-1,-1],"loss_changes":[2.970412E2,5.1983795E0,7.79039E0,0E0,6.755242E0,1.6324644E0,1.1210327E0,1.5827241E0,0E0,0E0,0E0,2.4865265E0,0E0,0E0,0E0,0E0,0E0],"parents":[2147483647,0,0,1,1,2,2,4,4,5,5,6,6,7,7,11,11],"right_children":[2,4,6,-1,8,10,12,14,-1,-1,-1,16,-1,-1,-1,-1,-1],"split_conditions":[1.602217E-2,5.7566212E-3,1.3384293E-2,-1.5692224E-1,3.0054644E-1,3.511115E-1,1.412998E-4,1.7549338E-2,-1.2832914E-1,-1.2306304E-1,1.7232725E-1,3.511115E-1,3.763596E-2,5.7222813E-1,6.042987E-2,7.068962E-1,3.6697614E-1],"split_indices":[30,2,45,0,56,16,41,11,0,0,0,16,0,0,0,0,0],"split_type":[0,0,0,0,0,0,0,0,0,0,0,0,0,0,0,0,0],"sum_hessian":[9.223085E2,8.084341E2,1.1387442E2,8.020158E2,6.4182878E0,4.997561E0,1.0887686E2,2.310713E0,4.107575E0,3.175127E0,1.8224338E0,1.0777864E2,1.0982213E0,1.246318E0,1.0643951E0,2.2767718E0,1.0550187E2],"tree_param":{"num_deleted":"0","num_feature":"57","num_nodes":"17","size_leaf_vector":"0"}},{"base_weights":[2.2733124E-1,-5.14998E-1,1.1931857E0,-5.217403E-1,5.2985615E-1,-1.2689652E-1,1.2039132E0,-1.5691413E-1,-1.2296169E-1,-1.0869082E-1,2.626901E-1,1.2077501E0,-9.5422655E-2,6.824237E-2,-1.0231677E-1,1.8801397E0,3.5760418E-1,6.6753274E-1,9.6961665E-1,3.728559E-1,3.8947664E-2],"categories":[],"categories_nodes":[],"categories_segments":[],"categories_sizes":[],"default_left":[0,0,0,0,0,0,0,0,0,0,0,0,0,0,0,0,0,0,0,0,0],"id":17,"left_children":[1,3,5,7,9,-1,11,-1,13,-1,-1,15,-1,-1,-1,17,-1,-1,19,-1,-1],"loss_changes":[9.28831E2,5.438156E0,1.0268677E1,3.1532288E-1,1.9194945E0,0E0,3.651245E0,0E0,3.5936403E-1,0E0,0E0,3.6657104E0,0E0,0E0,0E0,1.3083344E0,0E0,0E0,9.410057E-1,0E0,0E0],"parents":[2147483647,0,0,1,1,2,2,3,3,4,4,6,6,8,8,11,11,15,15,18,18],"right_children":[2,4,6,8,10,-1,12,-1,14,-1,-1,16,-1,-1,-1,18,-1,-1,20,-1,-1],"split_conditions":[2.3968277E-2,6.5168905E-1,5.7396054E-4,8.337772E-2,3.7695692E-4,-1.2689652E-1,8.3894366E-1,-1.5691413E-1,1.0798207E-4,-1.0869082E-1,2.626901E-1,6.5168905E-1,-9.5422655E-2,6.824237E-2,-1.0231677E-1,7.924316E-5,3.5760418E-1,6.6753274E-1,2.6801138E-4,3.728559E-1,3.8947664E-2],"split_indices":[3,31,31,45,11,0,39,0,2,0,0,31,0,0,0,21,0,0,6,0,0],"split_type":[0,0,0,0,0,0,0,0,0,0,0,0,0,0,0,0,0,0,0,0,0],"sum_hessian":[1.2936162E3,7.317104E2,5.619058E2,7.2751654E2,4.1938744E0,3.4517188E0,5.584541E2,7.2482965E2,2.6868963E0,1.1580741E0,3.0358005E0,5.5725574E2,1.1983731E0,1.0142219E0,1.6726743E0,1.0034088E1,5.472216E2,6.2299714E0,3.804117E0,2.5081158E0,1.2960012E0],"tree_param":{"num_deleted":"0","num_feature":"57","num_nodes":"21","size_leaf_vector":"0"}},{"base_weights":[-3.0708903E-1,-1.5693009E-1,1.2284685E0,4.110548E-2,3.7177384E-1],"categories":[],"categories_nodes":[],"categories_segments":[],"categories_sizes":[],"default_left":[0,0,0,0,0],"id":18,"left_children":[1,-1,3,-1,-1],"loss_changes":[3.0716663E2,0E0,1.1743011E0,0E0,0E0],"parents":[2147483647,0,0,2,2],"right_children":[2,-1,4,-1,-1],"split_conditions":[5.029453E-2,-1.5693009E-1,2.1695644E-3,4.110548E-2,3.7177384E-1],"split_indices":[32,0,4,0,0],"split_type":[0,0,0,0,0],"sum_hessian":[9.2310657E2,8.09843E2,1.1326357E2,1.2415798E0,1.1202199E2],"tree_param":{"num_deleted":"0","num_feature":"57","num_nodes":"5","size_leaf_vector":"0"}},{"base_weights":[1.183475E-1,-5.1783323E-1,1.1860255E0,-1.5691236E-1,-1.636755E-1,-9.763228E-2,1.1918126E0,-1.4231837E-1,7.845672E-1,1.1965926E0,-3.0897686E-2,4.937766E-1,-9.174524E-2,3.7175184E-1,1.200202E0,1.6652311E-1,1.5522655E-2,6.3264716E-1,1.1893641E0,3.5748225E-1,9.162609E-2],"categories":[],"categories_nodes":[],"categories_segments":[],"categories_sizes":[],"default_left":[0,0,0,0,0,0,0,0,0,0,0,0,0,0,0,0,0,0,0,0,0],"id":19,"left_children":[1,3,5,-1,7,-1,9,-1,11,13,-1,-1,-1,15,17,-1,-1,-1,19,-1,-1],"loss_changes":[8.153923E2,1.302063E0,4.3081665E0,0E0,4.013542E0,0E0,2.8879395E0,0E0,3.7220426E0,8.7908936E-1,0E0,0E0,0E0,1.7004511E-1,1.8517456E0,0E0,0E0,0E0,5.0823975E-1,0E0,0E0],"parents":[2147483647,0,0,1,1,2,2,4,4,6,6,8,8,9,9,13,13,14,14,18,18],"right_children":[2,4,6,-1,8,-1,10,-1,12,14,-1,-1,-1,16,18,-1,-1,-1,20,-1,-1],"split_conditions":[3.1665724E-2,1.0314055E-3,1.2193344E-3,-1.5691236E-1,4.800578E-3,-9.763228E-2,9.334996E-4,-1.4231837E-1,1.4778408E-2,1.3166768E-2,-3.0897686E-2,4.937766E-1,-9.174524E-2,9.323121E-3,4.4736576E-1,1.6652311E-1,1.5522655E-2,6.3264716E-1,5.9206367E-2,3.5748225E-1,9.162609E-2],"split_indices":[5,5,33,0,19,0,4,0,45,47,0,0,0,53,33,0,0,0,25,0,0],"split_type":[0,0,0,0,0,0,0,0,0,0,0,0,0,0,0,0,0,0,0,0,0],"sum_hessian":[1.1985505E3,7.5136273E2,4.4718787E2,7.4000397E2,1.1358757E1,1.494983E0,4.456929E2,8.93173E0,2.4270267E0,4.4412918E2,1.5637227E0,1.071278E0,1.3557488E0,2.3881054E0,4.4174106E2,1.0512872E0,1.3368181E0,2.9251685E0,4.388159E2,4.3735785E2,1.4580587E0],"tree_param":{"num_deleted":"0","num_feature":"57","num_nodes":"21","size_leaf_vector":"0"}},{"base_weights":[-7.58336E-2,-5.175329E-1,3.6083293E-1,-1.5655774E-1,5.417426E-1,3.3261824E-2,2.1379122E-1],"categories":[],"categories_nodes":[],"categories_segments":[],"categories_sizes":[],"default_left":[0,0,0,0,0,0,0],"id":20,"left_children":[1,3,-1,-1,5,-1,-1],"loss_changes":[5.977596E2,3.8871918E0,0E0,0E0,1.9269168E-1,0E0,0E0],"parents":[2147483647,0,0,1,1,4,4],"right_children":[2,4,-1,-1,6,-1,-1],"split_conditions":[7.222665E-1,3.058617E-1,3.6083293E-1,-1.5655774E-1,1.0671606E-2,3.3261824E-2,2.1379122E-1],"split_indices":[20,6,0,0,53,0,0],"split_type":[0,0,0,0,0,0,0],"sum_hessian":[1.0563269E3,7.855513E2,2.7077557E2,7.828613E2,2.6899524E0,1.2321532E0,1.4577992E0],"tree_param":{"num_deleted":"0","num_feature":"57","num_nodes":"7","size_leaf_vector":"0"}},{"base_weights":[2.7310196E-1,-5.093884E-1,1.18262E0,-5.1616627E-1,7.940509E-1,3.8612792E-1,1.1987526E0,-5.2164596E-1,-1.5436038E-1,4.1481298E-1,-9.121453E-2,-2.7584502E-1,7.805399E-1,1.20163E0,5.687E-2,-1.568948E-1,-3.078679E-1,-1.3824594E-1,3.274663E-1,7.070938E-2,-1.2881783E-1,9.874231E-1,-1.05897024E-1,1.203681E0,4.0928677E-2,-1.3073851E-1,5.840304E-2,-1.7101926E-1,3.649041E-1,7.5974815E-2,1.1429021E0,1.8988011E0,1.1943629E0,-1.0841107E-1,6.344306E-2,1.1739925E-1,3.8415554E-1,6.3649523E-1,1.7194077E-1,3.5929024E-1,1.4840218E-1],"categories":[],"categories_nodes":[],"categories_segments":[],"categories_sizes":[],"default_left":[0,0,0,0,0,0,0,0,0,0,0,0,0,0,0,0,0,0,0,0,0,0,0,0,0,0,0,0,0,0,0,0,0,0,0,0,0,0,0,0,0],"id":21,"left_children":[1,3,5,7,9,11,13,15,17,-1,-1,19,21,23,-1,-1,25,-1,27,-1,-1,29,-1,31,-1,-1,-1,33,-1,-1,35,37,39,-1,-1,-1,-1,-1,-1,-1,-1],"loss_changes":[9.50418E2,6.7539215E0,7.4716797E0,1.3370056E0,3.0763223E0,3.801134E0,1.5282593E0,4.0115356E-2,1.9357378E0,0E0,0E0,5.620085E-1,2.4280362E0,1.1528931E0,0E0,0E0,5.223248E-1,0E0,2.54923E0,0E0,0E0,5.9660006E-1,0E0,1.6286621E0,0E0,0E0,0E0,3.867334E-1,0E0,0E0,1.3197327E-1,6.339512E-1,7.7246094E-1,0E0,0E0,0E0,0E0,0E0,0E0,0E0,0E0],"parents":[2147483647,0,0,1,1,2,2,3,3,4,4,5,5,6,6,7,7,8,8,11,11,12,12,13,13,16,16,18,18,21,21,23,23,27,27,30,30,31,31,32,32],"right_children":[2,4,6,8,10,12,14,16,18,-1,-1,20,22,24,-1,-1,26,-1,28,-1,-1,30,-1,32,-1,-1,-1,34,-1,-1,36,38,40,-1,-1,-1,-1,-1,-1,-1,-1],"split_conditions":[1.5701199E-1,2.615703E-1,3.8196262E-2,6.973229E-4,6.541429E-8,3.0511985E-2,4.5234222E-2,3.6351404E-3,9.16432E-1,4.1481298E-1,-9.121453E-2,9.03892E-3,2.2669398E-4,8.168351E-1,5.687E-2,-1.568948E-1,1.0860849E-1,-1.3824594E-1,1.5010731E-4,7.070938E-2,-1.2881783E-1,1.5309358E-10,-1.05897024E-1,3.0511985E-2,4.0928677E-2,-1.3073851E-1,5.840304E-2,6.5202277E-10,3.649041E-1,7.5974815E-2,8.583264E-5,2.2836345E-4,5.2688154E-4,-1.0841107E-1,6.344306E-2,1.1739925E-1,3.8415554E-1,6.3649523E-1,1.7194077E-1,3.5929024E-1,1.4840218E-1],"split_indices":[35,21,7,21,33,49,31,7,25,0,0,52,31,53,0,0,33,0,9,0,0,19,0,49,0,0,0,26,0,0,5,10,10,0,0,0,0,0,0,0,0],"split_type":[0,0,0,0,0,0,0,0,0,0,0,0,0,0,0,0,0,0,0,0,0,0,0,0,0,0,0,0,0,0,0,0,0,0,0,0,0,0,0,0,0],"sum_hessian":[1.3335933E3,7.1709296E2,6.165003E2,7.1398425E2,3.1087356E0,1.2734057E1,6.0376624E2,7.028968E2,1.1087437E1,1.8550907E0,1.2536448E0,4.866627E0,7.86743E0,6.0185956E2,1.9066793E0,6.970918E2,5.8049736E0,6.8036594E0,4.2837777E0,1.0000279E0,3.8665993E0,6.76215E0,1.1052803E0,6.005732E2,1.2863945E0,4.732977E0,1.0719968E0,3.2620287E0,1.0217489E0,1.6412035E0,5.1209464E0,5.262002E0,5.953112E2,2.21497E0,1.0470587E0,1.3874152E0,3.733531E0,3.9907057E0,1.271296E0,5.918325E2,3.478672E0],"tree_param":{"num_deleted":"0","num_feature":"57","num_nodes":"41","size_leaf_vector":"0"}},{"base_weights":[1.3656312E-1,-5.221322E-1,1.1904746E0,3.1517148E-2,-1.5697876E-1,3.0684551E-2,3.5785204E-1],"categories":[],"categories_nodes":[],"categories_segments":[],"categories_sizes":[],"default_left":[0,0,0,0,0,0,0],"id":22,"left_children":[1,3,5,-1,-1,-1,-1],"loss_changes":[8.460688E2,5.867462E-1,1.0844727E0,0E0,0E0,0E0,0E0],"parents":[2147483647,0,0,1,1,2,2],"right_children":[2,4,6,-1,-1,-1,-1],"split_conditions":[1.2842335E-1,7.887713E-3,1.1745653E-2,3.1517148E-2,-1.5697876E-1,3.0684551E-2,3.5785204E-1],"split_indices":[36,49,50,0,0,0,0],"split_type":[0,0,0,0,0,0,0],"sum_hessian":[1.2168611E3,7.4914777E2,4.6771326E2,1.1822312E0,7.479656E2,1.1104108E0,4.6660284E2],"tree_param":{"num_deleted":"0","num_feature":"57","num_nodes":"7","size_leaf_vector":"0"}},{"base_weights":[-3.3207563E-1,-5.1837313E-1,1.2311702E0,-5.219854E-1,1.4348303E-1,1.2676191E0,-1.4438093E-1,-1.5694775E-1,-2.3888813E-1,3.0677056E-1,-1.1897218E-1,1.2840325E0,1.2419247E-1,4.9156833E-2,-1.0222756E-1,6.665248E-2,-1.21399075E-1,3.7048793E-1,7.107417E-1],"categories":[],"categories_nodes":[],"categories_segments":[],"categories_sizes":[],"default_left":[0,0,0,0,0,0,0,0,0,0,0,0,0,0,0,0,0,0,0],"id":23,"left_children":[1,3,5,7,9,11,13,-1,15,-1,-1,17,-1,-1,-1,-1,-1,-1,-1],"loss_changes":[2.6558643E2,2.0200348E0,5.054901E0,1.4396667E-1,2.8745863E0,7.962036E-1,2.6200843E-1,0E0,4.8599446E-1,0E0,0E0,1.9998016E0,0E0,0E0,0E0,0E0,0E0,0E0,0E0],"parents":[2147483647,0,0,1,1,2,2,3,3,4,4,5,5,6,6,8,8,11,11],"right_children":[2,4,6,8,10,12,14,-1,16,-1,-1,18,-1,-1,-1,-1,-1,-1,-1],"split_conditions":[2.2733186E-3,7.8566006E-4,1.6978383E-3,5.335256E-4,1.762693E-4,2.1183375E-2,1.0929429E-3,-1.5694775E-1,2.8515925E-9,3.0677056E-1,-1.1897218E-1,2.5844745E-5,1.2419247E-1,4.9156833E-2,-1.0222756E-1,6.665248E-2,-1.21399075E-1,3.7048793E-1,7.107417E-1],"split_indices":[9,9,5,9,2,48,2,0,15,0,0,31,0,0,0,0,0,0,0],"split_type":[0,0,0,0,0,0,0,0,0,0,0,0,0,0,0,0,0,0,0],"sum_hessian":[9.087597E2,8.12589E2,9.61707E1,8.083883E2,4.200695E0,9.376462E1,2.4060822E0,8.042061E2,4.18217E0,1.2585791E0,2.942116E0,9.1501114E1,2.2634985E0,1.0008076E0,1.4052746E0,1.0160537E0,3.1661162E0,8.958771E1,1.9134086E0],"tree_param":{"num_deleted":"0","num_feature":"57","num_nodes":"19","size_leaf_vector":"0"}},{"base_weights":[1.3525066E-1,-5.1700366E-1,1.1922815E0,-1.5692407E-1,2.4856133E-2,-1.1695185E-1,1.1984391E0,4.2269614E-1,-3.8422465E-1,1.2007672E0,3.552639E-2,-1.4475408E-1,4.41853E-2,3.567531E-1,1.9256427E0,1.4952093E-1,6.539071E-1],"categories":[],"categories_nodes":[],"categories_segments":[],"categories_sizes":[],"default_left":[0,0,0,0,0,0,0,0,0,0,0,0,0,0,0,0,0],"id":24,"left_children":[1,3,5,-1,7,-1,9,-1,11,13,-1,-1,-1,-1,15,-1,-1],"loss_changes":[8.375083E2,2.4869232E0,4.982605E0,0E0,5.7998786E0,0E0,1.0192871E0,0E0,4.866022E-1,1.5817871E0,0E0,0E0,0E0,0E0,9.5783997E-1,0E0,0E0],"parents":[2147483647,0,0,1,1,2,2,4,4,6,6,8,8,9,9,14,14],"right_children":[2,4,6,-1,8,-1,10,-1,12,14,-1,-1,-1,-1,16,-1,-1],"split_conditions":[2.2488146E-1,5.5668445E-4,6.444725E-3,-1.5692407E-1,1.3214207E-2,-1.1695185E-1,8.6335733E-4,4.2269614E-1,7.5769186E-1,1.322291E-4,3.552639E-2,-1.4475408E-1,4.41853E-2,3.567531E-1,1.0565782E-10,1.4952093E-1,6.539071E-1],"split_indices":[38,38,42,0,51,0,17,0,52,12,0,0,0,0,35,0,0],"split_type":[0,0,0,0,0,0,0,0,0,0,0,0,0,0,0,0,0],"sum_hessian":[1.2128491E3,7.5034814E2,4.6250098E2,7.4206116E2,8.287024E0,1.551482E0,4.609495E2,1.3328911E0,6.9541326E0,4.5984644E2,1.1030452E0,5.9466367E0,1.0074959E0,4.5520862E2,4.6378274E0,1.1483345E0,3.4894931E0],"tree_param":{"num_deleted":"0","num_feature":"57","num_nodes":"17","size_leaf_vector":"0"}},{"base_weights":[5.839252E-3,-5.139752E-1,1.1772536E0,-5.178655E-1,3.6361867E-1,-7.207942E-2,1.2065451E0,-1.5689223E-1,1.28824385E-2,-3.736822E-1,2.6951596E-1,-2.2145101E-1,1.2212616E0,3.408503E-1,-1.3650456E-1,-1.5220158E-1,6.1949894E-2,4.722594E-2,-1.1745585E-1,-1.0570861E-1,1.2287028E0,1.2335943E0,2.4197623E-2,5.249131E-1,3.6243057E-1],"categories":[],"categories_nodes":[],"categories_segments":[],"categories_sizes":[],"default_left":[0,0,0,0,0,0,0,0,0,0,0,0,0,0,0,0,0,0,0,0,0,0,0,0,0],"id":25,"left_children":[1,3,5,7,-1,9,11,-1,13,15,-1,17,19,-1,-1,-1,-1,-1,-1,-1,21,23,-1,-1,-1],"loss_changes":[6.700758E2,5.745743E0,1.2464386E1,2.0706482E0,0E0,2.8798048E0,7.2166443E0,0E0,4.844033E0,6.737412E-1,0E0,3.334251E-1,4.265747E0,0E0,0E0,0E0,0E0,0E0,0E0,0E0,1.7312012E0,2.15625E0,0E0,0E0,0E0],"parents":[2147483647,0,0,1,1,2,2,3,3,5,5,6,6,8,8,9,9,11,11,12,12,20,20,21,21],"right_children":[2,4,6,8,-1,10,12,-1,14,16,-1,18,20,-1,-1,-1,-1,-1,-1,-1,22,24,-1,-1,-1],"split_conditions":[1.8846976E-2,8.168351E-1,1.2190484E-4,5.315313E-2,3.6361867E-1,1.63423E-5,1.3819212E-2,-1.5689223E-1,3.4310194E-12,9.9835557E-1,2.6951596E-1,7.7903656E-5,3.7121048E-5,3.408503E-1,-1.3650456E-1,-1.5220158E-1,6.1949894E-2,4.722594E-2,-1.1745585E-1,-1.0570861E-1,9.74376E-1,2.3497188E-2,2.4197623E-2,5.249131E-1,3.6243057E-1],"split_indices":[39,53,25,11,0,24,55,0,34,7,0,1,4,0,0,0,0,0,0,0,3,53,0,0,0],"split_type":[0,0,0,0,0,0,0,0,0,0,0,0,0,0,0,0,0,0,0,0,0,0,0,0,0],"sum_hessian":[1.0984429E3,7.612153E2,3.3722763E2,7.6020184E2,1.0134225E0,7.691957E0,3.2953568E2,7.52969E2,7.2328825E0,6.3373666E0,1.3545903E0,3.2181501E0,3.2631754E2,1.7068927E0,5.5259895E0,5.2528267E0,1.08454E0,1.0200664E0,2.1980839E0,1.3176477E0,3.2499988E2,3.235468E2,1.4530699E0,1.2045187E1,3.1150162E2],"tree_param":{"num_deleted":"0","num_feature":"57","num_nodes":"25","size_leaf_vector":"0"}},{"base_weights":[-2.8000447E-1,-5.144184E-1,3.688158E-1,6.962595E-1,-5.1993877E-1,-1.3646993E-1,4.8397645E-1,-1.5656263E-1,1.0150548E-1,-1.048746E-1,4.601436E-2],"categories":[],"categories_nodes":[],"categories_segments":[],"categories_sizes":[],"default_left":[0,0,0,0,0,0,0,0,0,0,0],"id":26,"left_children":[1,3,-1,5,7,9,-1,-1,-1,-1,-1],"loss_changes":[3.3269687E2,5.7959595E0,0E0,3.3646917E0,1.5228119E0,2.4388304E-1,0E0,0E0,0E0,0E0,0E0],"parents":[2147483647,0,0,1,1,3,3,4,4,5,5],"right_children":[2,4,-1,6,8,10,-1,-1,-1,-1,-1],"split_conditions":[9.8677164E-1,1.6639916E-4,3.688158E-1,1.8605642E-4,9.480174E-1,8.040305E-5,4.8397645E-1,-1.5656263E-1,1.0150548E-1,-1.048746E-1,4.601436E-2],"split_indices":[26,52,0,6,12,0,0,0,0,0,0],"split_type":[0,0,0,0,0,0,0,0,0,0,0],"sum_hessian":[9.3750665E2,8.120513E2,1.2545541E2,3.1179864E0,8.089333E2,2.0801582E0,1.0378283E0,8.0750323E2,1.4300297E0,1.08001E0,1.000148E0],"tree_param":{"num_deleted":"0","num_feature":"57","num_nodes":"11","size_leaf_vector":"0"}},{"base_weights":[-3.522772E-1,-5.2077025E-1,1.2580094E0,-1.5692106E-1,-9.2753775E-2,1.2798384E0,2.3434617E-1,2.0420289E-1,-1.2897466E-1,1.2632994E-1,1.2891868E0,1.8972291E-1,-8.3599105E-2,1.235042E0,5.5195373E-1,3.7502363E-1,3.298891E-2],"categories":[],"categories_nodes":[],"categories_segments":[],"categories_sizes":[],"default_left":[0,0,0,0,0,0,0,0,0,0,0,0,0,0,0,0,0],"id":27,"left_children":[1,3,5,-1,7,9,11,-1,-1,-1,13,-1,-1,15,-1,-1,-1],"loss_changes":[2.4507031E2,7.549591E-1,1.6133728E0,0E0,1.7472092E0,1.2832642E-1,7.912897E-1,0E0,0E0,0E0,1.7930603E-1,0E0,0E0,1.1805191E0,0E0,0E0,0E0],"parents":[2147483647,0,0,1,1,2,2,4,4,5,5,6,6,10,10,13,13],"right_children":[2,4,6,-1,8,10,12,-1,-1,-1,14,-1,-1,16,-1,-1,-1],"split_conditions":[1.6665438E-1,2.637554E-3,1.6815622E-3,-1.5692106E-1,9.12479E-5,2.4183927E-2,4.2472093E-4,2.0420289E-1,-1.2897466E-1,1.2632994E-1,5.971825E-4,1.8972291E-1,-8.3599105E-2,2.5423167E-2,5.5195373E-1,3.7502363E-1,3.298891E-2],"split_indices":[13,41,0,0,11,55,11,0,0,0,5,0,0,45,0,0,0],"split_type":[0,0,0,0,0,0,0,0,0,0,0,0,0,0,0,0,0],"sum_hessian":[8.9983026E2,8.152073E2,8.462298E1,8.1062933E2,4.577981E0,8.2611084E1,2.011892E0,1.08051E0,3.497471E0,1.3854878E0,8.12256E1,1.0018079E0,1.0100842E0,7.6906425E1,4.3191705E0,7.5782486E1,1.123942E0],"tree_param":{"num_deleted":"0","num_feature":"57","num_nodes":"17","size_leaf_vector":"0"}},{"base_weights":[-1.14447184E-1,-5.142434E-1,9.2384994E-1,-1.5530352E-1,2.0434724E-1,9.270765E-1,2.7545588E-2,1.7370817E-1,-1.06081374E-1,4.635149E-1,2.7457005E-1],"categories":[],"categories_nodes":[],"categories_segments":[],"categories_sizes":[],"default_left":[0,0,0,0,0,0,0,0,0,0,0],"id":28,"left_children":[1,3,5,-1,7,9,-1,-1,-1,-1,-1],"loss_changes":[3.6080713E2,1.6543274E0,5.636902E-1,0E0,9.7857356E-1,3.4706116E-1,0E0,0E0,0E0,0E0,0E0],"parents":[2147483647,0,0,1,1,2,2,4,4,5,5],"right_children":[2,4,6,-1,8,10,-1,-1,-1,-1,-1],"split_conditions":[5.1739377E-1,6.009498E-2,5.029453E-2,-1.5530352E-1,2.6164085E-2,3.189266E-2,2.7545588E-2,1.7370817E-1,-1.06081374E-1,4.635149E-1,2.7457005E-1],"split_indices":[0,42,32,0,49,42,0,0,0,0,0],"split_type":[0,0,0,0,0,0,0,0,0,0,0],"sum_hessian":[8.670456E2,6.2636755E2,2.4067807E2,6.2366595E2,2.7015753E0,2.3963455E2,1.0435208E0,1.5936335E0,1.1079416E0,2.0717132E0,2.3756284E2],"tree_param":{"num_deleted":"0","num_feature":"57","num_nodes":"11","size_leaf_vector":"0"}},{"base_weights":[3.0549908E-1,-5.119111E-1,9.084104E-1,-5.158199E-1,1.1666355E-1,1.15275225E-2,9.1002536E-1,-1.5526976E-1,-7.453737E-2,2.7417797E-1,6.053252E-1,7.018986E-2,-9.197549E-2,-1.5658253E-1,7.766999E-1,2.683366E-1,2.0778596E-3],"categories":[],"categories_nodes":[],"categories_segments":[],"categories_sizes":[],"default_left":[0,0,0,0,0,0,0,0,0,0,0,0,0,0,0,0,0],"id":29,"left_children":[1,3,5,7,-1,-1,9,-1,11,-1,13,-1,-1,-1,15,-1,-1],"loss_changes":[6.466124E2,2.1624908E0,1.0256958E0,3.8917542E-1,0E0,0E0,3.4246826E-1,0E0,3.1199706E-1,0E0,2.8176045E0,0E0,0E0,0E0,1.0127149E0,0E0,0E0],"parents":[2147483647,0,0,1,1,2,2,3,3,6,6,8,8,10,10,14,14],"right_children":[2,4,6,8,-1,-1,10,-1,12,-1,14,-1,-1,-1,16,-1,-1],"split_conditions":[4.6546867E-1,9.821853E-1,1.0713694E-2,1.0713694E-2,1.1666355E-1,1.15275225E-2,5.5056403E-4,-1.5526976E-1,1.1036302E-4,2.7417797E-1,4.6967773E-5,7.018986E-2,-9.197549E-2,-1.5658253E-1,4.2472093E-4,2.683366E-1,2.0778596E-3],"split_indices":[29,1,15,15,0,0,24,0,9,0,7,0,0,0,11,0,0],"split_type":[0,0,0,0,0,0,0,0,0,0,0,0,0,0,0,0,0],"sum_hessian":[1.310107E3,5.5619055E2,7.539165E2,5.54213E2,1.977567E0,1.4428834E0,7.5247363E2,5.5185675E2,2.3562636E0,7.409871E2,1.1486536E1,1.0079466E0,1.348317E0,1.2458669E0,1.0240669E1,8.741478E0,1.4991907E0],"tree_param":{"num_deleted":"0","num_feature":"57","num_nodes":"17","size_leaf_vector":"0"}},{"base_weights":[-2.8645104E-1,-5.131383E-1,8.9677703E-1,-5.161199E-1,1.9091189E-1,-1.6494882E-1,9.4136274E-1,-1.5528226E-1,-9.891006E-2,-1.2427402E-1,1.3061647E-1,9.503866E-1,1.0949883E-2,-9.62718E-2,6.788997E-2,9.5917636E-1,2.984973E-2,9.1491085E-1,1.1905516E0,2.7724484E-1,1.7266653E-2,2.573244E-1,4.4007945E-1],"categories":[],"categories_nodes":[],"categories_segments":[],"categories_sizes":[],"default_left":[0,0,0,0,0,0,0,0,0,0,0,0,0,0,0,0,0,0,0,0,0,0,0],"id":30,"left_children":[1,3,5,7,-1,9,11,-1,13,-1,-1,15,-1,-1,-1,17,-1,19,21,-1,-1,-1,-1],"loss_changes":[2.043287E2,2.5168304E0,5.9574127E0,3.4440613E-1,0E0,1.0469913E0,9.270096E-1,0E0,3.2536682E-1,0E0,0E0,7.764435E-1,0E0,0E0,0E0,9.131622E-2,0E0,7.47406E-1,1.3908577E-1,0E0,0E0,0E0,0E0],"parents":[2147483647,0,0,1,1,2,2,3,3,5,5,6,6,8,8,11,11,15,15,17,17,18,18],"right_children":[2,4,6,8,-1,10,12,-1,14,-1,-1,16,-1,-1,-1,18,-1,20,22,-1,-1,-1,-1],"split_conditions":[5.7566212E-3,3.6627433E-1,8.39899E-3,1.602217E-2,1.9091189E-1,3.511115E-1,2.3968277E-2,-1.5528226E-1,7.282799E-4,-1.2427402E-1,1.3061647E-1,9.907794E-1,1.0949883E-2,-9.62718E-2,6.788997E-2,4.2161486E-5,2.984973E-2,4.22814E-4,2.7112206E-9,2.7724484E-1,1.7266653E-2,2.573244E-1,4.4007945E-1],"split_indices":[2,30,42,30,0,16,3,0,5,0,0,21,0,0,0,21,0,6,26,0,0,0,0],"split_type":[0,0,0,0,0,0,0,0,0,0,0,0,0,0,0,0,0,0,0,0,0,0,0],"sum_hessian":[7.5907166E2,6.375028E2,1.2156886E2,6.3640314E2,1.0996919E0,4.7905726E0,1.1677829E2,6.339023E2,2.500863E0,3.603958E0,1.1866148E0,1.1557539E2,1.2028961E0,1.4941535E0,1.0067096E0,1.1426772E2,1.307667E0,1.0007594E2,1.4191779E1,9.8931984E1,1.1439643E0,8.30037E0,5.8914084E0],"tree_param":{"num_deleted":"0","num_feature":"57","num_nodes":"23","size_leaf_vector":"0"}},{"base_weights":[1.9890882E-1,-5.0822437E-1,9.1273904E-1,-5.159301E-1,4.3308222E-1,-1.2170119E-1,9.203581E-1,-1.552699E-1,-1.02463864E-1,-9.868731E-2,2.1007763E-1,9.231976E-1,-9.063299E-2,6.862631E-2,-9.775906E-2,9.1375864E-1,1.2739683E0,7.0965653E-3,2.747265E-1,1.4471036E0,4.3093196E-1,2.6053876E-1,5.195105E-1,1.6695122E-1,2.047449E-2],"categories":[],"categories_nodes":[],"categories_segments":[],"categories_sizes":[],"default_left":[0,0,0,0,0,0,0,0,0,0,0,0,0,0,0,0,0,0,0,0,0,0,0,0,0],"id":31,"left_children":[1,3,5,7,9,-1,11,-1,13,-1,-1,15,-1,-1,-1,17,19,-1,-1,21,23,-1,-1,-1,-1],"loss_changes":[5.835417E2,4.43721E0,6.151245E0,3.3709717E-1,1.3014231E0,0E0,2.2651367E0,0E0,3.349955E-1,0E0,0E0,7.2683716E-1,0E0,0E0,0E0,9.729004E-1,1.190525E0,0E0,0E0,1.24320984E-1,1.2332028E-1,0E0,0E0,0E0,0E0],"parents":[2147483647,0,0,1,1,2,2,3,3,4,4,6,6,8,8,11,11,15,15,16,16,19,19,20,20],"right_children":[2,4,6,8,10,-1,12,-1,14,-1,-1,16,-1,-1,-1,18,20,-1,-1,22,24,-1,-1,-1,-1],"split_conditions":[2.3968277E-2,6.5168905E-1,5.7396054E-4,8.337772E-2,3.7695692E-4,-1.2170119E-1,8.3894366E-1,-1.552699E-1,1.4125171E-8,-9.868731E-2,2.1007763E-1,2.7869606E-2,-9.063299E-2,6.862631E-2,-9.775906E-2,1.26692755E-2,4.237289E-6,7.0965653E-3,2.747265E-1,7.347666E-5,1.6897096E-4,2.6053876E-1,5.195105E-1,1.6695122E-1,2.047449E-2],"split_indices":[3,31,31,45,11,0,39,0,35,0,0,54,0,0,0,48,38,0,0,7,12,0,0,0,0],"split_type":[0,0,0,0,0,0,0,0,0,0,0,0,0,0,0,0,0,0,0,0,0,0,0,0,0],"sum_hessian":[1.1541287E3,5.799287E2,5.741999E2,5.756681E2,4.2606673E0,2.999038E0,5.712008E2,5.7314813E2,2.5199163E0,1.0460085E0,3.2146592E0,5.701214E2,1.0794586E0,1.0053657E0,1.5145507E0,5.586924E2,1.14290085E1,1.2790154E0,5.574133E2,8.887281E0,2.5417273E0,4.265751E0,4.6215305E0,1.491068E0,1.0506593E0],"tree_param":{"num_deleted":"0","num_feature":"57","num_nodes":"25","size_leaf_vector":"0"}},{"base_weights":[-2.9257062E-1,-1.5529326E-1,9.2981976E-1,2.815911E-1,1.2548585E-2],"categories":[],"categories_nodes":[],"categories_segments":[],"categories_sizes":[],"default_left":[0,0,0,0,0],"id":32,"left_children":[1,-1,3,-1,-1],"loss_changes":[2.092232E2,0E0,8.872452E-1,0E0,0E0],"parents":[2147483647,0,0,2,2],"right_children":[2,-1,4,-1,-1],"split_conditions":[5.029453E-2,-1.5529326E-1,1.20012846E-4,2.815911E-1,1.2548585E-2],"split_indices":[32,0,38,0,0],"split_type":[0,0,0,0,0],"sum_hessian":[7.577089E2,6.403758E2,1.17333145E2,1.1612308E2,1.2100698E0],"tree_param":{"num_deleted":"0","num_feature":"57","num_nodes":"5","size_leaf_vector":"0"}},{"base_weights":[1.0512814E-1,-5.111451E-1,9.0703046E-1,-1.552662E-1,-1.3375168E-1,-1.15902394E-1,9.126572E-1,-1.3836586E-1,6.195634E-1,5.7112105E-2,-9.902923E-2,9.164053E-1,-3.217225E-2,4.0650052E-1,-9.572931E-2,9.1287956E-2,9.176732E-1,2.7570722E-1,8.327231E-2],"categories":[],"categories_nodes":[],"categories_segments":[],"categories_sizes":[],"default_left":[0,0,0,0,0,0,0,0,0,0,0,0,0,0,0,0,0,0,0],"id":33,"left_children":[1,3,5,-1,7,9,11,-1,13,-1,-1,15,-1,-1,-1,-1,17,-1,-1],"loss_changes":[5.2093604E2,1.3726807E0,2.7420654E0,0E0,3.074143E0,2.8542838E-1,1.8400269E0,0E0,3.0912209E0,0E0,0E0,7.3150635E-2,0E0,0E0,0E0,0E0,1.362915E-1,0E0,0E0],"parents":[2147483647,0,0,1,1,2,2,4,4,5,5,6,6,8,8,11,11,16,16],"right_children":[2,4,6,-1,8,10,12,-1,14,-1,-1,16,-1,-1,-1,-1,18,-1,-1],"split_conditions":[3.1665724E-2,1.0314055E-3,5.318633E-3,-1.552662E-1,4.800578E-3,1.490601E-2,9.334996E-4,-1.3836586E-1,1.1274161E-2,5.7112105E-2,-9.902923E-2,6.813157E-3,-3.217225E-2,4.0650052E-1,-9.572931E-2,9.1287956E-2,2.637554E-3,2.7570722E-1,8.327231E-2],"split_indices":[5,5,33,0,19,53,4,0,46,0,0,52,0,0,0,0,41,0,0],"split_type":[0,0,0,0,0,0,0,0,0,0,0,0,0,0,0,0,0,0,0],"sum_hessian":[1.0521808E3,5.9515686E2,4.5702386E2,5.848535E2,1.0303369E1,2.3929427E0,4.5463092E2,7.4518003E0,2.8515685E0,1.0305619E0,1.3623806E0,4.5306735E2,1.5635526E0,1.3501682E0,1.5014001E0,1.4346337E0,4.5163272E2,4.5024677E2,1.3859687E0],"tree_param":{"num_deleted":"0","num_feature":"57","num_nodes":"19","size_leaf_vector":"0"}},{"base_weights":[-7.01461E-2,-5.160755E-1,9.118642E-1,-1.5528062E-1,-3.0326205E-1,-9.646935E-2,9.199119E-1,7.14741E-2,-1.3129318E-1,9.229712E-1,2.0635048E-2,2.7427492E-1,4.5155764E-1],"categories":[],"categories_nodes":[],"categories_segments":[],"categories_sizes":[],"default_left":[0,0,0,0,0,0,0,0,0,0,0,0,0],"id":34,"left_children":[1,3,5,-1,7,-1,9,-1,-1,11,-1,-1,-1],"loss_changes":[3.9439133E2,4.421997E-2,3.0878754E0,0E0,6.0094523E-1,0E0,6.6485596E-1,0E0,0E0,3.8757324E-2,0E0,0E0,0E0],"parents":[2147483647,0,0,1,1,2,2,4,4,6,6,9,9],"right_children":[2,4,6,-1,8,-1,10,-1,-1,12,-1,-1,-1],"split_conditions":[4.8751906E-2,1.2556593E-3,3.4156332E-3,-1.5528062E-1,1.13914034E-11,-9.646935E-2,4.6478165E-4,7.14741E-2,-1.3129318E-1,2.2361324E-4,2.0635048E-2,2.7427492E-1,4.5155764E-1],"split_indices":[34,6,6,0,24,0,2,0,0,1,0,0,0],"split_type":[0,0,0,0,0,0,0,0,0,0,0,0,0],"sum_hessian":[8.9855286E2,6.182713E2,2.8028156E2,6.1244586E2,5.8254037E0,1.5643429E0,2.7871722E2,1.004546E0,4.820858E0,2.776349E2,1.0823407E0,2.760697E2,1.565175E0],"tree_param":{"num_deleted":"0","num_feature":"57","num_nodes":"13","size_leaf_vector":"0"}},{"base_weights":[2.3783611E-1,-5.0069433E-1,9.014831E-1,-5.0896096E-1,6.253176E-1,3.2620406E-1,9.126076E-1,-5.158006E-1,-1.1313984E-1,-9.1968596E-2,1.079584E0,5.473065E-1,-1.2830167E-1,9.176566E-1,4.382428E-1,-1.5524115E-1,-2.7744907E-1,-3.456993E-1,5.152477E-1,4.7314355E-1,3.534583E-2,-9.993213E-2,7.4524266E-1,1.3909783E0,9.1123194E-1,7.627115E-1,-3.0848923E-1,-1.264865E-1,6.700976E-2,-1.3602686E-1,6.0680393E-2,3.5717773E-1,-8.9912E-2,4.2553577E-1,4.1076627E-1,2.0844515E-2,5.340868E-1,9.1555506E-1,-1.4610033E-1,8.3081424E-2,2.5475538E-1,3.3788045E-4,-1.4082697E-1,2.127236E-1,-1.7972905E-2,2.7548435E-1,2.4097277E-2],"categories":[],"categories_nodes":[],"categories_segments":[],"categories_sizes":[],"default_left":[0,0,0,0,0,0,0,0,0,0,0,0,0,0,0,0,0,0,0,0,0,0,0,0,0,0,0,0,0,0,0,0,0,0,0,0,0,0,0,0,0,0,0,0,0,0,0],"id":35,"left_children":[1,3,5,7,9,11,13,15,17,-1,19,21,-1,23,25,-1,27,29,31,-1,-1,-1,33,35,37,39,41,-1,-1,-1,-1,-1,-1,-1,43,-1,-1,45,-1,-1,-1,-1,-1,-1,-1,-1,-1],"loss_changes":[5.9018774E2,5.6252747E0,3.760376E0,1.4753876E0,2.279873E0,2.4985929E0,1.0864258E0,7.797241E-2,1.7716175E0,0E0,1.4011285E0,2.1553156E0,0E0,5.998535E-1,2.2850137E0,0E0,5.294541E-1,5.9683216E-1,2.1989083E0,0E0,0E0,0E0,1.4987645E0,3.1298275E0,4.1254883E0,2.4648666E-2,1.6368899E-1,0E0,0E0,0E0,0E0,0E0,0E0,0E0,1.1072092E0,0E0,0E0,1.3087769E0,0E0,0E0,0E0,0E0,0E0,0E0,0E0,0E0,0E0],"parents":[2147483647,0,0,1,1,2,2,3,3,4,4,5,5,6,6,7,7,8,8,10,10,11,11,13,13,14,14,16,16,17,17,18,18,22,22,23,23,24,24,25,25,26,26,34,34,37,37],"right_children":[2,4,6,8,10,12,14,16,18,-1,20,22,-1,24,26,-1,28,30,32,-1,-1,-1,34,36,38,40,42,-1,-1,-1,-1,-1,-1,-1,44,-1,-1,46,-1,-1,-1,-1,-1,-1,-1,-1,-1],"split_conditions":[1.5701199E-1,2.615703E-1,3.8196262E-2,6.973229E-4,1.02434664E-4,2.2669398E-4,2.5146304E-2,3.6351404E-3,8.308479E-7,-9.1968596E-2,7.299432E-9,4.7909115E-3,-1.2830167E-1,4.3386832E-1,4.6042846E-6,-1.5524115E-1,6.3497355E-5,9.974746E-1,1.17780415E-4,4.7314355E-1,3.534583E-2,-9.993213E-2,7.046255E-5,1.681043E-4,5.1570773E-1,1.8787123E-2,2.341347E-2,-1.264865E-1,6.700976E-2,-1.3602686E-1,6.0680393E-2,3.5717773E-1,-8.9912E-2,4.2553577E-1,9.7457466E-11,2.0844515E-2,5.340868E-1,1.6978383E-3,-1.4610033E-1,8.3081424E-2,2.5475538E-1,3.3788045E-4,-1.4082697E-1,2.127236E-1,-1.7972905E-2,2.7548435E-1,2.4097277E-2],"split_indices":[35,21,7,21,1,31,42,7,22,0,33,21,0,35,17,0,17,25,12,0,0,0,8,8,39,53,47,0,0,0,0,0,0,0,18,0,0,5,0,0,0,0,0,0,0,0,0],"split_type":[0,0,0,0,0,0,0,0,0,0,0,0,0,0,0,0,0,0,0,0,0,0,0,0,0,0,0,0,0,0,0,0,0,0,0,0,0,0,0,0,0,0,0,0,0,0,0],"sum_hessian":[1.2022404E3,5.6913354E2,6.331069E2,5.6552966E2,3.6038601E0,1.2585747E1,6.205211E2,5.5562555E2,9.904094E0,1.2876111E0,2.316249E0,9.943464E0,2.6422827E0,6.1306134E2,7.45976E0,5.505971E2,5.0284696E0,7.5571404E0,2.3469534E0,1.1048291E0,1.2114198E0,1.6998193E0,8.243645E0,5.323993E0,6.0773737E2,5.1852674E0,2.2744927E0,4.0272503E0,1.0012193E0,6.459767E0,1.097373E0,1.0313512E0,1.3156022E0,1.6605647E0,6.58308E0,1.4796999E0,3.8442934E0,6.0620825E2,1.5290858E0,1.418614E0,3.7666533E0,1.1175251E0,1.1569675E0,3.7192957E0,2.863784E0,6.04137E2,2.0712476E0],"tree_param":{"num_deleted":"0","num_feature":"57","num_nodes":"47","size_leaf_vector":"0"}},{"base_weights":[1.20570704E-1,-5.164317E-1,9.122753E-1,3.1627376E-2,-1.553424E-1,9.153837E-1,2.2795184E-1,2.7521276E-1,1.2218115E-2,1.6468985E-1,-8.533889E-2],"categories":[],"categories_nodes":[],"categories_segments":[],"categories_sizes":[],"default_left":[0,0,0,0,0,0,0,0,0,0,0],"id":36,"left_children":[1,3,5,-1,-1,7,9,-1,-1,-1,-1],"loss_changes":[5.4034595E2,5.6282043E-1,8.0737305E-1,0E0,0E0,7.906189E-1,7.304749E-1,0E0,0E0,0E0,0E0],"parents":[2147483647,0,0,1,1,2,2,5,5,6,6],"right_children":[2,4,6,-1,-1,8,10,-1,-1,-1,-1],"split_conditions":[1.2842335E-1,7.887713E-3,3.1665724E-2,3.1627376E-2,-1.553424E-1,1.0936136E-5,5.7005014E-5,2.7521276E-1,1.2218115E-2,1.6468985E-1,-8.533889E-2],"split_indices":[36,49,5,0,0,18,19,0,0,0,0],"split_type":[0,0,0,0,0,0,0,0,0,0,0],"sum_hessian":[1.0695054E3,5.9284906E2,4.766563E2,1.142214E0,5.9170685E2,4.7416486E2,2.491432E0,4.730386E2,1.1262718E0,1.4879433E0,1.0034888E0],"tree_param":{"num_deleted":"0","num_feature":"57","num_nodes":"11","size_leaf_vector":"0"}},{"base_weights":[-3.15961E-1,-5.117673E-1,9.178717E-1,-5.162324E-1,1.364642E-1,-1.0139649E-1,9.4243014E-1,-1.5530899E-1,-2.1599399E-1,3.5687074E-1,-1.2200802E-1,9.579983E-1,-1.5171676E-2,-1.1817922E-1,6.786374E-2,9.705379E-1,3.928942E-1,9.327448E-1,4.2006418E-1,1.8229122E-1,-9.0594817E-4,4.704744E-2,2.8211543E-1],"categories":[],"categories_nodes":[],"categories_segments":[],"categories_sizes":[],"default_left":[0,0,0,0,0,0,0,0,0,0,0,0,0,0,0,0,0,0,0,0,0,0,0],"id":37,"left_children":[1,3,5,7,9,-1,11,-1,13,-1,-1,15,-1,-1,-1,17,19,21,-1,-1,-1,-1,-1],"loss_changes":[1.8068665E2,1.935669E0,3.4806137E0,1.6964722E-1,3.457858E0,0E0,1.6070938E0,0E0,4.686185E-1,0E0,0E0,3.2245636E-1,0E0,0E0,0E0,2.6068878E-1,3.279844E-1,3.959732E-1,0E0,0E0,0E0,0E0,0E0],"parents":[2147483647,0,0,1,1,2,2,3,3,4,4,6,6,8,8,11,11,15,15,16,16,17,17],"right_children":[2,4,6,8,10,-1,12,-1,14,-1,-1,16,-1,-1,-1,18,20,22,-1,-1,-1,-1,-1],"split_conditions":[2.2733186E-3,7.8566006E-4,3.3813164E-6,5.335256E-4,1.529327E-4,-1.0139649E-1,1.396537E-2,-1.5530899E-1,9.255756E-6,3.5687074E-1,-1.2200802E-1,1.0314055E-3,-1.5171676E-2,-1.1817922E-1,6.786374E-2,1.2556593E-3,2.2606425E-6,3.3937272E-1,4.2006418E-1,1.8229122E-1,-9.0594817E-4,4.704744E-2,2.8211543E-1],"split_indices":[9,9,37,9,3,0,1,0,36,0,0,5,0,0,0,6,29,37,0,0,0,0,0],"split_type":[0,0,0,0,0,0,0,0,0,0,0,0,0,0,0,0,0,0,0,0,0,0,0],"sum_hessian":[7.4495483E2,6.434293E2,1.015255E2,6.392299E2,4.1994033E0,1.7024697E0,9.982302E1,6.354068E2,3.8231246E0,1.0239707E0,3.1754324E0,9.831687E1,1.5061493E0,2.8040075E0,1.0191171E0,9.548072E1,2.8361573E0,9.067593E1,4.804791E0,1.4920828E0,1.3440745E0,1.0940075E0,8.958192E1],"tree_param":{"num_deleted":"0","num_feature":"57","num_nodes":"23","size_leaf_vector":"0"}},{"base_weights":[1.1973062E-1,-5.100099E-1,9.115801E-1,-1.5527886E-1,4.730111E-2,-1.12568125E-1,9.1629964E-1,3.1103134E-1,-3.610701E-1,1.1445089E-2,2.7576503E-1,-1.392691E-1,3.535334E-2],"categories":[],"categories_nodes":[],"categories_segments":[],"categories_sizes":[],"default_left":[0,0,0,0,0,0,0,0,0,0,0,0,0],"id":38,"left_children":[1,3,5,-1,7,-1,9,-1,11,-1,-1,-1,-1],"loss_changes":[5.330674E2,2.5425262E0,3.219452E0,0E0,3.9764566E0,0E0,1.1741333E0,0E0,4.0310597E-1,0E0,0E0,0E0,0E0],"parents":[2147483647,0,0,1,1,2,2,4,4,6,6,8,8],"right_children":[2,4,6,-1,8,-1,10,-1,12,-1,-1,-1,-1],"split_conditions":[2.2488146E-1,5.5668445E-4,6.444725E-3,-1.5527886E-1,1.3214207E-2,-1.12568125E-1,1.3694628E-3,3.1103134E-1,7.5769186E-1,1.1445089E-2,2.7576503E-1,-1.392691E-1,3.535334E-2],"split_indices":[38,38,42,0,51,0,10,0,52,0,0,0,0],"split_type":[0,0,0,0,0,0,0,0,0,0,0,0,0],"sum_hessian":[1.0670681E3,5.9457306E2,4.72495E2,5.8665857E2,7.9145455E0,1.4397388E0,4.7105527E2,1.8626384E0,6.051907E0,1.6061763E0,4.694491E2,5.0045643E0,1.0473428E0],"tree_param":{"num_deleted":"0","num_feature":"57","num_nodes":"13","size_leaf_vector":"0"}},{"base_weights":[6.8594087E-3,-5.0633484E-1,8.842504E-1,3.2349038E-1,-5.111609E-1,2.901041E-1,9.199843E-1,-1.5525427E-1,2.9421419E-2,-1.4107294E-1,5.4347485E-1,-1.396309E-2,9.251111E-1,8.4645784E-1,-1.3176093E-1,-2.4787329E-1,8.1052506E-1,9.286945E-1,-6.130057E-3,-8.56148E-2,4.7004065E-1,6.267844E-2,-1.28013E-1,1.2503712E0,3.2546836E-1,5.1449794E-2,9.3161607E-1,9.324589E-2,4.3570462E-1,-7.805508E-2,2.65524E-1,2.8142756E-1,1.6006874E-1],"categories":[],"categories_nodes":[],"categories_segments":[],"categories_sizes":[],"default_left":[0,0,0,0,0,0,0,0,0,0,0,0,0,0,0,0,0,0,0,0,0,0,0,0,0,0,0,0,0,0,0,0,0],"id":39,"left_children":[1,3,5,-1,7,9,11,-1,13,-1,15,-1,17,19,-1,21,23,25,-1,-1,-1,-1,-1,27,29,-1,31,-1,-1,-1,-1,-1,-1],"loss_changes":[4.3111392E2,5.1712036E0,7.235016E0,0E0,2.08609E0,4.39873E0,1.6923218E0,0E0,3.4157991E0,0E0,3.7078767E0,0E0,1.1408997E0,3.0883536E0,0E0,4.9376985E-1,2.290187E0,5.7003784E-1,0E0,0E0,0E0,0E0,0E0,7.399483E-1,2.6436925E0,0E0,3.460083E-1,0E0,0E0,0E0,0E0,0E0,0E0],"parents":[2147483647,0,0,1,1,2,2,4,4,5,5,6,6,8,8,10,10,12,12,13,13,15,15,16,16,17,17,23,23,24,24,26,26],"right_children":[2,4,6,-1,8,10,12,-1,14,-1,16,-1,18,20,-1,22,24,26,-1,-1,-1,-1,-1,28,30,-1,32,-1,-1,-1,-1,-1,-1],"split_conditions":[1.8846976E-2,2.5312524E-4,1.7549338E-2,3.2349038E-1,5.315313E-2,4.2161486E-5,1.3934116E-2,-1.5525427E-1,3.4310194E-12,-1.4107294E-1,1.422514E-2,-1.396309E-2,5.9926618E-2,5.860578E-13,-1.3176093E-1,2.49272E-5,7.316013E-8,5.728727E-5,-6.130057E-3,-8.56148E-2,4.7004065E-1,6.267844E-2,-1.28013E-1,8.944305E-10,2.1071253E-5,5.1449794E-2,3.9426444E-4,9.324589E-2,4.3570462E-1,-7.805508E-2,2.65524E-1,2.8142756E-1,1.6006874E-1],"split_indices":[39,42,11,0,11,21,55,0,34,0,55,0,51,32,0,9,15,10,0,0,0,0,0,16,38,0,0,0,0,0,0,0,0],"split_type":[0,0,0,0,0,0,0,0,0,0,0,0,0,0,0,0,0,0,0,0,0,0,0,0,0,0,0,0,0,0,0,0,0],"sum_hessian":[9.554578E2,6.0311383E2,3.5234402E2,1.1558714E0,6.0195795E2,2.0506199E1,3.3183783E2,5.950077E2,6.9502883E0,4.911425E0,1.5594775E1,1.7082821E0,3.3012955E2,2.2395034E0,4.710785E0,3.9529204E0,1.1641854E1,3.289009E2,1.228619E0,1.1058158E0,1.1336875E0,1.064813E0,2.8881073E0,5.278008E0,6.3638463E0,1.4936454E0,3.274073E2,1.3830885E0,3.8949196E0,3.3710234E0,2.992823E0,3.2083115E2,6.5761294E0],"tree_param":{"num_deleted":"0","num_feature":"57","num_nodes":"33","size_leaf_vector":"0"}},{"base_weights":[-2.652951E-1,-5.121731E-1,9.144105E-1,7.873431E-2,-5.148186E-1,9.3194544E-1,-2.9105559E-2,-1.5482166E-1,-9.563128E-2,2.1684136E-2,2.8159127E-1,1.297778E-1,-1.2610175E-1,3.7433982E-2,-8.125943E-2],"categories":[],"categories_nodes":[],"categories_segments":[],"categories_sizes":[],"default_left":[0,0,0,0,0,0,0,0,0,0,0,0,0,0,0],"id":40,"left_children":[1,3,5,-1,7,9,11,-1,13,-1,-1,-1,-1,-1,-1],"loss_changes":[2.2591882E2,1.4482422E0,2.2493973E0,0E0,2.8642273E-1,6.90979E-1,7.996825E-1,0E0,1.5478937E-1,0E0,0E0,0E0,0E0,0E0,0E0],"parents":[2147483647,0,0,1,1,2,2,4,4,5,5,6,6,8,8],"right_children":[2,4,6,-1,8,10,12,-1,14,-1,-1,-1,-1,-1,-1],"split_conditions":[3.3519324E-2,1.6639916E-4,3.6241768E-6,7.873431E-2,1.0653275E-2,1.8836068E-2,2.7952554E-9,-1.5482166E-1,2.1967117E-2,2.1684136E-2,2.8159127E-1,1.297778E-1,-1.2610175E-1,3.7433982E-2,-8.125943E-2],"split_indices":[40,52,27,0,26,54,35,0,55,0,0,0,0,0,0],"split_type":[0,0,0,0,0,0,0,0,0,0,0,0,0,0,0],"sum_hessian":[7.730967E2,6.3977606E2,1.3332063E2,1.8432925E0,6.3793274E2,1.3090016E2,2.4204762E0,6.358002E2,2.132578E0,1.1022868E0,1.2979787E2,1.0617642E0,1.358712E0,1.0720543E0,1.0605236E0],"tree_param":{"num_deleted":"0","num_feature":"57","num_nodes":"15","size_leaf_vector":"0"}},{"base_weights":[-3.3688763E-1,-5.1469773E-1,9.4670296E-1,-1.552821E-1,-5.7423487E-2,9.616893E-1,6.0303174E-2,-1.2344047E-1,1.9561201E-1,9.94177E-2,2.906639E-1],"categories":[],"categories_nodes":[],"categories_segments":[],"categories_sizes":[],"default_left":[0,0,0,0,0,0,0,0,0,0,0],"id":41,"left_children":[1,3,5,-1,7,9,-1,-1,-1,-1,-1],"loss_changes":[1.6817189E2,8.2962036E-1,8.095932E-1,0E0,1.5765777E0,7.6438904E-2,0E0,0E0,0E0,0E0,0E0],"parents":[2147483647,0,0,1,1,2,2,4,4,5,5],"right_children":[2,4,6,-1,8,10,-1,-1,-1,-1,-1],"split_conditions":[1.6665438E-1,2.637554E-3,1.6815622E-3,-1.552821E-1,3.9211786E-6,2.4183927E-2,6.0303174E-2,-1.2344047E-1,1.9561201E-1,9.94177E-2,2.906639E-1],"split_indices":[13,41,0,0,14,55,0,0,0,0,0],"split_type":[0,0,0,0,0,0,0,0,0,0,0],"sum_hessian":[7.3370044E2,6.4495654E2,8.8743935E1,6.40748E2,4.2085133E0,8.671162E1,2.0323195E0,3.0876884E0,1.120825E0,1.5091478E0,8.520247E1],"tree_param":{"num_deleted":"0","num_feature":"57","num_nodes":"11","size_leaf_vector":"0"}},{"base_weights":[-1.08117595E-1,-5.093825E-1,7.748526E-1,-1.5398246E-1,1.6126767E-1,3.2787085E-2,2.3342116E-1,1.4905807E-1,-1.0430835E-1],"categories":[],"categories_nodes":[],"categories_segments":[],"categories_sizes":[],"default_left":[0,0,0,0,0,0,0,0,0],"id":42,"left_children":[1,3,5,-1,7,-1,-1,-1,-1],"loss_changes":[2.5347781E2,1.3663788E0,3.9382935E-1,0E0,7.873682E-1,0E0,0E0,0E0,0E0],"parents":[2147483647,0,0,1,1,2,2,4,4],"right_children":[2,4,6,-1,8,-1,-1,-1,-1],"split_conditions":[5.1739377E-1,6.009498E-2,1.4282446E-2,-1.5398246E-1,2.6164085E-2,3.2787085E-2,2.3342116E-1,1.4905807E-1,-1.0430835E-1],"split_indices":[0,42,42,0,49,0,0,0,0],"split_type":[0,0,0,0,0,0,0,0,0],"sum_hessian":[7.1330884E2,4.9072327E2,2.2258557E2,4.881249E2,2.5983522E0,1.2392417E0,2.2134633E2,1.5801995E0,1.0181527E0],"tree_param":{"num_deleted":"0","num_feature":"57","num_nodes":"9","size_leaf_vector":"0"}},{"base_weights":[2.733702E-1,-1.5396774E-1,7.597122E-1,-1.2634885E-1,7.6429E-1,1.6000313E-1,7.667799E-1,1.9056109E-1,-1.0178293E-1,7.699041E-1,4.66582E-1,7.7113E-1,1.1796149E-2,2.2187024E-1,-3.057467E-2,3.2860723E-1,2.3011152E-1,-1.6147673E-1,1.867544E-1],"categories":[],"categories_nodes":[],"categories_segments":[],"categories_sizes":[],"default_left":[0,0,0,0,0,0,0,0,0,0,0,0,0,0,0,0,0,0,0],"id":43,"left_children":[1,-1,3,-1,5,7,9,-1,-1,11,13,15,-1,-1,17,-1,-1,-1,-1],"loss_changes":[4.3294836E2,0E0,4.1011047E0,0E0,9.256897E-1,1.193691E0,2.9135132E-1,0E0,0E0,5.831604E-1,1.3367114E0,6.692505E-2,0E0,0E0,1.7914319E0,0E0,0E0,0E0,0E0],"parents":[2147483647,0,0,2,2,4,4,5,5,6,6,9,9,10,10,11,11,14,14],"right_children":[2,-1,4,-1,6,8,10,-1,-1,12,14,16,-1,-1,18,-1,-1,-1,-1],"split_conditions":[1.557274E-3,-1.5396774E-1,1.021384E-2,-1.2634885E-1,1.0713694E-2,9.597318E-8,5.5668445E-4,1.9056109E-1,-1.0178293E-1,7.8566006E-4,5.5056403E-4,9.821853E-1,1.1796149E-2,2.2187024E-1,1.5033998E-9,3.2860723E-1,2.3011152E-1,-1.6147673E-1,1.867544E-1],"split_indices":[1,0,29,0,15,35,38,0,0,9,24,1,0,0,18,0,0,0,0],"split_type":[0,0,0,0,0,0,0,0,0,0,0,0,0,0,0,0,0,0,0],"sum_hessian":[1.12971E3,4.3159885E2,6.9811115E2,2.344418E0,6.957667E2,3.1228611E0,6.926439E2,1.4605293E0,1.6623318E0,6.8396124E2,8.682676E0,6.8276E2,1.201202E0,5.290244E0,3.3924325E0,5.1849923E0,6.77575E2,2.007628E0,1.3848045E0],"tree_param":{"num_deleted":"0","num_feature":"57","num_nodes":"19","size_leaf_vector":"0"}},{"base_weights":[-2.7351627E-1,-5.0763553E-1,7.453874E-1,-5.113182E-1,1.6028234E-1,-1.4796594E-1,7.8040826E-1,-1.5396154E-1,-7.559654E-2,1.11328684E-1,-1.1814922E-1,7.9114175E-1,3.1344663E-2,6.6468574E-2,-9.1673724E-2,2.3939078E-1,3.314551E-2],"categories":[],"categories_nodes":[],"categories_segments":[],"categories_sizes":[],"default_left":[0,0,0,0,0,0,0,0,0,0,0,0,0,0,0,0,0],"id":44,"left_children":[1,3,5,7,-1,9,11,-1,13,-1,-1,15,-1,-1,-1,-1,-1],"loss_changes":[1.4700648E2,2.1933289E0,3.7213058E0,3.7161255E-1,0E0,8.082755E-1,7.2312164E-1,0E0,2.9494697E-1,0E0,0E0,4.192047E-1,0E0,0E0,0E0,0E0,0E0],"parents":[2147483647,0,0,1,1,2,2,3,3,5,5,6,6,8,8,11,11],"right_children":[2,4,6,8,-1,10,12,-1,14,-1,-1,16,-1,-1,-1,-1,-1],"split_conditions":[5.7566212E-3,3.6627433E-1,8.39899E-3,1.602217E-2,1.6028234E-1,2.1081124E-3,2.3497188E-2,-1.5396154E-1,2.8127185E-9,1.11328684E-1,-1.1814922E-1,9.907794E-1,3.1344663E-2,6.6468574E-2,-9.1673724E-2,2.3939078E-1,3.314551E-2],"split_indices":[2,30,42,30,0,7,53,0,22,0,0,21,0,0,0,0,0],"split_type":[0,0,0,0,0,0,0,0,0,0,0,0,0,0,0,0,0],"sum_hessian":[6.13677E2,4.9942346E2,1.1425357E2,4.9817188E2,1.2515707E0,4.1883106E0,1.1006526E2,4.9584677E2,2.3251114E0,1.1825024E0,3.005808E0,1.08176994E2,1.8882672E0,1.0303801E0,1.2947313E0,1.0693204E2,1.2449573E0],"tree_param":{"num_deleted":"0","num_feature":"57","num_nodes":"17","size_leaf_vector":"0"}},{"base_weights":[1.8063682E-1,-5.076207E-1,7.6215315E-1,-1.5402445E-1,2.4374728E-1,-8.718606E-2,7.715651E-1,-9.53926E-2,2.1371442E-1,-1.2754908E-1,1.506927E-1,7.732433E-1,-4.889767E-3,5.271009E-3,7.7485573E-1,7.7668744E-1,2.856464E-1,2.956193E-1,2.3067571E-1,1.2670438E-1,-1.0080105E-3],"categories":[],"categories_nodes":[],"categories_segments":[],"categories_sizes":[],"default_left":[0,0,0,0,0,0,0,0,0,0,0,0,0,0,0,0,0,0,0,0,0],"id":45,"left_children":[1,3,5,-1,7,9,11,-1,-1,-1,-1,13,-1,-1,15,17,19,-1,-1,-1,-1],"loss_changes":[3.9502835E2,2.093666E0,4.342865E0,0E0,1.3158832E0,1.560505E0,7.121887E-1,0E0,0E0,0E0,0E0,6.297302E-1,0E0,0E0,2.5027466E-1,9.237671E-2,1.4155275E-1,0E0,0E0,0E0,0E0],"parents":[2147483647,0,0,1,1,2,2,4,4,5,5,6,6,11,11,14,14,15,15,16,16],"right_children":[2,4,6,-1,8,10,12,-1,-1,-1,-1,14,-1,-1,16,18,20,-1,-1,-1,-1],"split_conditions":[6.689772E-3,2.4115948E-2,2.5524078E-3,-1.5402445E-1,9.479106E-3,2.5932621E-2,2.1695644E-3,-9.53926E-2,2.1371442E-1,-1.2754908E-1,1.506927E-1,2.2071633E-4,-4.889767E-3,5.271009E-3,1.1487198E-4,7.020604E-1,4.9444576E-8,2.956193E-1,2.3067571E-1,1.2670438E-1,-1.0080105E-3],"split_indices":[31,17,3,0,44,46,4,0,0,0,0,42,0,0,20,45,22,0,0,0,0],"split_type":[0,0,0,0,0,0,0,0,0,0,0,0,0,0,0,0,0,0,0,0,0],"sum_hessian":[9.850293E2,4.511705E2,5.3385876E2,4.4803226E2,3.1382535E0,5.76053E0,5.2809827E2,1.5735825E0,1.5646709E0,3.838534E0,1.9219958E0,5.2699426E2,1.1040065E0,1.1473976E0,5.2584686E2,5.2329987E2,2.5470033E0,1.4262859E1,5.09037E2,1.4158977E0,1.1311055E0],"tree_param":{"num_deleted":"0","num_feature":"57","num_nodes":"21","size_leaf_vector":"0"}},{"base_weights":[-2.8155506E-1,-1.539748E-1,7.7353E-1,-8.44079E-2,7.8620636E-1,7.920147E-1,2.5151547E-2,2.3021077E-1,3.3825445E-1],"categories":[],"categories_nodes":[],"categories_segments":[],"categories_sizes":[],"default_left":[0,0,0,0,0,0,0,0,0],"id":46,"left_children":[1,-1,3,-1,5,7,-1,-1,-1],"loss_changes":[1.4992674E2,0E0,1.6993256E0,0E0,3.8026428E-1,3.1684875E-2,0E0,0E0,0E0],"parents":[2147483647,0,0,2,2,4,4,5,5],"right_children":[2,-1,4,-1,6,8,-1,-1,-1],"split_conditions":[5.029453E-2,-1.539748E-1,1.5205309E-2,-8.44079E-2,1.20012846E-4,2.479358E-4,2.5151547E-2,2.3021077E-1,3.3825445E-1],"split_indices":[32,0,46,0,38,2,0,0,0],"split_type":[0,0,0,0,0,0,0,0,0],"sum_hessian":[6.1068066E2,5.0114413E2,1.0953655E2,1.0489712E0,1.0848759E2,1.074712E2,1.0163856E0,1.03179016E2,4.292186E0],"tree_param":{"num_deleted":"0","num_feature":"57","num_nodes":"9","size_leaf_vector":"0"}},{"base_weights":[9.5938876E-2,-5.0532323E-1,7.611548E-1,-5.0929743E-1,2.0024547E-1,-5.2333325E-2,7.659984E-1,-1.5395056E-1,-1.4065953E-1,7.70134E-1,3.7660405E-2,-1.2604631E-1,1.8180257E-1,2.3202918E-1,5.1055076E-3,-1.3684513E-1,1.7709829E-1],"categories":[],"categories_nodes":[],"categories_segments":[],"categories_sizes":[],"default_left":[0,0,0,0,0,0,0,0,0,0,0,0,0,0,0,0,0],"id":47,"left_children":[1,3,5,7,-1,-1,9,-1,11,13,15,-1,-1,-1,-1,-1,-1],"loss_changes":[3.5612482E2,2.5201874E0,2.0489655E0,5.9389496E-1,0E0,0E0,1.2380371E0,0E0,1.5543617E0,1.0252075E0,1.2044058E0,0E0,0E0,0E0,0E0,0E0,0E0],"parents":[2147483647,0,0,1,1,2,2,3,3,6,6,8,8,9,9,10,10],"right_children":[2,4,6,8,-1,-1,10,-1,12,14,16,-1,-1,-1,-1,-1,-1],"split_conditions":[3.1665724E-2,8.0718666E-1,1.6403688E-2,4.800578E-3,2.0024547E-1,-5.2333325E-2,4.334199E-2,-1.5395056E-1,3.4289324E-4,1.2590459E-6,7.1812065E-7,-1.2604631E-1,1.8180257E-1,2.3202918E-1,5.1055076E-3,-1.3684513E-1,1.7709829E-1],"split_indices":[5,47,55,19,0,0,45,0,27,14,14,0,0,0,0,0,0],"split_type":[0,0,0,0,0,0,0,0,0,0,0,0,0,0,0,0,0],"sum_hessian":[8.884191E2,4.6676724E2,4.2165192E2,4.6575473E2,1.0125113E0,1.991317E0,4.196606E2,4.605266E2,5.228115E0,4.1723413E2,2.4264672E0,4.1223283E0,1.105787E0,4.1538885E2,1.8452654E0,1.3736988E0,1.0527683E0],"tree_param":{"num_deleted":"0","num_feature":"57","num_nodes":"17","size_leaf_vector":"0"}},{"base_weights":[-6.621774E-2,-5.112365E-1,7.665392E-1,-1.5395601E-1,-2.7494407E-1,-9.020975E-2,7.732791E-1,7.1298E-2,-1.265944E-1,2.3283531E-1,8.417242E-3],"categories":[],"categories_nodes":[],"categories_segments":[],"categories_sizes":[],"default_left":[0,0,0,0,0,0,0,0,0,0,0],"id":48,"left_children":[1,3,5,-1,7,-1,9,-1,-1,-1,-1],"loss_changes":[2.7595996E2,8.250427E-2,2.0982056E0,0E0,5.620124E-1,0E0,5.2404785E-1,0E0,0E0,0E0,0E0],"parents":[2147483647,0,0,1,1,2,2,4,4,6,6],"right_children":[2,4,6,-1,8,-1,10,-1,-1,-1,-1],"split_conditions":[4.8751906E-2,1.2556593E-3,3.4156332E-3,-1.5395601E-1,1.13914034E-11,-9.020975E-2,1.3307595E-2,7.1298E-2,-1.265944E-1,2.3283531E-1,8.417242E-3],"split_indices":[34,6,6,0,24,0,47,0,0,0,0],"split_type":[0,0,0,0,0,0,0,0,0,0,0],"sum_hessian":[7.425879E2,4.842139E2,2.58374E2,4.7908795E2,5.1259513E0,1.3477374E0,2.5702625E2,1.0052171E0,4.120734E0,2.5600964E2,1.0166154E0],"tree_param":{"num_deleted":"0","num_feature":"57","num_nodes":"11","size_leaf_vector":"0"}},{"base_weights":[2.1486343E-1,-5.0231224E-1,7.4565417E-1,-5.1086855E-1,-3.616346E-2,1.1502101E-1,7.586143E-1,-1.539064E-1,-1.9532235E-1,-1.2988827E-1,5.696044E-1,5.1661474E-1,-1.3936824E-1,7.722686E-1,4.854572E-1,-1.1180787E-1,6.28131E-2,-8.4813274E-2,3.0363598E-1,-2.2940558E-1,9.527803E-1,-3.0103128E-3,7.743959E-1,2.5972426E-1,8.124761E-1,2.4159351E-2,-1.14060566E-1,3.542168E-2,1.3400327E0,7.75685E-1,5.085445E-2,-1.960109E-1,5.3266203E-1,6.985178E-2,2.584587E-1,4.8235926E-1,1.15466796E-1,2.3308186E-1,7.896295E-2,1.6049512E-1,-1.6370028E-1,2.1833453E-1,-1.7898135E-2],"categories":[],"categories_nodes":[],"categories_segments":[],"categories_sizes":[],"default_left":[0,0,0,0,0,0,0,0,0,0,0,0,0,0,0,0,0,0,0,0,0,0,0,0,0,0,0,0,0,0,0,0,0,0,0,0,0,0,0,0,0,0,0],"id":49,"left_children":[1,3,5,7,9,11,13,-1,15,-1,17,19,-1,21,23,-1,-1,-1,-1,25,27,-1,29,31,33,-1,-1,-1,35,37,-1,39,41,-1,-1,-1,-1,-1,-1,-1,-1,-1,-1],"loss_changes":[3.950917E2,1.7429199E0,4.786194E0,1.9432831E-1,2.4185944E0,3.309167E0,1.8036499E0,0E0,4.0484208E-1,0E0,1.7978711E0,2.9071164E0,0E0,9.307251E-1,2.0404449E0,0E0,0E0,0E0,0E0,2.1076281E-1,1.5899272E0,0E0,2.998352E-1,2.5317237E0,1.4018822E-1,0E0,0E0,0E0,3.0148697E-1,1.5014648E-1,0E0,2.347025E0,1.4850616E0,0E0,0E0,0E0,0E0,0E0,0E0,0E0,0E0,0E0,0E0],"parents":[2147483647,0,0,1,1,2,2,3,3,4,4,5,5,6,6,8,8,10,10,11,11,13,13,14,14,19,19,20,20,22,22,23,23,24,24,28,28,29,29,31,31,32,32],"right_children":[2,4,6,8,10,12,14,-1,16,-1,18,20,-1,22,24,-1,-1,-1,-1,26,28,-1,30,32,34,-1,-1,-1,36,38,-1,40,42,-1,-1,-1,-1,-1,-1,-1,-1,-1,-1],"split_conditions":[1.1710967E-2,6.973229E-4,7.8004533E-3,1.0567631E-3,1.8769493E-2,1.08423505E-4,1.7784619E-4,-1.539064E-1,2.268689E-4,-1.2988827E-1,1.879475E-1,1.0272799E-4,-1.3936824E-1,1.8769493E-2,5.21978E-1,-1.1180787E-1,6.28131E-2,-8.4813274E-2,3.0363598E-1,8.956555E-13,1.3102537E-4,-3.0103128E-3,1.967618E-4,1.8255331E-4,1.3016601E-11,2.4159351E-2,-1.14060566E-1,3.542168E-2,7.246795E-5,3.662801E-2,5.085445E-2,2.2318634E-13,1.7362889E-2,6.985178E-2,2.584587E-1,4.8235926E-1,1.15466796E-1,2.3308186E-1,7.896295E-2,1.6049512E-1,-1.6370028E-1,2.1833453E-1,-1.7898135E-2],"split_indices":[35,21,7,35,49,5,10,0,9,0,25,9,0,49,56,0,0,0,0,27,2,0,36,9,29,0,0,0,8,48,0,32,43,0,0,0,0,0,0,0,0,0,0],"split_type":[0,0,0,0,0,0,0,0,0,0,0,0,0,0,0,0,0,0,0,0,0,0,0,0,0,0,0,0,0,0,0,0,0,0,0,0,0,0,0,0,0,0,0],"sum_hessian":[1.0359005E3,4.406167E2,5.952838E2,4.3258063E2,8.036086E0,1.2186179E1,5.830976E2,4.290278E2,3.552812E0,5.0279117E0,3.0081744E0,7.2625685E0,4.9236107E0,5.535978E2,2.9499828E1,2.525173E0,1.027639E0,1.1514773E0,1.8566971E0,2.854409E0,4.4081597E0,1.4912128E0,5.5210657E2,1.8514174E1,1.0985654E1,1.0867451E0,1.7676637E0,1.8105291E0,2.5976305E0,5.5065063E2,1.4559549E0,7.040394E0,1.1473781E1,1.305525E0,9.680129E0,1.4950336E0,1.1025968E0,5.4879114E2,1.8594588E0,2.1065018E0,4.933892E0,8.458677E0,3.0151033E0],"tree_param":{"num_deleted":"0","num_feature":"57","num_nodes":"43","size_leaf_vector":"0"}},{"base_weights":[1.0973942E-1,-5.117021E-1,7.6733553E-1,3.142242E-2,-1.5401937E-1,9.789E-4,7.693989E-1,2.3161405E-1,1.9124256E-1,1.0434275E-1,-9.559972E-3],"categories":[],"categories_nodes":[],"categories_segments":[],"categories_sizes":[],"default_left":[0,0,0,0,0,0,0,0,0,0,0],"id":50,"left_children":[1,3,5,-1,-1,-1,7,-1,9,-1,-1],"loss_changes":[3.6981143E2,5.402374E-1,6.905823E-1,0E0,0E0,0E0,5.2352905E-1,0E0,1.2733716E-1,0E0,0E0],"parents":[2147483647,0,0,1,1,2,2,6,6,8,8],"right_children":[2,4,6,-1,-1,-1,8,-1,10,-1,-1],"split_conditions":[1.2842335E-1,7.887713E-3,1.1745653E-2,3.142242E-2,-1.5401937E-1,9.789E-4,3.1665724E-2,2.3161405E-1,9.114826E-13,1.0434275E-1,-9.559972E-3],"split_indices":[36,49,50,0,0,0,5,0,25,0,0],"split_type":[0,0,0,0,0,0,0,0,0,0,0],"sum_hessian":[9.029813E2,4.64367E2,4.386143E2,1.1072118E0,4.632598E2,1.1882423E0,4.3742606E2,4.35098E2,2.3280525E0,1.0395969E0,1.2884556E0],"tree_param":{"num_deleted":"0","num_feature":"57","num_nodes":"11","size_leaf_vector":"0"}},{"base_weights":[-3.0299225E-1,-5.11412E-1,7.352577E-1,-1.5398245E-1,-1.9170323E-1,-1.6043705E-1,7.893163E-1,6.8608016E-2,-1.13566935E-1,1.7500135E-1,-1.307866E-1,7.9918486E-1,4.03019E-3,2.4178304E-1,7.9354495E-2],"categories":[],"categories_nodes":[],"categories_segments":[],"categories_sizes":[],"default_left":[0,0,0,0,0,0,0,0,0,0,0,0,0,0,0],"id":51,"left_children":[1,3,5,-1,7,9,11,-1,-1,-1,-1,13,-1,-1,-1],"loss_changes":[1.3047614E2,2.0014954E-1,5.013363E0,0E0,4.4005716E-1,1.6017854E0,7.1932983E-1,0E0,0E0,0E0,0E0,1.2697601E-1,0E0,0E0,0E0],"parents":[2147483647,0,0,1,1,2,2,4,4,5,5,6,6,11,11],"right_children":[2,4,6,-1,8,10,12,-1,-1,-1,-1,14,-1,-1,-1],"split_conditions":[7.8566006E-4,5.335256E-4,1.7924998E-4,-1.5398245E-1,2.1467847E-10,1.4826276E-2,1.6978383E-3,6.8608016E-2,-1.13566935E-1,1.7500135E-1,-1.307866E-1,5.1739377E-1,4.03019E-3,2.4178304E-1,7.9354495E-2],"split_indices":[9,9,23,0,20,55,5,0,0,0,0,0,0,0,0],"split_type":[0,0,0,0,0,0,0,0,0,0,0,0,0,0,0],"sum_hessian":[6.002247E2,5.0030096E2,9.992371E1,4.96801E2,3.499972E0,5.5755067E0,9.4348206E1,1.0080545E0,2.4919176E0,1.2050846E0,4.370422E0,9.313359E1,1.214612E0,9.1469986E1,1.6636086E0],"tree_param":{"num_deleted":"0","num_feature":"57","num_nodes":"15","size_leaf_vector":"0"}},{"base_weights":[1.0894771E-1,-5.054123E-1,7.643187E-1,-1.5398586E-1,7.867416E-2,7.72398E-1,-3.40527E-2,3.6484987E-1,-1.3020815E-1,8.290942E-2,7.7339816E-1,1.4203992E-1,-3.360588E-1,2.3019668E-1,3.3762336E-1,-1.3134803E-1,-8.155477E-3],"categories":[],"categories_nodes":[],"categories_segments":[],"categories_sizes":[],"default_left":[0,0,0,0,0,0,0,0,0,0,0,0,0,0,0,0,0],"id":52,"left_children":[1,3,5,-1,7,9,11,-1,-1,-1,13,-1,15,-1,-1,-1,-1],"loss_changes":[3.639059E2,2.186348E0,2.8466797E0,0E0,4.653164E0,1.0070801E-3,9.7732806E-1,0E0,0E0,0E0,5.9295654E-2,0E0,1.1168167E-1,0E0,0E0,0E0,0E0],"parents":[2147483647,0,0,1,1,2,2,4,4,5,5,6,6,10,10,12,12],"right_children":[2,4,6,-1,8,10,12,-1,-1,-1,14,-1,16,-1,-1,-1,-1],"split_conditions":[4.7742976E-3,5.5056403E-4,3.583996E-5,-1.5398586E-1,4.510281E-5,8.612716E-3,6.5448854E-5,3.6484987E-1,-1.3020815E-1,8.290942E-2,1.7379907E-4,1.4203992E-1,4.6478165E-4,2.3019668E-1,3.3762336E-1,-1.3134803E-1,-8.155477E-3],"split_indices":[10,24,17,0,7,44,6,0,0,0,12,0,2,0,0,0,0],"split_type":[0,0,0,0,0,0,0,0,0,0,0,0,0,0,0,0,0],"sum_hessian":[9.018545E2,4.6560983E2,4.3624466E2,4.595362E2,6.073662E0,4.319064E2,4.338259E0,1.4607437E0,4.612918E0,1.4271399E0,4.3047928E2,1.4066523E0,2.931607E0,4.2630087E2,4.178384E0,1.8910495E0,1.0405576E0],"tree_param":{"num_deleted":"0","num_feature":"57","num_nodes":"17","size_leaf_vector":"0"}},{"base_weights":[8.566627E-3,-5.0325423E-1,7.268313E-1,-5.090225E-1,1.4234845E-1,-6.93396E-2,7.495346E-1,-1.5390906E-1,-2.7018708E-1,-1.3412015E-1,3.1429967E-1,-2.1375586E-1,7.591885E-1,2.7270427E-1,-1.365903E-1,2.5636086E-1,-1.2762918E-1,3.4914237E-2,-1.0979905E-1,-9.618399E-2,7.6424587E-1,-8.292366E-2,2.155967E-1,-4.295481E-3,7.6891917E-1,2.3351824E-1,8.919145E-2],"categories":[],"categories_nodes":[],"categories_segments":[],"categories_sizes":[],"default_left":[0,0,0,0,0,0,0,0,0,0,0,0,0,0,0,0,0,0,0,0,0,0,0,0,0,0,0],"id":53,"left_children":[1,3,5,7,-1,9,11,-1,13,-1,15,17,19,21,-1,-1,-1,-1,-1,-1,23,-1,-1,-1,25,-1,-1],"loss_changes":[2.9663077E2,2.8988495E0,6.120514E0,3.101883E-1,0E0,1.6220021E0,3.1986237E0,0E0,1.1141269E0,0E0,2.625134E0,2.4464148E-1,2.0115814E0,9.6516705E-1,0E0,0E0,0E0,0E0,0E0,0E0,1.1835938E0,0E0,0E0,0E0,1.2001495E0,0E0,0E0],"parents":[2147483647,0,0,1,1,2,2,3,3,5,5,6,6,8,8,10,10,11,11,12,12,13,13,20,20,24,24],"right_children":[2,4,6,8,-1,10,12,-1,14,-1,16,18,20,22,-1,-1,-1,-1,-1,-1,24,-1,-1,-1,26,-1,-1],"split_conditions":[6.8052188E-3,9.1172314E-1,2.5810453E-4,3.8399731E-3,1.4234845E-1,1.9275503E-2,1.3887504E-2,-1.5390906E-1,1.9672132E-1,-1.3412015E-1,7.282799E-4,3.8555536E-2,3.7121048E-5,1.324736E-2,-1.365903E-1,2.5636086E-1,-1.2762918E-1,3.4914237E-2,-1.0979905E-1,-9.618399E-2,3.441247E-5,-8.292366E-2,2.155967E-1,-4.295481E-3,1.8384355E-5,2.3351824E-1,8.919145E-2],"split_indices":[39,11,25,11,0,50,55,0,56,0,5,35,4,43,0,0,0,0,0,0,13,0,0,0,22,0,0],"split_type":[0,0,0,0,0,0,0,0,0,0,0,0,0,0,0,0,0,0,0,0,0,0,0,0,0,0,0],"sum_hessian":[8.048938E2,4.701639E2,3.3472992E2,4.6788303E2,2.2808907E0,9.223433E0,3.2550647E2,4.5903232E2,8.850711E0,4.5642166E0,4.659216E0,3.0200002E0,3.2248648E2,2.1302035E0,6.720507E0,2.603003E0,2.056213E0,1.0274687E0,1.9925315E0,1.2124885E0,3.21274E2,1.1250553E0,1.005148E0,1.904623E0,3.193694E2,3.1244177E2,6.9275928E0],"tree_param":{"num_deleted":"0","num_feature":"57","num_nodes":"27","size_leaf_vector":"0"}},{"base_weights":[-2.5417647E-1,-5.0806946E-1,7.5624543E-1,-5.5820484E-2,-1.5337233E-1,7.752651E-1,-2.1105768E-1,-1.1577077E-1,1.6757762E-1,2.362677E-1,-3.8198177E-2,-1.05396524E-1,1.4191543E-2],"categories":[],"categories_nodes":[],"categories_segments":[],"categories_sizes":[],"default_left":[0,0,0,0,0,0,0,0,0,0,0,0,0],"id":54,"left_children":[1,3,5,7,-1,9,11,-1,-1,-1,-1,-1,-1],"loss_changes":[1.6111012E2,6.9052124E-1,2.4857101E0,1.1512637E0,0E0,1.476181E0,1.3330467E-1,0E0,0E0,0E0,0E0,0E0,0E0],"parents":[2147483647,0,0,1,1,2,2,3,3,5,5,6,6],"right_children":[2,4,6,8,-1,10,12,-1,-1,-1,-1,-1,-1],"split_conditions":[1.0653275E-2,4.9935756E-3,2.0221983E-6,1.334115E-4,-1.5337233E-1,4.065812E-3,9.547409E-6,-1.1577077E-1,1.6757762E-1,2.362677E-1,-3.8198177E-2,-1.05396524E-1,1.4191543E-2],"split_indices":[26,52,24,0,0,17,25,0,0,0,0,0,0],"split_type":[0,0,0,0,0,0,0,0,0,0,0,0,0],"sum_hessian":[6.255164E2,5.003009E2,1.25215546E2,3.6137636E0,4.9668713E2,1.2299566E2,2.219882E0,2.5927641E0,1.0209994E0,1.2146863E2,1.5270333E0,1.2055787E0,1.0143032E0],"tree_param":{"num_deleted":"0","num_feature":"57","num_nodes":"13","size_leaf_vector":"0"}},{"base_weights":[-3.2477024E-1,-5.095172E-1,7.826129E-1,-1.53962E-1,-2.9950773E-2,7.920928E-1,4.335162E-3,1.7700014E-1,-1.1797457E-1,8.033915E-1,6.8822265E-2,2.4318539E-1,6.520846E-2],"categories":[],"categories_nodes":[],"categories_segments":[],"categories_sizes":[],"default_left":[0,0,0,0,0,0,0,0,0,0,0,0,0],"id":55,"left_children":[1,3,5,-1,7,9,-1,-1,-1,11,-1,-1,-1],"loss_changes":[1.2108349E2,8.8020325E-1,6.056175E-1,0E0,1.3415568E0,3.4773636E-1,0E0,0E0,0E0,1.6953278E-1,0E0,0E0,0E0],"parents":[2147483647,0,0,1,1,2,2,4,4,5,5,9,9],"right_children":[2,4,6,-1,8,10,-1,-1,-1,12,-1,-1,-1],"split_conditions":[1.6665438E-1,2.637554E-3,1.5078792E-4,-1.53962E-1,9.12479E-5,1.9767445E-5,4.335162E-3,1.7700014E-1,-1.1797457E-1,4.433565E-2,6.8822265E-2,2.4318539E-1,6.520846E-2],"split_indices":[13,41,34,0,11,20,0,0,0,50,0,0,0],"split_type":[0,0,0,0,0,0,0,0,0,0,0,0,0],"sum_hessian":[5.888983E2,5.051612E2,8.373715E1,5.0123486E2,3.926321E0,8.268558E1,1.051578E0,1.2201599E0,2.706161E0,8.063858E1,2.0469956E0,7.927775E1,1.3608264E0],"tree_param":{"num_deleted":"0","num_feature":"57","num_nodes":"13","size_leaf_vector":"0"}},{"base_weights":[-1.0380568E-1,-5.073105E-1,6.8231195E-1,-1.5290117E-1,4.4951074E-2,6.853547E-1,1.5570964E-2,2.0706497E-1,3.465114E-2],"categories":[],"categories_nodes":[],"categories_segments":[],"categories_sizes":[],"default_left":[0,0,0,0,0,0,0,0,0],"id":56,"left_children":[1,3,5,-1,-1,7,-1,-1,-1],"loss_changes":[1.826691E2,6.6632843E-1,3.3921814E-1,0E0,0E0,4.5876312E-1,0E0,0E0,0E0],"parents":[2147483647,0,0,1,1,2,2,5,5],"right_children":[2,4,6,-1,-1,8,-1,-1,-1],"split_conditions":[3.1063594E-2,5.1739377E-1,1.3610472E-4,-1.5290117E-1,4.4951074E-2,4.334199E-2,1.5570964E-2,2.0706497E-1,3.465114E-2],"split_indices":[14,0,18,0,0,45,0,0,0],"split_type":[0,0,0,0,0,0,0,0,0],"sum_hessian":[5.737846E2,3.7939853E2,1.9438606E2,3.7826447E2,1.1340611E0,1.933656E2,1.0204675E0,1.9152037E2,1.845229E0],"tree_param":{"num_deleted":"0","num_feature":"57","num_nodes":"9","size_leaf_vector":"0"}},{"base_weights":[2.5178266E-1,-1.5287943E-1,6.7333126E-1,-1.18943155E-1,6.776266E-1,6.807204E-1,9.910345E-2,2.0535381E-1,3.598168E-1,-1.22121304E-1,1.939574E-1,5.1372856E-1,-1.1956257E-1,1.9726607E-1,-2.326306E-2],"categories":[],"categories_nodes":[],"categories_segments":[],"categories_sizes":[],"default_left":[0,0,0,0,0,0,0,0,0,0,0,0,0,0,0],"id":57,"left_children":[1,-1,3,-1,5,7,9,-1,11,-1,-1,13,-1,-1,-1],"loss_changes":[3.019575E2,0E0,3.0500488E0,0E0,1.012207E0,4.836731E-1,1.4765958E0,0E0,1.2685469E0,0E0,0E0,7.3244E-1,0E0,0E0,0E0],"parents":[2147483647,0,0,2,2,4,4,5,5,6,6,8,8,11,11],"right_children":[2,-1,4,-1,6,8,10,-1,12,-1,-1,14,-1,-1,-1],"split_conditions":[1.557274E-3,-1.5287943E-1,1.021384E-2,-1.18943155E-1,1.3032656E-3,5.5668445E-4,2.4961801E-2,2.0535381E-1,5.571811E-10,-1.22121304E-1,1.939574E-1,7.5159915E-5,-1.1956257E-1,1.9726607E-1,-2.326306E-2],"split_indices":[1,0,29,0,8,38,50,0,37,0,0,9,0,0,0],"split_type":[0,0,0,0,0,0,0,0,0,0,0,0,0,0,0],"sum_hessian":[9.3872876E2,3.3445087E2,6.042779E2,2.0513902E0,6.022265E2,5.9884735E2,3.3791244E0,5.907332E2,8.114132E0,1.8889169E0,1.4902074E0,7.013328E0,1.1008035E0,5.550973E0,1.4623553E0],"tree_param":{"num_deleted":"0","num_feature":"57","num_nodes":"15","size_leaf_vector":"0"}},{"base_weights":[-2.6325998E-1,-5.0265944E-1,6.497479E-1,-1.528872E-1,1.9503003E-1,-1.4332688E-1,6.8100095E-1,-1.0717872E-1,2.1693008E-1,-1.1316608E-1,8.3975196E-2,6.918849E-1,1.7407511E-3,6.995638E-1,2.3433862E-2,2.1198443E-1,7.8776196E-2],"categories":[],"categories_nodes":[],"categories_segments":[],"categories_sizes":[],"default_left":[0,0,0,0,0,0,0,0,0,0,0,0,0,0,0,0,0],"id":58,"left_children":[1,3,5,-1,7,9,11,-1,-1,-1,-1,13,-1,15,-1,-1,-1],"loss_changes":[1.0735953E2,1.9872589E0,2.6298218E0,0E0,1.5892031E0,5.708111E-1,7.195778E-1,0E0,0E0,0E0,0E0,4.0202713E-1,0E0,1.0891342E-1,0E0,0E0,0E0],"parents":[2147483647,0,0,1,1,2,2,4,4,5,5,6,6,11,11,13,13],"right_children":[2,4,6,-1,8,10,12,-1,-1,-1,-1,14,-1,16,-1,-1,-1],"split_conditions":[5.7566212E-3,1.602217E-2,9.446842E-3,-1.528872E-1,4.2785984E-2,9.076928E-1,5.972273E-4,-1.0717872E-1,2.1693008E-1,-1.1316608E-1,8.3975196E-2,9.907794E-1,1.7407511E-3,5.4194506E-6,2.3433862E-2,2.1198443E-1,7.8776196E-2],"split_indices":[2,30,48,0,53,2,6,0,0,0,0,21,0,24,0,0,0],"split_type":[0,0,0,0,0,0,0,0,0,0,0,0,0,0,0,0,0],"sum_hessian":[4.886883E2,3.8752496E2,1.0116333E2,3.839617E2,3.5632448E0,3.6994824E0,9.7463844E1,1.89978E0,1.6634647E0,2.4527717E0,1.2467107E0,9.589337E1,1.5704734E0,9.457042E1,1.3229513E0,9.246143E1,2.1089866E0],"tree_param":{"num_deleted":"0","num_feature":"57","num_nodes":"17","size_leaf_vector":"0"}},{"base_weights":[1.6807161E-1,-4.970268E-1,6.791112E-1,-5.069018E-1,3.2090336E-1,-1.1026354E-1,6.849401E-1,-1.5289423E-1,1.3843192E-4,-3.7958466E-2,1.6930698E-1,-1.1344901E-3,6.8668073E-1,2.065269E-1,2.8891686E-2],"categories":[],"categories_nodes":[],"categories_segments":[],"categories_sizes":[],"default_left":[0,0,0,0,0,0,0,0,0,0,0,0,0,0,0],"id":59,"left_children":[1,3,5,7,9,-1,11,-1,-1,-1,-1,-1,13,-1,-1],"loss_changes":[2.7734427E2,3.027542E0,3.0660248E0,4.8898315E-1,5.990057E-1,0E0,5.5296326E-1,0E0,0E0,0E0,0E0,0E0,4.0472412E-1,0E0,0E0],"parents":[2147483647,0,0,1,1,2,2,3,3,4,4,6,6,12,12],"right_children":[2,4,6,8,10,-1,12,-1,-1,-1,-1,-1,14,-1,-1],"split_conditions":[2.3968277E-2,6.5168905E-1,5.7396054E-4,9.9801385E-1,5.300942E-1,-1.1026354E-1,2.5312524E-4,-1.5289423E-1,1.3843192E-4,-3.7958466E-2,1.6930698E-1,-1.1344901E-3,1.2608853E-3,2.065269E-1,2.8891686E-2],"split_indices":[3,31,31,13,17,0,42,0,0,0,0,0,20,0,0],"split_type":[0,0,0,0,0,0,0,0,0,0,0,0,0,0,0],"sum_hessian":[8.1398553E2,3.536939E2,4.6029163E2,3.4985037E2,3.843525E0,2.2055259E0,4.580861E2,3.4796283E2,1.8875297E0,1.5236163E0,2.3199086E0,1.1518705E0,4.5693423E2,4.5542413E2,1.5100753E0],"tree_param":{"num_deleted":"0","num_feature":"57","num_nodes":"15","size_leaf_vector":"0"}},{"base_weights":[-2.7263027E-1,-1.5290338E-1,6.799392E-1,5.5127637E-3,6.903742E-1,2.0985065E-1,3.2701578E-2],"categories":[],"categories_nodes":[],"categories_segments":[],"categories_sizes":[],"default_left":[0,0,0,0,0,0,0],"id":60,"left_children":[1,-1,3,-1,5,-1,-1],"loss_changes":[1.09955345E2,0E0,6.5800476E-1,0E0,4.311676E-1,0E0,0E0],"parents":[2147483647,0,0,2,2,4,4],"right_children":[2,-1,4,-1,6,-1,-1],"split_conditions":[5.029453E-2,-1.5290338E-1,2.1695644E-3,5.5127637E-3,8.6719E-6,2.0985065E-1,3.2701578E-2],"split_indices":[32,0,4,0,38,0,0],"split_type":[0,0,0,0,0,0,0],"sum_hessian":[4.8441492E2,3.8826086E2,9.615405E1,1.5359793E0,9.461807E1,9.29554E1,1.6626759E0],"tree_param":{"num_deleted":"0","num_feature":"57","num_nodes":"7","size_leaf_vector":"0"}},{"base_weights":[8.935523E-2,-5.0589806E-1,6.679466E-1,-3.114839E-2,-5.0730413E-1,-1.1263741E-1,6.7648005E-1,-1.5286094E-1,-2.5386605E-1,6.8113625E-1,-3.7473988E-2,4.4349775E-2,-1.1854058E-1,6.8450993E-1,1.3154347E-1,7.653563E-2,-9.672763E-2,6.866699E-1,6.074396E-4,-6.7483485E-2,1.4226864E-1,2.0671701E-1,1.9033093E-2],"categories":[],"categories_nodes":[],"categories_segments":[],"categories_sizes":[],"default_left":[0,0,0,0,0,0,0,0,0,0,0,0,0,0,0,0,0,0,0,0,0,0,0],"id":61,"left_children":[1,3,5,-1,7,-1,9,-1,11,13,15,-1,-1,17,19,-1,-1,21,-1,-1,-1,-1,-1],"loss_changes":[2.5159534E2,1.5093231E-1,3.5517273E0,0E0,7.355499E-2,0E0,1.2479706E0,0E0,3.4921047E-1,5.874634E-1,3.5993832E-1,0E0,0E0,5.336304E-1,5.302411E-1,0E0,0E0,4.944458E-1,0E0,0E0,0E0,0E0,0E0],"parents":[2147483647,0,0,1,1,2,2,4,4,6,6,8,8,9,9,10,10,13,13,14,14,17,17],"right_children":[2,4,6,-1,8,-1,10,-1,12,14,16,-1,-1,18,20,-1,-1,22,-1,-1,-1,-1,-1],"split_conditions":[4.800578E-3,6.8892404E-3,1.0314055E-3,-3.114839E-2,1.2193344E-3,-1.1263741E-1,5.315313E-2,-1.5286094E-1,7.191041E-5,1.2590459E-6,4.6478165E-4,4.4349775E-2,-1.1854058E-1,4.334199E-2,1.9761212E-3,7.653563E-2,-9.672763E-2,5.7566212E-3,6.074396E-4,-6.7483485E-2,1.4226864E-1,2.0671701E-1,1.9033093E-2],"split_indices":[19,48,5,0,33,0,11,0,10,14,2,0,0,45,36,0,0,2,0,0,0,0,0],"split_type":[0,0,0,0,0,0,0,0,0,0,0,0,0,0,0,0,0,0,0,0,0,0,0],"sum_hessian":[7.285333E2,3.5915808E2,3.6937524E2,1.512442E0,3.5764563E2,2.6476E0,3.6672766E2,3.5352124E2,4.124381E0,3.6439713E2,2.3305242E0,1.0609922E0,3.0633886E0,3.6192993E2,2.467208E0,1.2014993E0,1.1290249E0,3.6078195E2,1.1479565E0,1.3776494E0,1.0895585E0,3.5930032E2,1.4816477E0],"tree_param":{"num_deleted":"0","num_feature":"57","num_nodes":"23","size_leaf_vector":"0"}},{"base_weights":[-6.3788265E-2,-5.0707656E-1,6.789181E-1,-1.5287775E-1,-2.4522239E-1,-8.473239E-2,6.8526024E-1,7.184778E-2,-1.21843085E-1,2.0652251E-1,8.219681E-4],"categories":[],"categories_nodes":[],"categories_segments":[],"categories_sizes":[],"default_left":[0,0,0,0,0,0,0,0,0,0,0],"id":62,"left_children":[1,3,5,-1,7,-1,9,-1,-1,-1,-1],"loss_changes":[1.979922E2,1.2308502E-1,1.5642319E0,0E0,5.271103E-1,0E0,4.786148E-1,0E0,0E0,0E0,0E0],"parents":[2147483647,0,0,1,1,2,2,4,4,6,6],"right_children":[2,4,6,-1,8,-1,10,-1,-1,-1,-1],"split_conditions":[4.8751906E-2,1.2556593E-3,3.4156332E-3,-1.5287775E-1,2.2361324E-4,-8.473239E-2,4.6478165E-4,7.184778E-2,-1.21843085E-1,2.0652251E-1,8.219681E-4],"split_indices":[34,6,6,0,1,0,2,0,0,0,0],"split_type":[0,0,0,0,0,0,0,0,0,0,0],"sum_hessian":[5.9932837E2,3.7551654E2,2.2381181E2,3.7100583E2,4.510728E0,1.1815009E0,2.2263033E2,1.0025778E0,3.50815E0,2.2159958E2,1.0307374E0],"tree_param":{"num_deleted":"0","num_feature":"57","num_nodes":"11","size_leaf_vector":"0"}},{"base_weights":[1.992412E-1,-4.9606004E-1,6.559517E-1,-5.013018E-1,1.9322552E-1,1.2483166E-1,6.6751397E-1,-5.06732E-1,1.3733192E-1,4.654076E-1,-1.3431475E-1,6.821187E-1,4.0440452E-1,-1.5283528E-1,-2.3329157E-1,-9.7084865E-2,1.9963591E-1,-2.0684546E-1,8.1070644E-1,-4.256746E-3,6.842388E-1,6.4156586E-1,1.455098E-1,-1.1718603E-1,5.6629192E-2,-1.0795114E-1,2.7241545E-2,3.0064676E-2,3.3236343E-1,6.8562067E-1,3.964837E-2,4.165037E-1,1.1307449E0,2.08259E-1,-1.2158337E-1,2.0599358E-1,3.0028107E-2,1.799399E-1,-7.8121506E-2,4.3515956E-1,2.9921677E-2,1.05863266E-1,-1.2165464E-1],"categories":[],"categories_nodes":[],"categories_segments":[],"categories_sizes":[],"default_left":[0,0,0,0,0,0,0,0,0,0,0,0,0,0,0,0,0,0,0,0,0,0,0,0,0,0,0,0,0,0,0,0,0,0,0,0,0,0,0,0,0,0,0],"id":63,"left_children":[1,3,5,7,-1,9,11,13,15,17,-1,19,21,-1,23,-1,-1,25,27,-1,29,31,33,-1,-1,-1,-1,-1,-1,35,-1,37,39,-1,41,-1,-1,-1,-1,-1,-1,-1,-1],"loss_changes":[2.748931E2,2.3748932E0,3.1240234E0,1.2567978E0,0E0,2.6180892E0,1.6874542E0,1.3368225E-1,1.1095145E0,2.0801735E0,0E0,7.2213745E-1,1.7072253E0,0E0,4.1829234E-1,0E0,0E0,1.9627215E-1,1.0811353E0,0E0,2.76474E-1,1.1817775E0,2.3286283E0,0E0,0E0,0E0,0E0,0E0,0E0,2.1905518E-1,0E0,1.6282911E0,1.222661E0,0E0,1.6452743E0,0E0,0E0,0E0,0E0,0E0,0E0,0E0,0E0],"parents":[2147483647,0,0,1,1,2,2,3,3,5,5,6,6,7,7,8,8,9,9,11,11,12,12,14,14,17,17,18,18,20,20,21,21,22,22,29,29,31,31,32,32,34,34],"right_children":[2,4,6,8,-1,10,12,14,16,18,-1,20,22,-1,24,-1,-1,26,28,-1,30,32,34,-1,-1,-1,-1,-1,-1,36,-1,38,40,-1,42,-1,-1,-1,-1,-1,-1,-1,-1],"split_conditions":[1.1710967E-2,8.8111705E-1,7.8004533E-3,1.8590963E-2,1.9322552E-1,1.08423505E-4,1.7784619E-4,6.973229E-4,3.003956E-4,1.0272799E-4,-1.3431475E-1,1.8769493E-2,7.660273E-3,-1.5283528E-1,9.255756E-6,-9.7084865E-2,1.9963591E-1,7.0728376E-5,1.3102537E-4,-4.256746E-3,1.967618E-4,1.0823722E-3,8.9026E-9,-1.1718603E-1,5.6629192E-2,-1.0795114E-1,2.7241545E-2,3.0064676E-2,3.3236343E-1,9.7247714E-1,3.964837E-2,3.3290312E-1,6.0868374E-4,2.08259E-1,2.7020029E-8,2.0599358E-1,3.0028107E-2,1.799399E-1,-7.8121506E-2,4.3515956E-1,2.9921677E-2,1.05863266E-1,-1.2165464E-1],"split_indices":[35,49,7,21,0,5,10,21,15,9,0,49,42,0,36,0,0,4,2,0,36,3,16,0,0,0,0,0,0,39,0,39,13,0,31,0,0,0,0,0,0,0,0],"split_type":[0,0,0,0,0,0,0,0,0,0,0,0,0,0,0,0,0,0,0,0,0,0,0,0,0,0,0,0,0,0,0,0,0,0,0,0,0,0,0,0,0,0,0],"sum_hessian":[8.6364026E2,3.423526E2,5.2128766E2,3.413436E2,1.0090055E0,1.1357792E1,5.0992987E2,3.386705E2,2.6730866E0,7.2389064E0,4.1188855E0,4.8160437E2,2.8325485E1,3.344815E2,4.1890097E0,1.63408E0,1.0390065E0,2.5925353E0,4.646371E0,1.4446261E0,4.8015976E2,1.4011819E1,1.4313666E1,3.105764E0,1.0832456E0,1.5743823E0,1.018153E0,1.7646354E0,2.8817356E0,4.787196E2,1.4401627E0,1.0864636E1,3.1471825E0,4.162861E0,1.0150805E1,4.7771097E2,1.0086079E0,8.639195E0,2.225441E0,2.0915406E0,1.0556419E0,3.7094142E0,6.441391E0],"tree_param":{"num_deleted":"0","num_feature":"57","num_nodes":"43","size_leaf_vector":"0"}},{"base_weights":[1.02045126E-1,-1.5291797E-1,6.791865E-1,-1.04531474E-1,6.842461E-1,2.0595367E-1,4.7908843E-2],"categories":[],"categories_nodes":[],"categories_segments":[],"categories_sizes":[],"default_left":[0,0,0,0,0,0,0],"id":64,"left_children":[1,-1,3,-1,5,-1,-1],"loss_changes":[2.6190176E2,0E0,2.222519E0,0E0,3.4217834E-1,0E0,0E0],"parents":[2147483647,0,0,2,2,4,4],"right_children":[2,-1,4,-1,6,-1,-1],"split_conditions":[5.0092903E-3,-1.5291797E-1,1.3032656E-3,-1.04531474E-1,5.335256E-4,2.0595367E-1,4.7908843E-2],"split_indices":[22,0,8,0,9,0,0],"split_type":[0,0,0,0,0,0,0],"sum_hessian":[7.3978534E2,3.5917526E2,3.8061008E2,1.5322602E0,3.7907782E2,3.7713974E2,1.938075E0],"tree_param":{"num_deleted":"0","num_feature":"57","num_nodes":"7","size_leaf_vector":"0"}},{"base_weights":[-2.92628E-1,-5.0728124E-1,6.394869E-1,-1.5290412E-1,-1.636894E-1,-1.16817474E-1,6.7772627E-1,6.836779E-2,-1.0786951E-1,6.938273E-1,-2.7190119E-2,7.031028E-1,5.3922538E-2,2.1329305E-1,4.4743434E-2],"categories":[],"categories_nodes":[],"categories_segments":[],"categories_sizes":[],"default_left":[0,0,0,0,0,0,0,0,0,0,0,0,0,0,0],"id":65,"left_children":[1,3,5,-1,7,-1,9,-1,-1,11,-1,13,-1,-1,-1],"loss_changes":[9.5877495E1,2.3701477E-1,3.798317E0,0E0,4.016828E-1,0E0,1.1389503E0,0E0,0E0,2.804184E-1,0E0,2.5798035E-1,0E0,0E0,0E0],"parents":[2147483647,0,0,1,1,2,2,4,4,6,6,9,9,11,11],"right_children":[2,4,6,-1,8,-1,10,-1,-1,12,-1,14,-1,-1,-1],"split_conditions":[7.8566006E-4,5.335256E-4,3.3813164E-6,-1.5290412E-1,3.0765086E-9,-1.16817474E-1,2.5524078E-3,6.836779E-2,-1.0786951E-1,5.1739377E-1,-2.7190119E-2,1.940401E-5,5.3922538E-2,2.1329305E-1,4.4743434E-2],"split_indices":[9,9,37,0,21,0,3,0,0,0,0,40,0,0,0],"split_type":[0,0,0,0,0,0,0,0,0,0,0,0,0,0,0],"sum_hessian":[4.7657086E2,3.877363E2,8.8834564E1,3.8456766E2,3.1686428E0,2.8542507E0,8.5980316E1,1.0020176E0,2.1666253E0,8.4310585E1,1.6697286E0,8.2455185E1,1.8553995E0,8.102011E1,1.435074E0],"tree_param":{"num_deleted":"0","num_feature":"57","num_nodes":"15","size_leaf_vector":"0"}},{"base_weights":[1.0141539E-1,-5.0723875E-1,6.715565E-1,-1.5290447E-1,-1.3275938E-2,6.8346643E-1,-1.4687108E-1,-9.4940975E-2,6.8851435E-1,2.447046E-1,-1.3062257E-1,6.901041E-1,3.9272252E-2,1.24553464E-1,-2.0800827E-2,2.0506828E-1,3.1590438E-1],"categories":[],"categories_nodes":[],"categories_segments":[],"categories_sizes":[],"default_left":[0,0,0,0,0,0,0,0,0,0,0,0,0,0,0,0,0],"id":66,"left_children":[1,3,5,-1,-1,7,9,-1,11,13,-1,15,-1,-1,-1,-1,-1],"loss_changes":[2.5749713E2,3.8344574E-1,3.8342438E0,0E0,0E0,2.1245728E0,8.2032883E-1,0E0,2.4310303E-1,2.065472E-1,0E0,1.7033386E-1,0E0,0E0,0E0,0E0,0E0],"parents":[2147483647,0,0,1,1,2,2,5,5,6,6,8,8,9,9,11,11],"right_children":[2,4,6,-1,-1,8,10,-1,12,14,-1,16,-1,-1,-1,-1,-1],"split_conditions":[5.5056403E-4,4.7742976E-3,3.583996E-5,-1.5290447E-1,-1.3275938E-2,5.5668445E-4,5.8305508E-5,-9.4940975E-2,1.8648517E-7,9.9881785E-3,-1.3062257E-1,1.0713694E-2,3.9272252E-2,1.24553464E-1,-2.0800827E-2,2.0506828E-1,3.1590438E-1],"split_indices":[24,10,17,0,0,38,8,0,30,42,0,15,0,0,0,0,0],"split_type":[0,0,0,0,0,0,0,0,0,0,0,0,0,0,0,0,0],"sum_hessian":[7.40045E2,3.5798663E2,3.8205835E2,3.5600745E2,1.9791881E0,3.7674078E2,5.3175387E0,1.5824472E0,3.7515836E2,2.320411E0,2.9971278E0,3.7385483E2,1.3035107E0,1.2952476E0,1.0251634E0,3.7006616E2,3.7886784E0],"tree_param":{"num_deleted":"0","num_feature":"57","num_nodes":"17","size_leaf_vector":"0"}},{"base_weights":[1.0020614E-2,-4.972781E-1,6.293831E-1,-5.043216E-1,1.1415256E-1,1.360737E-1,6.629315E-1,-1.5282579E-1,-2.3837487E-1,3.2464412E-1,-3.4406027E-1,2.3623113E-2,6.757444E-1,2.8795552E-1,-1.3239154E-1,-7.848687E-2,7.069723E-1,-1.870838E-1,1.1590314E-1,7.1381253E-1,-1.4122541E-1,6.8264306E-2,6.836647E-1,-7.940476E-2,2.1041606E-1,-1.2833497E-1,3.0696824E-1,1.9153741E-1,2.7256867E-1,1.3574463E-2,3.0564564E-1,1.800729E-1,-1.1463241E-1,1.022708E0,6.685367E-1,-8.645916E-2,1.719839E-1,1.1588796E-1,-2.5863238E-2,9.3506135E-2,3.2905623E-1,5.0328773E-2,2.0525934E-1],"categories":[],"categories_nodes":[],"categories_segments":[],"categories_sizes":[],"default_left":[0,0,0,0,0,0,0,0,0,0,0,0,0,0,0,0,0,0,0,0,0,0,0,0,0,0,0,0,0,0,0,0,0,0,0,0,0,0,0,0,0,0,0],"id":67,"left_children":[1,3,5,7,-1,9,11,-1,13,15,17,19,21,23,-1,25,27,-1,-1,29,-1,31,33,-1,-1,-1,35,37,-1,-1,-1,-1,-1,39,41,-1,-1,-1,-1,-1,-1,-1,-1],"loss_changes":[2.0924825E2,2.4554672E0,4.8723373E0,3.7154388E-1,0E0,1.9543529E0,2.2817612E0,0E0,1.0582867E0,2.387052E0,1.5119131E0,2.5701435E0,1.2762604E0,8.7821364E-1,0E0,1.2438923E0,6.4309263E-1,0E0,0E0,5.921625E-1,0E0,1.3433584E0,7.078247E-1,0E0,0E0,0E0,8.8014686E-1,2.214417E-1,0E0,0E0,0E0,0E0,0E0,1.6955185E-1,1.9447403E0,0E0,0E0,0E0,0E0,0E0,0E0,0E0,0E0],"parents":[2147483647,0,0,1,1,2,2,3,3,5,5,6,6,8,8,9,9,10,10,11,11,12,12,13,13,15,15,16,16,19,19,21,21,22,22,26,26,27,27,33,33,34,34],"right_children":[2,4,6,8,-1,10,12,-1,14,16,18,20,22,24,-1,26,28,-1,-1,30,-1,32,34,-1,-1,-1,36,38,-1,-1,-1,-1,-1,40,42,-1,-1,-1,-1,-1,-1,-1,-1],"split_conditions":[6.8052188E-3,9.1172314E-1,1.1838334E-2,3.8399731E-3,1.1415256E-1,5.137619E-7,1.422514E-2,-1.5282579E-1,1.4799004E-12,4.2785984E-2,3.511115E-1,9.058005E-11,1.5365274E-3,1.1082289E-2,-1.3239154E-1,4.142794E-9,2.6606546E-8,-1.870838E-1,1.1590314E-1,7.184854E-1,-1.4122541E-1,1.0785753E-9,1.490601E-2,-7.940476E-2,2.1041606E-1,-1.2833497E-1,1.105232E-9,9.841787E-12,2.7256867E-1,1.3574463E-2,3.0564564E-1,1.800729E-1,-1.1463241E-1,9.425927E-13,2.0886557E-1,-8.645916E-2,1.719839E-1,1.1588796E-1,-2.5863238E-2,9.3506135E-2,3.2905623E-1,5.0328773E-2,2.0525934E-1],"split_indices":[39,11,25,11,0,16,55,0,36,53,16,36,11,46,0,16,19,0,0,21,0,24,53,0,0,0,34,34,0,0,0,0,0,34,11,0,0,0,0,0,0,0,0],"split_type":[0,0,0,0,0,0,0,0,0,0,0,0,0,0,0,0,0,0,0,0,0,0,0,0,0,0,0,0,0,0,0,0,0,0,0,0,0,0,0,0,0,0,0],"sum_hessian":[6.639716E2,3.6511526E2,2.9885635E2,3.6263092E2,2.4843295E0,1.9352053E1,2.795043E2,3.549124E2,7.718516E0,1.412742E1,5.2246327E0,5.5475864E0,2.7395673E2,2.0312285E0,5.6872873E0,7.2634616E0,6.863959E0,3.8842113E0,1.3404214E0,2.1300218E0,3.4175644E0,3.6496422E0,2.7030707E2,1.0232418E0,1.0079869E0,3.7528474E0,3.510614E0,2.4780622E0,4.3858967E0,1.027069E0,1.1029528E0,1.5206655E0,2.1289766E0,8.700922E0,2.6160614E2,1.0598437E0,2.4507704E0,1.2269363E0,1.2511258E0,1.313061E0,7.387861E0,8.288463E0,2.5331769E2],"tree_param":{"num_deleted":"0","num_feature":"57","num_nodes":"43","size_leaf_vector":"0"}},{"base_weights":[-2.4572857E-1,-5.0134295E-1,6.7241824E-1,6.2286068E-2,-5.0527155E-1,6.887587E-1,-9.171408E-2,-1.521278E-1,-2.5861148E-2,5.2402813E-2,2.0901527E-1,7.895702E-2,-1.13757916E-1],"categories":[],"categories_nodes":[],"categories_segments":[],"categories_sizes":[],"default_left":[0,0,0,0,0,0,0,0,0,0,0,0,0],"id":68,"left_children":[1,3,5,-1,7,9,11,-1,-1,-1,-1,-1,-1],"loss_changes":[1.1734459E2,1.1927032E0,1.4241676E0,0E0,2.529297E-1,3.1541824E-1,4.2267346E-1,0E0,0E0,0E0,0E0,0E0,0E0],"parents":[2147483647,0,0,1,1,2,2,4,4,5,5,6,6],"right_children":[2,4,6,-1,8,10,12,-1,-1,-1,-1,-1,-1],"split_conditions":[3.3519324E-2,1.6639916E-4,3.6241768E-6,6.2286068E-2,1.0653275E-2,4.4768594E-2,2.1303647E-6,-1.521278E-1,-2.5861148E-2,5.2402813E-2,2.0901527E-1,7.895702E-2,-1.13757916E-1],"split_indices":[40,52,27,0,26,54,36,0,0,0,0,0,0],"split_type":[0,0,0,0,0,0,0,0,0,0,0,0,0],"sum_hessian":[4.9755862E2,3.8955853E2,1.0800011E2,1.8610599E0,3.8769748E2,1.0583553E2,2.164575E0,3.8581085E2,1.8866078E0,1.9633725E0,1.03872154E2,1.0065001E0,1.1580749E0],"tree_param":{"num_deleted":"0","num_feature":"57","num_nodes":"13","size_leaf_vector":"0"}},{"base_weights":[-3.1453136E-1,-1.5291417E-1,6.5872E-1,6.826235E-1,-9.68663E-2,6.964222E-1,-2.3607103E-2,7.048935E-1,9.793637E-3,7.105615E-1,7.137993E-2,1.9984931E-1,2.9682186E-1],"categories":[],"categories_nodes":[],"categories_segments":[],"categories_sizes":[],"default_left":[0,0,0,0,0,0,0,0,0,0,0,0,0],"id":69,"left_children":[1,-1,3,5,-1,7,-1,9,-1,11,-1,-1,-1],"loss_changes":[8.910367E1,0E0,2.0622253E0,8.631859E-1,0E0,4.0255356E-1,0E0,2.859497E-2,0E0,2.4810791E-1,0E0,0E0,0E0],"parents":[2147483647,0,0,2,2,3,3,5,5,7,7,9,9],"right_children":[2,-1,4,6,-1,8,-1,10,-1,12,-1,-1,-1],"split_conditions":[2.637554E-3,-1.5291417E-1,4.3051268E-4,1.9761212E-3,-9.68663E-2,4.433565E-2,-2.3607103E-2,1.967618E-4,9.793637E-3,5.971825E-4,7.137993E-2,1.9984931E-1,2.9682186E-1],"split_indices":[41,0,35,36,0,50,0,36,0,5,0,0,0],"split_type":[0,0,0,0,0,0,0,0,0,0,0,0,0],"sum_hessian":[4.6629385E2,3.887979E2,7.7495926E1,7.5951004E1,1.5449257E0,7.4682625E1,1.2683796E0,7.368035E1,1.0022705E0,7.228132E1,1.3990318E0,6.527703E1,7.0042944E0],