{"learner":{"attributes":{"best_iteration":"99","best_ntree_limit":"100","scikit_learn":"{\"use_label_encoder\": false, \"n_estimators\": 100, \"objective\": \"multi:softprob\", \"max_depth\": null, \"max_leaves\": null, \"max_bin\": null, \"grow_policy\": null, \"learning_rate\": null, \"verbosity\": null, \"booster\": null, \"tree_method\": \"gpu_hist\", \"gamma\": null, \"min_child_weight\": null, \"max_delta_step\": null, \"subsample\": null, \"sampling_method\": null, \"colsample_bytree\": null, \"colsample_bylevel\": null, \"colsample_bynode\": null, \"reg_alpha\": null, \"reg_lambda\": null, \"scale_pos_weight\": null, \"base_score\": null, \"missing\": NaN, \"num_parallel_tree\": null, \"random_state\": null, \"n_jobs\": null, \"monotone_constraints\": null, \"interaction_constraints\": null, \"importance_type\": null, \"gpu_id\": 0, \"validate_parameters\": null, \"predictor\": null, \"enable_categorical\": false, \"max_cat_to_onehot\": null, \"eval_metric\": null, \"early_stopping_rounds\": null, \"callbacks\": null, \"kwargs\": {\"num_class\": 14}, \"classes_\": [0, 1, 2, 3, 4, 5, 6, 7, 8, 9, 10, 11, 12, 13], \"n_classes_\": 14, \"_estimator_type\": \"classifier\"}"},"feature_names":[],"feature_types":[],"gradient_booster":{"model":{"gbtree_model_param":{"num_parallel_tree":"1","num_trees":"1400","size_leaf_vector":"0"},"tree_info":[0,1,2,3,4,5,6,7,8,9,10,11,12,13,0,1,2,3,4,5,6,7,8,9,10,11,12,13,0,1,2,3,4,5,6,7,8,9,10,11,12,13,0,1,2,3,4,5,6,7,8,9,10,11,12,13,0,1,2,3,4,5,6,7,8,9,10,11,12,13,0,1,2,3,4,5,6,7,8,9,10,11,12,13,0,1,2,3,4,5,6,7,8,9,10,11,12,13,0,1,2,3,4,5,6,7,8,9,10,11,12,13,0,1,2,3,4,5,6,7,8,9,10,11,12,13,0,1,2,3,4,5,6,7,8,9,10,11,12,13,0,1,2,3,4,5,6,7,8,9,10,11,12,13,0,1,2,3,4,5,6,7,8,9,10,11,12,13,0,1,2,3,4,5,6,7,8,9,10,11,12,13,0,1,2,3,4,5,6,7,8,9,10,11,12,13,0,1,2,3,4,5,6,7,8,9,10,11,12,13,0,1,2,3,4,5,6,7,8,9,10,11,12,13,0,1,2,3,4,5,6,7,8,9,10,11,12,13,0,1,2,3,4,5,6,7,8,9,10,11,12,13,0,1,2,3,4,5,6,7,8,9,10,11,12,13,0,1,2,3,4,5,6,7,8,9,10,11,12,13,0,1,2,3,4,5,6,7,8,9,10,11,12,13,0,1,2,3,4,5,6,7,8,9,10,11,12,13,0,1,2,3,4,5,6,7,8,9,10,11,12,13,0,1,2,3,4,5,6,7,8,9,10,11,12,13,0,1,2,3,4,5,6,7,8,9,10,11,12,13,0,1,2,3,4,5,6,7,8,9,10,11,12,13,0,1,2,3,4,5,6,7,8,9,10,11,12,13,0,1,2,3,4,5,6,7,8,9,10,11,12,13,0,1,2,3,4,5,6,7,8,9,10,11,12,13,0,1,2,3,4,5,6,7,8,9,10,11,12,13,0,1,2,3,4,5,6,7,8,9,10,11,12,13,0,1,2,3,4,5,6,7,8,9,10,11,12,13,0,1,2,3,4,5,6,7,8,9,10,11,12,13,0,1,2,3,4,5,6,7,8,9,10,11,12,13,0,1,2,3,4,5,6,7,8,9,10,11,12,13,0,1,2,3,4,5,6,7,8,9,10,11,12,13,0,1,2,3,4,5,6,7,8,9,10,11,12,13,0,1,2,3,4,5,6,7,8,9,10,11,12,13,0,1,2,3,4,5,6,7,8,9,10,11,12,13,0,1,2,3,4,5,6,7,8,9,10,11,12,13,0,1,2,3,4,5,6,7,8,9,10,11,12,13,0,1,2,3,4,5,6,7,8,9,10,11,12,13,0,1,2,3,4,5,6,7,8,9,10,11,12,13,0,1,2,3,4,5,6,7,8,9,10,11,12,13,0,1,2,3,4,5,6,7,8,9,10,11,12,13,0,1,2,3,4,5,6,7,8,9,10,11,12,13,0,1,2,3,4,5,6,7,8,9,10,11,12,13,0,1,2,3,4,5,6,7,8,9,10,11,12,13,0,1,2,3,4,5,6,7,8,9,10,11,12,13,0,1,2,3,4,5,6,7,8,9,10,11,12,13,0,1,2,3,4,5,6,7,8,9,10,11,12,13,0,1,2,3,4,5,6,7,8,9,10,11,12,13,0,1,2,3,4,5,6,7,8,9,10,11,12,13,0,1,2,3,4,5,6,7,8,9,10,11,12,13,0,1,2,3,4,5,6,7,8,9,10,11,12,13,0,1,2,3,4,5,6,7,8,9,10,11,12,13,0,1,2,3,4,5,6,7,8,9,10,11,12,13,0,1,2,3,4,5,6,7,8,9,10,11,12,13,0,1,2,3,4,5,6,7,8,9,10,11,12,13,0,1,2,3,4,5,6,7,8,9,10,11,12,13,0,1,2,3,4,5,6,7,8,9,10,11,12,13,0,1,2,3,4,5,6,7,8,9,10,11,12,13,0,1,2,3,4,5,6,7,8,9,10,11,12,13,0,1,2,3,4,5,6,7,8,9,10,11,12,13,0,1,2,3,4,5,6,7,8,9,10,11,12,13,0,1,2,3,4,5,6,7,8,9,10,11,12,13,0,1,2,3,4,5,6,7,8,9,10,11,12,13,0,1,2,3,4,5,6,7,8,9,10,11,12,13,0,1,2,3,4,5,6,7,8,9,10,11,12,13,0,1,2,3,4,5,6,7,8,9,10,11,12,13,0,1,2,3,4,5,6,7,8,9,10,11,12,13,0,1,2,3,4,5,6,7,8,9,10,11,12,13,0,1,2,3,4,5,6,7,8,9,10,11,12,13,0,1,2,3,4,5,6,7,8,9,10,11,12,13,0,1,2,3,4,5,6,7,8,9,10,11,12,13,0,1,2,3,4,5,6,7,8,9,10,11,12,13,0,1,2,3,4,5,6,7,8,9,10,11,12,13,0,1,2,3,4,5,6,7,8,9,10,11,12,13,0,1,2,3,4,5,6,7,8,9,10,11,12,13,0,1,2,3,4,5,6,7,8,9,10,11,12,13,0,1,2,3,4,5,6,7,8,9,10,11,12,13,0,1,2,3,4,5,6,7,8,9,10,11,12,13,0,1,2,3,4,5,6,7,8,9,10,11,12,13,0,1,2,3,4,5,6,7,8,9,10,11,12,13,0,1,2,3,4,5,6,7,8,9,10,11,12,13,0,1,2,3,4,5,6,7,8,9,10,11,12,13,0,1,2,3,4,5,6,7,8,9,10,11,12,13,0,1,2,3,4,5,6,7,8,9,10,11,12,13,0,1,2,3,4,5,6,7,8,9,10,11,12,13,0,1,2,3,4,5,6,7,8,9,10,11,12,13,0,1,2,3,4,5,6,7,8,9,10,11,12,13,0,1,2,3,4,5,6,7,8,9,10,11,12,13,0,1,2,3,4,5,6,7,8,9,10,11,12,13,0,1,2,3,4,5,6,7,8,9,10,11,12,13,0,1,2,3,4,5,6,7,8,9,10,11,12,13,0,1,2,3,4,5,6,7,8,9,10,11,12,13,0,1,2,3,4,5,6,7,8,9,10,11,12,13,0,1,2,3,4,5,6,7,8,9,10,11,12,13,0,1,2,3,4,5,6,7,8,9,10,11,12,13,0,1,2,3,4,5,6,7,8,9,10,11,12,13],"trees":[{"base_weights":[-1.556251E-1,-5.371933E-1,6.7899895E0,-1.6140512E-1,-7.040799E-9,2.0587595E0,4.590698E-1],"categories":[],"categories_nodes":[],"categories_segments":[],"categories_sizes":[],"default_left":[0,0,0,0,0,0,0],"id":0,"left_children":[1,3,5,-1,-1,-1,-1],"loss_changes":[3.3925288E3,5.3674316E-1,1.4934082E1,0E0,0E0,0E0,0E0],"parents":[2147483647,0,0,1,1,2,2],"right_children":[2,4,6,-1,-1,-1,-1],"split_conditions":[3.1063594E-2,2.8314644E-2,2.39723E-7,-1.6140512E-1,-7.040799E-9,2.0587595E0,4.590698E-1],"split_indices":[14,42,19,0,0,0,0],"split_type":[0,0,0,0,0,0,0],"sum_hessian":[1.2777142E3,1.212051E3,6.566326E1,1.2101938E3,1.8571428E0,6.446938E1,1.1938775E0],"tree_param":{"num_deleted":"0","num_feature":"57","num_nodes":"7","size_leaf_vector":"0"}},{"base_weights":[6.5065354E-1,-5.222063E-1,2.085058E0,-5.3703004E-1,2.614786E0,-1.6138774E-1,-1.586902E-1,1.2144578E0,-7.040799E-9,-1.0750855E-1,6.2376235E-2],"categories":[],"categories_nodes":[],"categories_segments":[],"categories_sizes":[],"default_left":[0,0,0,0,0,0,0,0,0,0,0],"id":1,"left_children":[1,3,-1,5,7,-1,9,-1,-1,-1,-1],"loss_changes":[9.45138E3,5.1577026E1,0E0,2.9241943E-1,1.965815E1,0E0,3.7105283E-1,0E0,0E0,0E0,0E0],"parents":[2147483647,0,0,1,1,3,3,4,4,6,6],"right_children":[2,4,-1,6,8,-1,10,-1,-1,-1,-1],"split_conditions":[9.821853E-1,4.6546867E-1,2.085058E0,1.0713694E-2,4.4629185E-9,-1.6138774E-1,1.557274E-3,1.2144578E0,-7.040799E-9,-1.0750855E-1,6.2376235E-2],"split_indices":[1,29,0,15,26,0,1,0,0,0,0],"split_type":[0,0,0,0,0,0,0,0,0,0,0],"sum_hessian":[1.2777142E3,1.0779387E3,1.997755E2,1.0736938E3,4.244898E0,1.0706428E3,3.0510204E0,2.387755E0,1.8571428E0,1.9897959E0,1.0612245E0],"tree_param":{"num_deleted":"0","num_feature":"57","num_nodes":"11","size_leaf_vector":"0"}},{"base_weights":[-3.5191602E-1,-5.268178E-1,2.003575E0,-5.34819E-1,2.3463688E0,-1.6140746E-1,-2.1428575E-1,1.4813277E-1,1.0060465E0,-1.4562815E-1,3.978947E-1,3.5346535E-1,-1.320755E-1,-1.022472E-1,6.2376235E-2],"categories":[],"categories_nodes":[],"categories_segments":[],"categories_sizes":[],"default_left":[0,0,0,0,0,0,0,0,0,0,0,0,0,0,0],"id":2,"left_children":[1,3,-1,5,7,-1,9,-1,-1,-1,11,-1,13,-1,-1],"loss_changes":[1.5758851E3,2.9958984E1,0E0,1.1650085E0,5.1599464E0,0E0,2.5169735E0,0E0,0E0,0E0,2.1600554E0,0E0,3.3955055E-1,0E0,0E0],"parents":[2147483647,0,0,1,1,3,3,4,4,6,6,10,10,12,12],"right_children":[2,4,-1,6,8,-1,10,-1,-1,-1,12,-1,14,-1,-1],"split_conditions":[6.064073E-1,3.6627433E-1,2.003575E0,2.5504227E-3,9.076928E-1,-1.6140746E-1,1.410189E-6,1.4813277E-1,1.0060465E0,-1.4562815E-1,1.269247E-5,3.5346535E-1,9.334996E-4,-1.022472E-1,6.2376235E-2],"split_indices":[44,30,0,2,2,0,15,0,0,0,15,0,4,0,0],"split_type":[0,0,0,0,0,0,0,0,0,0,0,0,0,0,0],"sum_hessian":[1.2777142E3,1.247602E3,3.0112244E1,1.244949E3,2.6530612E0,1.231949E3,1.3E1,1.4591837E0,1.1938775E0,9.153061E0,3.8469386E0,1.0612245E0,2.7857141E0,1.7244897E0,1.0612245E0],"tree_param":{"num_deleted":"0","num_feature":"57","num_nodes":"15","size_leaf_vector":"0"}},{"base_weights":[3.683387E-1,-5.13159E-1,2.074313E0,-5.335232E-1,2.6565096E0,-5.3708476E-1,3.4930137E-1,1.0937497E-1,1.2908258E0,-1.6139324E-1,-2.8925622E-1,-1.1731845E-1,3.921162E-1,2.0792079E-1,-1.0500001E-1,6.2376235E-2,-1.2994014E-1],"categories":[],"categories_nodes":[],"categories_segments":[],"categories_sizes":[],"default_left":[0,0,0,0,0,0,0,0,0,0,0,0,0,0,0,0,0],"id":3,"left_children":[1,3,-1,5,7,9,11,13,-1,-1,15,-1,-1,-1,-1,-1,-1],"loss_changes":[7.382135E3,7.422003E1,0E0,3.7138977E0,3.0422153E1,9.161377E-2,4.1361513E0,1.293224E0,0E0,0E0,5.316618E-1,0E0,0E0,0E0,0E0,0E0,0E0],"parents":[2147483647,0,0,1,1,3,3,4,4,5,5,6,6,7,7,10,10],"right_children":[2,4,-1,6,8,10,12,14,-1,-1,16,-1,-1,-1,-1,-1,-1],"split_conditions":[6.5168905E-1,4.2548424E-1,2.074313E0,2.3968277E-2,1.5695563E-2,9.9801385E-1,7.279786E-3,4.994357E-4,1.2908258E0,-1.6139324E-1,9.042267E-1,-1.1731845E-1,3.921162E-1,2.0792079E-1,-1.0500001E-1,6.2376235E-2,-1.2994014E-1],"split_indices":[31,3,0,3,45,13,42,5,0,0,55,0,0,0,0,0,0],"split_type":[0,0,0,0,0,0,0,0,0,0,0,0,0,0,0,0,0],"sum_hessian":[1.2777142E3,1.1268877E3,1.5082652E2,1.1205204E3,6.367347E0,1.1164081E3,4.1122446E0,2.9183674E0,3.4489794E0,1.1112346E3,5.173469E0,2.6530612E0,1.4591837E0,1.0612245E0,1.8571428E0,1.0612245E0,4.1122446E0],"tree_param":{"num_deleted":"0","num_feature":"57","num_nodes":"17","size_leaf_vector":"0"}},{"base_weights":[-3.5426214E-1,-5.316232E-1,2.0325027E0,-1.6140884E-1,1.8869565E0,6.2376235E-2,7.580913E-1],"categories":[],"categories_nodes":[],"categories_segments":[],"categories_sizes":[],"default_left":[0,0,0,0,0,0,0],"id":4,"left_children":[1,3,-1,-1,5,-1,-1],"loss_changes":[1.6204781E3,2.0361237E1,0E0,0E0,3.2576447E0,0E0,0E0],"parents":[2147483647,0,0,1,1,4,4],"right_children":[2,4,-1,-1,6,-1,-1],"split_conditions":[9.7538614E-1,5.029453E-2,2.0325027E0,-1.6140884E-1,2.1695644E-3,6.2376235E-2,7.580913E-1],"split_indices":[4,32,0,0,4,0,0],"split_type":[0,0,0,0,0,0,0],"sum_hessian":[1.2777142E3,1.247602E3,3.0112244E1,1.2450815E3,2.5204082E0,1.0612245E0,1.4591837E0],"tree_param":{"num_deleted":"0","num_feature":"57","num_nodes":"7","size_leaf_vector":"0"}},{"base_weights":[1.7986813E-1,-5.2762395E-1,6.845246E0,-5.3366894E-1,8.105263E-1,1.6578947E-1,2.0728283E0,-1.6139759E-1,1.4256586E-2,-1.410853E-1,1.2352941E0,-8.316832E-2,6.4455444E-1],"categories":[],"categories_nodes":[],"categories_segments":[],"categories_sizes":[],"default_left":[0,0,0,0,0,0,0,0,0,0,0,0,0],"id":5,"left_children":[1,3,5,7,-1,-1,-1,-1,9,-1,11,-1,-1],"loss_changes":[6.033647E3,2.4026947E1,4.57666E1,2.744995E0,0E0,0E0,0E0,0E0,6.5094395E0,0E0,4.9085608E0,0E0,0E0],"parents":[2147483647,0,0,1,1,2,2,3,3,8,8,10,10],"right_children":[2,4,6,8,-1,-1,-1,-1,10,-1,12,-1,-1],"split_conditions":[4.4736576E-1,9.6281374E-1,3.1665724E-2,4.800578E-3,8.105263E-1,1.6578947E-1,2.0728283E0,-1.6139759E-1,1.967618E-4,-1.410853E-1,8.6335733E-4,-8.316832E-2,6.4455444E-1],"split_indices":[33,5,5,19,0,0,0,0,36,0,17,0,0],"split_type":[0,0,0,0,0,0,0,0,0,0,0,0,0],"sum_hessian":[1.2777142E3,1.1559387E3,1.21775505E2,1.1546122E3,1.3265306E0,1.3265306E0,1.20448975E2,1.1455918E3,9.020408E0,6.8979588E0,2.122449E0,1.0612245E0,1.0612245E0],"tree_param":{"num_deleted":"0","num_feature":"57","num_nodes":"13","size_leaf_vector":"0"}},{"base_weights":[-9.697244E-2,-5.3552175E-1,6.8422747E0,-5.37182E-1,1.6578947E-1,2.0720077E0,3.5346535E-1,-1.6140354E-1,-2.8925622E-1,6.2376235E-2,-1.2994014E-1],"categories":[],"categories_nodes":[],"categories_segments":[],"categories_sizes":[],"default_left":[0,0,0,0,0,0,0,0,0,0,0],"id":6,"left_children":[1,3,5,7,-1,-1,-1,-1,9,-1,-1],"loss_changes":[3.89505E3,2.471344E0,1.9621826E1,9.173584E-2,0E0,0E0,0E0,0E0,5.316618E-1,0E0,0E0],"parents":[2147483647,0,0,1,1,2,2,3,3,8,8],"right_children":[2,4,6,8,-1,-1,-1,-1,10,-1,-1],"split_conditions":[3.058617E-1,6.306119E-1,5.335256E-4,9.0943456E-1,1.6578947E-1,2.0720077E0,3.5346535E-1,-1.6140354E-1,5.759521E-3,6.2376235E-2,-1.2994014E-1],"split_indices":[6,48,9,42,0,0,0,0,54,0,0],"split_type":[0,0,0,0,0,0,0,0,0,0,0],"sum_hessian":[1.2777142E3,1.2026326E3,7.508163E1,1.201306E3,1.3265306E0,7.402041E1,1.0612245E0,1.1961326E3,5.173469E0,1.0612245E0,4.1122446E0],"tree_param":{"num_deleted":"0","num_feature":"57","num_nodes":"11","size_leaf_vector":"0"}},{"base_weights":[4.4888836E-1,-5.190386E-1,6.730673E0,-5.325413E-1,2.2814815E0,1.880597E0,6.890882E0,-5.352449E-1,1.19544566E-1,-7.040799E-9,1.0324023E0,-1.014493E-1,9.1843975E-1,2.074333E0,6.8157893E-1,-5.37052E-1,-2.746554E-1,-1.2292684E-1,3.223256E-1,-9.585063E-2,6.2376235E-2,-1.6139019E-1,-4.5751657E-2,2.745098E-1,-1.4000002E-1,-8.316832E-2,6.2376235E-2,-8.316832E-2,2.0792079E-1],"categories":[],"categories_nodes":[],"categories_segments":[],"categories_sizes":[],"default_left":[0,0,0,0,0,0,0,0,0,0,0,0,0,0,0,0,0,0,0,0,0,0,0,0,0,0,0,0,0],"id":7,"left_children":[1,3,5,7,9,11,13,15,17,-1,-1,19,-1,-1,-1,21,23,-1,-1,-1,-1,-1,25,27,-1,-1,-1,-1,-1],"loss_changes":[7.77847E3,4.314801E1,1.19754395E2,2.0110474E0,1.4581089E1,1.631221E1,2.2426758E0,3.704834E-1,3.1581469E0,0E0,0E0,3.0391434E-1,0E0,0E0,0E0,4.66156E-1,1.1427526E0,0E0,0E0,0E0,0E0,0E0,2.4098879E-1,9.1322064E-1,0E0,0E0,0E0,0E0,0E0],"parents":[2147483647,0,0,1,1,2,2,3,3,4,4,5,5,6,6,7,7,8,8,11,11,15,15,16,16,22,22,23,23],"right_children":[2,4,6,8,10,12,14,16,18,-1,-1,20,-1,-1,-1,22,24,-1,-1,-1,-1,-1,26,28,-1,-1,-1,-1,-1],"split_conditions":[3.0062267E-1,7.3714465E-1,9.477091E-2,4.8303142E-2,4.3386832E-1,3.6351404E-3,5.2688154E-4,7.8004533E-3,5.21978E-1,-7.040799E-9,1.0324023E0,9.5506795E-5,9.1843975E-1,2.074333E0,6.8157893E-1,7.184854E-1,2.9902355E-4,-1.2292684E-1,3.223256E-1,-9.585063E-2,6.2376235E-2,-1.6139019E-1,6.254702E-5,1.5965979E-4,-1.4000002E-1,-8.316832E-2,6.2376235E-2,-8.316832E-2,2.0792079E-1],"split_indices":[49,7,21,49,35,7,10,7,56,0,0,0,0,0,0,21,5,0,0,0,0,0,0,13,0,0,0,0,0],"split_type":[0,0,0,0,0,0,0,0,0,0,0,0,0,0,0,0,0,0,0,0,0,0,0,0,0,0,0,0,0],"sum_hessian":[1.2777142E3,1.1079183E3,1.6979591E2,1.1034081E3,4.510204E0,5.836735E0,1.6395918E2,1.0990306E3,4.377551E0,1.8571428E0,2.6530612E0,2.5204082E0,3.3163264E0,1.6263264E2,1.3265306E0,1.0904081E3,8.622449E0,3.1836734E0,1.1938775E0,1.4591837E0,1.0612245E0,1.0882856E3,2.122449E0,2.122449E0,6.5E0,1.0612245E0,1.0612245E0,1.0612245E0,1.0612245E0],"tree_param":{"num_deleted":"0","num_feature":"57","num_nodes":"29","size_leaf_vector":"0"}},{"base_weights":[2.1349566E-1,-5.3105074E-1,2.0811841E0,-1.6139795E-1,1.7988826E0,-8.316832E-2,8.267717E-1],"categories":[],"categories_nodes":[],"categories_segments":[],"categories_sizes":[],"default_left":[0,0,0,0,0,0,0],"id":8,"left_children":[1,3,-1,-1,5,-1,-1],"loss_changes":[6.4051445E3,1.960437E1,0E0,0E0,8.022226E0,0E0,0E0],"parents":[2147483647,0,0,1,1,4,4],"right_children":[2,4,-1,-1,6,-1,-1],"split_conditions":[9.682335E-1,1.2842335E-1,2.0811841E0,-1.6139795E-1,6.9746164E-10,-8.316832E-2,8.267717E-1],"split_indices":[22,36,0,0,16,0,0],"split_type":[0,0,0,0,0,0,0],"sum_hessian":[1.2777142E3,1.1511632E3,1.2655102E2,1.1485101E3,2.6530612E0,1.0612245E0,1.5918367E0],"tree_param":{"num_deleted":"0","num_feature":"57","num_nodes":"7","size_leaf_vector":"0"}},{"base_weights":[-3.8006932E-1,-5.308449E-1,6.525512E0,-5.356261E-1,6.774193E-1,1.9969627E0,5.9581393E-1,-1.6140804E-1,-2.0309481E-1,-1.18867934E-1,5.9527564E-1,2.1000001E-1,-1.4295776E-1],"categories":[],"categories_nodes":[],"categories_segments":[],"categories_sizes":[],"default_left":[0,0,0,0,0,0,0,0,0,0,0,0,0],"id":9,"left_children":[1,3,5,7,9,-1,-1,-1,11,-1,-1,-1,-1],"loss_changes":[1.3348527E3,7.5974426E0,3.0761719E0,8.869324E-1,8.331322E0,0E0,0E0,0E0,2.938975E0,0E0,0E0,0E0,0E0],"parents":[2147483647,0,0,1,1,2,2,3,3,4,4,8,8],"right_children":[2,4,6,8,10,-1,-1,-1,12,-1,-1,-1,-1],"split_conditions":[3.3937272E-1,2.2733186E-3,2.5844745E-5,5.335256E-4,6.7788533E-6,1.9969627E0,5.9581393E-1,-1.6140804E-1,1.6103475E-4,-1.18867934E-1,5.9527564E-1,2.1000001E-1,-1.4295776E-1],"split_indices":[37,9,31,9,20,0,0,0,3,0,0,0,0],"split_type":[0,0,0,0,0,0,0,0,0,0,0,0,0],"sum_hessian":[1.2777142E3,1.2513163E3,2.6397959E1,1.2469387E3,4.377551E0,2.520408E1,1.1938775E0,1.2373877E3,9.55102E0,2.7857141E0,1.5918367E0,1.8571428E0,7.693877E0],"tree_param":{"num_deleted":"0","num_feature":"57","num_nodes":"13","size_leaf_vector":"0"}},{"base_weights":[2.0802142E-1,-5.2499384E-1,2.0761828E0,-5.327814E-1,2.0726256E0,-5.362489E-1,3.978947E-1,9.394737E-1,3.68421E-2,-1.6139679E-1,-2.2750004E-1,-1.1385543E-1,3.921162E-1,-1.3879313E-1,2.0792079E-1],"categories":[],"categories_nodes":[],"categories_segments":[],"categories_sizes":[],"default_left":[0,0,0,0,0,0,0,0,0,0,0,0,0,0,0],"id":10,"left_children":[1,3,-1,5,7,9,11,-1,-1,-1,13,-1,-1,-1,-1],"loss_changes":[6.2954565E3,2.4443695E1,0E0,3.9281616E0,7.158139E0,4.9404907E-1,3.9218278E0,0E0,0E0,0E0,2.087714E0,0E0,0E0,0E0,0E0],"parents":[2147483647,0,0,1,1,3,3,4,4,5,5,6,6,10,10],"right_children":[2,4,-1,6,8,10,12,-1,-1,-1,14,-1,-1,-1,-1],"split_conditions":[9.7368234E-1,5.023255E-1,2.0761828E0,4.7742976E-3,2.0879121E-1,5.5056403E-4,1.2733635E-2,9.394737E-1,3.68421E-2,-1.6139679E-1,9.923379E-1,-1.1385543E-1,3.921162E-1,-1.3879313E-1,2.0792079E-1],"split_indices":[10,24,0,10,56,24,52,0,0,0,15,0,0,0,0],"split_type":[0,0,0,0,0,0,0,0,0,0,0,0,0,0,0],"sum_hessian":[1.2777142E3,1.1527551E3,1.2495918E2,1.150102E3,2.6530612E0,1.1462551E3,3.8469386E0,1.3265306E0,1.3265306E0,1.1390918E3,7.163265E0,2.387755E0,1.4591837E0,6.102041E0,1.0612245E0],"tree_param":{"num_deleted":"0","num_feature":"57","num_nodes":"15","size_leaf_vector":"0"}},{"base_weights":[-4.6922495E-3,-5.0104165E-1,6.5976734E0,-5.244729E-1,2.6469247E0,1.05E-1,6.7260976E0,-5.337421E-1,6.443514E-1,4.5211577E-1,4.0246677E0,8.217392E-1,2.0435972E0,-5.3713953E-1,-1.18867956E-1,4.5992084E-2,5.948805E-1,4.990099E-1,-1.1565219E-1,1.4049646E0,2.0792079E-1,-1.6139889E-1,-3.3333337E-1,4.5211577E-1,-1.3921016E-1,-1.2821054E-1,6.197916E-1,-1.364501E-1,6.2376235E-2,-1.1385543E-1,4.590698E-1,4.590698E-1,-1.022472E-1],"categories":[],"categories_nodes":[],"categories_segments":[],"categories_sizes":[],"default_left":[0,0,0,0,0,0,0,0,0,0,0,0,0,0,0,0,0,0,0,0,0,0,0,0,0,0,0,0,0,0,0,0,0],"id":11,"left_children":[1,3,5,7,9,-1,11,13,15,17,19,-1,-1,21,23,25,-1,-1,-1,-1,-1,-1,27,29,-1,-1,31,-1,-1,-1,-1,-1,-1],"loss_changes":[4.193755E3,8.918082E1,6.943994E1,1.3152679E1,2.5271904E1,0E0,1.1347656E1,1.5902405E0,7.7221894E0,5.2896333E0,8.552635E0,0E0,0E0,2.3895264E-2,2.3415232E0,2.3740456E0,0E0,0E0,0E0,0E0,0E0,0E0,5.877882E-1,4.6886353E0,0E0,0E0,3.9484806E0,0E0,0E0,0E0,0E0,0E0,0E0],"parents":[2147483647,0,0,1,1,2,2,3,3,4,4,6,6,7,7,8,8,9,9,10,10,13,13,14,14,15,15,22,22,23,23,26,26],"right_children":[2,4,6,8,10,-1,12,14,16,18,20,-1,-1,22,24,26,-1,-1,-1,-1,-1,-1,28,30,-1,-1,32,-1,-1,-1,-1,-1,-1],"split_conditions":[5.1570773E-1,3.011513E-1,7.5149653E-3,5.9206367E-2,5.315313E-2,1.05E-1,1.7549338E-2,1.8846976E-2,4.237289E-6,7.0158904E-3,8.316427E-3,8.217392E-1,2.0435972E0,5.315313E-2,7.0641716E-3,7.6965876E-3,5.948805E-1,4.990099E-1,-1.1565219E-1,1.4049646E0,2.0792079E-1,-1.6139889E-1,5.5126183E-2,4.2161486E-5,-1.3921016E-1,-1.2821054E-1,7.4887774E-3,-1.364501E-1,6.2376235E-2,-1.1385543E-1,4.590698E-1,4.590698E-1,-1.022472E-1],"split_indices":[39,53,53,25,11,0,11,39,38,51,52,0,0,11,44,53,0,0,0,0,0,0,2,21,0,0,43,0,0,0,0,0,0],"split_type":[0,0,0,0,0,0,0,0,0,0,0,0,0,0,0,0,0,0,0,0,0,0,0,0,0,0,0,0,0,0,0,0,0],"sum_hessian":[1.2777142E3,1.1892346E3,8.847959E1,1.1812755E3,7.9591837E0,1.8571428E0,8.6622444E1,1.1725204E3,8.755102E0,3.5816326E0,4.377551E0,2.5204082E0,8.4102036E1,1.1627041E3,9.816326E0,6.765306E0,1.9897959E0,1.0612245E0,2.5204082E0,3.3163264E0,1.0612245E0,1.1562041E3,6.5E0,3.5816326E0,6.2346935E0,3.8469386E0,2.9183674E0,5.4387755E0,1.0612245E0,2.387755E0,1.1938775E0,1.1938775E0,1.7244897E0],"tree_param":{"num_deleted":"0","num_feature":"57","num_nodes":"33","size_leaf_vector":"0"}},{"base_weights":[-3.2767293E-1,-5.332037E-1,2.0253177E0,-5.356049E-1,6.044902E-2,-5.364067E-1,-1.8203312E-1,-1.2727274E-1,3.223256E-1,-2.3752499E-1,-1.6116361E-1,-1.11912236E-1,6.2376235E-2,-1.2166248E-1,6.2376235E-2],"categories":[],"categories_nodes":[],"categories_segments":[],"categories_sizes":[],"default_left":[0,0,0,0,0,0,0,0,0,0,0,0,0,0,0],"id":12,"left_children":[1,3,-1,5,7,9,11,-1,-1,13,-1,-1,-1,-1,-1],"loss_changes":[1.8639978E3,1.8049927E0,0E0,2.5350952E-1,3.359454E0,1.6973877E-1,3.9906096E-1,0E0,0E0,4.6693262E-1,0E0,0E0,0E0,0E0,0E0],"parents":[2147483647,0,0,1,1,3,3,4,4,5,5,6,6,9,9],"right_children":[2,4,-1,6,8,10,12,-1,-1,14,-1,-1,-1,-1,-1],"split_conditions":[9.480174E-1,4.73525E-3,2.0253177E0,1.0653275E-2,1.0653275E-2,3.977808E-3,9.74376E-1,-1.2727274E-1,3.223256E-1,8.9295845E-8,-1.6116361E-1,-1.11912236E-1,6.2376235E-2,-1.2166248E-1,6.2376235E-2],"split_indices":[12,12,0,26,26,46,3,0,0,34,0,0,0,0,0],"split_type":[0,0,0,0,0,0,0,0,0,0,0,0,0,0,0],"sum_hessian":[1.2777142E3,1.2425612E3,3.515306E1,1.2376531E3,4.908163E0,1.2343367E3,3.3163264E0,3.7142856E0,1.1938775E0,4.1122446E0,1.2302245E3,2.255102E0,1.0612245E0,3.0510204E0,1.0612245E0],"tree_param":{"num_deleted":"0","num_feature":"57","num_nodes":"15","size_leaf_vector":"0"}},{"base_weights":[-3.9805612E-1,-5.3563964E-1,6.302491E0,-5.372335E-1,1.8558139E-1,6.512438E0,3.223256E-1,-1.6140907E-1,-2.5237194E-1,1.9975164E0,5.9581393E-1,6.2376235E-2,-1.24113485E-1],"categories":[],"categories_nodes":[],"categories_segments":[],"categories_sizes":[],"default_left":[0,0,0,0,0,0,0,0,0,0,0,0,0],"id":13,"left_children":[1,3,5,7,-1,9,-1,-1,11,-1,-1,-1,-1],"loss_changes":[1.1822031E3,2.6391296E0,2.1328125E1,1.4852905E-1,0E0,3.0356445E0,0E0,0E0,4.8537484E-1,0E0,0E0,0E0,0E0],"parents":[2147483647,0,0,1,1,2,2,3,3,5,5,8,8],"right_children":[2,4,6,8,-1,10,-1,-1,12,-1,-1,-1,-1],"split_conditions":[3.5446146E-1,1.6665438E-1,8.1282353E-4,2.637554E-3,1.8558139E-1,1.4483489E-5,3.223256E-1,-1.6140907E-1,7.0013026E-5,1.9975164E0,5.9581393E-1,6.2376235E-2,-1.24113485E-1],"split_indices":[41,13,11,41,0,31,0,0,12,0,0,0,0],"split_type":[0,0,0,0,0,0,0,0,0,0,0,0,0],"sum_hessian":[1.2777142E3,1.2529081E3,2.4806122E1,1.2517142E3,1.1938775E0,2.3612244E1,1.1938775E0,1.2473367E3,4.377551E0,2.2418367E1,1.1938775E0,1.0612245E0,3.3163264E0],"tree_param":{"num_deleted":"0","num_feature":"57","num_nodes":"13","size_leaf_vector":"0"}},{"base_weights":[-1.22716986E-1,-5.201513E-1,3.6366814E-1,-1.569264E-1,1.8681255E-1,-1.2637049E-1,2.2840711E-1],"categories":[],"categories_nodes":[],"categories_segments":[],"categories_sizes":[],"default_left":[0,0,0,0,0,0,0],"id":14,"left_children":[1,3,-1,-1,5,-1,-1],"loss_changes":[5.4550604E2,1.7421722E0,0E0,0E0,1.7228165E0,0E0,0E0],"parents":[2147483647,0,0,1,1,4,4],"right_children":[2,4,-1,-1,6,-1,-1],"split_conditions":[5.1739377E-1,3.1063594E-2,3.6366814E-1,-1.569264E-1,6.135914E-4,-1.2637049E-1,2.2840711E-1],"split_indices":[0,14,0,0,2,0,0],"split_type":[0,0,0,0,0,0,0],"sum_hessian":[1.0259961E3,7.9108704E2,2.34909E2,7.880736E2,3.0134673E0,1.5936862E0,1.4197812E0],"tree_param":{"num_deleted":"0","num_feature":"57","num_nodes":"7","size_leaf_vector":"0"}},{"base_weights":[3.5667303E-1,-5.1827574E-1,1.1858726E0,-5.2164114E-1,1.3856669E-1,3.3591975E-2,1.1872708E0,-1.5690747E-1,-1.1386667E-1,3.5646158E-1,1.1998266E-1,6.264763E-2,-9.818792E-2],"categories":[],"categories_nodes":[],"categories_segments":[],"categories_sizes":[],"default_left":[0,0,0,0,0,0,0,0,0,0,0,0,0],"id":15,"left_children":[1,3,5,7,-1,-1,9,-1,11,-1,-1,-1,-1],"loss_changes":[1.0474425E3,2.5591583E0,9.798584E-1,3.3587646E-1,0E0,0E0,6.921387E-2,0E0,3.1961447E-1,0E0,0E0,0E0,0E0],"parents":[2147483647,0,0,1,1,2,2,3,3,6,6,8,8],"right_children":[2,4,6,8,-1,-1,10,-1,12,-1,-1,-1,-1],"split_conditions":[4.6546867E-1,9.821853E-1,5.782852E-3,1.0713694E-2,1.3856669E-1,3.3591975E-2,5.9206367E-2,-1.5690747E-1,2.4628343E-7,3.5646158E-1,1.1998266E-1,6.264763E-2,-9.818792E-2],"split_indices":[29,1,45,15,0,0,25,0,26,0,0,0,0],"split_type":[0,0,0,0,0,0,0,0,0,0,0,0,0],"sum_hessian":[1.4418914E3,7.0177374E2,7.4011755E2,6.998386E2,1.9351132E0,1.0678161E0,7.3904974E2,6.9719025E2,2.648376E0,7.376651E2,1.3846306E0,1.0628886E0,1.5854872E0],"tree_param":{"num_deleted":"0","num_feature":"57","num_nodes":"13","size_leaf_vector":"0"}},{"base_weights":[-3.0245543E-1,-5.112402E-1,3.7658283E-1,-5.219745E-1,3.0066785E-1,-1.5696114E-1,-5.3598534E-2,7.0597357E-1,-1.24549635E-1,-8.631808E-2,6.874669E-2,1.2093617E0,-1.2851101E-1,5.2351814E-2,4.2076924E-1],"categories":[],"categories_nodes":[],"categories_segments":[],"categories_sizes":[],"default_left":[0,0,0,0,0,0,0,0,0,0,0,0,0,0,0],"id":16,"left_children":[1,3,-1,5,7,-1,9,11,-1,-1,-1,13,-1,-1,-1],"loss_changes":[3.0117773E2,7.264847E0,0E0,4.356079E-1,3.5647686E0,0E0,2.7923775E-1,4.840767E0,0E0,0E0,0E0,8.5588264E-1,0E0,0E0,0E0],"parents":[2147483647,0,0,1,1,3,3,4,4,6,6,7,7,11,11],"right_children":[2,4,-1,6,8,-1,10,12,-1,-1,-1,14,-1,-1,-1],"split_conditions":[3.6627433E-1,5.7566212E-3,3.7658283E-1,1.602217E-2,3.442623E-1,-1.5696114E-1,2.431233E-9,7.673924E-3,-1.24549635E-1,-8.631808E-2,6.874669E-2,4.8071724E-10,-1.2851101E-1,5.2351814E-2,4.2076924E-1],"split_indices":[30,2,0,30,56,0,18,52,0,0,0,19,0,0,0],"split_type":[0,0,0,0,0,0,0,0,0,0,0,0,0,0,0],"sum_hessian":[9.2307056E2,8.145652E2,1.0850541E2,8.0428864E2,1.0276523E1,8.020666E2,2.222069E0,6.570226E0,3.7062967E0,1.2059345E0,1.0161345E0,4.5049357E0,2.0652905E0,1.0081551E0,3.4967806E0],"tree_param":{"num_deleted":"0","num_feature":"57","num_nodes":"15","size_leaf_vector":"0"}},{"base_weights":[2.270511E-1,-5.153067E-1,1.190123E0,-5.212005E-1,4.8831514E-1,-1.2699991E-1,1.2012794E0,-5.225509E-1,-2.0278727E-1,-9.402338E-2,2.802116E-1,1.2055025E0,-1.0075435E-1,-1.5705201E-1,-2.7800804E-1,6.482912E-2,-1.14576064E-1,1.209022E0,-1.0875636E-1,4.8871066E-2,-1.2922123E-1,1.8580619E0,3.581034E-1,5.9954036E-2,6.056657E-1],"categories":[],"categories_nodes":[],"categories_segments":[],"categories_sizes":[],"default_left":[0,0,0,0,0,0,0,0,0,0,0,0,0,0,0,0,0,0,0,0,0,0,0,0,0],"id":17,"left_children":[1,3,5,7,9,-1,11,13,15,-1,-1,17,-1,-1,19,-1,-1,21,-1,-1,-1,23,-1,-1,-1],"loss_changes":[9.271937E2,4.5877533E0,1.0668823E1,2.0739746E-1,2.005577E0,0E0,4.045471E0,2.3925781E-2,4.3609327E-1,0E0,0E0,3.526123E0,0E0,0E0,4.0385836E-1,0E0,0E0,3.3440552E0,0E0,0E0,0E0,2.5571709E0,0E0,0E0,0E0],"parents":[2147483647,0,0,1,1,2,2,3,3,4,4,6,6,7,7,8,8,11,11,14,14,17,17,21,21],"right_children":[2,4,6,8,10,-1,12,14,16,-1,-1,18,-1,-1,20,-1,-1,22,-1,-1,-1,24,-1,-1,-1],"split_conditions":[2.3968277E-2,5.300942E-1,5.7396054E-4,9.9801385E-1,6.5168905E-1,-1.2699991E-1,8.3894366E-1,6.3031917E-3,1.2087912E-1,-9.402338E-2,2.802116E-1,2.7560822E-3,-1.0075435E-1,-1.5705201E-1,2.9714323E-12,6.482912E-2,-1.14576064E-1,6.5168905E-1,-1.0875636E-1,4.8871066E-2,-1.2922123E-1,7.2732726E-3,3.581034E-1,5.9954036E-2,6.056657E-1],"split_indices":[3,17,31,13,31,0,39,3,56,0,0,23,0,0,14,0,0,31,0,0,0,42,0,0,0],"split_type":[0,0,0,0,0,0,0,0,0,0,0,0,0,0,0,0,0,0,0,0,0,0,0,0,0],"sum_hessian":[1.2950183E3,7.3157135E2,5.6344696E2,7.2777814E2,3.7931921E0,3.6155586E0,5.598314E2,7.240663E2,3.7118926E0,1.461403E0,2.3317893E0,5.585127E2,1.3187089E0,7.2011096E2,3.9552865E0,1.0500668E0,2.661826E0,5.5749036E2,1.0223718E0,1.0004603E0,2.954826E0,1.0101821E1,5.473885E2,1.0913918E0,9.010428E0],"tree_param":{"num_deleted":"0","num_feature":"57","num_nodes":"25","size_leaf_vector":"0"}},{"base_weights":[-3.0697188E-1,-1.5692441E-1,1.2277197E0,3.7257576E-1,7.206789E-2],"categories":[],"categories_nodes":[],"categories_segments":[],"categories_sizes":[],"default_left":[0,0,0,0,0],"id":18,"left_children":[1,-1,3,-1,-1],"loss_changes":[3.0699884E2,0E0,1.3045807E0,0E0,0E0],"parents":[2147483647,0,0,2,2],"right_children":[2,-1,4,-1,-1],"split_conditions":[5.029453E-2,-1.5692441E-1,8.6719E-6,3.7257576E-1,7.206789E-2],"split_indices":[32,0,38,0,0],"split_type":[0,0,0,0,0],"sum_hessian":[9.22703E2,8.0938727E2,1.1331572E2,1.11455414E2,1.8602996E0],"tree_param":{"num_deleted":"0","num_feature":"57","num_nodes":"5","size_leaf_vector":"0"}},{"base_weights":[1.1852107E-1,-5.1780283E-1,1.1853713E0,-1.5690577E-1,-1.5981631E-1,-1.0065238E-1,1.1914866E0,-1.4200985E-1,7.858633E-1,1.1962698E0,-3.0950688E-2,5.1034045E-1,-9.325611E-2,6.4008456E-1,1.2002877E0,2.6789185E-1,-1.0283469E-2,1.8201798E0,1.1912928E0,6.410074E-1,1.7188275E-1,3.5805538E-1,9.31603E-2],"categories":[],"categories_nodes":[],"categories_segments":[],"categories_sizes":[],"default_left":[0,0,0,0,0,0,0,0,0,0,0,0,0,0,0,0,0,0,0,0,0,0,0],"id":19,"left_children":[1,3,5,-1,7,-1,9,-1,11,13,-1,-1,-1,15,17,-1,-1,19,21,-1,-1,-1,-1],"loss_changes":[8.146499E2,1.3203278E0,4.569275E0,0E0,4.000658E0,0E0,2.8897705E0,0E0,3.964881E0,2.265625E-1,0E0,0E0,0E0,9.4050884E-1,2.8961182E-1,0E0,0E0,5.17045E-1,4.866333E-1,0E0,0E0,0E0,0E0],"parents":[2147483647,0,0,1,1,2,2,4,4,6,6,8,8,9,9,13,13,14,14,17,17,18,18],"right_children":[2,4,6,-1,8,-1,10,-1,12,14,-1,-1,-1,16,18,-1,-1,20,22,-1,-1,-1,-1],"split_conditions":[3.1665724E-2,1.0314055E-3,1.2193344E-3,-1.5690577E-1,4.800578E-3,-1.0065238E-1,9.334996E-4,-1.4200985E-1,7.5702597E-3,6.5966304E-3,-3.0950688E-2,5.1034045E-1,-9.325611E-2,2.4493751E-10,4.4736576E-1,2.6789185E-1,-1.0283469E-2,3.38266E-4,5.9206367E-2,6.410074E-1,1.7188275E-1,3.5805538E-1,9.31603E-2],"split_indices":[5,5,33,0,19,0,4,0,45,42,0,0,0,20,33,0,0,4,25,0,0,0,0],"split_type":[0,0,0,0,0,0,0,0,0,0,0,0,0,0,0,0,0,0,0,0,0,0,0],"sum_hessian":[1.198118E3,7.5081085E2,4.4730725E2,7.3957324E2,1.1237574E1,1.575664E0,4.457316E2,8.814484E0,2.42309E0,4.441666E2,1.5649972E0,1.0203965E0,1.4026935E0,4.335451E0,4.3983115E2,2.9172866E0,1.4181646E0,3.410845E0,4.364203E2,2.1516755E0,1.2591697E0,4.349663E2,1.4539982E0],"tree_param":{"num_deleted":"0","num_feature":"57","num_nodes":"23","size_leaf_vector":"0"}},{"base_weights":[-7.566087E-2,-5.1751137E-1,3.6081314E-1,-5.2184016E-1,5.6148547E-1,-1.5693164E-1,-1.9267178E-1,2.3147462E-1,2.4461934E-2,-1.13357075E-1,6.8634935E-2],"categories":[],"categories_nodes":[],"categories_segments":[],"categories_sizes":[],"default_left":[0,0,0,0,0,0,0,0,0,0,0],"id":20,"left_children":[1,3,-1,5,7,-1,9,-1,-1,-1,-1],"loss_changes":[5.976048E2,3.9648285E0,0E0,2.2550964E-1,3.0240417E-1,0E0,4.4414887E-1,0E0,0E0,0E0,0E0],"parents":[2147483647,0,0,1,1,3,3,4,4,6,6],"right_children":[2,4,-1,6,8,-1,10,-1,-1,-1,-1],"split_conditions":[7.222665E-1,9.050216E-1,3.6081314E-1,9.0943456E-1,9.652306E-5,-1.5693164E-1,1.6336633E-9,2.3147462E-1,2.4461934E-2,-1.13357075E-1,6.8634935E-2],"split_indices":[20,48,0,42,12,0,17,0,0,0,0],"split_type":[0,0,0,0,0,0,0,0,0,0,0],"sum_hessian":[1.0558885E3,7.8511884E2,2.7076974E2,7.824959E2,2.6229384E0,7.789127E2,3.5831456E0,1.4016992E0,1.2212392E0,2.5612094E0,1.0219362E0],"tree_param":{"num_deleted":"0","num_feature":"57","num_nodes":"11","size_leaf_vector":"0"}},{"base_weights":[2.7132103E-1,-5.102908E-1,1.182558E0,-5.164269E-1,8.233717E-1,3.0847564E-1,1.1964732E0,-1.5690042E-1,-1.5778446E-1,9.265677E-2,3.214511E-1,5.4913235E-1,-8.4589064E-2,1.1999457E0,1.335694E-1,2.3530354E-1,-3.454919E-1,6.580541E-1,-1.4003809E-1,5.537518E-1,1.2049688E0,-1.0627522E-1,1.6688003E-1,-1.4614025E-1,1.21173926E-1,-9.040559E-2,3.9181027E-1,2.5035635E-1,-1.1120266E-1,1.811298E0,1.1963325E0,1.6425522E-1,6.0374683E-1,3.596116E-1,1.5157275E-1],"categories":[],"categories_nodes":[],"categories_segments":[],"categories_sizes":[],"default_left":[0,0,0,0,0,0,0,0,0,0,0,0,0,0,0,0,0,0,0,0,0,0,0,0,0,0,0,0,0,0,0,0,0,0,0],"id":21,"left_children":[1,3,5,7,9,11,13,-1,15,-1,-1,-1,17,19,21,-1,23,25,-1,27,29,-1,-1,-1,-1,-1,-1,-1,-1,31,33,-1,-1,-1,-1],"loss_changes":[9.514292E2,6.3116455E0,7.131775E0,1.607193E0,1.3884878E-1,6.7420197E0,2.0788574E0,0E0,2.805595E0,0E0,0E0,0E0,3.0623918E0,1.295166E0,8.3643925E-1,0E0,1.5390444E0,2.7019958E0,0E0,1.999972E0,9.699707E-1,0E0,0E0,0E0,0E0,0E0,0E0,0E0,0E0,5.4258156E-1,3.6779785E-1,0E0,0E0,0E0,0E0],"parents":[2147483647,0,0,1,1,2,2,3,3,4,4,5,5,6,6,8,8,12,12,13,13,14,14,16,16,17,17,19,19,20,20,29,29,30,30],"right_children":[2,4,6,8,10,12,14,-1,16,-1,-1,-1,18,20,22,-1,24,26,-1,28,30,-1,-1,-1,-1,-1,-1,-1,-1,32,34,-1,-1,-1,-1],"split_conditions":[1.5701199E-1,8.98082E-1,2.33672E-2,6.973229E-4,1.1789824E-7,5.8759417E-15,4.5234222E-2,-1.5690042E-1,6.566594E-3,9.265677E-2,3.214511E-1,5.4913235E-1,6.4966944E-3,6.4122877E-3,1.5035906E-4,2.3530354E-1,1.1305535E-2,7.3714465E-1,-1.4003809E-1,4.9930332E-8,9.477091E-2,-1.0627522E-1,1.6688003E-1,-1.4614025E-1,1.21173926E-1,-9.040559E-2,3.9181027E-1,2.5035635E-1,-1.1120266E-1,9.513459E-13,5.1570773E-1,1.6425522E-1,6.0374683E-1,3.596116E-1,1.5157275E-1],"split_indices":[35,49,49,21,16,27,31,0,47,0,0,0,47,44,24,0,54,7,0,38,21,0,0,0,0,0,0,0,0,20,39,0,0,0,0],"split_type":[0,0,0,0,0,0,0,0,0,0,0,0,0,0,0,0,0,0,0,0,0,0,0,0,0,0,0,0,0,0,0,0,0,0,0],"sum_hessian":[1.3339916E3,7.183059E2,6.156856E2,7.156261E2,2.6797745E0,1.0011107E1,6.056745E2,7.022937E2,1.3332404E1,1.6022147E0,1.0775597E0,1.3042283E0,8.706879E0,6.035737E2,2.1007788E0,1.6869279E0,1.1645476E1,2.7132196E0,5.993659E0,5.513698E0,5.9806006E2,1.0504358E0,1.050343E0,1.0088633E1,1.5568433E0,1.3094181E0,1.4038017E0,4.3037953E0,1.2099029E0,5.4675593E0,5.9259247E2,1.261959E0,4.2056007E0,5.898328E2,2.759694E0],"tree_param":{"num_deleted":"0","num_feature":"57","num_nodes":"35","size_leaf_vector":"0"}},{"base_weights":[1.3685614E-1,-1.5660314E-1,1.1904333E0,2.669914E-2,1.1930412E0,3.584863E-1,1.4733501E-1],"categories":[],"categories_nodes":[],"categories_segments":[],"categories_sizes":[],"default_left":[0,0,0,0,0,0,0],"id":22,"left_children":[1,-1,3,-1,5,-1,-1],"loss_changes":[8.456862E2,0E0,1.2401733E0,0E0,4.0893555E-2,0E0,0E0],"parents":[2147483647,0,0,2,2,4,4],"right_children":[2,-1,4,-1,6,-1,-1],"split_conditions":[1.2842335E-1,-1.5660314E-1,7.346788E-3,2.669914E-2,3.1665724E-2,3.584863E-1,1.4733501E-1],"split_indices":[36,0,50,0,5,0,0],"split_type":[0,0,0,0,0,0,0],"sum_hessian":[1.2163801E3,7.4868555E2,4.6769455E2,1.1877353E0,4.665068E2,4.6453833E2,1.9685026E0],"tree_param":{"num_deleted":"0","num_feature":"57","num_nodes":"7","size_leaf_vector":"0"}},{"base_weights":[-3.3195123E-1,-5.182979E-1,1.2245544E0,-5.219226E-1,1.4222349E-1,1.2651883E0,-1.743428E-1,-1.5693444E-1,-2.2467597E-1,3.1126228E-1,-1.190946E-1,1.2251424E0,5.991617E-1,-1.0670201E-1,4.3337602E-2,6.536789E-2,-1.1861646E-1,6.1918616E-1,3.734546E-1,-8.431707E-2,2.790875E-1],"categories":[],"categories_nodes":[],"categories_segments":[],"categories_sizes":[],"default_left":[0,0,0,0,0,0,0,0,0,0,0,0,0,0,0,0,0,0,0,0,0],"id":23,"left_children":[1,3,5,7,9,11,13,-1,15,-1,-1,17,-1,-1,-1,-1,-1,19,-1,-1,-1],"loss_changes":[2.6438464E2,2.0202332E0,5.764038E0,1.690216E-1,2.9327905E0,3.3480835E-1,2.6132238E-1,0E0,4.6262845E-1,0E0,0E0,3.3442688E-1,0E0,0E0,0E0,0E0,0E0,1.6351719E0,0E0,0E0,0E0],"parents":[2147483647,0,0,1,1,2,2,3,3,4,4,5,5,6,6,8,8,11,11,17,17],"right_children":[2,4,6,8,10,12,14,-1,16,-1,-1,18,-1,-1,-1,-1,-1,20,-1,-1,-1],"split_conditions":[2.2733186E-3,7.8566006E-4,1.6978383E-3,5.335256E-4,1.762693E-4,2.5844745E-5,1.7549338E-2,-1.5693444E-1,2.8515925E-9,3.1126228E-1,-1.190946E-1,6.8868482E-3,5.991617E-1,-1.0670201E-1,4.3337602E-2,6.536789E-2,-1.1861646E-1,3.3937272E-1,3.734546E-1,-8.431707E-2,2.790875E-1],"split_indices":[9,9,5,9,2,31,11,0,15,0,0,50,0,0,0,0,0,37,0,0,0],"split_type":[0,0,0,0,0,0,0,0,0,0,0,0,0,0,0,0,0,0,0,0,0],"sum_hessian":[9.0832684E2,8.118038E2,9.652309E1,8.075819E2,4.22186E0,9.3891396E1,2.631689E0,8.0359894E2,3.9830122E0,1.2395164E0,2.9823437E0,9.1556335E1,2.3350632E0,1.6038055E0,1.0278835E0,1.0317749E0,2.9512372E0,3.9048598E0,8.7651474E1,1.0276744E0,2.8771853E0],"tree_param":{"num_deleted":"0","num_feature":"57","num_nodes":"21","size_leaf_vector":"0"}},{"base_weights":[1.3556372E-1,-5.169781E-1,1.1923586E0,-1.5692434E-1,4.9100246E-2,-1.18722685E-1,1.1992261E0,-1.3782983E-1,8.1387454E-1,1.202283E0,1.9250505E-2,4.3548533E-1,-1.3233648E-2,3.5758E-1,6.755415E-1],"categories":[],"categories_nodes":[],"categories_segments":[],"categories_sizes":[],"default_left":[0,0,0,0,0,0,0,0,0,0,0,0,0,0,0],"id":24,"left_children":[1,3,5,-1,7,-1,9,-1,11,13,-1,-1,-1,-1,-1],"loss_changes":[8.3733704E2,2.61969E0,5.529663E0,0E0,3.8441305E0,0E0,1.5249634E0,0E0,2.2113795E0,2.317566E0,0E0,0E0,0E0,0E0,0E0],"parents":[2147483647,0,0,1,1,2,2,4,4,6,6,8,8,9,9],"right_children":[2,4,6,-1,8,-1,10,-1,12,14,-1,-1,-1,-1,-1],"split_conditions":[2.2488146E-1,5.5668445E-4,7.260383E-3,-1.5692434E-1,1.396537E-2,-1.18722685E-1,3.1860035E-2,-1.3782983E-1,2.513661E-1,1.7379907E-4,1.9250505E-2,4.3548533E-1,-1.3233648E-2,3.5758E-1,6.755415E-1],"split_indices":[38,38,52,0,1,0,45,0,56,12,0,0,0,0,0],"split_type":[0,0,0,0,0,0,0,0,0,0,0,0,0,0,0],"sum_hessian":[1.212337E3,7.4984143E2,4.6249564E2,7.419186E2,7.9228444E0,1.7475863E0,4.6074805E2,4.9984236E0,2.9244206E0,4.5945148E2,1.2965689E0,1.2806344E0,1.6437863E0,4.5707974E2,2.3717558E0],"tree_param":{"num_deleted":"0","num_feature":"57","num_nodes":"15","size_leaf_vector":"0"}},{"base_weights":[5.5318577E-3,-5.143523E-1,1.1839236E0,-5.203913E-1,4.9786162E-1,-5.734372E-2,1.2081965E0,-5.216874E-1,5.9049685E-2,1.0041828E0,-1.1059259E-1,4.3467176E-1,-1.2631644E-1,1.322842E-1,1.2251276E0,-1.5688513E-1,-2.7680385E-1,5.603456E-2,3.8268045E-1,3.2370245E-1,-9.451663E-2,-2.951038E-1,3.516572E-1,1.2335212E0,3.4074444E-1,-1.2741695E-1,6.828638E-2,-1.4278421E-1,6.757465E-2,1.7302172E0,1.2063656E0,-1.018569E-1,2.4139364E-1,-1.3488772E-2,6.0506165E-1,9.446694E-2,3.628667E-1],"categories":[],"categories_nodes":[],"categories_segments":[],"categories_sizes":[],"default_left":[0,0,0,0,0,0,0,0,0,0,0,0,0,0,0,0,0,0,0,0,0,0,0,0,0,0,0,0,0,0,0,0,0,0,0,0,0],"id":25,"left_children":[1,3,5,7,9,11,13,15,-1,17,-1,19,-1,21,23,-1,25,-1,-1,-1,-1,27,-1,29,31,-1,-1,-1,-1,33,35,-1,-1,-1,-1,-1,-1],"loss_changes":[6.736357E2,4.9229584E0,1.021106E1,8.082123E-1,2.5796504E0,1.5091951E0,5.8529053E0,8.9645386E-2,0E0,5.265293E-1,0E0,2.0992498E0,0E0,3.1177728E0,1.9919434E0,0E0,5.4534656E-1,0E0,0E0,0E0,0E0,5.9832394E-1,0E0,2.2494812E0,1.6733673E0,0E0,0E0,0E0,0E0,7.4002457E0,4.954834E-1,0E0,0E0,0E0,0E0,0E0,0E0],"parents":[2147483647,0,0,1,1,2,2,3,3,4,4,5,5,6,6,7,7,9,9,11,11,13,13,14,14,16,16,21,21,23,23,24,24,29,29,30,30],"right_children":[2,4,6,8,10,12,14,16,-1,18,-1,20,-1,22,24,-1,26,-1,-1,-1,-1,28,-1,30,32,-1,-1,-1,-1,34,36,-1,-1,-1,-1,-1,-1],"split_conditions":[1.8846976E-2,7.359261E-1,7.4930633E-3,9.1172314E-1,5.4864936E-11,1.0014906E-5,1.2190484E-4,5.315313E-2,5.9049685E-2,6.770423E-5,-1.1059259E-1,7.34801E-3,-1.2631644E-1,1.63423E-5,1.0488775E-1,-1.5688513E-1,5.5126183E-2,5.603456E-2,3.8268045E-1,3.2370245E-1,-9.451663E-2,7.9472303E-1,3.516572E-1,5.1570773E-1,1.7549338E-2,-1.2741695E-1,6.828638E-2,-1.4278421E-1,6.757465E-2,6.547398E-3,3.4060748E-5,-1.018569E-1,2.4139364E-1,-1.3488772E-2,6.0506165E-1,9.446694E-2,3.628667E-1],"split_indices":[39,53,53,11,37,21,25,11,0,0,0,45,0,24,47,0,2,0,0,0,0,35,0,39,11,0,0,0,0,55,13,0,0,0,0,0,0],"split_type":[0,0,0,0,0,0,0,0,0,0,0,0,0,0,0,0,0,0,0,0,0,0,0,0,0,0,0,0,0,0,0,0,0,0,0,0,0],"sum_hessian":[1.097591E3,7.6198224E2,3.3560867E2,7.5794617E2,4.03606E0,6.4108047E0,3.2919788E2,7.568511E2,1.095093E0,2.4472032E0,1.5888569E0,2.641872E0,3.768933E0,5.2366858E0,3.2396118E2,7.518379E2,5.013206E0,1.0308564E0,1.4163467E0,1.1845961E0,1.4572757E0,4.2189665E0,1.0177193E0,3.2052432E2,3.4368663E0,3.998638E0,1.0145683E0,3.1941926E0,1.0247741E0,1.3364481E1,3.0715982E2,1.5021772E0,1.9346892E0,1.9752722E0,1.1389208E1,1.4507517E0,3.0570908E2],"tree_param":{"num_deleted":"0","num_feature":"57","num_nodes":"37","size_leaf_vector":"0"}},{"base_weights":[-2.7980292E-1,-5.1437616E-1,3.6904937E-1,-5.2082074E-1,2.758646E-1,-1.5655114E-1,-2.0978184E-1,1.020933E0,-1.3091812E-1,3.851157E-2,-1.1002538E-1,1.6861917E-2,4.2061085E-1],"categories":[],"categories_nodes":[],"categories_segments":[],"categories_sizes":[],"default_left":[0,0,0,0,0,0,0,0,0,0,0,0,0],"id":26,"left_children":[1,3,-1,5,7,-1,9,11,-1,-1,-1,-1,-1],"loss_changes":[3.3289645E2,4.2822876E0,0E0,1.4546204E-1,4.2809763E0,0E0,2.7525938E-1,1.3299947E0,0E0,0E0,0E0,0E0,0E0],"parents":[2147483647,0,0,1,1,3,3,4,4,6,6,7,7],"right_children":[2,4,-1,6,8,-1,10,12,-1,-1,-1,-1,-1],"split_conditions":[9.8677164E-1,2.5466142E-2,3.6904937E-1,1.0653275E-2,8.2342075E-3,-1.5655114E-1,2.3687747E-9,1.5236346E-8,-1.3091812E-1,3.851157E-2,-1.1002538E-1,1.6861917E-2,4.2061085E-1],"split_indices":[26,54,0,26,43,0,29,15,0,0,0,0,0],"split_type":[0,0,0,0,0,0,0,0,0,0,0,0,0],"sum_hessian":[9.3707324E2,8.116438E2,1.2542942E2,8.054164E2,6.227405E0,8.021176E2,3.2987895E0,2.8317924E0,3.395613E0,1.1035771E0,2.1952124E0,1.1268247E0,1.7049675E0],"tree_param":{"num_deleted":"0","num_feature":"57","num_nodes":"13","size_leaf_vector":"0"}},{"base_weights":[-3.521167E-1,-5.207533E-1,1.2592092E0,-1.5691498E-1,-9.841722E-2,3.8434353E-1,2.3402572E-1,2.0366928E-1,-1.2959391E-1,1.9022939E-1,-8.3803505E-2],"categories":[],"categories_nodes":[],"categories_segments":[],"categories_sizes":[],"default_left":[0,0,0,0,0,0,0,0,0,0,0],"id":27,"left_children":[1,3,5,-1,7,-1,9,-1,-1,-1,-1],"loss_changes":[2.4531454E2,7.397766E-1,1.6251068E0,0E0,1.7566068E0,0E0,7.967043E-1,0E0,0E0,0E0,0E0],"parents":[2147483647,0,0,1,1,2,2,4,4,6,6],"right_children":[2,4,6,-1,8,-1,10,-1,-1,-1,-1],"split_conditions":[1.6665438E-1,2.637554E-3,1.6815622E-3,-1.5691498E-1,9.12479E-5,3.8434353E-1,4.2472093E-4,2.0366928E-1,-1.2959391E-1,1.9022939E-1,-8.3803505E-2],"split_indices":[13,41,0,0,11,0,11,0,0,0,0],"split_type":[0,0,0,0,0,0,0,0,0,0,0],"sum_hessian":[8.993794E2,8.147834E2,8.4596016E1,8.101396E2,4.6437817E0,8.2579384E1,2.0166326E0,1.0835185E0,3.560263E0,1.0012151E0,1.0154175E0],"tree_param":{"num_deleted":"0","num_feature":"57","num_nodes":"11","size_leaf_vector":"0"}},{"base_weights":[-1.138415E-1,-5.141967E-1,9.2452383E-1,-1.5528663E-1,1.5599552E-1,2.7833372E-1,2.5667133E-2,-1.203575E-1,1.9381864E-1],"categories":[],"categories_nodes":[],"categories_segments":[],"categories_sizes":[],"default_left":[0,0,0,0,0,0,0,0,0],"id":28,"left_children":[1,3,5,-1,7,-1,-1,-1,-1],"loss_changes":[3.6124527E2,1.52005E0,5.81131E-1,0E0,1.3395762E0,0E0,0E0,0E0,0E0],"parents":[2147483647,0,0,1,1,2,2,4,4],"right_children":[2,4,6,-1,8,-1,-1,-1,-1],"split_conditions":[5.1739377E-1,3.1063594E-2,5.029453E-2,-1.5528663E-1,6.135914E-4,2.7833372E-1,2.5667133E-2,-1.203575E-1,1.9381864E-1],"split_indices":[0,14,32,0,2,0,0,0,0],"split_type":[0,0,0,0,0,0,0,0,0],"sum_hessian":[8.6682983E2,6.2598E2,2.4084988E2,6.230234E2,2.956589E0,2.3981354E2,1.0363524E0,1.4684124E0,1.4881766E0],"tree_param":{"num_deleted":"0","num_feature":"57","num_nodes":"9","size_leaf_vector":"0"}},{"base_weights":[3.0593365E-1,-5.119157E-1,9.087472E-1,-5.158073E-1,1.15357175E-1,9.72367E-3,9.1041124E-1,-1.5527678E-1,-1.1038209E-1,2.5094239E-2,9.1149276E-1,-9.757534E-2,6.9407664E-2,9.069614E-1,3.8443008E-1,1.880328E-2,9.0810585E-1,2.7271482E-1,7.304075E-2],"categories":[],"categories_nodes":[],"categories_segments":[],"categories_sizes":[],"default_left":[0,0,0,0,0,0,0,0,0,0,0,0,0,0,0,0,0,0,0],"id":29,"left_children":[1,3,5,7,-1,-1,9,-1,11,-1,13,-1,-1,15,-1,-1,17,-1,-1],"loss_changes":[6.465379E2,2.140396E0,1.071106E0,3.4362793E-1,0E0,0E0,5.973511E-1,0E0,3.468342E-1,0E0,9.875488E-2,0E0,0E0,6.644287E-1,0E0,0E0,2.4615479E-1,0E0,0E0],"parents":[2147483647,0,0,1,1,2,2,3,3,6,6,8,8,10,10,13,13,16,16],"right_children":[2,4,6,8,-1,-1,10,-1,12,-1,14,-1,-1,16,-1,-1,18,-1,-1],"split_conditions":[4.6546867E-1,9.821853E-1,1.0713694E-2,9.04954E-1,1.15357175E-1,9.72367E-3,5.782852E-3,-1.5527678E-1,6.664331E-7,2.5094239E-2,2.7473294E-4,-9.757534E-2,6.9407664E-2,7.868707E-2,3.8443008E-1,1.880328E-2,2.505184E-4,2.7271482E-1,7.304075E-2],"split_indices":[29,1,15,49,0,0,45,0,25,0,2,0,0,43,0,0,12,0,0],"split_type":[0,0,0,0,0,0,0,0,0,0,0,0,0,0,0,0,0,0,0],"sum_hessian":[1.309464E3,5.556938E2,7.5377014E2,5.537146E2,1.9791436E0,1.4674056E0,7.5230273E2,5.5101605E2,2.6985722E0,1.0851821E0,7.512176E2,1.6864636E0,1.0121086E0,7.4553723E2,5.680368E0,1.0847367E0,7.4445245E2,7.430299E2,1.4225409E0],"tree_param":{"num_deleted":"0","num_feature":"57","num_nodes":"19","size_leaf_vector":"0"}},{"base_weights":[-2.8692916E-1,-5.0988895E-1,9.1187334E-1,-1.5531953E-1,1.7858993E-1,9.315946E-1,-9.8662935E-2,8.248876E-1,-1.3591905E-1,-8.1622556E-2,9.4421047E-1,3.784176E-1,-8.0386266E-2,9.5314616E-1,1.2332795E-2,9.277011E-1,4.5017332E-1,2.8064695E-1,2.237524E-2],"categories":[],"categories_nodes":[],"categories_segments":[],"categories_sizes":[],"default_left":[0,0,0,0,0,0,0,0,0,0,0,0,0,0,0,0,0,0,0],"id":30,"left_children":[1,3,5,-1,7,9,-1,11,-1,-1,13,-1,-1,15,-1,17,-1,-1,-1],"loss_changes":[2.0373203E2,3.5582886E0,3.2333298E0,0E0,3.6285968E0,2.048874E0,0E0,2.3870056E0,0E0,0E0,9.0504456E-1,0E0,0E0,2.2116089E-1,0E0,6.830063E-1,0E0,0E0,0E0],"parents":[2147483647,0,0,1,1,2,2,4,4,5,5,7,7,10,10,13,13,15,15],"right_children":[2,4,6,-1,8,10,-1,12,-1,-1,14,-1,-1,16,-1,18,-1,-1,-1],"split_conditions":[1.602217E-2,5.7566212E-3,8.929017E-1,-1.5531953E-1,7.1966536E-3,1.0929429E-3,-9.8662935E-2,3.0054644E-1,-1.3591905E-1,-8.1622556E-2,1.3694628E-3,3.784176E-1,-8.0386266E-2,9.993464E-3,1.2332795E-2,5.315313E-2,4.5017332E-1,2.8064695E-1,2.237524E-2],"split_indices":[30,2,49,0,42,2,0,56,0,0,10,0,0,42,0,11,0,0,0],"split_type":[0,0,0,0,0,0,0,0,0,0,0,0,0,0,0,0,0,0,0],"sum_hessian":[7.594888E2,6.4087085E2,1.1861796E2,6.338978E2,6.973009E0,1.1700734E2,1.6106209E0,3.295346E0,3.6776633E0,1.0003287E0,1.1600701E2,2.244581E0,1.050765E0,1.1481556E2,1.1914562E0,1.12290825E2,2.524729E0,1.1117924E2,1.1115868E0],"tree_param":{"num_deleted":"0","num_feature":"57","num_nodes":"19","size_leaf_vector":"0"}},{"base_weights":[1.982436E-1,-5.0849587E-1,9.0898347E-1,-5.151612E-1,4.09419E-1,-1.21841006E-1,9.1688144E-1,-5.1685613E-1,-1.6162665E-1,-8.821613E-2,2.2589472E-1,9.199832E-1,-9.51484E-2,-1.5540037E-1,-2.611084E-1,-1.0714177E-1,6.6884734E-2,9.2135614E-1,6.762589E-2,-1.2417423E-1,3.8930483E-2,5.704338E-2,9.22442E-1,3.5337526E-1,2.743578E-1],"categories":[],"categories_nodes":[],"categories_segments":[],"categories_sizes":[],"default_left":[0,0,0,0,0,0,0,0,0,0,0,0,0,0,0,0,0,0,0,0,0,0,0,0,0],"id":31,"left_children":[1,3,5,7,9,-1,11,13,15,-1,-1,17,-1,-1,19,-1,-1,21,-1,-1,-1,-1,23,-1,-1],"loss_changes":[5.816974E2,3.764618E0,6.3685913E0,2.6226807E-1,1.3681005E0,0E0,2.4894714E0,3.2806396E-2,3.960576E-1,0E0,0E0,3.387146E-1,0E0,0E0,3.2693794E-1,0E0,0E0,2.7835083E-1,0E0,0E0,0E0,0E0,7.635498E-2,0E0,0E0],"parents":[2147483647,0,0,1,1,2,2,3,3,4,4,6,6,7,7,8,8,11,11,14,14,17,17,22,22],"right_children":[2,4,6,8,10,-1,12,14,16,-1,-1,18,-1,-1,20,-1,-1,22,-1,-1,-1,-1,24,-1,-1],"split_conditions":[2.3968277E-2,5.300942E-1,5.7396054E-4,9.9801385E-1,6.5168905E-1,-1.21841006E-1,8.3894366E-1,6.3031917E-3,5.3556912E-11,-8.821613E-2,2.2589472E-1,8.6771107E-1,-9.51484E-2,-1.5540037E-1,9.9028414E-1,-1.0714177E-1,6.6884734E-2,7.584028E-3,6.762589E-2,-1.2417423E-1,3.8930483E-2,5.704338E-2,6.5168905E-1,3.5337526E-1,2.743578E-1],"split_indices":[3,17,31,13,31,0,39,3,17,0,0,54,0,0,25,0,0,45,0,0,0,0,31,0,0],"split_type":[0,0,0,0,0,0,0,0,0,0,0,0,0,0,0,0,0,0,0,0,0,0,0,0,0],"sum_hessian":[1.1561293E3,5.7983875E2,5.762905E2,5.7609424E2,3.7444878E0,3.1392615E0,5.731513E2,5.7288574E2,3.2084887E0,1.275962E0,2.4685256E0,5.7196814E2,1.1831516E0,5.693113E2,3.574474E0,2.174399E0,1.0340898E0,5.7051385E2,1.4542551E0,2.5274704E0,1.0470037E0,1.1070834E0,5.694068E2,1.2671077E1,5.567357E2],"tree_param":{"num_deleted":"0","num_feature":"57","num_nodes":"25","size_leaf_vector":"0"}},{"base_weights":[-2.923209E-1,-1.5528671E-1,9.2848647E-1,2.0419072E-2,2.8145498E-1],"categories":[],"categories_nodes":[],"categories_segments":[],"categories_sizes":[],"default_left":[0,0,0,0,0],"id":32,"left_children":[1,-1,3,-1,-1],"loss_changes":[2.0905905E2,0E0,9.2487335E-1,0E0,0E0],"parents":[2147483647,0,0,2,2],"right_children":[2,-1,4,-1,-1],"split_conditions":[5.029453E-2,-1.5528671E-1,6.577835E-3,2.0419072E-2,2.8145498E-1],"split_indices":[32,0,50,0,0],"split_type":[0,0,0,0,0],"sum_hessian":[7.5733026E2,6.398257E2,1.1750457E2,1.3988612E0,1.1610571E2],"tree_param":{"num_deleted":"0","num_feature":"57","num_nodes":"5","size_leaf_vector":"0"}},{"base_weights":[1.0549457E-1,-5.0903434E-1,9.0991706E-1,-1.5527965E-1,-1.54315205E-2,-1.01290144E-1,9.154496E-1,-3.553242E-1,5.181837E-1,9.1945934E-1,-1.245675E-1,2.8328983E-2,-1.3349819E-1,-9.340753E-2,2.9279825E-1,4.1019538E-1,9.126804E-1,9.151557E-1,-7.4038818E-3,2.7504876E-1,7.405043E-2],"categories":[],"categories_nodes":[],"categories_segments":[],"categories_sizes":[],"default_left":[0,0,0,0,0,0,0,0,0,0,0,0,0,0,0,0,0,0,0,0,0],"id":33,"left_children":[1,3,5,-1,7,-1,9,11,13,15,-1,-1,-1,-1,-1,-1,17,19,-1,-1,-1],"loss_changes":[5.207026E2,2.5168762E0,3.457428E0,0E0,2.2185566E0,0E0,2.8062134E0,3.422928E-1,2.11594E0,1.2841797E-1,0E0,0E0,0E0,0E0,0E0,0E0,1.0657349E0,2.7520752E-1,0E0,0E0,0E0],"parents":[2147483647,0,0,1,1,2,2,4,4,6,6,7,7,8,8,9,9,16,16,17,17],"right_children":[2,4,6,-1,8,-1,10,12,14,16,-1,-1,-1,-1,-1,-1,18,20,-1,-1,-1],"split_conditions":[1.0488775E-1,1.2193344E-3,5.318633E-3,-1.5527965E-1,1.967618E-4,-1.01290144E-1,1.2556593E-3,9.914229E-9,7.028928E-8,4.4736576E-1,-1.245675E-1,2.8328983E-2,-1.3349819E-1,-9.340753E-2,2.9279825E-1,4.1019538E-1,2.0362127E-3,5.9206367E-2,-7.4038818E-3,2.7504876E-1,7.405043E-2],"split_indices":[47,33,33,0,36,0,6,39,18,33,0,0,0,0,0,0,21,25,0,0,0],"split_type":[0,0,0,0,0,0,0,0,0,0,0,0,0,0,0,0,0,0,0,0,0],"sum_hessian":[1.05139E3,5.962552E2,4.5513483E2,5.8603827E2,1.0216915E1,1.7444782E0,4.5339035E2,6.4454966E0,3.7714183E0,4.5233633E2,1.0539922E0,1.0626264E0,5.38287E0,1.4549602E0,2.316458E0,3.752073E0,4.4858426E2,4.4742642E2,1.1578476E0,4.4593796E2,1.4884608E0],"tree_param":{"num_deleted":"0","num_feature":"57","num_nodes":"21","size_leaf_vector":"0"}},{"base_weights":[-6.9897346E-2,-5.1606596E-1,9.1275233E-1,-1.5529755E-1,-1.5239756E-1,-9.651892E-2,9.20965E-1,-1.05812155E-1,6.959822E-2,9.231086E-1,8.7570876E-2,2.738058E-1,1.3642744E0,5.0031954E-1,1.5288436E-1],"categories":[],"categories_nodes":[],"categories_segments":[],"categories_sizes":[],"default_left":[0,0,0,0,0,0,0,0,0,0,0,0,0,0,0],"id":34,"left_children":[1,3,5,-1,7,-1,9,-1,-1,11,-1,-1,13,-1,-1],"loss_changes":[3.9463766E2,2.795868E-1,3.146225E0,0E0,3.9873683E-1,0E0,1.07437134E-1,0E0,0E0,3.353882E-2,0E0,0E0,2.9053974E-1,0E0,0E0],"parents":[2147483647,0,0,1,1,2,2,4,4,6,6,9,9,12,12],"right_children":[2,4,6,-1,8,-1,10,-1,-1,12,-1,-1,14,-1,-1],"split_conditions":[4.8751906E-2,9.0943456E-1,1.29382005E-2,-1.5529755E-1,1.6336633E-9,-9.651892E-2,2.4975536E-3,-1.05812155E-1,6.959822E-2,2.6483226E-4,8.7570876E-2,2.738058E-1,9.522102E-9,5.0031954E-1,1.5288436E-1],"split_indices":[34,42,48,0,17,0,39,0,0,9,0,0,25,0,0],"split_type":[0,0,0,0,0,0,0,0,0,0,0,0,0,0,0],"sum_hessian":[8.9804645E2,6.179454E2,2.8010107E2,6.148295E2,3.1158674E0,1.598833E0,2.7850223E2,2.1026084E0,1.0132589E0,2.770906E2,1.4116251E0,2.7369336E2,3.3972538E0,1.8050199E0,1.5922339E0],"tree_param":{"num_deleted":"0","num_feature":"57","num_nodes":"15","size_leaf_vector":"0"}},{"base_weights":[2.3691629E-1,-5.020562E-1,9.044276E-1,-5.1397365E-1,2.790383E-1,2.3331448E-1,9.129504E-1,-2.1160036E-1,-1.5524302E-1,7.755636E-1,-2.8153068E-1,3.921744E-1,-2.111535E-1,4.236796E-1,9.173967E-1,-1.33729E-1,1.9919226E-1,-1.4914048E-2,1.1729734E0,-1.2609239E-1,3.5276074E-2,-1.3319948E-1,1.1696789E-1,2.2156788E-1,-5.3835053E-2,9.198927E-1,-1.848486E-2,1.0596102E-1,4.6274593E-1,-1.2372882E-1,1.2633477E-1,9.2134005E-1,3.5496333E-1,2.7476358E-1,4.0383136E-1,3.574432E-3,1.6542111E-1],"categories":[],"categories_nodes":[],"categories_segments":[],"categories_sizes":[],"default_left":[0,0,0,0,0,0,0,0,0,0,0,0,0,0,0,0,0,0,0,0,0,0,0,0,0,0,0,0,0,0,0,0,0,0,0,0,0],"id":35,"left_children":[1,3,5,7,9,11,13,15,-1,17,19,-1,21,23,25,-1,-1,-1,27,-1,-1,-1,-1,-1,29,31,-1,-1,-1,-1,-1,33,35,-1,-1,-1,-1],"loss_changes":[5.9285535E2,5.455078E0,3.3981323E0,4.8620605E-1,2.7855508E0,4.6963654E0,9.668579E-1,1.9633847E0,0E0,1.7498064E0,3.3001885E-1,0E0,1.2102486E0,1.1628835E0,1.5634766E0,0E0,0E0,0E0,5.219846E-1,0E0,0E0,0E0,0E0,0E0,8.379592E-1,1.7590332E-1,0E0,0E0,0E0,0E0,0E0,1.8896484E-1,2.0897791E-1,0E0,0E0,0E0,0E0],"parents":[2147483647,0,0,1,1,2,2,3,3,4,4,5,5,6,6,7,7,9,9,10,10,12,12,13,13,14,14,18,18,24,24,25,25,31,31,32,32],"right_children":[2,4,6,8,10,12,14,16,-1,18,20,-1,22,24,26,-1,-1,-1,28,-1,-1,-1,-1,-1,30,32,-1,-1,-1,-1,-1,34,36,-1,-1,-1,-1],"split_conditions":[1.5701199E-1,4.8303142E-2,1.1695935E-2,5.868979E-3,7.6954504E-3,5.8759417E-15,6.4122877E-3,9.1172314E-1,-1.5524302E-1,2.1124654E-1,3.6627433E-1,3.921744E-1,2.4003214E-7,7.587976E-8,4.5234222E-2,-1.33729E-1,1.9919226E-1,-1.4914048E-2,5.98225E-9,-1.2609239E-1,3.5276074E-2,-1.3319948E-1,1.1696789E-1,2.2156788E-1,8.119011E-4,4.8751906E-2,-1.848486E-2,1.0596102E-1,4.6274593E-1,-1.2372882E-1,1.2633477E-1,3.011513E-1,7.875706E-8,2.7476358E-1,4.0383136E-1,3.574432E-3,1.6542111E-1],"split_indices":[35,49,49,47,51,27,44,11,0,39,30,0,27,17,31,0,0,0,17,0,0,0,0,0,2,34,0,0,0,0,0,53,28,0,0,0,0],"split_type":[0,0,0,0,0,0,0,0,0,0,0,0,0,0,0,0,0,0,0,0,0,0,0,0,0,0,0,0,0,0,0,0,0,0,0,0,0],"sum_hessian":[1.1999617E3,5.696144E2,6.303473E2,5.61391E2,8.223383E0,8.260562E0,6.220867E2,7.132629E0,5.5425836E2,4.1574144E0,4.0659685E0,1.8498241E0,6.410738E0,6.4695697E0,6.156171E2,6.0148997E0,1.1177293E0,1.6356548E0,2.5217595E0,2.9775507E0,1.0884179E0,4.80902E0,1.6017182E0,3.5692685E0,2.9003012E0,6.141118E2,1.5053116E0,1.3912072E0,1.1305523E0,1.7275875E0,1.1727138E0,6.119132E2,2.19858E0,6.072614E2,4.6518455E0,1.1867621E0,1.0118178E0],"tree_param":{"num_deleted":"0","num_feature":"57","num_nodes":"37","size_leaf_vector":"0"}},{"base_weights":[1.2094636E-1,-1.5486753E-1,9.124071E-1,9.1440797E-1,1.1040514E-2,2.8366571E-2,9.161066E-1,9.1762084E-1,1.1578204E-1,4.4415888E-1,2.732466E-1],"categories":[],"categories_nodes":[],"categories_segments":[],"categories_sizes":[],"default_left":[0,0,0,0,0,0,0,0,0,0,0],"id":36,"left_children":[1,-1,3,5,-1,-1,7,9,-1,-1,-1],"loss_changes":[5.3997876E2,0E0,8.02948E-1,5.767822E-1,0E0,0E0,2.7374268E-2,4.624939E-1,0E0,0E0,0E0],"parents":[2147483647,0,0,2,2,3,3,6,6,7,7],"right_children":[2,-1,4,6,-1,-1,8,10,-1,-1,-1],"split_conditions":[1.2842335E-1,-1.5486753E-1,1.0936136E-5,7.346788E-3,1.1040514E-2,2.8366571E-2,3.1665724E-2,9.682335E-1,1.1578204E-1,4.4415888E-1,2.732466E-1],"split_indices":[36,0,18,50,0,0,5,22,0,0,0],"split_type":[0,0,0,0,0,0,0,0,0,0,0],"sum_hessian":[1.0688232E3,5.923196E2,4.7650363E2,4.7537302E2,1.1306258E0,1.1000186E0,4.7427298E2,4.7219348E2,2.0794935E0,3.048362E0,4.6914514E2],"tree_param":{"num_deleted":"0","num_feature":"57","num_nodes":"11","size_leaf_vector":"0"}},{"base_weights":[-3.1583133E-1,-5.1057374E-1,9.2515457E-1,-1.5526167E-1,-7.442264E-2,-1.05542965E-1,9.509292E-1,-1.3698837E-1,4.4538543E-1,9.616326E-1,8.939746E-3,8.9248395E-1,-1.0026283E-1,9.728348E-1,1.228028E-2,3.4947733E-3,4.1998413E-1,2.7970684E-1,4.2063448E-1],"categories":[],"categories_nodes":[],"categories_segments":[],"categories_sizes":[],"default_left":[0,0,0,0,0,0,0,0,0,0,0,0,0,0,0,0,0,0,0],"id":37,"left_children":[1,3,5,-1,7,-1,9,-1,11,13,-1,15,-1,17,-1,-1,-1,-1,-1],"loss_changes":[1.8054251E2,1.9199219E0,3.6726532E0,0E0,2.4486516E0,0E0,9.5414734E-1,0E0,2.1438408E0,9.761734E-1,0E0,1.6096148E0,0E0,3.8313293E-1,0E0,0E0,0E0,0E0,0E0],"parents":[2147483647,0,0,1,1,2,2,4,4,6,6,8,8,9,9,11,11,13,13],"right_children":[2,4,6,-1,8,-1,10,-1,12,14,-1,16,-1,18,-1,-1,-1,-1,-1],"split_conditions":[2.7560822E-3,5.335256E-4,7.8566006E-4,-1.5526167E-1,1.6080936E-5,-1.05542965E-1,3.0062267E-1,-1.3698837E-1,4.0101757E-8,1.6978383E-3,8.939746E-3,6.544859E-10,-1.0026283E-1,1.5915175E-6,1.228028E-2,3.4947733E-3,4.1998413E-1,2.7970684E-1,4.2063448E-1],"split_indices":[23,9,9,0,37,0,49,0,40,5,0,24,0,31,0,0,0,0,0],"split_type":[0,0,0,0,0,0,0,0,0,0,0,0,0,0,0,0,0,0,0],"sum_hessian":[7.440997E2,6.436786E2,1.0042106E2,6.3337726E2,1.0301346E1,1.7365612E0,9.86845E1,6.006456E0,4.2948904E0,9.750751E1,1.1769899E0,2.6374848E0,1.6574054E0,9.627944E1,1.2280718E0,1.3379972E0,1.2994877E0,9.088169E1,5.3977513E0],"tree_param":{"num_deleted":"0","num_feature":"57","num_nodes":"19","size_leaf_vector":"0"}},{"base_weights":[1.2007308E-1,-5.0998455E-1,9.1197795E-1,-1.5527862E-1,6.962025E-2,-1.1346754E-1,9.17077E-1,-1.3256213E-1,6.623055E-1,9.1965765E-1,6.5370323E-4,-1.661458E-2,3.408577E-1,2.735394E-1,1.3089517E0,1.1636359E-1,4.262855E-1],"categories":[],"categories_nodes":[],"categories_segments":[],"categories_sizes":[],"default_left":[0,0,0,0,0,0,0,0,0,0,0,0,0,0,0,0,0],"id":38,"left_children":[1,3,5,-1,7,-1,9,-1,11,13,-1,-1,-1,-1,15,-1,-1],"loss_changes":[5.329704E2,2.660797E0,3.4602966E0,0E0,2.8977618E0,0E0,1.1116333E0,0E0,1.5528818E0,2.4563599E-1,0E0,0E0,0E0,0E0,1.7224503E-1,0E0,0E0],"parents":[2147483647,0,0,1,1,2,2,4,4,6,6,8,8,9,9,14,14],"right_children":[2,4,6,-1,8,-1,10,-1,12,14,-1,-1,-1,-1,16,-1,-1],"split_conditions":[2.2488146E-1,5.5668445E-4,7.260383E-3,-1.5527862E-1,1.396537E-2,-1.1346754E-1,1.2668519E-2,-1.3256213E-1,7.2525404E-3,1.2384044E-4,6.5370323E-4,-1.661458E-2,3.408577E-1,2.735394E-1,8.36902E-12,1.1636359E-1,4.262855E-1],"split_indices":[38,38,52,0,1,0,42,0,50,12,0,0,0,0,35,0,0],"split_type":[0,0,0,0,0,0,0,0,0,0,0,0,0,0,0,0,0],"sum_hessian":[1.0662611E3,5.940095E2,4.7225153E2,5.864162E2,7.5933175E0,1.5709794E0,4.7068057E2,4.212413E0,3.380905E0,4.6935147E2,1.3290951E0,1.6957997E0,1.6851052E0,4.6333905E2,6.012418E0,1.1357076E0,4.87671E0],"tree_param":{"num_deleted":"0","num_feature":"57","num_nodes":"17","size_leaf_vector":"0"}},{"base_weights":[6.383519E-3,-5.0703365E-1,8.922181E-1,-5.1425844E-1,4.0386087E-1,-5.216806E-3,9.097794E-1,-5.158779E-1,5.505374E-2,8.03258E-1,-1.0693917E-1,-3.2612023E-1,2.3588867E-1,9.1678977E-1,-1.16259694E-1,-1.5523991E-1,-2.4727802E-1,3.1158602E-1,3.7139773E-2,6.77526E-2,-1.4374399E-1,9.2847943E-1,1.2440294E-1,6.847534E-2,-1.22581445E-1,1.965164E-2,9.321833E-1,7.381018E-1,-1.314037E-1,2.8169933E-1,7.1524724E-2,1.1857732E-2,3.3620718E-1],"categories":[],"categories_nodes":[],"categories_segments":[],"categories_sizes":[],"default_left":[0,0,0,0,0,0,0,0,0,0,0,0,0,0,0,0,0,0,0,0,0,0,0,0,0,0,0,0,0,0,0,0,0],"id":39,"left_children":[1,3,5,7,9,11,13,15,-1,17,-1,19,-1,21,-1,-1,23,-1,-1,-1,-1,25,27,-1,-1,-1,29,31,-1,-1,-1,-1,-1],"loss_changes":[4.3429608E2,4.1861877E0,5.5267334E0,7.729187E-1,1.901047E0,2.2170415E0,3.4807434E0,1.2763977E-1,0E0,4.780631E-1,0E0,6.318165E-1,0E0,3.0533447E0,0E0,0E0,5.103947E-1,0E0,0E0,0E0,0E0,1.0160522E0,2.4384882E0,0E0,0E0,0E0,1.3620605E0,8.384726E-1,0E0,0E0,0E0,0E0,0E0],"parents":[2147483647,0,0,1,1,2,2,3,3,4,4,5,5,6,6,7,7,9,9,11,11,13,13,16,16,21,21,22,22,26,26,27,27],"right_children":[2,4,6,8,10,12,14,16,-1,18,-1,20,-1,22,-1,-1,24,-1,-1,-1,-1,26,28,-1,-1,-1,30,32,-1,-1,-1,-1,-1],"split_conditions":[1.8846976E-2,7.359261E-1,1.2190484E-4,9.1172314E-1,2.0801578E-7,1.63423E-5,9.0850466E-1,5.315313E-2,5.505374E-2,5.4374306E-13,-1.0693917E-1,2.9076227E-12,2.3588867E-1,8.98082E-1,-1.16259694E-1,-1.5523991E-1,6.856765E-3,3.1158602E-1,3.7139773E-2,6.77526E-2,-1.4374399E-1,7.2593647E-3,9.939575E-11,6.847534E-2,-1.22581445E-1,1.965164E-2,1.0488775E-1,7.7300016E-3,-1.314037E-1,2.8169933E-1,7.1524724E-2,1.1857732E-2,3.3620718E-1],"split_indices":[39,53,25,11,29,24,45,11,0,40,0,40,0,49,0,0,50,0,0,0,0,53,37,0,0,0,47,46,0,0,0,0,0],"split_type":[0,0,0,0,0,0,0,0,0,0,0,0,0,0,0,0,0,0,0,0,0,0,0,0,0,0,0,0,0,0,0,0,0],"sum_hessian":[9.529164E2,6.0354047E2,3.4937592E2,5.9922314E2,4.3173065E0,6.718985E0,3.4265692E2,5.980957E2,1.1274333E0,2.793447E0,1.5238594E0,5.199092E0,1.5198932E0,3.4110696E2,1.5499496E0,5.936584E2,4.437359E0,1.6821556E0,1.1112915E0,1.0252404E0,4.1738515E0,3.359787E2,5.128258E0,1.0189751E0,3.4183838E0,1.5157158E0,3.3446298E2,2.3029435E0,2.8253148E0,3.308597E2,3.6032908E0,1.2053618E0,1.0975815E0],"tree_param":{"num_deleted":"0","num_feature":"57","num_nodes":"33","size_leaf_vector":"0"}},{"base_weights":[-2.6512638E-1,-5.1198566E-1,9.119527E-1,1.0854664E-2,-5.147692E-1,9.306445E-1,-4.2083222E-2,-1.07303664E-1,1.6075622E-1,-1.5481406E-1,-2.1558249E-1,-1.1952459E-2,9.426448E-1,1.2972422E-1,-1.2591782E-1,4.6105374E-2,-1.1153793E-1,2.7744532E-1,4.7748485E-1],"categories":[],"categories_nodes":[],"categories_segments":[],"categories_sizes":[],"default_left":[0,0,0,0,0,0,0,0,0,0,0,0,0,0,0,0,0,0,0],"id":40,"left_children":[1,3,5,7,9,11,13,-1,-1,-1,15,-1,17,-1,-1,-1,-1,-1,-1],"loss_changes":[2.2531046E2,9.374237E-1,2.4377975E0,1.0371885E0,1.3223267E-1,1.57444E0,8.160842E-1,0E0,0E0,0E0,3.1243855E-1,0E0,3.6621094E-2,0E0,0E0,0E0,0E0,0E0,0E0],"parents":[2147483647,0,0,1,1,2,2,3,3,4,4,5,5,6,6,10,10,12,12],"right_children":[2,4,6,8,10,12,14,-1,-1,-1,16,-1,18,-1,-1,-1,-1,-1,-1],"split_conditions":[3.3519324E-2,3.977808E-3,3.6241768E-6,4.4736576E-1,3.964625E-4,2.5466142E-2,2.7952554E-9,-1.07303664E-1,1.6075622E-1,-1.5481406E-1,1.13914034E-11,-1.1952459E-2,5.972273E-4,1.2972422E-1,-1.2591782E-1,4.6105374E-2,-1.1153793E-1,2.7744532E-1,4.7748485E-1],"split_indices":[40,46,27,33,40,54,35,0,0,0,24,0,6,0,0,0,0,0,0],"split_type":[0,0,0,0,0,0,0,0,0,0,0,0,0,0,0,0,0,0,0],"sum_hessian":[7.727939E2,6.392865E2,1.3350739E2,3.3700917E0,6.359164E2,1.3096596E2,2.5414193E0,2.1673703E0,1.2027215E0,6.3249054E2,3.4258764E0,1.5713024E0,1.2939465E2,1.0620056E0,1.4794136E0,1.0232294E0,2.4026468E0,1.2829547E2,1.0991958E0],"tree_param":{"num_deleted":"0","num_feature":"57","num_nodes":"19","size_leaf_vector":"0"}},{"base_weights":[-3.370037E-1,-5.146802E-1,9.426593E-1,-1.5527567E-1,-6.4270675E-2,9.5371807E-1,1.3514938E-2,-1.2411746E-1,1.9357134E-1,9.658331E-1,7.5414926E-2,9.266843E-2,2.917313E-1],"categories":[],"categories_nodes":[],"categories_segments":[],"categories_sizes":[],"default_left":[0,0,0,0,0,0,0,0,0,0,0,0,0],"id":41,"left_children":[1,3,5,-1,7,9,-1,-1,-1,11,-1,-1,-1],"loss_changes":[1.6745905E2,8.114166E-1,8.4929657E-1,0E0,1.5757818E0,5.123215E-1,0E0,0E0,0E0,7.659912E-2,0E0,0E0,0E0],"parents":[2147483647,0,0,1,1,2,2,4,4,5,5,9,9],"right_children":[2,4,6,-1,8,10,-1,-1,-1,12,-1,-1,-1],"split_conditions":[1.6665438E-1,2.637554E-3,1.5078792E-4,-1.5527567E-1,3.9211786E-6,1.6815622E-3,1.3514938E-2,-1.2411746E-1,1.9357134E-1,6.0275664E-14,7.5414926E-2,9.266843E-2,2.917313E-1],"split_indices":[13,41,34,0,14,0,0,0,0,21,0,0,0],"split_type":[0,0,0,0,0,0,0,0,0,0,0,0,0],"sum_hessian":[7.3338354E2,6.4449554E2,8.888803E1,6.4021674E2,4.278806E0,8.774449E1,1.1435392E0,3.146129E0,1.1326772E0,8.588778E1,1.8567152E0,1.3303473E0,8.4557434E1],"tree_param":{"num_deleted":"0","num_feature":"57","num_nodes":"13","size_leaf_vector":"0"}},{"base_weights":[-1.0755419E-1,-5.0923836E-1,7.7626145E-1,-1.5396509E-1,1.3086438E-1,2.3378538E-1,2.0566646E-2,-1.15120396E-1,1.692427E-1],"categories":[],"categories_nodes":[],"categories_segments":[],"categories_sizes":[],"default_left":[0,0,0,0,0,0,0,0,0],"id":42,"left_children":[1,3,5,-1,7,-1,-1,-1,-1],"loss_changes":[2.5382837E2,1.3186188E0,4.246521E-1,0E0,1.0709419E0,0E0,0E0,0E0,0E0],"parents":[2147483647,0,0,1,1,2,2,4,4],"right_children":[2,4,6,-1,8,-1,-1,-1,-1],"split_conditions":[5.1739377E-1,3.1063594E-2,5.029453E-2,-1.5396509E-1,6.135914E-4,2.3378538E-1,2.0566646E-2,-1.15120396E-1,1.692427E-1],"split_indices":[0,14,32,0,2,0,0,0,0],"split_type":[0,0,0,0,0,0,0,0,0],"sum_hessian":[7.128663E2,4.904061E2,2.2246017E2,4.8757382E2,2.8322759E0,2.2141322E2,1.0469401E0,1.346911E0,1.485365E0],"tree_param":{"num_deleted":"0","num_feature":"57","num_nodes":"9","size_leaf_vector":"0"}},{"base_weights":[2.7391332E-1,-5.0639886E-1,7.639469E-1,-5.109028E-1,9.703375E-2,1.8574214E-2,7.649528E-1,-1.5394552E-1,-7.923865E-2,7.663318E-1,6.2513724E-2,-9.032409E-2,6.695093E-2,2.303109E-1,3.4057304E-1,-9.988671E-3,1.5205279E-1],"categories":[],"categories_nodes":[],"categories_segments":[],"categories_sizes":[],"default_left":[0,0,0,0,0,0,0,0,0,0,0,0,0,0,0,0,0],"id":43,"left_children":[1,3,5,7,-1,-1,9,-1,11,13,-1,-1,-1,-1,15,-1,-1],"loss_changes":[4.3271097E2,1.7975693E0,4.4335938E-1,3.8139343E-1,0E0,0E0,3.7283325E-1,0E0,2.9769766E-1,1.4233398E-1,0E0,0E0,0E0,0E0,2.6663926E-1,0E0,0E0],"parents":[2147483647,0,0,1,1,2,2,3,3,6,6,8,8,9,9,14,14],"right_children":[2,4,6,8,-1,-1,10,-1,12,14,-1,-1,-1,-1,16,-1,-1],"split_conditions":[4.6546867E-1,9.821853E-1,5.782852E-3,9.04954E-1,9.703375E-2,1.8574214E-2,9.935859E-3,-1.5394552E-1,3.6262382E-9,6.369768E-6,6.2513724E-2,-9.032409E-2,6.695093E-2,2.303109E-1,1.9007197E-7,-9.988671E-3,1.5205279E-1],"split_indices":[29,1,45,49,0,0,48,0,19,28,0,0,0,0,23,0,0],"split_type":[0,0,0,0,0,0,0,0,0,0,0,0,0,0,0,0,0],"sum_hessian":[1.1296163E3,4.3573456E2,6.938818E2,4.3376465E2,1.9698875E0,1.0822973E0,6.9279944E2,4.3132874E2,2.4359329E0,6.907112E2,2.0882392E0,1.407677E0,1.0282558E0,6.876933E2,3.0178854E0,1.1751744E0,1.8427112E0],"tree_param":{"num_deleted":"0","num_feature":"57","num_nodes":"17","size_leaf_vector":"0"}},{"base_weights":[-2.745586E-1,-5.042378E-1,7.5620925E-1,-1.5399858E-1,1.7207828E-1,7.7235305E-1,-9.243137E-2,7.1024096E-1,-1.3002597E-1,7.806827E-1,-1.6584004E-3,4.264594E-2,3.0916548E-1,4.539281E-2,7.8828514E-1,2.3791172E-1,7.895841E-2],"categories":[],"categories_nodes":[],"categories_segments":[],"categories_sizes":[],"default_left":[0,0,0,0,0,0,0,0,0,0,0,0,0,0,0,0,0],"id":44,"left_children":[1,3,5,-1,7,9,-1,11,-1,13,-1,-1,-1,-1,15,-1,-1],"loss_changes":[1.459161E2,3.1828384E0,2.16951E0,0E0,2.7271798E0,7.236862E-1,0E0,6.3774085E-1,0E0,4.0634155E-1,0E0,0E0,0E0,0E0,6.163025E-2,0E0,0E0],"parents":[2147483647,0,0,1,1,2,2,4,4,5,5,7,7,9,9,14,14],"right_children":[2,4,6,-1,8,10,-1,12,-1,14,-1,-1,-1,-1,16,-1,-1],"split_conditions":[1.602217E-2,5.7566212E-3,8.929017E-1,-1.5399858E-1,7.1966536E-3,1.412998E-4,-9.243137E-2,1.11223075E-8,-1.3002597E-1,6.0175885E-3,-1.6584004E-3,4.264594E-2,3.0916548E-1,4.539281E-2,1.63423E-5,2.3791172E-1,7.895841E-2],"split_indices":[30,2,49,0,42,41,0,15,0,51,0,0,0,0,24,0,0],"split_type":[0,0,0,0,0,0,0,0,0,0,0,0,0,0,0,0,0],"sum_hessian":[6.1373E2,5.0231357E2,1.114164E2,4.9588898E2,6.4245787E0,1.1002187E2,1.39452E0,3.3098342E0,3.1147444E0,1.0885266E2,1.1692129E0,1.7139143E0,1.59592E0,1.5486581E0,1.07304E2,1.0583553E2,1.4684669E0],"tree_param":{"num_deleted":"0","num_feature":"57","num_nodes":"17","size_leaf_vector":"0"}},{"base_weights":[1.7942467E-1,-5.0258887E-1,7.62747E-1,-5.1006675E-1,3.5505548E-1,-1.158585E-1,7.692714E-1,-5.122177E-1,-1.1980568E-1,-8.205827E-2,1.9111101E-1,7.721433E-1,-1.08363084E-1,-1.5407982E-1,-2.4478276E-1,-9.9600494E-2,7.0554614E-2,7.7484137E-1,-8.921465E-2,3.5508268E-2,-1.1915401E-1,2.3273587E-1,6.567391E-2],"categories":[],"categories_nodes":[],"categories_segments":[],"categories_sizes":[],"default_left":[0,0,0,0,0,0,0,0,0,0,0,0,0,0,0,0,0,0,0,0,0,0,0],"id":45,"left_children":[1,3,5,7,9,-1,11,13,15,-1,-1,17,-1,-1,19,-1,-1,21,-1,-1,-1,-1,-1],"loss_changes":[3.934958E2,3.1064606E0,4.292511E0,3.1855774E-1,9.7759E-1,0E0,2.0006714E0,4.0489197E-2,3.6328328E-1,0E0,0E0,1.7578125E0,0E0,0E0,2.8069508E-1,0E0,0E0,1.076355E-1,0E0,0E0,0E0,0E0,0E0],"parents":[2147483647,0,0,1,1,2,2,3,3,4,4,6,6,7,7,8,8,11,11,14,14,17,17],"right_children":[2,4,6,8,10,-1,12,14,16,-1,-1,18,-1,-1,20,-1,-1,22,-1,-1,-1,-1,-1],"split_conditions":[2.3968277E-2,5.300942E-1,5.7396054E-4,9.9801385E-1,6.5168905E-1,-1.158585E-1,2.7560822E-3,6.3031917E-3,2.0165768E-4,-8.205827E-2,1.9111101E-1,8.3894366E-1,-1.08363084E-1,-1.5407982E-1,5.274141E-11,-9.9600494E-2,7.0554614E-2,1.2608853E-3,-8.921465E-2,3.5508268E-2,-1.1915401E-1,2.3273587E-1,6.567391E-2],"split_indices":[3,17,31,13,31,0,23,3,4,0,0,39,0,0,40,0,0,20,0,0,0,0,0],"split_type":[0,0,0,0,0,0,0,0,0,0,0,0,0,0,0,0,0,0,0,0,0,0,0],"sum_hessian":[9.8713257E2,4.5513388E2,5.3199866E2,4.5160156E2,3.5322952E0,2.6753523E0,5.293233E2,4.4881537E2,2.7861943E0,1.1031562E0,2.4291391E0,5.282982E2,1.0251355E0,4.4559283E2,3.2225447E0,1.7843442E0,1.0018502E0,5.2724365E2,1.0545275E0,1.018626E0,2.2039185E0,5.259543E2,1.2894088E0],"tree_param":{"num_deleted":"0","num_feature":"57","num_nodes":"23","size_leaf_vector":"0"}},{"base_weights":[-2.812983E-1,-1.539675E-1,7.729884E-1,2.3557544E-1,2.6336225E-2],"categories":[],"categories_nodes":[],"categories_segments":[],"categories_sizes":[],"default_left":[0,0,0,0,0],"id":46,"left_children":[1,-1,3,-1,-1],"loss_changes":[1.4986911E2,0E0,8.606186E-1,0E0,0E0],"parents":[2147483647,0,0,2,2],"right_children":[2,-1,4,-1,-1],"split_conditions":[5.029453E-2,-1.539675E-1,8.6719E-6,2.3557544E-1,2.6336225E-2],"split_indices":[32,0,38,0,0],"split_type":[0,0,0,0,0],"sum_hessian":[6.102961E2,5.0066977E2,1.0962634E2,1.07555405E2,2.07094E0],"tree_param":{"num_deleted":"0","num_feature":"57","num_nodes":"5","size_leaf_vector":"0"}},{"base_weights":[9.635579E-2,-5.0519323E-1,7.615339E-1,-1.5393841E-1,-9.414775E-2,-8.9822106E-2,7.653526E-1,-1.3371134E-1,5.514875E-1,7.6886743E-1,-3.347459E-2,3.060205E-1,-8.707544E-2,7.70746E-1,7.763001E-2,2.316491E-1,6.680975E-2],"categories":[],"categories_nodes":[],"categories_segments":[],"categories_sizes":[],"default_left":[0,0,0,0,0,0,0,0,0,0,0,0,0,0,0,0,0],"id":47,"left_children":[1,3,5,-1,7,-1,9,-1,11,13,-1,-1,-1,15,-1,-1,-1],"loss_changes":[3.5606024E2,1.4760361E0,1.940918E0,0E0,2.5327954E0,0E0,1.3843079E0,0E0,1.8734412E0,2.0275879E-1,0E0,0E0,0E0,1.5255737E-1,0E0,0E0,0E0],"parents":[2147483647,0,0,1,1,2,2,4,4,6,6,8,8,9,9,13,13],"right_children":[2,4,6,-1,8,-1,10,-1,12,14,-1,-1,-1,16,-1,-1,-1],"split_conditions":[3.1665724E-2,1.0314055E-3,1.2193344E-3,-1.5393841E-1,4.800578E-3,-8.9822106E-2,9.334996E-4,-1.3371134E-1,7.5702597E-3,2.637554E-3,-3.347459E-2,3.060205E-1,-8.707544E-2,5.300942E-1,7.763001E-2,2.316491E-1,6.680975E-2],"split_indices":[5,5,33,0,19,0,4,0,45,41,0,0,0,17,0,0,0],"split_type":[0,0,0,0,0,0,0,0,0,0,0,0,0,0,0,0,0],"sum_hessian":[8.878838E2,4.663679E2,4.215159E2,4.5729202E2,9.07587E0,1.234113E0,4.2028177E2,6.076696E0,2.999174E0,4.187267E2,1.5550636E0,1.7905495E0,1.2086245E0,4.166812E2,2.045508E0,4.1519827E2,1.4829257E0],"tree_param":{"num_deleted":"0","num_feature":"57","num_nodes":"17","size_leaf_vector":"0"}},{"base_weights":[-6.57708E-2,-5.112247E-1,7.6733327E-1,-1.539745E-1,-1.11527085E-1,-9.092796E-2,7.7430034E-1,-9.819185E-2,7.092828E-2,2.3288913E-1,7.162631E-2],"categories":[],"categories_nodes":[],"categories_segments":[],"categories_sizes":[],"default_left":[0,0,0,0,0,0,0,0,0,0,0],"id":48,"left_children":[1,3,5,-1,7,-1,9,-1,-1,-1,-1],"loss_changes":[2.7620905E2,3.349533E-1,2.168808E0,0E0,3.5670066E-1,0E0,9.048462E-2,0E0,0E0,0E0,0E0],"parents":[2147483647,0,0,1,1,2,2,4,4,6,6],"right_children":[2,4,6,-1,8,-1,10,-1,-1,-1,-1],"split_conditions":[4.8751906E-2,9.0943456E-1,1.29382005E-2,-1.539745E-1,1.0365681E-13,-9.092796E-2,2.4975536E-3,-9.819185E-2,7.092828E-2,2.3288913E-1,7.162631E-2],"split_indices":[34,42,48,0,33,0,39,0,0,0,0],"split_type":[0,0,0,0,0,0,0,0,0,0,0],"sum_hessian":[7.422222E2,4.838813E2,2.5834097E2,4.811611E2,2.7201846E0,1.395738E0,2.5694522E2,1.7156141E0,1.0045706E0,2.5554292E2,1.4023061E0],"tree_param":{"num_deleted":"0","num_feature":"57","num_nodes":"11","size_leaf_vector":"0"}},{"base_weights":[2.1446608E-1,-4.9421448E-1,7.571693E-1,-5.0859874E-1,2.6253748E-1,2.5003028E-1,7.6529497E-1,-1.5391356E-1,7.3920354E-2,5.708187E-1,-1.1663089E-1,3.0726784E-1,-6.6258155E-2,4.8964456E-1,7.7198255E-1,-1.0633531E-1,2.06137E-1,-1.2447274E-1,2.9242972E-1,4.4723368E-1,-1.3203298E-1,6.9156766E-1,-2.4983026E-1,2.3202863E-1,6.595839E-3,-9.273437E-2,4.031576E-2,-7.967703E-2,2.3124753E-1,2.3337926E-1,-2.7476389E-2,1.1437254E-1,-1.7165966E-1],"categories":[],"categories_nodes":[],"categories_segments":[],"categories_sizes":[],"default_left":[0,0,0,0,0,0,0,0,0,0,0,0,0,0,0,0,0,0,0,0,0,0,0,0,0,0,0,0,0,0,0,0,0],"id":49,"left_children":[1,3,5,7,9,11,13,-1,15,17,-1,-1,19,21,23,-1,-1,25,-1,27,-1,29,31,-1,-1,-1,-1,-1,-1,-1,-1,-1,-1],"loss_changes":[3.9758722E2,5.015663E0,2.22052E0,1.1788254E0,2.0341487E0,2.69164E0,6.830139E-1,0E0,1.3496456E0,1.9556923E0,0E0,0E0,1.8374883E0,2.616703E0,5.905762E-1,0E0,0E0,1.9863907E-1,0E0,1.1496902E0,0E0,9.587712E-1,1.0818013E0,0E0,0E0,0E0,0E0,0E0,0E0,0E0,0E0,0E0,0E0],"parents":[2147483647,0,0,1,1,2,2,3,3,4,4,5,5,6,6,8,8,9,9,12,12,13,13,14,14,17,17,19,19,21,21,22,22],"right_children":[2,4,6,8,10,12,14,-1,16,18,-1,-1,20,22,24,-1,-1,26,-1,28,-1,30,32,-1,-1,-1,-1,-1,-1,-1,-1,-1,-1],"split_conditions":[1.5701199E-1,4.8303142E-2,2.33672E-2,1.8590963E-2,1.16864145E-2,5.8759417E-15,6.7875823E-3,-1.5391356E-1,2.4445143E-8,9.939575E-11,-1.1663089E-1,3.0726784E-1,6.4966944E-3,2.9846503E-6,4.5234222E-2,-1.0633531E-1,2.06137E-1,7.030014E-3,2.9242972E-1,7.3714465E-1,-1.3203298E-1,4.9930332E-8,1.0989011E-1,2.3202863E-1,6.595839E-3,-9.273437E-2,4.031576E-2,-7.967703E-2,2.3124753E-1,2.3337926E-1,-2.7476389E-2,1.1437254E-1,-1.7165966E-1],"split_indices":[35,49,49,21,43,27,44,0,26,37,0,0,47,31,31,0,0,50,0,7,0,38,56,0,0,0,0,0,0,0,0,0,0],"split_type":[0,0,0,0,0,0,0,0,0,0,0,0,0,0,0,0,0,0,0,0,0,0,0,0,0,0,0,0,0,0,0,0,0],"sum_hessian":[1.0317864E3,4.4750647E2,5.8427997E2,4.3948077E2,8.025698E0,9.715014E0,5.7456494E2,4.3626993E2,3.2108266E0,5.531207E0,2.4944901E0,2.1685865E0,7.546428E0,1.5367377E1,5.591976E2,2.1387243E0,1.0721023E0,2.2868454E0,3.2443616E0,3.0967298E0,4.4496984E0,1.2122074E1,3.245303E0,5.580902E2,1.1073548E0,1.2214502E0,1.0653954E0,1.0228299E0,2.0739E0,1.0924082E1,1.1979917E0,1.035524E0,2.209779E0],"tree_param":{"num_deleted":"0","num_feature":"57","num_nodes":"33","size_leaf_vector":"0"}},{"base_weights":[1.1026974E-1,-5.113963E-1,7.6718086E-1,-1.539487E-1,-2.8839412E-1,4.3845654E-2,7.6958215E-1,5.8362734E-2,-1.2818131E-1,2.3133005E-1,1.5994532E-2],"categories":[],"categories_nodes":[],"categories_segments":[],"categories_sizes":[],"default_left":[0,0,0,0,0,0,0,0,0,0,0],"id":50,"left_children":[1,3,5,-1,7,-1,9,-1,-1,-1,-1],"loss_changes":[3.6949646E2,3.5125732E-2,5.4345703E-1,0E0,4.8127648E-1,0E0,4.3502808E-1,0E0,0E0,0E0,0E0],"parents":[2147483647,0,0,1,1,2,2,4,4,6,6],"right_children":[2,4,6,-1,8,-1,10,-1,-1,-1,-1],"split_conditions":[1.2842335E-1,1.967618E-4,1.18621485E-2,-1.539487E-1,7.2928524E-5,4.3845654E-2,1.0936136E-5,5.8362734E-2,-1.2818131E-1,2.3133005E-1,1.5994532E-2],"split_indices":[36,36,50,0,11,0,18,0,0,0,0],"split_type":[0,0,0,0,0,0,0,0,0,0,0],"sum_hessian":[9.0282666E2,4.6397076E2,4.388559E2,4.5903424E2,4.93651E0,1.9286139E0,4.3692728E2,1.0130073E0,3.9235027E0,4.3592685E2,1.0004503E0],"tree_param":{"num_deleted":"0","num_feature":"57","num_nodes":"11","size_leaf_vector":"0"}},{"base_weights":[-3.029582E-1,-5.113396E-1,7.3067427E-1,-1.5396805E-1,-1.6376992E-1,-1.2145973E-1,7.71867E-1,6.305036E-2,-1.06898785E-1,7.904135E-1,-3.1887528E-2,7.999386E-1,3.0953381E-3,8.070857E-1,3.750555E-2,7.772982E-2,2.4340619E-1],"categories":[],"categories_nodes":[],"categories_segments":[],"categories_sizes":[],"default_left":[0,0,0,0,0,0,0,0,0,0,0,0,0,0,0,0,0],"id":51,"left_children":[1,3,5,-1,7,-1,9,-1,-1,11,-1,13,-1,15,-1,-1,-1],"loss_changes":[1.297744E2,2.4427795E-1,5.0465965E0,0E0,3.7528712E-1,0E0,1.6802673E0,0E0,0E0,7.05822E-1,0E0,3.570099E-1,0E0,9.052277E-3,0E0,0E0,0E0],"parents":[2147483647,0,0,1,1,2,2,4,4,6,6,9,9,11,11,13,13],"right_children":[2,4,6,-1,8,-1,10,-1,-1,12,-1,14,-1,16,-1,-1,-1],"split_conditions":[7.8566006E-4,5.335256E-4,3.3813164E-6,-1.5396805E-1,2.584846E-9,-1.2145973E-1,2.5524078E-3,6.305036E-2,-1.06898785E-1,3.0062267E-1,-3.1887528E-2,3.1063594E-2,3.0953381E-3,8.985223E-5,3.750555E-2,7.772982E-2,2.4340619E-1],"split_indices":[9,9,37,0,35,0,3,0,0,49,0,14,0,10,0,0,0],"split_type":[0,0,0,0,0,0,0,0,0,0,0,0,0,0,0,0,0],"sum_hessian":[5.9977484E2,4.9956693E2,1.0020793E2,4.9639502E2,3.1718948E0,3.1988235E0,9.700911E1,1.0470829E0,2.124812E0,9.5100525E1,1.9085842E0,9.392821E1,1.1723168E0,9.27502E1,1.1780086E0,1.1937399E0,9.155646E1],"tree_param":{"num_deleted":"0","num_feature":"57","num_nodes":"17","size_leaf_vector":"0"}},{"base_weights":[1.0958445E-1,-5.112339E-1,7.585272E-1,-1.5398146E-1,1.8284278E-3,7.7050793E-1,-1.3610321E-1,-1.0343514E-1,7.7633137E-1,-1.4227904E-1,1.4910336E-1,7.7101076E-1,4.4304848E-1,2.3159175E-1,7.180292E-2],"categories":[],"categories_nodes":[],"categories_segments":[],"categories_sizes":[],"default_left":[0,0,0,0,0,0,0,0,0,0,0,0,0,0,0],"id":52,"left_children":[1,3,5,-1,-1,7,9,-1,11,-1,-1,13,-1,-1,-1],"loss_changes":[3.639767E2,4.899521E-1,4.838608E0,0E0,0E0,3.0991821E0,1.6671916E0,0E0,4.7894287E-1,0E0,0E0,3.656006E-2,0E0,0E0,0E0],"parents":[2147483647,0,0,1,1,2,2,5,5,6,6,8,8,11,11],"right_children":[2,4,6,-1,-1,8,10,-1,12,-1,-1,14,-1,-1,-1],"split_conditions":[5.5056403E-4,4.3443467E-2,3.583996E-5,-1.5398146E-1,1.8284278E-3,5.5668445E-4,9.048122E-1,-1.0343514E-1,9.923379E-1,-1.4227904E-1,1.4910336E-1,1.8648517E-7,4.4304848E-1,2.3159175E-1,7.180292E-2],"split_indices":[24,52,17,0,0,38,52,0,15,0,0,30,0,0,0],"split_type":[0,0,0,0,0,0,0,0,0,0,0,0,0,0,0],"sum_hessian":[9.014844E2,4.6083432E2,4.406501E2,4.5903415E2,1.8001536E0,4.3496387E2,5.6862063E0,1.9570056E0,4.3300687E2,3.870038E0,1.8161682E0,4.3182758E2,1.1792878E0,4.305967E2,1.2308731E0],"tree_param":{"num_deleted":"0","num_feature":"57","num_nodes":"15","size_leaf_vector":"0"}},{"base_weights":[7.6101124E-3,-5.00442E-1,7.408146E-1,-5.089752E-1,3.313404E-1,-2.0268468E-2,7.544947E-1,-5.110163E-1,5.1888835E-2,6.5426266E-1,-1.0337857E-1,-1.296565E-1,3.148195E-1,7.7850896E-1,4.4776443E-1,-1.5391219E-1,-2.1750887E-1,3.641383E-2,2.4324492E-1,7.8111774E-1,1.3549054E-2,-3.9236036E-1,6.376584E-1,-1.1744784E-1,6.8191774E-2,7.89291E-1,4.4539103E-1,3.7823096E-2,-1.8193161E-1,-1.0212917E-1,7.126557E-1,2.3736086E-1,5.0837528E-2,-1.6306794E-1,2.0620854E-1,-2.3414847E-2,2.3064947E-1],"categories":[],"categories_nodes":[],"categories_segments":[],"categories_sizes":[],"default_left":[0,0,0,0,0,0,0,0,0,0,0,0,0,0,0,0,0,0,0,0,0,0,0,0,0,0,0,0,0,0,0,0,0,0,0,0,0],"id":53,"left_children":[1,3,5,7,9,11,13,15,-1,17,-1,-1,-1,19,21,-1,23,-1,-1,25,-1,27,29,-1,-1,31,33,-1,-1,-1,35,-1,-1,-1,-1,-1,-1],"loss_changes":[2.9921417E2,3.5364075E0,3.4383392E0,7.4266815E-1,1.4093659E0,3.4404588E0,2.0305176E0,1.6701508E-1,0E0,2.3656929E-1,0E0,0E0,0E0,5.3518677E-1,4.3669815E0,0E0,4.7190803E-1,0E0,0E0,4.636078E-1,0E0,6.7317253E-1,1.8144789E0,0E0,0E0,2.0805359E-1,2.6123257E0,0E0,0E0,0E0,9.584036E-1,0E0,0E0,0E0,0E0,0E0,0E0],"parents":[2147483647,0,0,1,1,2,2,3,3,4,4,5,5,6,6,7,7,9,9,13,13,14,14,16,16,19,19,21,21,22,22,25,25,26,26,30,30],"right_children":[2,4,6,8,10,12,14,16,-1,18,-1,-1,-1,20,22,-1,24,-1,-1,26,-1,28,30,-1,-1,32,34,-1,-1,-1,36,-1,-1,-1,-1,-1,-1],"split_conditions":[1.8846976E-2,7.359261E-1,7.4930633E-3,9.1172314E-1,5.4864936E-11,9.9422395E-1,8.088821E-3,5.315313E-2,5.1888835E-2,6.770423E-5,-1.0337857E-1,-1.296565E-1,3.148195E-1,1.0488775E-1,6.7652008E-3,-1.5391219E-1,1.5695563E-2,3.641383E-2,2.4324492E-1,5.7566212E-3,1.3549054E-2,6.680217E-8,4.1980646E-5,-1.1744784E-1,6.8191774E-2,9.990918E-1,2.1148498E-10,3.7823096E-2,-1.8193161E-1,-1.0212917E-1,6.352941E-3,2.3736086E-1,5.0837528E-2,-1.6306794E-1,2.0620854E-1,-2.3414847E-2,2.3064947E-1],"split_indices":[39,53,53,11,37,11,42,11,0,0,0,0,0,47,51,0,45,0,0,2,0,17,25,0,0,7,30,0,0,0,43,0,0,0,0,0,0],"split_type":[0,0,0,0,0,0,0,0,0,0,0,0,0,0,0,0,0,0,0,0,0,0,0,0,0,0,0,0,0,0,0,0,0,0,0,0,0],"sum_hessian":[8.012511E2,4.7348282E2,3.2776828E2,4.6905887E2,4.423947E0,5.778952E0,3.2198935E2,4.67909E2,1.149865E0,3.0154202E0,1.4085265E0,4.6025195E0,1.1764325E0,2.9718436E2,2.4804993E1,4.6396112E2,3.947879E0,1.0878563E0,1.9275639E0,2.9606598E2,1.1183568E0,4.3764763E0,2.0428516E1,2.9240477E0,1.0238312E0,2.8771066E2,8.355328E0,1.3991646E0,2.9773116E0,1.2027988E0,1.9225718E1,2.8655035E2,1.1603072E0,1.3974537E0,6.957874E0,1.2494627E0,1.7976254E1],"tree_param":{"num_deleted":"0","num_feature":"57","num_nodes":"37","size_leaf_vector":"0"}},{"base_weights":[-2.5369975E-1,-5.062671E-1,7.6178145E-1,2.1201253E-2,-5.096631E-1,7.779481E-1,-5.1571164E-2,-1.0357232E-1,1.5034978E-1,-1.5336147E-1,-1.9686154E-1,-9.941597E-3,2.3639539E-1,1.1144466E-1,-1.180029E-1,4.217078E-2,-1.0591168E-1],"categories":[],"categories_nodes":[],"categories_segments":[],"categories_sizes":[],"default_left":[0,0,0,0,0,0,0,0,0,0,0,0,0,0,0,0,0],"id":54,"left_children":[1,3,5,7,9,11,13,-1,-1,-1,15,-1,-1,-1,-1,-1,-1],"loss_changes":[1.6103593E2,9.1041565E-1,1.685852E0,9.0693104E-1,1.400299E-1,1.0256119E0,6.344025E-1,0E0,0E0,0E0,2.6432177E-1,0E0,0E0,0E0,0E0,0E0,0E0],"parents":[2147483647,0,0,1,1,2,2,3,3,4,4,5,5,6,6,10,10],"right_children":[2,4,6,8,10,12,14,-1,-1,-1,16,-1,-1,-1,-1,-1,-1],"split_conditions":[3.3519324E-2,3.977808E-3,3.6241768E-6,1.4615189E-2,3.964625E-4,2.5466142E-2,2.7952554E-9,-1.0357232E-1,1.5034978E-1,-1.5336147E-1,1.13914034E-11,-9.941597E-3,2.3639539E-1,1.1144466E-1,-1.180029E-1,4.217078E-2,-1.0591168E-1],"split_indices":[40,46,27,54,40,54,35,0,0,0,24,0,0,0,0,0,0],"split_type":[0,0,0,0,0,0,0,0,0,0,0,0,0,0,0,0,0],"sum_hessian":[6.25372E2,5.0121326E2,1.2415876E2,3.172792E0,4.9804047E2,1.2178169E2,2.3770685E0,1.958339E0,1.2144529E0,4.949665E2,3.073989E0,1.4603904E0,1.20321304E2,1.0233772E0,1.3536913E0,1.004229E0,2.0697598E0],"tree_param":{"num_deleted":"0","num_feature":"57","num_nodes":"17","size_leaf_vector":"0"}},{"base_weights":[-3.2476807E-1,-5.0950134E-1,7.8059787E-1,-1.5395534E-1,-3.6101166E-2,7.907708E-1,6.4402088E-3,1.6941705E-1,-1.1802281E-1,8.033314E-1,2.0588304E-1,2.4505398E-1,3.4337568E-1,2.1031404E-4,9.2407815E-2,-1.5373242E-2,1.568535E-1],"categories":[],"categories_nodes":[],"categories_segments":[],"categories_sizes":[],"default_left":[0,0,0,0,0,0,0,0,0,0,0,0,0,0,0,0,0],"id":55,"left_children":[1,3,5,-1,7,9,-1,-1,-1,11,13,-1,15,-1,-1,-1,-1],"loss_changes":[1.2079292E2,8.633423E-1,6.3806915E-1,0E0,1.291344E0,4.493065E-1,0E0,0E0,0E0,2.2657394E-1,6.483102E-2,0E0,3.1387746E-1,0E0,0E0,0E0,0E0],"parents":[2147483647,0,0,1,1,2,2,4,4,5,5,9,9,10,10,12,12],"right_children":[2,4,6,-1,8,10,-1,-1,-1,12,14,-1,16,-1,-1,-1,-1],"split_conditions":[1.6665438E-1,2.637554E-3,1.5078792E-4,-1.5395534E-1,9.12479E-5,1.9767445E-5,6.4402088E-3,1.6941705E-1,-1.1802281E-1,8.474922E-3,7.102287E-3,2.4505398E-1,1.3998742E-4,2.1031404E-4,9.2407815E-2,-1.5373242E-2,1.568535E-1],"split_indices":[13,41,34,0,11,20,0,0,0,52,42,0,1,0,0,0,0],"split_type":[0,0,0,0,0,0,0,0,0,0,0,0,0,0,0,0,0],"sum_hessian":[5.8860077E2,5.047791E2,8.382167E1,5.007988E2,3.9803362E0,8.267212E1,1.1495526E0,1.2678738E0,2.7124627E0,8.056843E1,2.1036959E0,7.7514824E1,3.0536003E0,1.0338302E0,1.0698657E0,1.1779578E0,1.8756427E0],"tree_param":{"num_deleted":"0","num_feature":"57","num_nodes":"17","size_leaf_vector":"0"}},{"base_weights":[-1.0294868E-1,-5.0507754E-1,6.8750805E-1,-1.5291765E-1,9.4162166E-2,6.907E-1,1.6102847E-2,-1.0517704E-1,1.3444754E-1,2.0778678E-1,5.3993523E-2],"categories":[],"categories_nodes":[],"categories_segments":[],"categories_sizes":[],"default_left":[0,0,0,0,0,0,0,0,0,0,0],"id":56,"left_children":[1,3,5,-1,7,9,-1,-1,-1,-1,-1],"loss_changes":[1.8292502E2,1.1099625E0,3.5562134E-1,0E0,7.5204366E-1,6.489563E-2,0E0,0E0,0E0,0E0,0E0],"parents":[2147483647,0,0,1,1,2,2,4,4,5,5],"right_children":[2,4,6,-1,8,10,-1,-1,-1,-1,-1],"split_conditions":[5.1739377E-1,8.611459E-3,5.029453E-2,-1.5291765E-1,6.135914E-4,8.50553E-5,1.6102847E-2,-1.0517704E-1,1.3444754E-1,2.0778678E-1,5.3993523E-2],"split_indices":[0,28,32,0,2,26,0,0,0,0,0],"split_type":[0,0,0,0,0,0,0,0,0,0,0],"sum_hessian":[5.7338696E2,3.8028546E2,1.9310149E2,3.7750674E2,2.7787175E0,1.9204465E2,1.0568366E0,1.2357605E0,1.5429572E0,1.9096957E2,1.0750726E0],"tree_param":{"num_deleted":"0","num_feature":"57","num_nodes":"11","size_leaf_vector":"0"}},{"base_weights":[2.521555E-1,-1.5288606E-1,6.72943E-1,-1.21483184E-1,6.773905E-1,6.805256E-1,8.86959E-2,2.0542696E-1,3.3089638E-1,-1.19585454E-1,1.5973625E-1,5.584154E-1,-1.1466414E-1,1.9567396E-1,9.844936E-3],"categories":[],"categories_nodes":[],"categories_segments":[],"categories_sizes":[],"default_left":[0,0,0,0,0,0,0,0,0,0,0,0,0,0,0],"id":57,"left_children":[1,-1,3,-1,5,7,9,-1,11,-1,-1,13,-1,-1,-1],"loss_changes":[3.0172125E2,0E0,3.1798096E0,0E0,1.0543213E0,6.6186523E-1,1.152773E0,0E0,1.692543E0,0E0,0E0,3.3948636E-1,0E0,0E0,0E0],"parents":[2147483647,0,0,2,2,4,4,5,5,6,6,8,8,11,11],"right_children":[2,-1,4,-1,6,8,10,-1,12,-1,-1,14,-1,-1,-1],"split_conditions":[1.557274E-3,-1.5288606E-1,1.021384E-2,-1.21483184E-1,1.3032656E-3,5.5668445E-4,5.5668445E-4,2.0542696E-1,7.4032582E-3,-1.19585454E-1,1.5973625E-1,7.106629E-5,-1.1466414E-1,1.9567396E-1,9.844936E-3],"split_indices":[1,0,29,0,8,38,38,0,44,0,0,6,0,0,0],"split_type":[0,0,0,0,0,0,0,0,0,0,0,0,0,0,0],"sum_hessian":[9.392039E2,3.3411868E2,6.0508527E2,2.1163657E0,6.029689E2,5.996196E2,3.3492656E0,5.915032E2,8.11645E0,1.6447748E0,1.7044908E0,6.3177047E0,1.7987454E0,5.1562433E0,1.1614617E0],"tree_param":{"num_deleted":"0","num_feature":"57","num_nodes":"15","size_leaf_vector":"0"}},{"base_weights":[-2.6435724E-1,-5.034661E-1,6.4559025E-1,-1.5292351E-1,1.8933578E-1,-1.321151E-1,6.833709E-1,1.9996168E-1,-9.909753E-2,-1.2053858E-1,1.376117E-1,6.9681346E-1,-4.7469277E-2,2.1127336E-1,2.8677775E-2],"categories":[],"categories_nodes":[],"categories_segments":[],"categories_sizes":[],"default_left":[0,0,0,0,0,0,0,0,0,0,0,0,0,0,0],"id":58,"left_children":[1,3,5,-1,7,9,11,-1,-1,-1,-1,13,-1,-1,-1],"loss_changes":[1.0679663E2,1.7846832E0,3.0951538E0,0E0,1.2653732E0,1.0727416E0,1.2154732E0,0E0,0E0,0E0,0E0,3.6310196E-1,0E0,0E0,0E0],"parents":[2147483647,0,0,1,1,2,2,4,4,5,5,6,6,11,11],"right_children":[2,4,6,-1,8,10,12,-1,-1,-1,-1,14,-1,-1,-1],"split_conditions":[5.7566212E-3,1.602217E-2,8.517936E-3,-1.5292351E-1,6.977927E-3,3.7161133E-6,9.907794E-1,1.9996168E-1,-9.909753E-2,-1.2053858E-1,1.376117E-1,6.9778314E-4,-4.7469277E-2,2.1127336E-1,2.8677775E-2],"split_indices":[2,30,44,0,54,22,21,0,0,0,0,8,0,0,0],"split_type":[0,0,0,0,0,0,0,0,0,0,0,0,0,0,0],"sum_hessian":[4.8835245E2,3.870842E2,1.0126825E2,3.8386942E2,3.2147875E0,4.575983E0,9.669227E1,1.5285147E0,1.6862727E0,3.3615434E0,1.2144395E0,9.534146E1,1.3508071E0,9.400816E1,1.3332914E0],"tree_param":{"num_deleted":"0","num_feature":"57","num_nodes":"15","size_leaf_vector":"0"}},{"base_weights":[1.6630004E-1,-5.031604E-1,6.707231E-1,-1.5291397E-1,1.6214067E-1,-2.3390242E-1,6.7870575E-1,-1.01665445E-1,1.9348331E-1,-1.22057125E-1,5.57048E-2,6.816864E-1,-1.0335116E-1,6.8445647E-1,4.0580682E-4,2.0584029E-1,4.153245E-2],"categories":[],"categories_nodes":[],"categories_segments":[],"categories_sizes":[],"default_left":[0,0,0,0,0,0,0,0,0,0,0,0,0,0,0,0,0],"id":59,"left_children":[1,3,5,-1,7,9,11,-1,-1,-1,-1,13,-1,15,-1,-1,-1],"loss_changes":[2.7596323E2,1.6141815E0,3.5232086E0,0E0,1.2309068E0,4.2525893E-1,1.6441193E0,0E0,0E0,0E0,0E0,8.6802673E-1,0E0,3.257141E-1,0E0,0E0,0E0],"parents":[2147483647,0,0,1,1,2,2,4,4,5,5,6,6,11,11,13,13],"right_children":[2,4,6,-1,8,10,12,-1,-1,-1,-1,14,-1,16,-1,-1,-1],"split_conditions":[6.689772E-3,2.4115948E-2,8.5582875E-4,-1.5291397E-1,1.1903007E-2,1.3034912E-4,2.7560822E-3,-1.01665445E-1,1.9348331E-1,-1.22057125E-1,5.57048E-2,3.1063594E-2,-1.0335116E-1,8.977568E-1,4.0580682E-4,2.0584029E-1,4.153245E-2],"split_indices":[31,17,3,0,47,0,23,0,0,0,0,14,0,53,0,0,0],"split_type":[0,0,0,0,0,0,0,0,0,0,0,0,0,0,0,0,0],"sum_hessian":[8.1520624E2,3.5029892E2,4.6490735E2,3.471139E2,3.1850264E0,3.819024E0,4.6108835E2,1.7093022E0,1.4757242E0,2.725781E0,1.093243E0,4.6008188E2,1.0064526E0,4.5821014E2,1.8717487E0,4.565506E2,1.6595258E0],"tree_param":{"num_deleted":"0","num_feature":"57","num_nodes":"17","size_leaf_vector":"0"}},{"base_weights":[-2.7255744E-1,-1.5289555E-1,6.777112E-1,6.90865E-1,1.6032804E-2,2.8437537E-1,2.0948999E-1,1.7588638E-1,-3.222808E-2],"categories":[],"categories_nodes":[],"categories_segments":[],"categories_sizes":[],"default_left":[0,0,0,0,0,0,0,0,0],"id":60,"left_children":[1,-1,3,5,-1,7,-1,-1,-1],"loss_changes":[1.096142E2,0E0,7.6182556E-1,8.9076996E-2,0E0,4.6477517E-1,0E0,0E0,0E0],"parents":[2147483647,0,0,2,2,3,3,5,5],"right_children":[2,-1,4,6,-1,8,-1,-1,-1],"split_conditions":[5.029453E-2,-1.5289555E-1,8.6719E-6,7.4590202E-3,1.6032804E-2,8.992647E-7,2.0948999E-1,1.7588638E-1,-3.222808E-2],"split_indices":[32,0,38,46,0,28,0,0,0],"split_type":[0,0,0,0,0,0,0,0,0],"sum_hessian":[4.8398523E2,3.8771344E2,9.627179E1,9.418066E1,2.091135E0,2.3966687E0,9.178399E1,1.0732576E0,1.3234112E0],"tree_param":{"num_deleted":"0","num_feature":"57","num_nodes":"9","size_leaf_vector":"0"}},{"base_weights":[8.9738235E-2,-5.058423E-1,6.684262E-1,-5.073363E-1,-2.2035685E-1,-1.1054261E-1,6.7644525E-1,-1.5284884E-1,-2.2603223E-1,9.379538E-3,-9.9317625E-2,6.8190074E-1,-1.02470994E-1,-1.1102635E-1,4.1751362E-2,6.848238E-1,1.1802642E-3,7.260198E-2,-1.0666637E-1,6.8789405E-1,1.3793129E-1,2.0712006E-1,-2.9931618E-2,-5.273972E-2,1.1745053E-1],"categories":[],"categories_nodes":[],"categories_segments":[],"categories_sizes":[],"default_left":[0,0,0,0,0,0,0,0,0,0,0,0,0,0,0,0,0,0,0,0,0,0,0,0,0],"id":61,"left_children":[1,3,5,7,9,-1,11,-1,13,-1,-1,15,17,-1,-1,19,-1,-1,-1,21,23,-1,-1,-1,-1],"loss_changes":[2.516087E2,4.1679382E-2,3.3274384E0,1.0186005E-1,1.1177482E-1,0E0,1.6324158E0,0E0,2.8925276E-1,0E0,0E0,7.2120667E-1,3.8480645E-1,0E0,0E0,5.1582336E-1,0E0,0E0,0E0,7.8234863E-1,3.2985917E-1,0E0,0E0,0E0,0E0],"parents":[2147483647,0,0,1,1,2,2,3,3,4,4,6,6,8,8,11,11,12,12,15,15,19,19,20,20],"right_children":[2,4,6,8,10,-1,12,-1,14,-1,-1,16,18,-1,-1,20,-1,-1,-1,22,24,-1,-1,-1,-1],"split_conditions":[4.800578E-3,1.0223483E-3,1.0314055E-3,1.2193344E-3,5.7534555E-5,-1.1054261E-1,5.315313E-2,-1.5284884E-1,1.2158532E-7,9.379538E-3,-9.9317625E-2,5.7566212E-3,7.018299E-3,-1.1102635E-1,4.1751362E-2,1.2590459E-6,1.1802642E-3,7.260198E-2,-1.0666637E-1,5.300942E-1,1.0760825E-2,2.0712006E-1,-2.9931618E-2,-5.273972E-2,1.1745053E-1],"split_indices":[19,19,5,33,0,0,11,0,18,0,0,2,42,0,0,14,0,0,0,17,48,0,0,0,0],"split_type":[0,0,0,0,0,0,0,0,0,0,0,0,0,0,0,0,0,0,0,0,0,0,0,0,0],"sum_hessian":[7.280489E2,3.5884976E2,3.6919913E2,3.5620862E2,2.641146E0,2.4883814E0,3.6671075E2,3.5268954E2,3.5190847E0,1.0261997E0,1.6149462E0,3.642839E2,2.4268682E0,2.5140398E0,1.0050449E0,3.6270993E2,1.5739477E0,1.0463823E0,1.3804859E0,3.6042868E2,2.2812636E0,3.5940863E2,1.0200553E0,1.1567628E0,1.1245008E0],"tree_param":{"num_deleted":"0","num_feature":"57","num_nodes":"25","size_leaf_vector":"0"}},{"base_weights":[-6.305501E-2,-5.070633E-1,6.802139E-1,-1.5289919E-1,-7.0484675E-2,-8.477951E-2,6.8665564E-1,-8.835392E-2,6.591783E-2,2.0662613E-1,5.9120443E-2],"categories":[],"categories_nodes":[],"categories_segments":[],"categories_sizes":[],"default_left":[0,0,0,0,0,0,0,0,0,0,0],"id":62,"left_children":[1,3,5,-1,7,-1,9,-1,-1,-1,-1],"loss_changes":[1.9830843E2,3.910904E-1,1.5880356E0,0E0,2.8495836E-1,0E0,9.390259E-2,0E0,0E0,0E0,0E0],"parents":[2147483647,0,0,1,1,2,2,4,4,6,6],"right_children":[2,4,6,-1,8,-1,10,-1,-1,-1,-1],"split_conditions":[4.8751906E-2,9.0943456E-1,1.29382005E-2,-1.5289919E-1,1.1047645E-12,-8.477951E-2,2.4975536E-3,-8.835392E-2,6.591783E-2,2.0662613E-1,5.9120443E-2],"split_indices":[34,42,48,0,36,0,39,0,0,0,0],"split_type":[0,0,0,0,0,0,0,0,0,0,0],"sum_hessian":[5.988575E2,3.7510056E2,2.2375693E2,3.7271295E2,2.3875976E0,1.2021953E0,2.2255473E2,1.3390739E0,1.0485238E0,2.212E2,1.3547307E0],"tree_param":{"num_deleted":"0","num_feature":"57","num_nodes":"11","size_leaf_vector":"0"}},{"base_weights":[1.9896601E-1,-4.8697096E-1,6.67277E-1,-5.0730526E-1,1.15125574E-1,6.800037E-1,3.615504E-1,-1.5280896E-1,-2.6641726E-1,-2.9894295E-1,5.121108E-1,6.828634E-1,5.1596858E-2,-1.19185425E-1,5.311334E-1,-1.18932195E-1,3.188385E-2,6.700192E-2,-1.2960121E-1,7.698702E-1,-8.962957E-2,6.851572E-1,-3.3514353E-3,1.17252536E-1,-1.018262E-1,-4.7504807E-1,1.2530515E-1,5.4515023E-2,6.544972E-1,2.765121E-1,3.0297697E-1,2.0579289E-1,5.0406914E-2,-1.062685E-2,-1.7808543E-1,-1.2646283E-1,1.3584056E-1,7.2480404E-1,-1.797456E-2,5.4516997E-3,1.21240325E-1,2.3015778E-1,5.2030534E-2],"categories":[],"categories_nodes":[],"categories_segments":[],"categories_sizes":[],"default_left":[0,0,0,0,0,0,0,0,0,0,0,0,0,0,0,0,0,0,0,0,0,0,0,0,0,0,0,0,0,0,0,0,0,0,0,0,0,0,0,0,0,0,0],"id":63,"left_children":[1,3,5,7,9,11,13,-1,15,17,19,21,23,25,27,-1,-1,-1,-1,29,-1,31,-1,-1,-1,33,-1,35,37,39,-1,-1,-1,-1,-1,-1,-1,41,-1,-1,-1,-1,-1],"loss_changes":[2.7634222E2,4.3337097E0,1.7425842E0,3.1837463E-2,2.1623094E0,8.4439087E-1,1.9024112E0,0E0,2.8246698E-1,5.561423E-1,1.6113319E0,7.8323364E-1,5.702935E-1,1.4783508E0,9.556174E-1,0E0,0E0,0E0,0E0,3.4776402E-1,0E0,9.043884E-2,0E0,0E0,0E0,2.1337116E-1,0E0,1.0549905E0,7.115674E-1,9.518954E-2,0E0,0E0,0E0,0E0,0E0,0E0,0E0,1.5176582E-1,0E0,0E0,0E0,0E0,0E0],"parents":[2147483647,0,0,1,1,2,2,3,3,4,4,5,5,6,6,8,8,9,9,10,10,11,11,12,12,13,13,14,14,19,19,21,21,25,25,27,27,28,28,29,29,37,37],"right_children":[2,4,6,8,10,12,14,-1,16,18,20,22,24,26,28,-1,-1,-1,-1,30,-1,32,-1,-1,-1,34,-1,36,38,40,-1,-1,-1,-1,-1,-1,-1,42,-1,-1,-1,-1,-1],"split_conditions":[1.5701199E-1,6.973229E-4,8.990727E-6,3.6351404E-3,7.35177E-3,3.3789112E-7,7.17772E-3,-1.5280896E-1,7.220801E-5,6.321723E-3,7.4937507E-6,6.064073E-1,5.970302E-5,7.475637E-6,1.2132076E-4,-1.18932195E-1,3.188385E-2,6.700192E-2,-1.2960121E-1,9.7247714E-1,-8.962957E-2,9.108396E-1,-3.3514353E-3,1.17252536E-1,-1.018262E-1,5.273158E-5,1.2530515E-1,9.2401E-1,5.318633E-3,4.5687612E-10,3.0297697E-1,2.0579289E-1,5.0406914E-2,-1.062685E-2,-1.7808543E-1,-1.2646283E-1,1.3584056E-1,5.5126183E-2,-1.797456E-2,5.4516997E-3,1.21240325E-1,2.3015778E-1,5.2030534E-2],"split_indices":[35,21,31,7,42,40,44,0,29,42,19,44,1,33,2,0,0,0,0,39,0,53,0,0,0,13,0,21,33,27,0,0,0,0,0,0,0,2,0,0,0,0,0],"split_type":[0,0,0,0,0,0,0,0,0,0,0,0,0,0,0,0,0,0,0,0,0,0,0,0,0,0,0,0,0,0,0,0,0,0,0,0,0,0,0,0,0,0,0],"sum_hessian":[8.582464E2,3.4819864E2,5.1004776E2,3.3697556E2,1.1223071E1,4.8848883E2,2.1558922E1,3.3301605E2,3.9594932E0,5.614222E0,5.6088486E0,4.861897E2,2.2991436E0,5.699396E0,1.5859525E1,2.8881803E0,1.0713127E0,1.0021546E0,4.6120677E0,4.294343E0,1.3145058E0,4.846009E2,1.5888005E0,1.2313123E0,1.0678312E0,3.4967406E0,2.2026556E0,3.5573885E0,1.2302136E1,2.1099143E0,2.1844285E0,4.8350854E2,1.0923353E0,1.0186427E0,2.478098E0,1.5938855E0,1.9635029E0,1.1186686E1,1.1154512E0,1.0754083E0,1.0345061E0,1.0024577E1,1.1621084E0],"tree_param":{"num_deleted":"0","num_feature":"57","num_nodes":"43","size_leaf_vector":"0"}},{"base_weights":[1.0253779E-1,-1.5290073E-1,6.784751E-1,-1.0316985E-1,6.8358403E-1,2.0606118E-1,2.0309374E-1,1.3027759E-1,-4.1400395E-2],"categories":[],"categories_nodes":[],"categories_segments":[],"categories_sizes":[],"default_left":[0,0,0,0,0,0,0,0,0],"id":64,"left_children":[1,-1,3,-1,5,-1,7,-1,-1],"loss_changes":[2.6151077E2,0E0,2.2308044E0,0E0,4.6141052E-1,0E0,3.7570947E-1,0E0,0E0],"parents":[2147483647,0,0,2,2,4,4,6,6],"right_children":[2,-1,4,-1,6,-1,8,-1,-1],"split_conditions":[5.0092903E-3,-1.5290073E-1,1.3032656E-3,-1.0316985E-1,4.0044286E-4,2.0606118E-1,5.98225E-9,1.3027759E-1,-4.1400395E-2],"split_indices":[22,0,8,0,9,0,17,0,0],"split_type":[0,0,0,0,0,0,0,0,0],"sum_hessian":[7.3969867E2,3.5861502E2,3.8108365E2,1.565121E0,3.7951852E2,3.7651367E2,3.004875E0,1.6282539E0,1.3766211E0],"tree_param":{"num_deleted":"0","num_feature":"57","num_nodes":"9","size_leaf_vector":"0"}},{"base_weights":[-2.925492E-1,-5.0722444E-1,6.3419914E-1,-1.5288961E-1,-1.3934372E-1,-1.6318576E-1,6.866783E-1,-1.0264817E-1,6.5875076E-2,1.8980157E-1,-1.3074505E-1,7.076143E-1,1.2800239E-1,6.5836675E-2,2.1478783E-1,1.565258E-1,-1.10777386E-1],"categories":[],"categories_nodes":[],"categories_segments":[],"categories_sizes":[],"default_left":[0,0,0,0,0,0,0,0,0,0,0,0,0,0,0,0,0],"id":65,"left_children":[1,3,5,-1,7,9,11,-1,-1,-1,-1,13,15,-1,-1,-1,-1],"loss_changes":[9.5256134E1,2.7262878E-1,3.8861694E0,0E0,3.589617E-1,1.6594354E0,9.0143967E-1,0E0,0E0,0E0,0E0,1.7500687E-1,1.0315231E0,0E0,0E0,0E0,0E0],"parents":[2147483647,0,0,1,1,2,2,4,4,5,5,6,6,11,11,12,12],"right_children":[2,4,6,-1,8,10,12,-1,-1,-1,-1,14,16,-1,-1,-1,-1],"split_conditions":[7.8566006E-4,5.335256E-4,1.7924998E-4,-1.5288961E-1,1.2144063E-2,1.529327E-4,1.0314055E-3,-1.0264817E-1,6.5875076E-2,1.8980157E-1,-1.3074505E-1,6.9482145E-3,4.559698E-8,6.5836675E-2,2.1478783E-1,1.565258E-1,-1.10777386E-1],"split_indices":[9,9,23,0,53,3,5,0,0,0,0,42,31,0,0,0,0],"split_type":[0,0,0,0,0,0,0,0,0,0,0,0,0,0,0,0,0],"sum_hessian":[4.7617767E2,3.8698727E2,8.919041E1,3.8408835E2,2.8989358E0,5.3772464E0,8.381316E1,1.8821272E0,1.0168085E0,1.0350728E0,4.3421736E0,8.052881E1,3.2843585E0,1.8123105E0,7.871649E1,1.8054655E0,1.478893E0],"tree_param":{"num_deleted":"0","num_feature":"57","num_nodes":"17","size_leaf_vector":"0"}},{"base_weights":[1.0228928E-1,-5.070644E-1,6.7207557E-1,-1.5289642E-1,5.0969264E-3,-1.21634796E-1,6.8013597E-1,6.8678516E-1,-1.6518638E-1,-8.272697E-2,6.9044995E-1,6.25765E-2,-1.13108344E-1,6.8239135E-1,3.0393934E-1,2.0510764E-1,4.3916084E-2],"categories":[],"categories_nodes":[],"categories_segments":[],"categories_sizes":[],"default_left":[0,0,0,0,0,0,0,0,0,0,0,0,0,0,0,0,0],"id":66,"left_children":[1,3,5,-1,-1,-1,7,9,11,-1,13,-1,-1,15,-1,-1,-1],"loss_changes":[2.573136E2,4.949112E-1,3.6014404E0,0E0,0E0,0E0,2.2517853E0,1.5226288E0,3.7757128E-1,0E0,2.87735E-1,0E0,0E0,1.581726E-1,0E0,0E0,0E0],"parents":[2147483647,0,0,1,1,2,2,6,6,7,7,8,8,10,10,13,13],"right_children":[2,4,6,-1,-1,-1,8,10,12,-1,14,-1,-1,16,-1,-1,-1],"split_conditions":[5.5056403E-4,4.3443467E-2,7.1179257E-3,-1.5289642E-1,5.0969264E-3,-1.21634796E-1,3.7779345E-4,5.5668445E-4,6.135565E-5,-8.272697E-2,8.427325E-4,6.25765E-2,-1.13108344E-1,4.12223E-8,3.0393934E-1,2.0510764E-1,4.3916084E-2],"split_indices":[24,52,52,0,0,0,19,38,0,0,1,0,0,23,0,0,0],"split_type":[0,0,0,0,0,0,0,0,0,0,0,0,0,0,0,0,0],"sum_hessian":[7.391261E2,3.5721515E2,3.8191098E2,3.5548553E2,1.7296109E0,2.469598E0,3.7944138E2,3.7666614E2,2.7752466E0,1.1470842E0,3.7551904E2,1.0094758E0,1.7657708E0,3.6940823E2,6.1108217E0,3.6823904E2,1.1691742E0],"tree_param":{"num_deleted":"0","num_feature":"57","num_nodes":"17","size_leaf_vector":"0"}},{"base_weights":[9.237671E-3,-4.9416006E-1,6.462035E-1,-5.04231E-1,2.804891E-1,-1.5059953E-3,6.6017663E-1,-1.5283021E-1,-8.6459E-2,5.577689E-1,-9.8996274E-2,-2.832836E-1,1.6550922E-1,6.7084676E-1,6.863517E-2,-1.2205828E-1,1.8550426E-1,2.1156028E-1,2.2986548E-2,-1.3549258E-1,6.475904E-2,6.761896E-1,-9.6826114E-2,5.29142E-1,-1.2748727E-1,6.930928E-1,4.4202727E-1,-1.6711768E-2,2.6751265E-1,2.1076585E-1,1.0008463E-1,-1.0120973E-1,1.8337786E-1],"categories":[],"categories_nodes":[],"categories_segments":[],"categories_sizes":[],"default_left":[0,0,0,0,0,0,0,0,0,0,0,0,0,0,0,0,0,0,0,0,0,0,0,0,0,0,0,0,0,0,0,0,0],"id":67,"left_children":[1,3,5,7,9,11,13,-1,15,17,-1,19,-1,21,23,-1,-1,-1,-1,-1,-1,25,-1,27,-1,29,31,-1,-1,-1,-1,-1,-1],"loss_changes":[2.1170331E2,3.0185547E0,2.638733E0,7.481003E-1,1.0939972E0,1.2711984E0,1.7546768E0,0E0,1.5358759E0,2.3455703E-1,0E0,5.5123556E-1,0E0,1.7053299E0,1.6270658E0,0E0,0E0,0E0,0E0,0E0,0E0,7.977524E-1,0E0,8.2084405E-1,0E0,6.4437103E-1,3.0474644E0,0E0,0E0,0E0,0E0,0E0,0E0],"parents":[2147483647,0,0,1,1,2,2,3,3,4,4,5,5,6,6,8,8,9,9,11,11,13,13,14,14,21,21,23,23,25,25,26,26],"right_children":[2,4,6,8,10,12,14,-1,16,18,-1,20,-1,22,24,-1,-1,-1,-1,-1,-1,26,-1,28,-1,30,32,-1,-1,-1,-1,-1,-1],"split_conditions":[1.8846976E-2,7.359261E-1,1.2190484E-4,5.315313E-2,2.0801578E-7,1.63423E-5,8.98082E-1,-1.5283021E-1,1.1903007E-2,7.489627E-11,-9.8996274E-2,9.9835557E-1,1.6550922E-1,9.0850466E-1,9.939575E-11,-1.2205828E-1,1.8550426E-1,2.1156028E-1,2.2986548E-2,-1.3549258E-1,6.475904E-2,8.088821E-3,-9.6826114E-2,3.621419E-7,-1.2748727E-1,5.7566212E-3,6.6382433E-3,-1.6711768E-2,2.6751265E-1,2.1076585E-1,1.0008463E-1,-1.0120973E-1,1.8337786E-1],"split_indices":[39,53,25,11,29,24,49,0,47,28,0,7,0,45,37,0,0,0,0,0,0,42,0,29,0,2,51,0,0,0,0,0,0],"split_type":[0,0,0,0,0,0,0,0,0,0,0,0,0,0,0,0,0,0,0,0,0,0,0,0,0,0,0,0,0,0,0,0,0],"sum_hessian":[6.582417E2,3.6779526E2,2.9044647E2,3.6341965E2,4.3755856E0,6.152357E0,2.842941E2,3.5873245E2,4.687215E0,3.0682971E0,1.3072883E0,4.3994107E0,1.752946E0,2.791252E2,5.168875E0,3.512969E0,1.1742461E0,1.9921888E0,1.0761083E0,3.3609588E0,1.0384521E0,2.7795007E2,1.1751506E0,2.6368003E0,2.532075E0,2.574089E2,2.054117E1,1.3329719E0,1.3038285E0,2.4987872E2,7.5301776E0,3.4872515E0,1.7053919E1],"tree_param":{"num_deleted":"0","num_feature":"57","num_nodes":"33","size_leaf_vector":"0"}},{"base_weights":[-2.4502884E-1,-5.0341105E-1,6.6388893E-1,-5.0710905E-1,7.286747E-2,-9.559417E-2,6.8073064E-1,-1.5289904E-1,-3.086185E-1,1.3663167E-1,-8.7760486E-2,2.0870432E-1,-4.9977634E-2,-1.295085E-1,7.148137E-2,7.6513916E-2,-1.0440243E-1],"categories":[],"categories_nodes":[],"categories_segments":[],"categories_sizes":[],"default_left":[0,0,0,0,0,0,0,0,0,0,0,0,0,0,0,0,0],"id":68,"left_children":[1,3,5,7,9,-1,11,-1,13,-1,-1,-1,15,-1,-1,-1,-1],"loss_changes":[1.17373276E2,8.6512756E-1,2.049446E0,3.855896E-2,6.0184777E-1,0E0,1.2276688E0,0E0,6.038342E-1,0E0,0E0,0E0,3.7259975E-1,0E0,0E0,0E0,0E0],"parents":[2147483647,0,0,1,1,2,2,3,3,4,4,6,6,8,8,12,12],