{"learner":{"attributes":{"best_iteration":"99","best_ntree_limit":"100","scikit_learn":"{\"use_label_encoder\": false, \"n_estimators\": 100, \"objective\": \"multi:softprob\", \"max_depth\": null, \"max_leaves\": null, \"max_bin\": null, \"grow_policy\": null, \"learning_rate\": null, \"verbosity\": null, \"booster\": null, \"tree_method\": \"gpu_hist\", \"gamma\": null, \"min_child_weight\": null, \"max_delta_step\": null, \"subsample\": null, \"sampling_method\": null, \"colsample_bytree\": null, \"colsample_bylevel\": null, \"colsample_bynode\": null, \"reg_alpha\": null, \"reg_lambda\": null, \"scale_pos_weight\": null, \"base_score\": null, \"missing\": NaN, \"num_parallel_tree\": null, \"random_state\": null, \"n_jobs\": null, \"monotone_constraints\": null, \"interaction_constraints\": null, \"importance_type\": null, \"gpu_id\": 0, \"validate_parameters\": null, \"predictor\": null, \"enable_categorical\": false, \"max_cat_to_onehot\": null, \"eval_metric\": null, \"early_stopping_rounds\": null, \"callbacks\": null, \"kwargs\": {\"num_class\": 14}, \"classes_\": [0, 1, 2, 3, 4, 5, 6, 7, 8, 9, 10, 11, 12, 13], \"n_classes_\": 14, \"_estimator_type\": \"classifier\"}"},"feature_names":[],"feature_types":[],"gradient_booster":{"model":{"gbtree_model_param":{"num_parallel_tree":"1","num_trees":"1400","size_leaf_vector":"0"},"tree_info":[0,1,2,3,4,5,6,7,8,9,10,11,12,13,0,1,2,3,4,5,6,7,8,9,10,11,12,13,0,1,2,3,4,5,6,7,8,9,10,11,12,13,0,1,2,3,4,5,6,7,8,9,10,11,12,13,0,1,2,3,4,5,6,7,8,9,10,11,12,13,0,1,2,3,4,5,6,7,8,9,10,11,12,13,0,1,2,3,4,5,6,7,8,9,10,11,12,13,0,1,2,3,4,5,6,7,8,9,10,11,12,13,0,1,2,3,4,5,6,7,8,9,10,11,12,13,0,1,2,3,4,5,6,7,8,9,10,11,12,13,0,1,2,3,4,5,6,7,8,9,10,11,12,13,0,1,2,3,4,5,6,7,8,9,10,11,12,13,0,1,2,3,4,5,6,7,8,9,10,11,12,13,0,1,2,3,4,5,6,7,8,9,10,11,12,13,0,1,2,3,4,5,6,7,8,9,10,11,12,13,0,1,2,3,4,5,6,7,8,9,10,11,12,13,0,1,2,3,4,5,6,7,8,9,10,11,12,13,0,1,2,3,4,5,6,7,8,9,10,11,12,13,0,1,2,3,4,5,6,7,8,9,10,11,12,13,0,1,2,3,4,5,6,7,8,9,10,11,12,13,0,1,2,3,4,5,6,7,8,9,10,11,12,13,0,1,2,3,4,5,6,7,8,9,10,11,12,13,0,1,2,3,4,5,6,7,8,9,10,11,12,13,0,1,2,3,4,5,6,7,8,9,10,11,12,13,0,1,2,3,4,5,6,7,8,9,10,11,12,13,0,1,2,3,4,5,6,7,8,9,10,11,12,13,0,1,2,3,4,5,6,7,8,9,10,11,12,13,0,1,2,3,4,5,6,7,8,9,10,11,12,13,0,1,2,3,4,5,6,7,8,9,10,11,12,13,0,1,2,3,4,5,6,7,8,9,10,11,12,13,0,1,2,3,4,5,6,7,8,9,10,11,12,13,0,1,2,3,4,5,6,7,8,9,10,11,12,13,0,1,2,3,4,5,6,7,8,9,10,11,12,13,0,1,2,3,4,5,6,7,8,9,10,11,12,13,0,1,2,3,4,5,6,7,8,9,10,11,12,13,0,1,2,3,4,5,6,7,8,9,10,11,12,13,0,1,2,3,4,5,6,7,8,9,10,11,12,13,0,1,2,3,4,5,6,7,8,9,10,11,12,13,0,1,2,3,4,5,6,7,8,9,10,11,12,13,0,1,2,3,4,5,6,7,8,9,10,11,12,13,0,1,2,3,4,5,6,7,8,9,10,11,12,13,0,1,2,3,4,5,6,7,8,9,10,11,12,13,0,1,2,3,4,5,6,7,8,9,10,11,12,13,0,1,2,3,4,5,6,7,8,9,10,11,12,13,0,1,2,3,4,5,6,7,8,9,10,11,12,13,0,1,2,3,4,5,6,7,8,9,10,11,12,13,0,1,2,3,4,5,6,7,8,9,10,11,12,13,0,1,2,3,4,5,6,7,8,9,10,11,12,13,0,1,2,3,4,5,6,7,8,9,10,11,12,13,0,1,2,3,4,5,6,7,8,9,10,11,12,13,0,1,2,3,4,5,6,7,8,9,10,11,12,13,0,1,2,3,4,5,6,7,8,9,10,11,12,13,0,1,2,3,4,5,6,7,8,9,10,11,12,13,0,1,2,3,4,5,6,7,8,9,10,11,12,13,0,1,2,3,4,5,6,7,8,9,10,11,12,13,0,1,2,3,4,5,6,7,8,9,10,11,12,13,0,1,2,3,4,5,6,7,8,9,10,11,12,13,0,1,2,3,4,5,6,7,8,9,10,11,12,13,0,1,2,3,4,5,6,7,8,9,10,11,12,13,0,1,2,3,4,5,6,7,8,9,10,11,12,13,0,1,2,3,4,5,6,7,8,9,10,11,12,13,0,1,2,3,4,5,6,7,8,9,10,11,12,13,0,1,2,3,4,5,6,7,8,9,10,11,12,13,0,1,2,3,4,5,6,7,8,9,10,11,12,13,0,1,2,3,4,5,6,7,8,9,10,11,12,13,0,1,2,3,4,5,6,7,8,9,10,11,12,13,0,1,2,3,4,5,6,7,8,9,10,11,12,13,0,1,2,3,4,5,6,7,8,9,10,11,12,13,0,1,2,3,4,5,6,7,8,9,10,11,12,13,0,1,2,3,4,5,6,7,8,9,10,11,12,13,0,1,2,3,4,5,6,7,8,9,10,11,12,13,0,1,2,3,4,5,6,7,8,9,10,11,12,13,0,1,2,3,4,5,6,7,8,9,10,11,12,13,0,1,2,3,4,5,6,7,8,9,10,11,12,13,0,1,2,3,4,5,6,7,8,9,10,11,12,13,0,1,2,3,4,5,6,7,8,9,10,11,12,13,0,1,2,3,4,5,6,7,8,9,10,11,12,13,0,1,2,3,4,5,6,7,8,9,10,11,12,13,0,1,2,3,4,5,6,7,8,9,10,11,12,13,0,1,2,3,4,5,6,7,8,9,10,11,12,13,0,1,2,3,4,5,6,7,8,9,10,11,12,13,0,1,2,3,4,5,6,7,8,9,10,11,12,13,0,1,2,3,4,5,6,7,8,9,10,11,12,13,0,1,2,3,4,5,6,7,8,9,10,11,12,13,0,1,2,3,4,5,6,7,8,9,10,11,12,13,0,1,2,3,4,5,6,7,8,9,10,11,12,13,0,1,2,3,4,5,6,7,8,9,10,11,12,13,0,1,2,3,4,5,6,7,8,9,10,11,12,13,0,1,2,3,4,5,6,7,8,9,10,11,12,13,0,1,2,3,4,5,6,7,8,9,10,11,12,13,0,1,2,3,4,5,6,7,8,9,10,11,12,13,0,1,2,3,4,5,6,7,8,9,10,11,12,13,0,1,2,3,4,5,6,7,8,9,10,11,12,13,0,1,2,3,4,5,6,7,8,9,10,11,12,13,0,1,2,3,4,5,6,7,8,9,10,11,12,13,0,1,2,3,4,5,6,7,8,9,10,11,12,13,0,1,2,3,4,5,6,7,8,9,10,11,12,13,0,1,2,3,4,5,6,7,8,9,10,11,12,13,0,1,2,3,4,5,6,7,8,9,10,11,12,13,0,1,2,3,4,5,6,7,8,9,10,11,12,13],"trees":[{"base_weights":[-1.556251E-1,-5.355459E-1,6.8185463E0,-1.6140519E-1,2.280899E-1,4.990099E-1,2.0631175E0],"categories":[],"categories_nodes":[],"categories_segments":[],"categories_sizes":[],"default_left":[0,0,0,0,0,0,0],"id":0,"left_children":[1,3,5,-1,-1,-1,-1],"loss_changes":[3.3917744E3,4.295624E0,8.509033E0,0E0,0E0,0E0,0E0],"parents":[2147483647,0,0,1,1,2,2],"right_children":[2,4,6,-1,-1,-1,-1],"split_conditions":[5.1739377E-1,6.009498E-2,7.2834548E-3,-1.6140519E-1,2.280899E-1,4.990099E-1,2.0631175E0],"split_indices":[0,28,42,0,0,0,0],"split_type":[0,0,0,0,0,0,0],"sum_hessian":[1.2777142E3,1.2125815E3,6.513265E1,1.210857E3,1.7244897E0,1.0612245E0,6.407143E1],"tree_param":{"num_deleted":"0","num_feature":"71","num_nodes":"7","size_leaf_vector":"0"}},{"base_weights":[6.5065354E-1,-5.222063E-1,2.085058E0,-5.3703004E-1,2.614786E0,-1.6138774E-1,-1.586902E-1,4.8837204E-2,9.891688E-1,6.2376235E-2,-1.0750855E-1],"categories":[],"categories_nodes":[],"categories_segments":[],"categories_sizes":[],"default_left":[0,0,0,0,0,0,0,0,0,0,0],"id":1,"left_children":[1,3,-1,5,7,-1,9,-1,-1,-1,-1],"loss_changes":[9.45138E3,5.1577026E1,0E0,2.9241943E-1,8.23978E0,0E0,3.7105283E-1,0E0,0E0,0E0,0E0],"parents":[2147483647,0,0,1,1,3,3,4,4,6,6],"right_children":[2,4,-1,6,8,-1,10,-1,-1,-1,-1],"split_conditions":[9.821853E-1,4.6546867E-1,2.085058E0,2.3998575E-1,6.547398E-3,-1.6138774E-1,9.03024E-5,4.8837204E-2,9.891688E-1,6.2376235E-2,-1.0750855E-1],"split_indices":[1,15,0,57,55,0,8,0,0,0,0],"split_type":[0,0,0,0,0,0,0,0,0,0,0],"sum_hessian":[1.2777142E3,1.0779387E3,1.997755E2,1.0736938E3,4.244898E0,1.0706428E3,3.0510204E0,1.1938775E0,3.0510204E0,1.0612245E0,1.9897959E0],"tree_param":{"num_deleted":"0","num_feature":"71","num_nodes":"11","size_leaf_vector":"0"}},{"base_weights":[-3.5191602E-1,-5.268178E-1,2.003575E0,-5.34819E-1,2.3463688E0,-1.6140746E-1,-2.1428575E-1,1.4813277E-1,1.0060465E0,-4.074718E-1,5.485893E-1,6.2376235E-2,-1.4641835E-1,-8.790698E-2,3.5346535E-1],"categories":[],"categories_nodes":[],"categories_segments":[],"categories_sizes":[],"default_left":[0,0,0,0,0,0,0,0,0,0,0,0,0,0,0],"id":2,"left_children":[1,3,-1,5,7,-1,9,-1,-1,11,13,-1,-1,-1,-1],"loss_changes":[1.5758851E3,2.9958984E1,0E0,1.1650085E0,5.1599464E0,0E0,2.2868102E0,0E0,0E0,6.8395567E-1,2.0701344E0,0E0,0E0,0E0,0E0],"parents":[2147483647,0,0,1,1,3,3,4,4,6,6,9,9,10,10],"right_children":[2,4,-1,6,8,-1,10,-1,-1,12,14,-1,-1,-1,-1],"split_conditions":[6.064073E-1,3.6627433E-1,2.003575E0,2.5504227E-3,9.076928E-1,-1.6140746E-1,3.1282876E-2,1.4813277E-1,1.0060465E0,4.905952E-16,7.041115E-6,6.2376235E-2,-1.4641835E-1,-8.790698E-2,3.5346535E-1],"split_indices":[44,16,0,2,2,0,29,0,0,23,16,0,0,0,0],"split_type":[0,0,0,0,0,0,0,0,0,0,0,0,0,0,0],"sum_hessian":[1.2777142E3,1.247602E3,3.0112244E1,1.244949E3,2.6530612E0,1.231949E3,1.3E1,1.4591837E0,1.1938775E0,1.0744898E1,2.255102E0,1.0612245E0,9.683673E0,1.1938775E0,1.0612245E0],"tree_param":{"num_deleted":"0","num_feature":"71","num_nodes":"15","size_leaf_vector":"0"}},{"base_weights":[3.683387E-1,-5.13159E-1,6.914376E0,-5.335232E-1,2.6565096E0,4.990099E-1,2.0820916E0,-5.370854E-1,4.5211577E-1,1.0937497E-1,1.2908258E0,-1.6139351E-1,-2.0267263E-1,-1.1565219E-1,4.990099E-1,2.0792079E-1,-1.0500001E-1,6.2376235E-2,-1.1565219E-1],"categories":[],"categories_nodes":[],"categories_segments":[],"categories_sizes":[],"default_left":[0,0,0,0,0,0,0,0,0,0,0,0,0,0,0,0,0,0,0],"id":3,"left_children":[1,3,5,7,9,-1,-1,11,13,15,-1,-1,17,-1,-1,-1,-1,-1,-1],"loss_changes":[7.382135E3,7.422003E1,9.127441E0,4.1805115E0,3.0422153E1,0E0,0E0,2.2479248E-1,5.2896333E0,1.293224E0,0E0,0E0,4.2410132E-1,0E0,0E0,0E0,0E0,0E0,0E0],"parents":[2147483647,0,0,1,1,2,2,3,3,4,4,7,7,8,8,9,9,12,12],"right_children":[2,4,6,8,10,-1,-1,12,14,16,-1,-1,18,-1,-1,-1,-1,-1,-1],"split_conditions":[6.5168905E-1,4.2548424E-1,1.149531E-2,8.337772E-2,1.5695563E-2,4.990099E-1,2.0820916E0,2.3968277E-2,6.0868374E-4,4.994357E-4,1.2908258E0,-1.6139351E-1,2.7036947E-11,-1.1565219E-1,4.990099E-1,2.0792079E-1,-1.0500001E-1,6.2376235E-2,-1.1565219E-1],"split_indices":[17,3,32,31,45,0,0,3,13,5,0,0,26,0,0,0,0,0,0],"split_type":[0,0,0,0,0,0,0,0,0,0,0,0,0,0,0,0,0,0,0],"sum_hessian":[1.2777142E3,1.1268877E3,1.5082652E2,1.1205204E3,6.367347E0,1.0612245E0,1.497653E2,1.1169387E3,3.5816326E0,2.9183674E0,3.4489794E0,1.113357E3,3.5816326E0,2.5204082E0,1.0612245E0,1.0612245E0,1.8571428E0,1.0612245E0,2.5204082E0],"tree_param":{"num_deleted":"0","num_feature":"71","num_nodes":"19","size_leaf_vector":"0"}},{"base_weights":[-3.5426214E-1,-5.316232E-1,2.0325027E0,-1.6140884E-1,1.8869565E0,9.356436E-1,2.6141074E-2],"categories":[],"categories_nodes":[],"categories_segments":[],"categories_sizes":[],"default_left":[0,0,0,0,0,0,0],"id":4,"left_children":[1,3,-1,-1,5,-1,-1],"loss_changes":[1.6204781E3,2.0361237E1,0E0,0E0,7.533394E0,0E0,0E0],"parents":[2147483647,0,0,1,1,4,4],"right_children":[2,4,-1,-1,6,-1,-1],"split_conditions":[9.7538614E-1,5.029453E-2,2.0325027E0,-1.6140884E-1,7.0213266E-3,9.356436E-1,2.6141074E-2],"split_indices":[4,18,0,0,59,0,0],"split_type":[0,0,0,0,0,0,0],"sum_hessian":[1.2777142E3,1.247602E3,3.0112244E1,1.2450815E3,2.5204082E0,1.0612245E0,1.4591837E0],"tree_param":{"num_deleted":"0","num_feature":"71","num_nodes":"7","size_leaf_vector":"0"}},{"base_weights":[1.7986813E-1,-5.2762395E-1,6.845246E0,-5.3366894E-1,8.105263E-1,1.6578947E-1,2.0728283E0,-5.3539675E-1,2.0792079E-1,-1.6139704E-1,-2.757576E-1,-1.4713377E-1,5.485893E-1,3.5346535E-1,-8.790698E-2],"categories":[],"categories_nodes":[],"categories_segments":[],"categories_sizes":[],"default_left":[0,0,0,0,0,0,0,0,0,0,0,0,0,0,0],"id":5,"left_children":[1,3,5,7,-1,-1,-1,9,-1,-1,11,-1,13,-1,-1],"loss_changes":[6.033647E3,2.4026947E1,4.57666E1,2.8205872E0,0E0,0E0,0E0,6.290283E-1,0E0,0E0,2.6528337E0,0E0,2.0701344E0,0E0,0E0],"parents":[2147483647,0,0,1,1,2,2,3,3,7,7,10,10,12,12],"right_children":[2,4,6,8,-1,-1,-1,10,-1,-1,12,-1,14,-1,-1],"split_conditions":[4.4736576E-1,9.6281374E-1,3.1665724E-2,9.0392137E-1,8.105263E-1,1.6578947E-1,2.0728283E0,1.2193344E-3,2.0792079E-1,-1.6139704E-1,9.30517E-3,-1.4713377E-1,9.160914E-3,3.5346535E-1,-8.790698E-2],"split_indices":[19,5,5,61,0,0,0,19,0,0,68,0,60,0,0],"split_type":[0,0,0,0,0,0,0,0,0,0,0,0,0,0,0],"sum_hessian":[1.2777142E3,1.1559387E3,1.21775505E2,1.1546122E3,1.3265306E0,1.3265306E0,1.20448975E2,1.153551E3,1.0612245E0,1.1410815E3,1.2469387E1,1.0214286E1,2.255102E0,1.0612245E0,1.1938775E0],"tree_param":{"num_deleted":"0","num_feature":"71","num_nodes":"15","size_leaf_vector":"0"}},{"base_weights":[-9.697244E-2,-5.3552175E-1,6.8422747E0,1.6578947E-1,-5.37182E-1,2.0720077E0,3.5346535E-1,-1.6140354E-1,-2.8925622E-1,6.2376235E-2,-1.2994014E-1],"categories":[],"categories_nodes":[],"categories_segments":[],"categories_sizes":[],"default_left":[0,0,0,0,0,0,0,0,0,0,0],"id":6,"left_children":[1,3,5,-1,7,-1,-1,-1,9,-1,-1],"loss_changes":[3.89505E3,2.471344E0,1.9621826E1,0E0,9.173584E-2,0E0,0E0,0E0,5.316618E-1,0E0,0E0],"parents":[2147483647,0,0,1,1,2,2,4,4,8,8],"right_children":[2,4,6,-1,8,-1,-1,-1,10,-1,-1],"split_conditions":[3.058617E-1,5.3281314E-3,5.335256E-4,1.6578947E-1,9.0943456E-1,2.0720077E0,3.5346535E-1,-1.6140354E-1,5.759521E-3,6.2376235E-2,-1.2994014E-1],"split_indices":[6,33,9,0,42,0,0,0,54,0,0],"split_type":[0,0,0,0,0,0,0,0,0,0,0],"sum_hessian":[1.2777142E3,1.2026326E3,7.508163E1,1.3265306E0,1.201306E3,7.402041E1,1.0612245E0,1.1961326E3,5.173469E0,1.0612245E0,4.1122446E0],"tree_param":{"num_deleted":"0","num_feature":"71","num_nodes":"11","size_leaf_vector":"0"}},{"base_weights":[4.4888836E-1,-5.190386E-1,6.730673E0,-5.325413E-1,2.2814815E0,1.4593639E0,2.062053E0,-5.352449E-1,1.19544566E-1,-7.040799E-9,1.0324023E0,-6.5830745E-2,2.4550724E0,-5.37052E-1,-2.746554E-1,3.223256E-1,-1.2292684E-1,-8.790698E-2,6.2376235E-2,9.394737E-1,1.8558139E-1,-2.7208483E-1,-1.6138983E-1,2.745098E-1,-1.4000002E-1,-1.2727274E-1,6.2376235E-2,-8.316832E-2,2.0792079E-1],"categories":[],"categories_nodes":[],"categories_segments":[],"categories_sizes":[],"default_left":[0,0,0,0,0,0,0,0,0,0,0,0,0,0,0,0,0,0,0,0,0,0,0,0,0,0,0,0,0],"id":7,"left_children":[1,3,5,7,9,11,-1,13,15,-1,-1,17,19,21,23,-1,-1,-1,-1,-1,-1,25,-1,27,-1,-1,-1,-1,-1],"loss_changes":[7.77847E3,4.314801E1,1.1856787E2,2.0110474E0,1.4581089E1,8.932593E0,0E0,3.704834E-1,3.1581469E0,0E0,0E0,2.633744E-1,2.4364834E0,1.1795044E-1,1.1427526E0,0E0,0E0,0E0,0E0,0E0,0E0,5.1003194E-1,0E0,9.1322064E-1,0E0,0E0,0E0,0E0,0E0],"parents":[2147483647,0,0,1,1,2,2,3,3,4,4,5,5,7,7,8,8,11,11,12,12,13,13,14,14,21,21,23,23],"right_children":[2,4,6,8,10,12,-1,14,16,-1,-1,18,20,22,24,-1,-1,-1,-1,-1,-1,26,-1,28,-1,-1,-1,-1,-1],"split_conditions":[3.0062267E-1,7.3714465E-1,3.1614032E-1,4.8303142E-2,4.3386832E-1,3.6351404E-3,2.062053E0,7.8004533E-3,7.039506E-3,-7.040799E-9,1.0324023E0,2.479358E-4,1.1004969E-2,5.2518416E-3,2.9902355E-4,3.223256E-1,-1.2292684E-1,-8.790698E-2,6.2376235E-2,9.394737E-1,1.8558139E-1,7.0357686E-3,-1.6138983E-1,1.5965979E-4,-1.4000002E-1,-1.2727274E-1,6.2376235E-2,-8.316832E-2,2.0792079E-1],"split_indices":[49,7,21,49,21,7,0,7,63,0,0,2,32,49,5,0,0,0,0,0,0,46,0,13,0,0,0,0,0],"split_type":[0,0,0,0,0,0,0,0,0,0,0,0,0,0,0,0,0,0,0,0,0,0,0,0,0,0,0,0,0],"sum_hessian":[1.2777142E3,1.1079183E3,1.6979591E2,1.1034081E3,4.510204E0,4.77551E0,1.650204E2,1.0990306E3,4.377551E0,1.8571428E0,2.6530612E0,2.255102E0,2.5204082E0,1.0904081E3,8.622449E0,1.1938775E0,3.1836734E0,1.1938775E0,1.0612245E0,1.3265306E0,1.1938775E0,4.77551E0,1.0856326E3,2.122449E0,6.5E0,3.7142856E0,1.0612245E0,1.0612245E0,1.0612245E0],"tree_param":{"num_deleted":"0","num_feature":"71","num_nodes":"29","size_leaf_vector":"0"}},{"base_weights":[2.1349566E-1,-5.371235E-1,6.8537774E0,4.8837204E-2,-1.6139784E-1,1.6578947E-1,2.0743415E0],"categories":[],"categories_nodes":[],"categories_segments":[],"categories_sizes":[],"default_left":[0,0,0,0,0,0,0],"id":8,"left_children":[1,3,5,-1,-1,-1,-1],"loss_changes":[6.377206E3,7.871094E-1,4.5873047E1,0E0,0E0,0E0,0E0],"parents":[2147483647,0,0,1,1,2,2],"right_children":[2,4,6,-1,-1,-1,-1],"split_conditions":[1.2842335E-1,7.887713E-3,1.18621485E-2,4.8837204E-2,-1.6139784E-1,1.6578947E-1,2.0743415E0],"split_indices":[22,35,50,0,0,0,0],"split_type":[0,0,0,0,0,0,0],"sum_hessian":[1.2777142E3,1.1487755E3,1.2893877E2,1.1938775E0,1.1475815E3,1.3265306E0,1.2761224E2],"tree_param":{"num_deleted":"0","num_feature":"71","num_nodes":"7","size_leaf_vector":"0"}},{"base_weights":[-3.8006932E-1,-5.308449E-1,6.525512E0,5.9527564E-1,-5.3563243E-1,1.9969627E0,5.9581393E-1,-1.6140799E-1,-2.8083214E-1,-4.170693E-1,2.0792079E-1,6.2376235E-2,-1.4762743E-1],"categories":[],"categories_nodes":[],"categories_segments":[],"categories_sizes":[],"default_left":[0,0,0,0,0,0,0,0,0,0,0,0,0],"id":9,"left_children":[1,3,5,-1,7,-1,-1,-1,9,11,-1,-1,-1],"loss_changes":[1.3348527E3,1.614209E1,3.0761719E0,0E0,6.1187744E-1,0E0,0E0,0E0,2.1113985E0,6.9655085E-1,0E0,0E0,0E0],"parents":[2147483647,0,0,1,1,2,2,4,4,8,8,9,9],"right_children":[2,4,6,-1,8,-1,-1,-1,10,12,-1,-1,-1],"split_conditions":[3.3937272E-1,8.4639E-4,2.5844745E-5,5.9527564E-1,5.335256E-4,1.9969627E0,5.9581393E-1,-1.6140799E-1,9.071931E-1,1.1319727E-4,2.0792079E-1,6.2376235E-2,-1.4762743E-1],"split_indices":[23,32,17,0,9,0,0,0,69,2,0,0,0],"split_type":[0,0,0,0,0,0,0,0,0,0,0,0,0],"sum_hessian":[1.2777142E3,1.2513163E3,2.6397959E1,1.5918367E0,1.2497245E3,2.520408E1,1.1938775E0,1.2369897E3,1.2734694E1,1.167347E1,1.0612245E0,1.0612245E0,1.0612245E1],"tree_param":{"num_deleted":"0","num_feature":"71","num_nodes":"13","size_leaf_vector":"0"}},{"base_weights":[2.0802142E-1,-5.2499384E-1,2.0761828E0,-5.319179E-1,7.7865165E-1,-1.613968E-1,5.019917E-2,-1.449791E-1,1.3224181E0,7.865162E-3,6.8157893E-1],"categories":[],"categories_nodes":[],"categories_segments":[],"categories_sizes":[],"default_left":[0,0,0,0,0,0,0,0,0,0,0],"id":10,"left_children":[1,3,-1,5,-1,-1,7,-1,9,-1,-1],"loss_changes":[6.2954565E3,2.6309387E1,0E0,4.098572E0,0E0,0E0,9.330355E0,0E0,4.9262614E0,0E0,0E0],"parents":[2147483647,0,0,1,1,3,3,6,6,8,8],"right_children":[2,4,-1,6,-1,-1,8,-1,10,-1,-1],"split_conditions":[9.7368234E-1,8.647106E-1,2.0761828E0,5.5668445E-4,7.7865165E-1,-1.613968E-1,2.4739325E-2,-1.449791E-1,4.5886278E-5,7.865162E-3,6.8157893E-1],"split_indices":[10,66,0,24,0,0,43,0,2,0,0],"split_type":[0,0,0,0,0,0,0,0,0,0,0],"sum_hessian":[1.2777142E3,1.1527551E3,1.2495918E2,1.1510306E3,1.7244897E0,1.1392245E3,1.1806122E1,8.755102E0,3.0510204E0,1.7244897E0,1.3265306E0],"tree_param":{"num_deleted":"0","num_feature":"71","num_nodes":"11","size_leaf_vector":"0"}},{"base_weights":[-4.6922495E-3,-5.0104165E-1,6.5976734E0,-5.244729E-1,2.6469247E0,1.05E-1,6.7260976E0,-5.3628665E-1,3.632911E-1,4.5211577E-1,4.0246677E0,2.0441198E0,4.4831464E-1,-5.371419E-1,3.68421E-2,1.3291138E0,-1.4311114E-1,4.990099E-1,-1.1565219E-1,1.4049646E0,2.0792079E-1,-1.613992E-1,-3.2183912E-1,-1.1731846E-1,7.9556316E-1,-3.9079338E-1,3.5346535E-1,-1.3479732E-1,6.2376235E-2,6.2376235E-2,-9.921261E-2,3.68421E-2,-1.4377105E-1],"categories":[],"categories_nodes":[],"categories_segments":[],"categories_sizes":[],"default_left":[0,0,0,0,0,0,0,0,0,0,0,0,0,0,0,0,0,0,0,0,0,0,0,0,0,0,0,0,0,0,0,0,0],"id":11,"left_children":[1,3,5,7,9,-1,11,13,15,17,19,-1,-1,21,-1,23,25,-1,-1,-1,-1,-1,27,29,-1,31,-1,-1,-1,-1,-1,-1,-1],"loss_changes":[4.193755E3,8.918082E1,6.943994E1,1.2594299E1,2.5271904E1,0E0,2.9990967E1,7.239075E-1,8.075618E0,5.2896333E0,8.552635E0,0E0,0E0,4.1534424E-2,0E0,1.1107522E1,4.2173624E0,0E0,0E0,0E0,0E0,0E0,5.7307136E-1,3.2229415E-1,0E0,5.321039E-1,0E0,0E0,0E0,0E0,0E0,0E0,0E0],"parents":[2147483647,0,0,1,1,2,2,3,3,4,4,6,6,7,7,8,8,9,9,10,10,13,13,15,15,16,16,22,22,23,23,25,25],"right_children":[2,4,6,8,10,-1,12,14,16,18,20,-1,-1,22,-1,24,26,-1,-1,-1,-1,-1,28,30,-1,32,-1,-1,-1,-1,-1,-1,-1],"split_conditions":[5.1570773E-1,3.011513E-1,7.5149653E-3,1.8846976E-2,5.315313E-2,1.05E-1,1.710184E-2,9.1172314E-1,6.7875823E-3,7.0158904E-3,8.316427E-3,2.0441198E0,4.4831464E-1,5.315313E-2,3.68421E-2,6.6559403E-3,4.5234222E-2,4.990099E-1,-1.1565219E-1,1.4049646E0,2.0792079E-1,-1.613992E-1,5.5126183E-2,2.3968277E-2,7.9556316E-1,3.8376686E-5,3.5346535E-1,-1.3479732E-1,6.2376235E-2,6.2376235E-2,-9.921261E-2,3.68421E-2,-1.4377105E-1],"split_indices":[25,53,53,25,11,0,28,11,44,51,52,0,0,11,0,52,17,0,0,0,0,0,2,3,0,0,0,0,0,0,0,0,0],"split_type":[0,0,0,0,0,0,0,0,0,0,0,0,0,0,0,0,0,0,0,0,0,0,0,0,0,0,0,0,0,0,0,0,0],"sum_hessian":[1.2777142E3,1.1892346E3,8.847959E1,1.1812755E3,7.9591837E0,1.8571428E0,8.6622444E1,1.1661531E3,1.5122449E1,3.5816326E0,4.377551E0,8.489796E1,1.7244897E0,1.1648265E3,1.3265306E0,4.642857E0,1.0479591E1,1.0612245E0,2.5204082E0,3.3163264E0,1.0612245E0,1.1587245E3,6.102041E0,2.6530612E0,1.9897959E0,9.418367E0,1.0612245E0,5.0408163E0,1.0612245E0,1.0612245E0,1.5918367E0,1.3265306E0,8.091837E0],"tree_param":{"num_deleted":"0","num_feature":"71","num_nodes":"33","size_leaf_vector":"0"}},{"base_weights":[-3.2767293E-1,-5.332037E-1,2.0253177E0,4.236842E-1,-5.3641814E-1,-2.3752499E-1,-5.37219E-1,-1.2166248E-1,6.2376235E-2,-1.614076E-1,-2.2105266E-1,-1.18867934E-1,6.2376235E-2],"categories":[],"categories_nodes":[],"categories_segments":[],"categories_sizes":[],"default_left":[0,0,0,0,0,0,0,0,0,0,0,0,0],"id":12,"left_children":[1,3,-1,-1,5,7,9,-1,-1,-1,11,-1,-1],"loss_changes":[1.8639978E3,8.53421E0,0E0,0E0,1.6976929E-1,4.6693262E-1,1.9671631E-1,0E0,0E0,0E0,4.466064E-1,0E0,0E0],"parents":[2147483647,0,0,1,1,4,4,5,5,6,6,10,10],"right_children":[2,4,-1,-1,6,8,10,-1,-1,-1,12,-1,-1],"split_conditions":[9.480174E-1,1.6639916E-4,2.0253177E0,4.236842E-1,3.9487625E-3,1.5803825E-4,5.743447E-2,-1.2166248E-1,6.2376235E-2,-1.614076E-1,2.4134242E-4,-1.18867934E-1,6.2376235E-2],"split_indices":[12,38,0,0,58,9,40,0,0,0,10,0,0],"split_type":[0,0,0,0,0,0,0,0,0,0,0,0,0],"sum_hessian":[1.2777142E3,1.2425612E3,3.515306E1,1.3265306E0,1.2412346E3,4.1122446E0,1.2371224E3,3.0510204E0,1.0612245E0,1.2332755E3,3.8469386E0,2.7857141E0,1.0612245E0],"tree_param":{"num_deleted":"0","num_feature":"71","num_nodes":"13","size_leaf_vector":"0"}},{"base_weights":[-3.9805612E-1,-5.3563964E-1,6.302491E0,-5.372335E-1,1.8558139E-1,6.512438E0,3.223256E-1,-1.6140907E-1,-2.5237194E-1,1.9975164E0,5.9581393E-1,6.2376235E-2,-1.24113485E-1],"categories":[],"categories_nodes":[],"categories_segments":[],"categories_sizes":[],"default_left":[0,0,0,0,0,0,0,0,0,0,0,0,0],"id":13,"left_children":[1,3,5,7,-1,9,-1,-1,11,-1,-1,-1,-1],"loss_changes":[1.1822031E3,2.6391296E0,2.1328125E1,1.4852905E-1,0E0,3.0356445E0,0E0,0E0,4.8537484E-1,0E0,0E0,0E0,0E0],"parents":[2147483647,0,0,1,1,2,2,3,3,5,5,8,8],"right_children":[2,4,6,8,-1,10,-1,-1,12,-1,-1,-1,-1],"split_conditions":[3.5446146E-1,1.6665438E-1,8.1282353E-4,2.637554E-3,1.8558139E-1,1.4483489E-5,3.223256E-1,-1.6140907E-1,7.0013026E-5,1.9975164E0,5.9581393E-1,6.2376235E-2,-1.24113485E-1],"split_indices":[27,13,11,27,0,17,0,0,12,0,0,0,0],"split_type":[0,0,0,0,0,0,0,0,0,0,0,0,0],"sum_hessian":[1.2777142E3,1.2529081E3,2.4806122E1,1.2517142E3,1.1938775E0,2.3612244E1,1.1938775E0,1.2473367E3,4.377551E0,2.2418367E1,1.1938775E0,1.0612245E0,3.3163264E0],"tree_param":{"num_deleted":"0","num_feature":"71","num_nodes":"13","size_leaf_vector":"0"}},{"base_weights":[-1.2251971E-1,-5.219985E-1,1.1998705E0,-1.5692544E-1,-5.6485906E-3,-8.686578E-2,1.2086328E0,1.2150961E0,3.3548628E-3,3.5859963E-1,1.9963342E0,7.0111924E-1,1.5695736E-1],"categories":[],"categories_nodes":[],"categories_segments":[],"categories_sizes":[],"default_left":[0,0,0,0,0,0,0,0,0,0,0,0,0],"id":14,"left_children":[1,3,5,-1,-1,-1,7,9,-1,-1,11,-1,-1],"loss_changes":[5.4277216E2,4.2129517E-1,3.4613037E0,0E0,0E0,0E0,1.8222046E0,1.2564087E0,0E0,0E0,9.500694E-1,0E0,0E0],"parents":[2147483647,0,0,1,1,2,2,6,6,7,7,10,10],"right_children":[2,4,6,-1,-1,-1,8,10,-1,-1,12,-1,-1],"split_conditions":[8.611459E-3,2.8314644E-2,1.6815622E-3,-1.5692544E-1,-5.6485906E-3,-8.686578E-2,6.323903E-7,4.7915298E-4,3.3548628E-3,3.5859963E-1,1.3610821E-6,7.0111924E-1,1.5695736E-1],"split_indices":[14,42,0,0,0,0,16,8,0,0,26,0,0],"split_type":[0,0,0,0,0,0,0,0,0,0,0,0,0],"sum_hessian":[1.0252725E3,7.8787103E2,2.3740149E2,7.8613446E2,1.7365948E0,1.2010502E0,2.3620044E2,2.3491772E2,1.2827172E0,2.3158894E2,3.328778E0,2.2271934E0,1.1015848E0],"tree_param":{"num_deleted":"0","num_feature":"71","num_nodes":"13","size_leaf_vector":"0"}},{"base_weights":[3.5687223E-1,-5.182382E-1,1.1859003E0,-5.2161926E-1,1.4000607E-1,1.1873407E0,3.136585E-2,-1.5690805E-1,-6.643084E-2,1.1131344E-1,1.188568E0,7.074831E-2,-8.9953646E-2,1.1899011E0,1.408597E-1,1.1830215E0,1.7454996E0,3.5536808E-1,1.2763889E-1,1.5356468E-1,5.6869143E-1],"categories":[],"categories_nodes":[],"categories_segments":[],"categories_sizes":[],"default_left":[0,0,0,0,0,0,0,0,0,0,0,0,0,0,0,0,0,0,0,0,0],"id":15,"left_children":[1,3,5,7,-1,9,-1,-1,11,-1,13,-1,-1,15,-1,17,19,-1,-1,-1,-1],"loss_changes":[1.047289E3,2.5830078E0,1.0303955E0,4.1415405E-1,0E0,3.0041504E-1,0E0,0E0,3.0390483E-1,0E0,1.4929199E-1,0E0,0E0,7.501221E-1,0E0,3.475952E-1,3.08527E-1,0E0,0E0,0E0,0E0],"parents":[2147483647,0,0,1,1,2,2,3,3,5,5,8,8,10,10,13,13,15,15,16,16],"right_children":[2,4,6,8,-1,10,-1,-1,12,-1,14,-1,-1,16,-1,18,20,-1,-1,-1,-1],"split_conditions":[4.6546867E-1,9.821853E-1,9.791822E-4,2.3998575E-1,1.4000607E-1,7.124686E-3,3.136585E-2,-1.5690805E-1,5.9225944E-11,1.1131344E-1,9.935859E-3,7.074831E-2,-8.9953646E-2,2.0924256E-4,1.408597E-1,2.4975536E-3,1.3114753E-1,3.5536808E-1,1.2763889E-1,1.5356468E-1,5.6869143E-1],"split_indices":[15,1,16,57,0,57,0,0,26,0,48,0,0,3,0,25,70,0,0,0,0],"split_type":[0,0,0,0,0,0,0,0,0,0,0,0,0,0,0,0,0,0,0,0,0],"sum_hessian":[1.4417118E3,7.015453E2,7.4016644E2,6.9961395E2,1.9312831E0,7.390839E2,1.0825648E0,6.973087E2,2.3052843E0,1.5648496E0,7.3751904E2,1.0000017E0,1.3052826E0,7.3550055E2,2.0185359E0,7.2959564E2,5.9048543E0,7.275543E2,2.0413337E0,1.1191037E0,4.7857504E0],"tree_param":{"num_deleted":"0","num_feature":"71","num_nodes":"21","size_leaf_vector":"0"}},{"base_weights":[-3.0239198E-1,-5.1122963E-1,1.2565718E0,-5.219719E-1,3.0870253E-1,3.7894264E-1,1.2552746E-1,-1.5695934E-1,-5.512096E-2,-2.4756406E-1,1.0542415E0,-8.609889E-2,6.713336E-2,8.446226E-2,-1.4104256E-1,3.686533E-2,3.921412E-1],"categories":[],"categories_nodes":[],"categories_segments":[],"categories_sizes":[],"default_left":[0,0,0,0,0,0,0,0,0,0,0,0,0,0,0,0,0],"id":16,"left_children":[1,3,5,7,9,-1,-1,-1,11,13,15,-1,-1,-1,-1,-1,-1],"loss_changes":[3.0142566E2,7.3434296E0,7.409668E-2,4.3203735E-1,4.894871E0,0E0,0E0,0E0,2.728989E-1,9.813323E-1,1.0087333E0,0E0,0E0,0E0,0E0,0E0,0E0],"parents":[2147483647,0,0,1,1,2,2,3,3,4,4,8,8,9,9,10,10],"right_children":[2,4,6,8,10,-1,-1,-1,12,14,16,-1,-1,-1,-1,-1,-1],"split_conditions":[3.6627433E-1,5.7566212E-3,2.5529416E-2,1.602217E-2,7.2825425E-3,3.7894264E-1,1.2552746E-1,-1.5695934E-1,2.5676638E-7,2.3127471E-7,1.5724603E-4,-8.609889E-2,6.713336E-2,8.446226E-2,-1.4104256E-1,3.686533E-2,3.921412E-1],"split_indices":[16,2,41,16,57,0,0,0,23,25,0,0,0,0,0,0,0],"split_type":[0,0,0,0,0,0,0,0,0,0,0,0,0,0,0,0,0],"sum_hessian":[9.2286566E2,8.1443646E2,1.08429245E2,8.042629E2,1.01735525E1,1.0708275E2,1.3464997E0,8.020361E2,2.2267873E0,6.2088804E0,3.9646723E0,1.200043E0,1.0267444E0,1.7600452E0,4.448835E0,1.163965E0,2.8007073E0],"tree_param":{"num_deleted":"0","num_feature":"71","num_nodes":"17","size_leaf_vector":"0"}},{"base_weights":[2.2716452E-1,-5.1498425E-1,1.1902449E0,-5.2168316E-1,5.0395036E-1,-1.2792052E-1,1.2013155E0,-1.5689947E-1,-1.14450835E-1,-1.2106059E-1,2.684784E-1,1.2051727E0,-9.540389E-2,6.6167034E-2,-9.9910386E-2,1.7391908E0,3.574876E-1,5.663517E-2,5.659212E-1],"categories":[],"categories_nodes":[],"categories_segments":[],"categories_sizes":[],"default_left":[0,0,0,0,0,0,0,0,0,0,0,0,0,0,0,0,0,0,0],"id":17,"left_children":[1,3,5,7,9,-1,11,-1,13,-1,-1,15,-1,-1,-1,17,-1,-1,-1],"loss_changes":[9.2590454E2,5.2582855E0,1.0601318E1,3.297577E-1,2.2375884E0,0E0,3.6659546E0,0E0,3.3868712E-1,0E0,0E0,1.9712524E0,0E0,0E0,0E0,2.303482E0,0E0,0E0,0E0],"parents":[2147483647,0,0,1,1,2,2,3,3,4,4,6,6,8,8,11,11,15,15],"right_children":[2,4,6,8,10,-1,12,-1,14,-1,-1,16,-1,-1,-1,18,-1,-1,-1],"split_conditions":[2.3968277E-2,6.5168905E-1,5.7396054E-4,8.337772E-2,3.7695692E-4,-1.2792052E-1,8.3894366E-1,-1.5689947E-1,1.0603382E-4,-1.2106059E-1,2.684784E-1,6.5168905E-1,-9.540389E-2,6.6167034E-2,-9.9910386E-2,7.7392464E-3,3.574876E-1,5.663517E-2,5.659212E-1],"split_indices":[3,17,17,31,11,0,25,0,7,0,0,17,0,0,0,45,0,0,0],"split_type":[0,0,0,0,0,0,0,0,0,0,0,0,0,0,0,0,0,0,0],"sum_hessian":[1.2935687E3,7.3084534E2,5.627234E2,7.2655664E2,4.288665E0,3.572075E0,5.591513E2,7.239346E2,2.6220691E0,1.2816801E0,3.0069847E0,5.5794165E2,1.2097024E0,1.0317515E0,1.5903176E0,1.0652666E1,5.4728894E2,1.1216927E0,9.530973E0],"tree_param":{"num_deleted":"0","num_feature":"71","num_nodes":"19","size_leaf_vector":"0"}},{"base_weights":[-3.0687004E-1,-1.5692218E-1,1.2308769E0,3.7177464E-1,4.3644674E-2],"categories":[],"categories_nodes":[],"categories_segments":[],"categories_sizes":[],"default_left":[0,0,0,0,0],"id":18,"left_children":[1,-1,3,-1,-1],"loss_changes":[3.076538E2,0E0,8.567352E-1,0E0,0E0],"parents":[2147483647,0,0,2,2],"right_children":[2,-1,4,-1,-1],"split_conditions":[5.029453E-2,-1.5692218E-1,4.0175387E-6,3.7177464E-1,4.3644674E-2],"split_indices":[18,0,21,0,0],"split_type":[0,0,0,0,0],"sum_hessian":[9.2243036E2,8.0930383E2,1.1312652E2,1.1211997E2,1.0065466E0],"tree_param":{"num_deleted":"0","num_feature":"71","num_nodes":"5","size_leaf_vector":"0"}},{"base_weights":[1.1874125E-1,-5.1779425E-1,1.1870462E0,-1.569067E-1,-1.5641986E-1,-9.757934E-2,1.1928357E0,-1.4128348E-1,6.7293674E-1,1.1980004E0,-3.56978E-2,5.101103E-1,-1.0114319E-1,4.2030223E-2,1.2001479E0,6.403834E-1,1.1891562E0,3.5739738E-1,9.452052E-2],"categories":[],"categories_nodes":[],"categories_segments":[],"categories_sizes":[],"default_left":[0,0,0,0,0,0,0,0,0,0,0,0,0,0,0,0,0,0,0],"id":19,"left_children":[1,3,5,-1,7,-1,9,-1,11,13,-1,-1,-1,-1,15,-1,17,-1,-1],"loss_changes":[8.158254E2,1.3387451E0,4.3096313E0,0E0,3.4861531E0,0E0,3.1671143E0,0E0,4.4674315E0,8.4228516E-1,0E0,0E0,0E0,0E0,2.019226E0,0E0,4.6014404E-1,0E0,0E0],"parents":[2147483647,0,0,1,1,2,2,4,4,6,6,8,8,9,9,14,14,16,16],"right_children":[2,4,6,-1,8,-1,10,-1,12,14,-1,-1,-1,-1,16,-1,18,-1,-1],"split_conditions":[3.1665724E-2,1.0314055E-3,1.2193344E-3,-1.569067E-1,1.2193344E-3,-9.757934E-2,2.523018E-2,-1.4128348E-1,7.5702597E-3,1.2197955E-2,-3.56978E-2,5.101103E-1,-1.0114319E-1,4.2030223E-2,4.4736576E-1,6.403834E-1,2.637554E-3,3.5739738E-1,9.452052E-2],"split_indices":[5,5,19,0,19,0,68,0,45,36,0,0,0,0,19,0,27,0,0],"split_type":[0,0,0,0,0,0,0,0,0,0,0,0,0,0,0,0,0,0,0],"sum_hessian":[1.1978146E3,7.5091003E2,4.469046E2,7.397605E2,1.1149493E1,1.4939042E0,4.454107E2,8.397125E0,2.752368E0,4.437504E2,1.6603088E0,1.025676E0,1.726692E0,1.0331614E0,4.4271722E2,2.9008434E0,4.3981638E2,4.3836594E2,1.4504527E0],"tree_param":{"num_deleted":"0","num_feature":"71","num_nodes":"19","size_leaf_vector":"0"}},{"base_weights":[-7.559474E-2,-5.2182126E-1,1.1883774E0,-1.569258E-1,-1.9620353E-1,-1.04002796E-1,1.2003583E0,-1.1327565E-1,6.3102975E-2,3.6109626E-1,4.5327898E-2],"categories":[],"categories_nodes":[],"categories_segments":[],"categories_sizes":[],"default_left":[0,0,0,0,0,0,0,0,0,0,0],"id":20,"left_children":[1,3,5,-1,7,-1,9,-1,-1,-1,-1],"loss_changes":[5.966526E2,2.1929932E-1,5.4928284E0,0E0,4.2045566E-1,0E0,7.661133E-1,0E0,0E0,0E0,0E0],"parents":[2147483647,0,0,1,1,2,2,4,4,6,6],"right_children":[2,4,6,-1,8,-1,10,-1,-1,-1,-1],"split_conditions":[4.8751906E-2,9.0943456E-1,1.29382005E-2,-1.569258E-1,2.0993686E-12,-1.04002796E-1,4.6478165E-4,-1.1327565E-1,6.3102975E-2,3.6109626E-1,4.5327898E-2],"split_indices":[20,42,48,0,27,0,2,0,0,0,0],"split_type":[0,0,0,0,0,0,0,0,0,0,0],"sum_hessian":[1.0557617E3,7.807254E2,2.7503632E2,7.7710065E2,3.62479E0,1.9136573E0,2.7312265E2,2.5557656E0,1.0690243E0,2.7212073E2,1.0019072E0],"tree_param":{"num_deleted":"0","num_feature":"71","num_nodes":"11","size_leaf_vector":"0"}},{"base_weights":[2.708189E-1,-5.0933063E-1,1.1739023E0,-5.188146E-1,9.741923E-1,4.5593925E-2,1.187284E0,-5.215643E-1,-1.6996313E-2,-8.7942705E-2,1.4567133E0,2.8387463E-1,-2.3599654E-1,1.199071E0,4.7829458E-1,-1.8979311E-1,-1.5688545E-1,-1.17646776E-1,2.0034835E-1,1.5402696E-1,5.388562E-1,-1.4080282E-1,9.768172E-2,6.98028E-1,1.2060195E0,7.5667286E-1,-1.4872415E-1,7.0533045E-2,-1.13395266E-1,-1.3059129E-1,9.087897E-1,3.6245182E-1,4.09179E-1,-1.2302864E-1,9.752164E-1,3.4533456E-1,2.7200656E-2,1.8425932E-2,1.6773683E-1,3.391781E-1,1.9001523E-2],"categories":[],"categories_nodes":[],"categories_segments":[],"categories_sizes":[],"default_left":[0,0,0,0,0,0,0,0,0,0,0,0,0,0,0,0,0,0,0,0,0,0,0,0,0,0,0,0,0,0,0,0,0,0,0,0,0,0,0,0,0],"id":21,"left_children":[1,3,5,7,9,11,13,15,17,-1,19,-1,21,23,25,27,-1,-1,-1,-1,-1,-1,-1,29,31,33,-1,-1,-1,-1,35,-1,37,-1,39,-1,-1,-1,-1,-1,-1],"loss_changes":[9.4233044E2,1.0605255E1,9.304443E0,9.7624207E-1,3.4279923E0,2.3295608E0,4.545227E0,2.2750854E-1,1.5270332E0,0E0,2.6957846E-1,0E0,1.0868219E0,1.25354E0,3.542236E0,4.5077813E-1,0E0,0E0,0E0,0E0,0E0,0E0,0E0,2.9290428E0,5.217285E-1,2.8172007E0,0E0,0E0,0E0,0E0,1.7328272E0,0E0,1.2772846E-1,0E0,1.1015944E0,0E0,0E0,0E0,0E0,0E0,0E0],"parents":[2147483647,0,0,1,1,2,2,3,3,4,4,5,5,6,6,7,7,8,8,10,10,12,12,13,13,14,14,15,15,23,23,24,24,25,25,30,30,32,32,34,34],"right_children":[2,4,6,8,10,12,14,16,18,-1,20,-1,22,24,26,28,-1,-1,-1,-1,-1,-1,-1,30,32,34,-1,-1,-1,-1,36,-1,38,-1,40,-1,-1,-1,-1,-1,-1],"split_conditions":[1.5701199E-1,7.477588E-1,1.8769493E-2,4.8303142E-2,7.019946E-3,1.6721884E-10,9.713564E-5,5.2518416E-3,4.3051268E-4,-8.7942705E-2,7.082497E-3,2.8387463E-1,1.2696336E-6,6.371432E-3,7.2286553E-3,6.718797E-5,-1.5688545E-1,-1.17646776E-1,2.0034835E-1,1.5402696E-1,5.388562E-1,-1.4080282E-1,9.768172E-2,8.202299E-12,6.3774E-4,2.1081124E-3,-1.4872415E-1,7.0533045E-2,-1.13395266E-1,-1.3059129E-1,3.3290312E-1,3.6245182E-1,2.1591357E-12,-1.2302864E-1,5.318633E-3,3.4533456E-1,2.7200656E-2,1.8425932E-2,1.6773683E-1,3.391781E-1,1.9001523E-2],"split_indices":[21,63,35,49,57,17,17,49,21,0,58,0,20,59,59,0,0,0,0,0,0,0,0,22,10,7,0,0,0,0,25,0,18,0,19,0,0,0,0,0,0],"split_type":[0,0,0,0,0,0,0,0,0,0,0,0,0,0,0,0,0,0,0,0,0,0,0,0,0,0,0,0,0,0,0,0,0,0,0,0,0,0,0,0,0],"sum_hessian":[1.335663E3,7.1684E2,6.188229E2,7.129326E2,3.9074275E0,7.304881E0,6.11518E2,7.0900836E2,3.9242902E0,1.1856946E0,2.7217329E0,1.177697E0,6.1271844E0,6.0083777E2,1.0680227E1,3.5259702E0,7.0548236E2,2.811474E0,1.1128161E0,1.3851764E0,1.3365566E0,4.4446907E0,1.6824933E0,9.606258E0,5.912315E2,8.479868E0,2.2003593E0,1.0057787E0,2.5201917E0,1.3392578E0,8.267E0,5.891234E2,2.108098E0,1.1994907E0,7.280377E0,6.0638723E0,2.203128E0,1.0597881E0,1.04831E0,6.0155253E0,1.2648517E0],"tree_param":{"num_deleted":"0","num_feature":"71","num_nodes":"41","size_leaf_vector":"0"}},{"base_weights":[1.3669138E-1,-5.219695E-1,1.1855962E0,-1.5692039E-1,2.0470074E-3,-1.2659779E-1,1.1905643E0,3.5850775E-1,-1.5342747E-2],"categories":[],"categories_nodes":[],"categories_segments":[],"categories_sizes":[],"default_left":[0,0,0,0,0,0,0,0,0],"id":22,"left_children":[1,3,5,-1,-1,-1,7,-1,-1],"loss_changes":[8.4228326E2,4.3865967E-1,4.2578735E0,0E0,0E0,0E0,2.659607E0,0E0,0E0],"parents":[2147483647,0,0,1,1,2,2,6,6],"right_children":[2,4,6,-1,-1,-1,8,-1,-1],"split_conditions":[5.1074494E-3,1.2842335E-1,6.0016564E-3,-1.5692039E-1,2.0470074E-3,-1.2659779E-1,1.6070856E-2,3.5850775E-1,-1.5342747E-2],"split_indices":[8,22,63,0,0,0,51,0,0],"split_type":[0,0,0,0,0,0,0,0,0],"sum_hessian":[1.2172628E3,7.480356E2,4.692273E2,7.4649567E2,1.5398965E0,1.187009E0,4.6804028E2,4.6640207E2,1.6382172E0],"tree_param":{"num_deleted":"0","num_feature":"71","num_nodes":"9","size_leaf_vector":"0"}},{"base_weights":[-3.3178496E-1,-5.183117E-1,1.2339555E0,-5.21931E-1,1.3527507E-1,1.2710133E0,-1.482774E-1,-1.5694514E-1,-1.7679082E-1,3.2485083E-1,-1.2050416E-1,1.2269444E0,6.498904E-1,4.5598187E-2,-1.0215995E-1,-1.0665453E-1,4.4651218E-2,3.2668877E-2,3.7191832E-1],"categories":[],"categories_nodes":[],"categories_segments":[],"categories_sizes":[],"default_left":[0,0,0,0,0,0,0,0,0,0,0,0,0,0,0,0,0,0,0],"id":23,"left_children":[1,3,5,7,9,11,13,-1,15,-1,-1,17,-1,-1,-1,-1,-1,-1,-1],"loss_changes":[2.6610297E2,1.9935608E0,5.159775E0,2.4783325E-1,3.1168003E0,1.0753784E0,2.497457E-1,0E0,3.0650222E-1,0E0,0E0,1.1869049E0,0E0,0E0,0E0,0E0,0E0,0E0,0E0],"parents":[2147483647,0,0,1,1,2,2,3,3,4,4,5,5,6,6,8,8,11,11],"right_children":[2,4,6,8,10,12,14,-1,16,-1,-1,18,-1,-1,-1,-1,-1,-1,-1],"split_conditions":[2.2733186E-3,7.8566006E-4,1.6978383E-3,9.0736556E-1,7.037517E-3,2.5844745E-5,7.186679E-3,-1.5694514E-1,1.5596037E-4,3.2485083E-1,-1.2050416E-1,7.1316855E-3,6.498904E-1,4.5598187E-2,-1.0215995E-1,-1.0665453E-1,4.4651218E-2,3.2668877E-2,3.7191832E-1],"split_indices":[9,9,5,69,64,17,69,0,12,0,0,68,0,0,0,0,0,0,0],"split_type":[0,0,0,0,0,0,0,0,0,0,0,0,0,0,0,0,0,0,0],"sum_hessian":[9.0795795E2,8.119047E2,9.605327E1,8.076337E2,4.2709427E0,9.362367E1,2.4295952E0,8.0427637E2,3.3573618E0,1.177101E0,3.0938418E0,9.149068E1,2.1329992E0,1.0301269E0,1.3994682E0,2.1083763E0,1.2489855E0,1.1418365E0,9.034884E1],"tree_param":{"num_deleted":"0","num_feature":"71","num_nodes":"19","size_leaf_vector":"0"}},{"base_weights":[1.3554615E-1,-5.170625E-1,1.1930435E0,-1.5691885E-1,-8.0901315E-4,1.2000811E0,-1.1825262E-1,3.6455613E-1,-3.8985294E-1,1.188603E0,1.9122199E0,4.278019E-2,-1.4688139E-1,3.57039E-1,1.1893025E-1,1.3772869E-1,6.637464E-1],"categories":[],"categories_nodes":[],"categories_segments":[],"categories_sizes":[],"default_left":[0,0,0,0,0,0,0,0,0,0,0,0,0,0,0,0,0],"id":24,"left_children":[1,3,5,-1,7,9,-1,-1,11,13,15,-1,-1,-1,-1,-1,-1],"loss_changes":[8.3798413E2,2.3259735E0,5.6486206E0,0E0,5.029524E0,1.4997559E0,0E0,0E0,4.975376E-1,8.074951E-2,1.4618912E0,0E0,0E0,0E0,0E0,0E0,0E0],"parents":[2147483647,0,0,1,1,2,2,4,4,5,5,8,8,9,9,10,10],"right_children":[2,4,6,-1,8,10,-1,-1,12,14,16,-1,-1,-1,-1,-1,-1],"split_conditions":[2.2488146E-1,5.5668445E-4,9.3502484E-2,-1.5691885E-1,1.3214207E-2,1.2384044E-4,-1.1825262E-1,3.6455613E-1,3.8589084E-13,1.8648517E-7,1.0565782E-10,4.278019E-2,-1.4688139E-1,3.57039E-1,1.1893025E-1,1.3772869E-1,6.637464E-1],"split_indices":[24,24,67,0,37,12,0,0,14,16,21,0,0,0,0,0,0],"split_type":[0,0,0,0,0,0,0,0,0,0,0,0,0,0,0,0,0],"sum_hessian":[1.2123439E3,7.5000665E2,4.6233722E2,7.413765E2,8.630124E0,4.6053915E2,1.798089E0,1.5771284E0,7.0529957E0,4.5586075E2,4.6783895E0,1.04507E0,6.0079255E0,4.5448233E2,1.3784121E0,1.2342561E0,3.4441335E0],"tree_param":{"num_deleted":"0","num_feature":"71","num_nodes":"17","size_leaf_vector":"0"}},{"base_weights":[4.5559583E-3,-5.143086E-1,1.1775872E0,-5.2044004E-1,4.9736732E-1,1.9589505E-1,1.2117143E0,-5.216569E-1,2.881862E-2,3.115033E-1,-1.0637095E-1,-2.4906744E-1,8.4196067E-1,-1.03122614E-1,1.2177503E0,-1.5687847E-1,-2.879609E-1,-1.3699651E-1,2.2814925E-1,1.5400335E0,-1.0250015E-1,-2.7866501E-2,1.2255127E0,-1.2901057E-1,6.840056E-2,-8.632166E-2,1.9855295E-1,6.6949956E-2,5.9202695E-1,1.681287E0,1.2006956E0,1.9749895E-2,5.5800194E-1,3.618111E-1,1.4027569E-1],"categories":[],"categories_nodes":[],"categories_segments":[],"categories_sizes":[],"default_left":[0,0,0,0,0,0,0,0,0,0,0,0,0,0,0,0,0,0,0,0,0,0,0,0,0,0,0,0,0,0,0,0,0,0,0],"id":25,"left_children":[1,3,5,7,9,11,13,15,-1,-1,-1,17,19,-1,21,-1,23,-1,25,27,-1,-1,29,-1,-1,-1,-1,-1,-1,31,33,-1,-1,-1,-1],"loss_changes":[6.6956055E2,4.9900665E0,1.1065247E1,6.1920166E-1,2.7214658E0,3.8108954E0,3.4778748E0,7.4417114E-2,0E0,0E0,0E0,9.154933E-1,4.9361334E0,0E0,3.4182434E0,0E0,5.6155777E-1,0E0,8.9508176E-1,1.5792589E0,0E0,0E0,1.6343079E0,0E0,0E0,0E0,0E0,0E0,0E0,3.9711761E0,6.491394E-1,0E0,0E0,0E0,0E0],"parents":[2147483647,0,0,1,1,2,2,3,3,4,4,5,5,6,6,7,7,11,11,12,12,14,14,16,16,18,18,19,19,22,22,29,29,30,30],"right_children":[2,4,6,8,10,12,14,16,-1,-1,-1,18,20,-1,22,-1,24,-1,26,28,-1,-1,30,-1,-1,-1,-1,-1,-1,32,34,-1,-1,-1,-1],"split_conditions":[1.8846976E-2,7.1877784E-1,8.594732E-3,6.2472105E-1,5.4864936E-11,9.978286E-8,1.3614182E-2,5.315313E-2,2.881862E-2,3.115033E-1,-1.0637095E-1,7.7678403E-3,7.437515E-3,-1.03122614E-1,6.917434E-3,-1.5687847E-1,1.5695563E-2,-1.3699651E-1,7.1491087E-3,8.203234E-3,-1.0250015E-1,-2.7866501E-2,5.1570773E-1,-1.2901057E-1,6.840056E-2,-8.632166E-2,1.9855295E-1,6.6949956E-2,5.9202695E-1,6.547398E-3,8.337772E-2,1.9749895E-2,5.5800194E-1,3.618111E-1,1.4027569E-1],"split_indices":[25,67,53,39,23,26,41,11,0,0,0,46,64,0,67,0,45,0,57,67,0,0,25,0,0,0,0,0,0,55,31,0,0,0,0],"split_type":[0,0,0,0,0,0,0,0,0,0,0,0,0,0,0,0,0,0,0,0,0,0,0,0,0,0,0,0,0,0,0,0,0,0,0],"sum_hessian":[1.0980901E3,7.617211E2,3.3636902E2,7.57615E2,4.106121E0,1.1526971E1,3.2484204E2,7.562761E2,1.3388908E0,2.3775694E0,1.7285514E0,7.189712E0,4.337259E0,1.039438E0,3.238026E2,7.5095306E2,5.3230124E0,5.04029E0,2.1494217E0,2.5388176E0,1.7984413E0,1.8418881E0,3.2196072E2,4.304322E0,1.0186903E0,1.1353902E0,1.0140315E0,1.0037688E0,1.5350487E0,1.3178894E1,3.0878183E2,1.4490653E0,1.1729829E1,3.0590793E2,2.873909E0],"tree_param":{"num_deleted":"0","num_feature":"71","num_nodes":"35","size_leaf_vector":"0"}},{"base_weights":[-2.797575E-1,-5.1854944E-1,1.2049965E0,9.7631715E-2,-5.207933E-1,-9.5539235E-2,1.2256804E0,-2.1127363E-1,-1.5691744E-1,8.843715E-2,1.2345698E0,2.2965415E-1,-1.2898068E-1,1.0295158E-1,3.7267622E-1,-8.326862E-2,1.9478329E-1],"categories":[],"categories_nodes":[],"categories_segments":[],"categories_sizes":[],"default_left":[0,0,0,0,0,0,0,0,0,0,0,0,0,0,0,0,0],"id":26,"left_children":[1,3,5,-1,7,-1,9,11,-1,-1,13,15,-1,-1,-1,-1,-1],"loss_changes":[3.3315796E2,1.7009277E0,4.494507E0,0E0,4.5513916E-1,0E0,7.0111084E-1,8.2559705E-1,0E0,0E0,4.4482422E-1,8.508885E-1,0E0,0E0,0E0,0E0,0E0],"parents":[2147483647,0,0,1,1,2,2,4,4,6,6,7,7,10,10,11,11],"right_children":[2,4,6,-1,8,-1,10,12,-1,-1,14,16,-1,-1,-1,-1,-1],"split_conditions":[3.3519324E-2,1.6639916E-4,1.3865433E-2,9.7631715E-2,5.0169076E-3,-9.5539235E-2,8.040305E-5,1.0431761E-2,-1.5691744E-1,8.843715E-2,6.1460654E-3,2.7526864E-11,-1.2898068E-1,1.0295158E-1,3.7267622E-1,-8.326862E-2,1.9478329E-1],"split_indices":[26,38,68,0,58,0,0,31,0,0,61,18,0,0,0,0,0],"split_type":[0,0,0,0,0,0,0,0,0,0,0,0,0,0,0,0,0],"sum_hessian":[9.369089E2,8.0766364E2,1.2924524E2,1.7596599E0,8.05904E2,1.5383992E0,1.2770683E2,6.5389414E0,7.9936505E2,1.5311196E0,1.2617571E2,2.1510732E0,4.3878684E0,1.468638E0,1.2470708E2,1.1271659E0,1.0239072E0],"tree_param":{"num_deleted":"0","num_feature":"71","num_nodes":"17","size_leaf_vector":"0"}},{"base_weights":[-3.5208368E-1,-5.207448E-1,1.2599068E0,-1.5691239E-1,-9.6513696E-2,1.2817261E0,7.1078844E-2,2.0379499E-1,-1.2945724E-1,1.2299722E-1,1.2915269E0,1.236378E0,5.5780303E-1,3.7535414E-1,3.4620564E-2],"categories":[],"categories_nodes":[],"categories_segments":[],"categories_sizes":[],"default_left":[0,0,0,0,0,0,0,0,0,0,0,0,0,0,0],"id":27,"left_children":[1,3,5,-1,7,9,-1,-1,-1,-1,11,13,-1,-1,-1],"loss_changes":[2.4540671E2,7.441406E-1,1.6060791E0,0E0,1.7532831E0,1.8429565E-1,0E0,0E0,0E0,0E0,2.736969E-1,1.1476212E0,0E0,0E0,0E0],"parents":[2147483647,0,0,1,1,2,2,4,4,5,5,10,10,11,11],"right_children":[2,4,6,-1,8,10,-1,-1,-1,-1,12,14,-1,-1,-1],"split_conditions":[1.6665438E-1,2.637554E-3,1.6815622E-3,-1.5691239E-1,9.12479E-5,2.4183927E-2,7.1078844E-2,2.0379499E-1,-1.2945724E-1,1.2299722E-1,5.971825E-4,2.5423167E-2,5.5780303E-1,3.7535414E-1,3.4620564E-2],"split_indices":[13,27,0,0,11,41,0,0,0,0,5,31,0,0,0],"split_type":[0,0,0,0,0,0,0,0,0,0,0,0,0,0,0],"sum_hessian":[8.992153E2,8.146556E2,8.455973E1,8.100377E2,4.617848E0,8.254614E1,2.0135887E0,1.0827124E0,3.5351355E0,1.3939431E0,8.11522E1,7.686421E1,4.287983E0,7.574782E1,1.1163962E0],"tree_param":{"num_deleted":"0","num_feature":"71","num_nodes":"15","size_leaf_vector":"0"}},{"base_weights":[-1.1324594E-1,-5.1623887E-1,9.1566867E-1,-1.5528442E-1,9.306897E-4,-8.245303E-2,9.2207545E-1,9.272996E-1,-1.1673387E-2,9.138927E-1,4.0243402E-1,2.7490428E-1,8.78147E-2],"categories":[],"categories_nodes":[],"categories_segments":[],"categories_sizes":[],"default_left":[0,0,0,0,0,0,0,0,0,0,0,0,0],"id":28,"left_children":[1,3,5,-1,-1,-1,7,9,-1,11,-1,-1,-1],"loss_changes":[3.6024045E2,4.4755554E-1,2.1186981E0,0E0,0E0,0E0,1.2583923E0,1.1885071E-1,0E0,9.429932E-2,0E0,0E0,0E0],"parents":[2147483647,0,0,1,1,2,2,6,6,7,7,9,9],"right_children":[2,4,6,-1,-1,-1,8,10,-1,12,-1,-1,-1],"split_conditions":[8.611459E-3,2.8314644E-2,1.6815622E-3,-1.5528442E-1,9.306897E-4,-8.245303E-2,5.3942745E-7,4.7915298E-4,-1.1673387E-2,9.050216E-1,4.0243402E-1,2.7490428E-1,8.78147E-2],"split_indices":[14,42,0,0,0,0,19,8,0,48,0,0,0],"split_type":[0,0,0,0,0,0,0,0,0,0,0,0,0],"sum_hessian":[8.6665173E2,6.231012E2,2.4355054E2,6.214581E2,1.6430948E0,1.079385E0,2.4247115E2,2.41195E2,1.2761441E0,2.367379E2,4.4571013E0,2.3533269E2,1.4052227E0],"tree_param":{"num_deleted":"0","num_feature":"71","num_nodes":"13","size_leaf_vector":"0"}},{"base_weights":[3.063046E-1,-5.126959E-1,9.0824383E-1,-1.5530066E-1,9.874059E-2,-1.0332047E-1,9.10376E-1,-1.1840691E-1,2.1446152E-1,9.129112E-1,1.0305756E-1,9.161002E-1,5.532709E-1,-1.13189384E-1,1.8626438E-1,4.0466842E-1,2.7345926E-1,2.3022752E-1,-6.4609416E-2],"categories":[],"categories_nodes":[],"categories_segments":[],"categories_sizes":[],"default_left":[0,0,0,0,0,0,0,0,0,0,0,0,0,0,0,0,0,0,0],"id":29,"left_children":[1,3,5,-1,7,-1,9,-1,-1,11,13,15,17,-1,-1,-1,-1,-1,-1],"loss_changes":[6.4669385E2,1.7415009E0,2.3324585E0,0E0,1.9010133E0,0E0,1.4508667E0,0E0,0E0,3.5614014E-1,1.1024417E0,2.4224854E-1,1.6694517E0,0E0,0E0,0E0,0E0,0E0,0E0],"parents":[2147483647,0,0,1,1,2,2,4,4,6,6,9,9,10,10,11,11,12,12],"right_children":[2,4,6,-1,8,-1,10,-1,-1,12,14,16,18,-1,-1,-1,-1,-1,-1],"split_conditions":[1.396537E-2,1.557274E-3,1.021384E-2,-1.5530066E-1,2.1071253E-5,-1.0332047E-1,1.3032656E-3,-1.1840691E-1,2.1446152E-1,5.5668445E-4,5.5668445E-4,9.821853E-1,7.398411E-3,-1.13189384E-1,1.8626438E-1,4.0466842E-1,2.7345926E-1,2.3022752E-1,-6.4609416E-2],"split_indices":[1,1,15,0,24,0,8,0,0,24,24,1,44,0,0,0,0,0,0],"split_type":[0,0,0,0,0,0,0,0,0,0,0,0,0,0,0,0,0,0,0],"sum_hessian":[1.3098381E3,5.549372E2,7.54901E2,5.506123E2,4.324889E0,1.009988E0,7.5389105E2,2.601154E0,1.723735E0,7.514007E2,2.4903367E0,7.432627E2,8.138011E0,1.4326898E0,1.057647E0,4.691498E0,7.3857117E2,6.3659353E0,1.7720758E0],"tree_param":{"num_deleted":"0","num_feature":"71","num_nodes":"19","size_leaf_vector":"0"}},{"base_weights":[-2.866133E-1,-5.0974715E-1,9.15762E-1,-1.5532252E-1,1.7655832E-1,1.9016664E-2,9.496978E-1,8.694297E-1,-1.3783626E-1,-1.1506458E-1,1.6202906E-1,2.8695315E-1,2.8272174E-2,4.028732E-1,-8.1508845E-2],"categories":[],"categories_nodes":[],"categories_segments":[],"categories_sizes":[],"default_left":[0,0,0,0,0,0,0,0,0,0,0,0,0,0,0],"id":30,"left_children":[1,3,5,-1,7,9,11,13,-1,-1,-1,-1,-1,-1,-1],"loss_changes":[2.0448792E2,3.614212E0,3.6151886E0,0E0,3.9859967E0,1.3344083E0,5.8016205E-1,2.656278E0,0E0,0E0,0E0,0E0,0E0,0E0,0E0],"parents":[2147483647,0,0,1,1,2,2,4,4,5,5,6,6,7,7],"right_children":[2,4,6,-1,8,10,12,14,-1,-1,-1,-1,-1,-1,-1],"split_conditions":[1.602217E-2,5.7566212E-3,1.3384293E-2,-1.5532252E-1,7.1966536E-3,9.076928E-1,7.8566006E-4,3.0054644E-1,-1.3783626E-1,-1.1506458E-1,1.6202906E-1,2.8695315E-1,2.8272174E-2,4.028732E-1,-8.1508845E-2],"split_indices":[16,2,31,0,42,2,9,70,0,0,0,0,0,0,0],"split_type":[0,0,0,0,0,0,0,0,0,0,0,0,0,0,0],"sum_hessian":[7.5944806E2,6.410581E2,1.1838995E2,6.339194E2,7.1387305E0,4.373797E0,1.1401616E2,3.2409937E0,3.8977365E0,2.616405E0,1.7573922E0,1.12998146E2,1.0180095E0,2.1656032E0,1.0753908E0],"tree_param":{"num_deleted":"0","num_feature":"71","num_nodes":"15","size_leaf_vector":"0"}},{"base_weights":[1.9864908E-1,-5.082391E-1,9.1033244E-1,-5.158707E-1,4.0913156E-1,-1.2274801E-1,9.181801E-1,-1.5525377E-1,-1.01516515E-1,-1.09037705E-1,2.1291915E-1,9.2105985E-1,-9.1116145E-2,-9.554628E-2,6.626125E-2,9.2261493E-1,9.490641E-3,9.132827E-1,1.3240781E0,-2.0694058E-2,2.7490664E-1,4.4243464E-1,1.5765245E-1],"categories":[],"categories_nodes":[],"categories_segments":[],"categories_sizes":[],"default_left":[0,0,0,0,0,0,0,0,0,0,0,0,0,0,0,0,0,0,0,0,0,0,0],"id":31,"left_children":[1,3,5,7,9,-1,11,-1,13,-1,-1,15,-1,-1,-1,17,-1,19,21,-1,-1,-1,-1],"loss_changes":[5.815326E2,4.2723846E0,6.339325E0,3.391571E-1,1.498997E0,0E0,2.2953186E0,0E0,3.1631684E-1,0E0,0E0,7.615967E-1,0E0,0E0,0E0,9.28833E-1,0E0,1.7562866E0,5.1769066E-1,0E0,0E0,0E0,0E0],"parents":[2147483647,0,0,1,1,2,2,3,3,4,4,6,6,8,8,11,11,15,15,17,17,18,18],"right_children":[2,4,6,8,10,-1,12,-1,14,-1,-1,16,-1,-1,-1,18,-1,20,22,-1,-1,-1,-1],"split_conditions":[2.3968277E-2,6.5168905E-1,5.7396054E-4,8.337772E-2,3.7695692E-4,-1.2274801E-1,8.3894366E-1,-1.5525377E-1,1.6339502E-4,-1.09037705E-1,2.1291915E-1,3.814921E-2,-9.1116145E-2,-9.554628E-2,6.626125E-2,3.2890707E-2,9.490641E-3,1.02917375E-2,2.585158E-6,-2.0694058E-2,2.7490664E-1,4.4243464E-1,1.5765245E-1],"split_indices":[3,17,17,31,11,0,25,0,4,0,0,50,0,0,0,40,0,45,24,0,0,0,0],"split_type":[0,0,0,0,0,0,0,0,0,0,0,0,0,0,0,0,0,0,0,0,0,0,0],"sum_hessian":[1.1540237E3,5.791058E2,5.7491797E2,5.7476196E2,4.3437805E0,3.0967758E0,5.718212E2,5.722455E2,2.516465E0,1.158114E0,3.1856668E0,5.7072235E2,1.0988294E0,1.5113811E0,1.0050838E0,5.6968896E2,1.0333786E0,5.5994763E2,9.741387E0,1.679298E0,5.582683E2,7.4825263E0,2.2588613E0],"tree_param":{"num_deleted":"0","num_feature":"71","num_nodes":"23","size_leaf_vector":"0"}},{"base_weights":[-2.9230717E-1,-1.5528412E-1,9.2958957E-1,-8.5565105E-2,2.828589E-1],"categories":[],"categories_nodes":[],"categories_segments":[],"categories_sizes":[],"default_left":[0,0,0,0,0],"id":32,"left_children":[1,-1,3,-1,-1],"loss_changes":[2.0921207E2,0E0,2.178009E0,0E0,0E0],"parents":[2147483647,0,0,2,2],"right_children":[2,-1,4,-1,-1],"split_conditions":[5.029453E-2,-1.5528412E-1,1.5205309E-2,-8.5565105E-2,2.828589E-1],"split_indices":[18,0,32,0,0],"split_type":[0,0,0,0,0],"sum_hessian":[7.571906E2,6.3979474E2,1.1739589E2,1.047404E0,1.1634848E2],"tree_param":{"num_deleted":"0","num_feature":"71","num_nodes":"5","size_leaf_vector":"0"}},{"base_weights":[1.0540986E-1,-5.089264E-1,9.102649E-1,-5.130092E-1,1.426545E-1,-1.0041181E-1,9.1565675E-1,-1.5526026E-1,-1.9209884E-1,9.196027E-1,-1.2198939E-1,-1.363613E-1,4.2542112E-1,4.3242422E-1,9.122308E-1,3.1493348E-1,-9.259206E-2,9.14955E-1,4.001606E-1,8.176055E-2,2.7520955E-1,-2.215946E-2,1.833259E-1],"categories":[],"categories_nodes":[],"categories_segments":[],"categories_sizes":[],"default_left":[0,0,0,0,0,0,0,0,0,0,0,0,0,0,0,0,0,0,0,0,0,0,0],"id":33,"left_children":[1,3,5,7,-1,-1,9,-1,11,13,-1,-1,15,-1,17,-1,-1,19,21,-1,-1,-1,-1],"loss_changes":[5.208478E2,2.6454926E0,3.3670654E0,7.6535034E-1,0E0,0E0,2.7440186E0,0E0,1.7930238E0,4.2843628E-1,0E0,0E0,1.9099498E0,0E0,2.6107788E-1,0E0,0E0,4.4122314E-1,4.6072954E-1,0E0,0E0,0E0,0E0],"parents":[2147483647,0,0,1,1,2,2,3,3,6,6,8,8,9,9,12,12,14,14,17,17,18,18],"right_children":[2,4,6,8,-1,-1,10,-1,12,14,-1,-1,16,-1,18,-1,-1,20,22,-1,-1,-1,-1],"split_conditions":[1.0488775E-1,9.6281374E-1,5.318633E-3,1.2193344E-3,1.426545E-1,-1.0041181E-1,1.2556593E-3,-1.5526026E-1,6.385119E-4,4.4736576E-1,-1.2198939E-1,-1.363613E-1,7.0935935E-3,4.3242422E-1,3.805733E-2,3.1493348E-1,-9.259206E-2,5.778878E-3,3.1282876E-2,8.176055E-2,2.7520955E-1,-2.215946E-2,1.833259E-1],"split_indices":[47,5,19,19,0,0,6,0,12,19,0,0,45,0,40,0,0,50,29,0,0,0,0],"split_type":[0,0,0,0,0,0,0,0,0,0,0,0,0,0,0,0,0,0,0,0,0,0,0],"sum_hessian":[1.0514478E3,5.9650806E2,4.5493976E2,5.9452124E2,1.9867958E0,1.6984385E0,4.5324133E2,5.856506E2,8.870677E0,4.5219644E2,1.0448855E0,6.4103036E0,2.4603739E0,3.5894847E0,4.4860696E2,1.0971202E0,1.3632537E0,4.4545038E2,3.1565762E0,2.091248E0,4.4335913E2,1.1721475E0,1.9844286E0],"tree_param":{"num_deleted":"0","num_feature":"71","num_nodes":"23","size_leaf_vector":"0"}},{"base_weights":[-6.9990814E-2,-5.160295E-1,9.103945E-1,-1.552846E-1,-1.5816982E-1,-9.835849E-2,9.1894275E-1,-1.05813734E-1,6.314793E-2,2.7667E-1,6.52579E-2],"categories":[],"categories_nodes":[],"categories_segments":[],"categories_sizes":[],"default_left":[0,0,0,0,0,0,0,0,0,0,0],"id":34,"left_children":[1,3,5,-1,7,-1,9,-1,-1,-1,-1],"loss_changes":[3.9362396E2,2.6916504E-1,3.2809296E0,0E0,3.7325147E-1,0E0,4.452362E-1,0E0,0E0,0E0,0E0],"parents":[2147483647,0,0,1,1,2,2,4,4,6,6],"right_children":[2,4,6,-1,8,-1,10,-1,-1,-1,-1],"split_conditions":[4.8751906E-2,9.0943456E-1,1.29382005E-2,-1.552846E-1,2.0993686E-12,-9.835849E-2,1.5987586E-2,-1.05813734E-1,6.314793E-2,2.7667E-1,6.52579E-2],"split_indices":[20,42,48,0,27,0,49,0,0,0,0],"split_type":[0,0,0,0,0,0,0,0,0,0,0],"sum_hessian":[8.980702E2,6.175718E2,2.8049844E2,6.144027E2,3.1690638E0,1.6670313E0,2.788314E2,2.102726E0,1.0663378E0,2.772161E2,1.6153078E0],"tree_param":{"num_deleted":"0","num_feature":"71","num_nodes":"11","size_leaf_vector":"0"}},{"base_weights":[2.35839E-1,-5.0078434E-1,8.9691323E-1,-5.1225144E-1,7.570673E-1,6.462752E-2,9.057433E-1,-5.157066E-1,2.0339642E-2,-8.266494E-2,1.0613084E0,2.4464194E-1,-2.043589E-1,9.1453636E-1,3.6612034E-1,-1.5467931E-1,-1.5523523E-1,-1.14082955E-1,2.1573943E-1,3.9947084E-1,4.416525E-2,-1.3572603E-1,9.2506595E-2,5.3367895E-1,9.1995966E-1,5.903509E-1,-1.407448E-1,-1.0656069E-1,6.778512E-2,-1.2494611E-1,7.012036E-1,9.2146E-1,5.6091018E-2,-1.1629341E-1,7.670172E-1,2.6210722E-1,-2.4436431E-2,2.769605E-1,5.5847853E-2,2.6721126E-1,1.1969066E-2],"categories":[],"categories_nodes":[],"categories_segments":[],"categories_sizes":[],"default_left":[0,0,0,0,0,0,0,0,0,0,0,0,0,0,0,0,0,0,0,0,0,0,0,0,0,0,0,0,0,0,0,0,0,0,0,0,0,0,0,0,0],"id":35,"left_children":[1,3,5,7,9,11,13,15,17,-1,19,-1,21,23,25,27,-1,-1,-1,-1,-1,-1,-1,29,31,33,-1,-1,-1,-1,35,37,-1,-1,39,-1,-1,-1,-1,-1,-1],"loss_changes":[5.8627405E2,8.604218E0,4.6036377E0,1.0503387E0,2.0359654E0,1.7291926E0,2.6432495E0,2.735138E-1,1.5624443E0,0E0,9.1389227E-1,0E0,9.656528E-1,7.833252E-1,2.474085E0,3.951717E-1,0E0,0E0,0E0,0E0,0E0,0E0,0E0,2.0498183E0,4.951172E-1,1.9717343E0,0E0,0E0,0E0,0E0,1.3888083E0,6.033325E-1,0E0,0E0,7.328706E-1,0E0,0E0,0E0,0E0,0E0,0E0],"parents":[2147483647,0,0,1,1,2,2,3,3,4,4,5,5,6,6,7,7,8,8,10,10,12,12,13,13,14,14,15,15,23,23,24,24,25,25,30,30,31,31,34,34],"right_children":[2,4,6,8,10,12,14,16,18,-1,20,-1,22,24,26,28,-1,-1,-1,-1,-1,-1,-1,30,32,34,-1,-1,-1,-1,36,38,-1,-1,40,-1,-1,-1,-1,-1,-1],"split_conditions":[1.5701199E-1,7.477588E-1,1.8769493E-2,4.8303142E-2,7.019946E-3,1.6721884E-10,9.713564E-5,5.2518416E-3,9.7247714E-1,-8.266494E-2,7.6954504E-3,2.4464194E-1,1.2696336E-6,6.371432E-3,7.2286553E-3,2.0317513E-2,-1.5523523E-1,-1.14082955E-1,2.1573943E-1,3.9947084E-1,4.416525E-2,-1.3572603E-1,9.2506595E-2,8.202299E-12,9.0542454E-1,2.1081124E-3,-1.407448E-1,-1.0656069E-1,6.778512E-2,-1.2494611E-1,4.3839972E-7,6.3774E-4,5.6091018E-2,-1.1629341E-1,5.318633E-3,2.6210722E-1,-2.4436431E-2,2.769605E-1,5.5847853E-2,2.6721126E-1,1.1969066E-2],"split_indices":[21,63,35,49,57,17,17,49,25,0,51,0,20,59,59,40,0,0,0,0,0,0,0,22,67,7,0,0,0,0,24,10,0,0,19,0,0,0,0,0,0],"split_type":[0,0,0,0,0,0,0,0,0,0,0,0,0,0,0,0,0,0,0,0,0,0,0,0,0,0,0,0,0,0,0,0,0,0,0,0,0,0,0,0,0],"sum_hessian":[1.202018E3,5.686376E2,6.333803E2,5.640878E2,4.5497108E0,6.7366166E0,6.2664374E2,5.604835E2,3.6043515E0,1.056881E0,3.4928298E0,1.2409611E0,5.4956555E0,6.159128E2,1.0730936E1,3.1259568E0,5.5735754E2,2.5806675E0,1.0236839E0,2.3432944E0,1.1495354E0,3.7829757E0,1.71268E0,1.0042958E1,6.058698E2,8.691026E0,2.03991E0,2.091119E0,1.0348376E0,1.2825378E0,8.760421E0,6.043756E2,1.4941825E0,1.1470306E0,7.5439954E0,7.083092E0,1.6773283E0,6.026926E2,1.6830049E0,6.25501E0,1.2889851E0],"tree_param":{"num_deleted":"0","num_feature":"71","num_nodes":"41","size_leaf_vector":"0"}},{"base_weights":[1.2064604E-1,-5.159654E-1,9.0867007E-1,-1.5527928E-1,-2.8524643E-1,-9.158184E-2,9.1196966E-1,6.0414225E-2,-1.2711394E-1,-1.655462E-2,9.151029E-1,6.8681887E-3,2.7513278E-1],"categories":[],"categories_nodes":[],"categories_segments":[],"categories_sizes":[],"default_left":[0,0,0,0,0,0,0,0,0,0,0,0,0],"id":36,"left_children":[1,3,5,-1,7,-1,9,-1,-1,-1,11,-1,-1],"loss_changes":[5.3779315E2,7.5683594E-2,2.196991E0,0E0,5.161522E-1,0E0,1.4988098E0,0E0,0E0,0E0,8.3184814E-1,0E0,0E0],"parents":[2147483647,0,0,1,1,2,2,4,4,6,6,10,10],"right_children":[2,4,6,-1,8,-1,10,-1,-1,-1,12,-1,-1],"split_conditions":[1.2842335E-1,1.967618E-4,4.7915298E-4,-1.5527928E-1,5.151586E-9,-9.158184E-2,6.0016564E-3,6.0414225E-2,-1.2711394E-1,-1.655462E-2,1.1745653E-2,6.8681887E-3,2.7513278E-1],"split_indices":[22,22,8,0,27,0,63,0,0,0,36,0,0],"split_type":[0,0,0,0,0,0,0,0,0,0,0,0,0],"sum_hessian":[1.0700817E3,5.920968E2,4.7798486E2,5.86703E2,5.3937964E0,1.0476004E0,4.7693726E2,1.0941507E0,4.2996454E0,1.4864706E0,4.7545078E2,1.0945853E0,4.743562E2],"tree_param":{"num_deleted":"0","num_feature":"71","num_nodes":"13","size_leaf_vector":"0"}},{"base_weights":[-3.15657E-1,-5.1163983E-1,9.193105E-1,-5.161361E-1,1.3996512E-1,-1.01967774E-1,9.442958E-1,-1.5529808E-1,-1.4500259E-1,3.482984E-1,-1.2083967E-1,9.603406E-1,-1.4978178E-2,-9.930975E-2,4.4127982E-2,9.7387993E-1,2.8387988E-1,2.8232655E-1,4.4912815E-1,5.7088207E-3,1.2953821E-1],"categories":[],"categories_nodes":[],"categories_segments":[],"categories_sizes":[],"default_left":[0,0,0,0,0,0,0,0,0,0,0,0,0,0,0,0,0,0,0,0,0],"id":37,"left_children":[1,3,5,7,9,-1,11,-1,13,-1,-1,15,-1,-1,-1,17,19,-1,-1,-1,-1],"loss_changes":[1.8080112E2,1.9580536E0,3.5426788E0,2.866516E-1,3.3481357E0,0E0,1.653923E0,0E0,2.6628774E-1,0E0,0E0,6.3140106E-1,0E0,0E0,0E0,2.513504E-1,1.23273164E-1,0E0,0E0,0E0,0E0],"parents":[2147483647,0,0,1,1,2,2,3,3,4,4,6,6,8,8,11,11,15,15,16,16],"right_children":[2,4,6,8,10,-1,12,-1,14,-1,-1,16,-1,-1,-1,18,20,-1,-1,-1,-1],"split_conditions":[2.2733186E-3,7.8566006E-4,3.3813164E-6,9.0736556E-1,2.5058954E-4,-1.01967774E-1,1.396537E-2,-1.5529808E-1,1.5596037E-4,3.482984E-1,-1.2083967E-1,2.254475E-2,-1.4978178E-2,-9.930975E-2,4.4127982E-2,2.5844745E-5,3.3361226E-2,2.8232655E-1,4.4912815E-1,5.7088207E-3,1.2953821E-1],"split_indices":[9,9,23,69,6,0,1,0,12,0,0,35,0,0,0,17,38,0,0,0,0],"split_type":[0,0,0,0,0,0,0,0,0,0,0,0,0,0,0,0,0,0,0,0,0],"sum_hessian":[7.440686E2,6.4266656E2,1.0140208E2,6.384688E2,4.1977663E0,1.7276679E0,9.967441E1,6.3546436E2,3.0044327E0,1.0616271E0,3.1361392E0,9.812495E1,1.5494665E0,1.7540275E0,1.2504053E0,9.576848E1,2.3564649E0,9.2753975E1,3.0145068E0,1.2488909E0,1.1075741E0],"tree_param":{"num_deleted":"0","num_feature":"71","num_nodes":"21","size_leaf_vector":"0"}},{"base_weights":[1.2007584E-1,-5.101016E-1,9.124452E-1,-1.5527378E-1,2.4054714E-2,-1.1248346E-1,9.175372E-1,2.7055424E-1,-3.6346304E-1,9.2017645E-1,-6.174936E-4,-1.4078186E-1,4.0732447E-2,2.7372864E-1,3.8991484E-1],"categories":[],"categories_nodes":[],"categories_segments":[],"categories_sizes":[],"default_left":[0,0,0,0,0,0,0,0,0,0,0,0,0,0,0],"id":38,"left_children":[1,3,5,-1,7,-1,9,-1,11,13,-1,-1,-1,-1,-1],"loss_changes":[5.3350073E2,2.3899841E0,3.4463806E0,0E0,3.4481983E0,0E0,1.146637E0,0E0,4.375338E-1,1.9714355E-1,0E0,0E0,0E0,0E0,0E0],"parents":[2147483647,0,0,1,1,2,2,4,4,6,6,8,8,9,9],"right_children":[2,4,6,-1,8,-1,10,-1,12,14,-1,-1,-1,-1,-1],"split_conditions":[2.2488146E-1,5.5668445E-4,7.260383E-3,-1.5527378E-1,1.3214207E-2,-1.1248346E-1,1.2668519E-2,2.7055424E-1,9.30517E-3,1.2384044E-4,-6.174936E-4,-1.4078186E-1,4.0732447E-2,2.7372864E-1,3.8991484E-1],"split_indices":[24,24,52,0,37,0,42,0,68,12,0,0,0,0,0],"split_type":[0,0,0,0,0,0,0,0,0,0,0,0,0,0,0],"sum_hessian":[1.0664939E3,5.942436E2,4.722503E2,5.8607025E2,8.173352E0,1.5743705E0,4.7067593E2,2.0967102E0,6.076642E0,4.6932834E2,1.3476125E0,5.0634933E0,1.0131487E0,4.6327533E2,6.0530043E0],"tree_param":{"num_deleted":"0","num_feature":"71","num_nodes":"15","size_leaf_vector":"0"}},{"base_weights":[5.39344E-3,-5.0704104E-1,8.893991E-1,-5.14338E-1,3.919946E-1,2.972539E-1,9.24079E-1,-1.5523873E-1,-1.4548372E-1,2.9500282E-1,-1.5962036E-1,-2.3130419E-2,9.0012217E-1,-1.485586E-1,9.312082E-1,2.1973625E-1,-1.3291353E-1,-1.05431005E-1,5.269863E-2,-2.349107E-1,6.644832E-1,1.3300037E-2,1.0591211E0,-1.1821785E-1,5.1317826E-2,9.1319895E-1,1.2887055E0,3.9136466E-1,-4.3077192E-1,-8.5414E-2,3.6031651E-1,3.7218565E-1,8.420941E-2,4.712568E-2,9.162851E-1,7.426824E-1,1.7098378E0,9.13116E-3,1.8235646E-1,-1.5306088E-1,3.65262E-2,2.7563947E-1,2.8300388E-2,2.4883232E-1,2.9014809E-2,1.6999313E-1,5.840973E-1],"categories":[],"categories_nodes":[],"categories_segments":[],"categories_sizes":[],"default_left":[0,0,0,0,0,0,0,0,0,0,0,0,0,0,0,0,0,0,0,0,0,0,0,0,0,0,0,0,0,0,0,0,0,0,0,0,0,0,0,0,0,0,0,0,0,0,0],"id":39,"left_children":[1,3,5,7,9,11,13,-1,15,-1,17,19,21,23,25,-1,-1,-1,-1,27,29,-1,31,-1,-1,33,35,37,39,-1,-1,-1,-1,-1,41,43,45,-1,-1,-1,-1,-1,-1,-1,-1,-1,-1],"loss_changes":[4.3250955E2,4.1667633E0,6.920166E0,6.161804E-1,1.9294364E0,4.0496097E0,2.6657104E0,0E0,2.0044494E0,0E0,2.978693E-1,2.2814798E0,9.413552E-1,3.0630434E-1,9.378662E-1,0E0,0E0,0E0,0E0,1.6279385E0,2.2253428E0,0E0,5.1097536E-1,0E0,0E0,5.9375E-1,1.7932434E0,2.439065E-1,4.8076093E-1,0E0,0E0,0E0,0E0,0E0,5.6326294E-1,3.439293E-1,7.274666E-1,0E0,0E0,0E0,0E0,0E0,0E0,0E0,0E0,0E0,0E0],"parents":[2147483647,0,0,1,1,2,2,3,3,4,4,5,5,6,6,8,8,10,10,11,11,12,12,13,13,14,14,19,19,20,20,22,22,25,25,26,26,27,27,28,28,34,34,35,35,36,36],"right_children":[2,4,6,8,10,12,14,-1,16,-1,18,20,22,24,26,-1,-1,-1,-1,28,30,-1,32,-1,-1,34,36,38,40,-1,-1,-1,-1,-1,42,44,46,-1,-1,-1,-1,-1,-1,-1,-1,-1,-1],"split_conditions":[1.8846976E-2,7.1877784E-1,1.7549338E-2,5.315313E-2,2.4416526E-11,7.1877784E-1,8.522954E-3,-1.5523873E-1,3.4310194E-12,2.9500282E-1,4.8087433E-1,4.5234222E-2,1.048891E-2,6.818302E-3,8.498814E-3,2.1973625E-1,-1.3291353E-1,-1.05431005E-1,5.269863E-2,3.035111E-12,6.826878E-3,1.3300037E-2,8.32229E-5,-1.1821785E-1,5.1317826E-2,5.728727E-5,2.7869606E-2,7.5533153E-3,4.3443467E-2,-8.5414E-2,3.6031651E-1,3.7218565E-1,8.420941E-2,4.712568E-2,4.7800243E-2,5.703843E-2,6.7257783E-3,9.13116E-3,1.8235646E-1,-1.5306088E-1,3.65262E-2,2.7563947E-1,2.8300388E-2,2.4883232E-1,2.9014809E-2,1.6999313E-1,5.840973E-1],"split_indices":[25,67,11,11,22,67,32,0,20,0,70,17,33,43,61,0,0,0,0,20,54,0,4,0,0,10,40,52,52,0,0,0,0,0,34,63,57,0,0,0,0,0,0,0,0,0,0],"split_type":[0,0,0,0,0,0,0,0,0,0,0,0,0,0,0,0,0,0,0,0,0,0,0,0,0,0,0,0,0,0,0,0,0,0,0,0,0,0,0,0,0,0,0,0,0,0,0],"sum_hessian":[9.527823E2,6.0342145E2,3.4936087E2,5.989877E2,4.433766E0,1.9858395E1,3.2950247E2,5.93557E2,5.4306254E0,1.7620902E0,2.6716757E0,1.3595124E1,6.2632704E0,2.0445697E0,3.2745792E2,1.0047233E0,4.425902E0,1.6687797E0,1.002896E0,1.08972225E1,2.6979017E0,1.1817111E0,5.081559E0,1.0246336E0,1.0199361E0,3.1513702E2,1.2320879E1,2.358294E0,8.538929E0,1.1438369E0,1.5540648E0,3.6392663E0,1.4422929E0,1.4919934E0,3.1364502E2,6.568268E0,5.7526116E0,1.3118318E0,1.0464622E0,7.5326366E0,1.0062919E0,3.1257153E2,1.0735085E0,5.540149E0,1.0281188E0,1.5706538E0,4.1819577E0],"tree_param":{"num_deleted":"0","num_feature":"71","num_nodes":"47","size_leaf_vector":"0"}},{"base_weights":[-2.6516494E-1,-5.1491183E-1,9.0619695E-1,-1.6067837E-1,-1.5529361E-1,-1.108576E-1,9.3030703E-1,-1.22048415E-1,8.3852895E-2,9.408511E-1,-1.3224735E-2,9.176831E-1,5.5892354E-1,7.03416E-2,2.772253E-1],"categories":[],"categories_nodes":[],"categories_segments":[],"categories_sizes":[],"default_left":[0,0,0,0,0,0,0,0,0,0,0,0,0,0,0],"id":40,"left_children":[1,3,5,7,-1,-1,9,-1,-1,11,-1,13,-1,-1,-1],"loss_changes":[2.268006E2,5.349426E-1,4.5369415E0,8.004898E-1,0E0,0E0,1.4190521E0,0E0,0E0,1.1254349E0,0E0,3.5803986E-1,0E0,0E0,0E0],"parents":[2147483647,0,0,1,1,2,2,3,3,6,6,9,9,11,11],"right_children":[2,4,6,8,-1,-1,10,-1,-1,12,-1,14,-1,-1,-1],"split_conditions":[2.523018E-2,5.0169076E-3,4.665781E-4,7.777262E-3,-1.5529361E-1,-1.108576E-1,7.4462513E-3,-1.22048415E-1,8.3852895E-2,5.972273E-4,-1.3224735E-2,8.040305E-5,5.5892354E-1,7.03416E-2,2.772253E-1],"split_indices":[68,58,12,52,0,0,69,0,0,6,0,0,0,0,0],"split_type":[0,0,0,0,0,0,0,0,0,0,0,0,0,0,0],"sum_hessian":[7.7267505E2,6.3734644E2,1.3532864E2,5.3383837E0,6.3200806E2,2.244419E0,1.3308423E2,3.4724195E0,1.865964E0,1.3169357E2,1.3906606E0,1.3041245E2,1.2811186E0,1.5598099E0,1.2885265E2],"tree_param":{"num_deleted":"0","num_feature":"71","num_nodes":"15","size_leaf_vector":"0"}},{"base_weights":[-3.364983E-1,-5.146708E-1,9.477036E-1,-1.5527207E-1,-6.6585466E-2,9.6378726E-1,1.9245304E-1,1.8992607E-1,-1.2423154E-1,2.92562E-1,6.2360875E-2,1.6745105E-1,-8.4669046E-2],"categories":[],"categories_nodes":[],"categories_segments":[],"categories_sizes":[],"default_left":[0,0,0,0,0,0,0,0,0,0,0,0,0],"id":41,"left_children":[1,3,5,-1,7,9,11,-1,-1,-1,-1,-1,-1],"loss_changes":[1.6848291E2,8.049927E-1,9.054184E-1,0E0,1.5512893E0,5.541916E-1,6.9953483E-1,0E0,0E0,0E0,0E0,0E0,0E0],"parents":[2147483647,0,0,1,1,2,2,4,4,5,5,6,6],"right_children":[2,4,6,-1,8,10,12,-1,-1,-1,-1,-1,-1],"split_conditions":[1.6665438E-1,2.637554E-3,1.6815622E-3,-1.5527207E-1,6.8148356E-3,7.5969286E-3,4.2472093E-4,1.8992607E-1,-1.2423154E-1,2.92562E-1,6.2360875E-2,1.6745105E-1,-8.4669046E-2],"split_indices":[13,27,0,0,67,59,11,0,0,0,0,0,0],"split_type":[0,0,0,0,0,0,0,0,0,0,0,0,0],"sum_hessian":[7.332142E2,6.4440717E2,8.880699E1,6.401054E2,4.30177E0,8.668485E1,2.1221383E0,1.1548814E0,3.1468887E0,8.510905E1,1.5758078E0,1.0993053E0,1.022833E0],"tree_param":{"num_deleted":"0","num_feature":"71","num_nodes":"13","size_leaf_vector":"0"}},{"base_weights":[-1.0667402E-1,-5.1148975E-1,7.6723886E-1,-1.5396072E-1,4.467076E-3,7.7364254E-1,-3.3932846E-2,7.7852505E-1,3.4394436E-2,2.3430963E-1,6.4476974E-2],"categories":[],"categories_nodes":[],"categories_segments":[],"categories_sizes":[],"default_left":[0,0,0,0,0,0,0,0,0,0,0],"id":42,"left_children":[1,3,5,-1,-1,7,-1,9,-1,-1,-1],"loss_changes":[2.530834E2,4.482422E-1,1.3645172E0,0E0,0E0,6.3475037E-1,0E0,1.4749146E-1,0E0,0E0,0E0],"parents":[2147483647,0,0,1,1,2,2,5,5,7,7],"right_children":[2,4,6,-1,-1,8,-1,10,-1,-1,-1],"split_conditions":[8.611459E-3,2.8314644E-2,5.029453E-2,-1.5396072E-1,4.467076E-3,1.2302818E-2,-3.3932846E-2,3.1282876E-2,3.4394436E-2,2.3430963E-1,6.4476974E-2],"split_indices":[14,42,18,0,0,39,0,29,0,0,0],"split_type":[0,0,0,0,0,0,0,0,0,0,0],"sum_hessian":[7.132729E2,4.8775073E2,2.2552219E2,4.8619388E2,1.5568603E0,2.2401392E2,1.5082713E0,2.2218633E2,1.8275827E0,2.208183E2,1.3680278E0],"tree_param":{"num_deleted":"0","num_feature":"71","num_nodes":"11","size_leaf_vector":"0"}},{"base_weights":[2.7416077E-1,-5.071212E-1,7.632663E-1,-1.5396756E-1,8.925831E-2,7.662262E-1,2.584376E-2,-1.13304906E-1,1.7270985E-1,7.6775485E-1,2.7079368E-2,1.7091432E-1,-1.1722409E-1,2.313098E-1,4.348521E-1,5.9560955E-1,-1.1613229E-1,-2.9322138E-2,2.1705344E-1],"categories":[],"categories_nodes":[],"categories_segments":[],"categories_sizes":[],"default_left":[0,0,0,0,0,0,0,0,0,0,0,0,0,0,0,0,0,0,0],"id":43,"left_children":[1,3,5,-1,7,9,11,-1,-1,13,-1,-1,-1,-1,15,17,-1,-1,-1],"loss_changes":[4.3258716E2,1.6331711E0,1.4992981E0,0E0,1.4143816E0,6.4697266E-1,1.0874898E0,0E0,0E0,4.1921997E-1,0E0,0E0,0E0,0E0,1.424461E0,7.7583694E-1,0E0,0E0,0E0],"parents":[2147483647,0,0,1,1,2,2,4,4,5,5,6,6,9,9,14,14,15,15],"right_children":[2,4,6,-1,8,10,12,-1,-1,14,-1,-1,-1,-1,16,18,-1,-1,-1],"split_conditions":[1.396537E-2,1.557274E-3,1.3032656E-3,-1.5396756E-1,2.1071253E-5,5.806318E-2,6.8108407E-3,-1.13304906E-1,1.7270985E-1,5.5668445E-4,2.7079368E-2,1.7091432E-1,-1.1722409E-1,2.313098E-1,5.571811E-10,3.9804607E-15,-1.1613229E-1,-2.9322138E-2,2.1705344E-1],"split_indices":[1,1,8,0,24,41,48,0,0,24,0,0,0,0,23,14,0,0,0],"split_type":[0,0,0,0,0,0,0,0,0,0,0,0,0,0,0,0,0,0,0],"sum_hessian":[1.1300309E3,4.3505334E2,6.949775E2,4.3078366E2,4.269668E0,6.921603E2,2.8172317E0,2.2925746E0,1.9770935E0,6.90463E2,1.6972857E0,1.0625196E0,1.7547121E0,6.824276E2,8.035348E0,6.9512186E0,1.0841287E0,1.1193104E0,5.831908E0],"tree_param":{"num_deleted":"0","num_feature":"71","num_nodes":"19","size_leaf_vector":"0"}},{"base_weights":[-2.7446437E-1,-5.040441E-1,7.6010305E-1,-1.5400068E-1,1.6295364E-1,1.9818084E-2,7.8756976E-1,2.1491165E-1,-1.3214903E-1,-1.0830454E-1,1.327086E-1,2.383381E-1,1.7701467E-2],"categories":[],"categories_nodes":[],"categories_segments":[],"categories_sizes":[],"default_left":[0,0,0,0,0,0,0,0,0,0,0,0,0],"id":44,"left_children":[1,3,5,-1,7,9,11,-1,-1,-1,-1,-1,-1],"loss_changes":[1.4632062E2,3.2037048E0,2.2613983E0,0E0,2.8789883E0,9.6946317E-1,4.9506378E-1,0E0,0E0,0E0,0E0,0E0,0E0],"parents":[2147483647,0,0,1,1,2,2,4,4,5,5,6,6],"right_children":[2,4,6,-1,8,10,12,-1,-1,-1,-1,-1,-1],"split_conditions":[1.602217E-2,5.7566212E-3,1.3384293E-2,-1.5400068E-1,7.1966536E-3,9.076928E-1,1.412998E-4,2.1491165E-1,-1.3214903E-1,-1.0830454E-1,1.327086E-1,2.383381E-1,1.7701467E-2],"split_indices":[16,2,31,0,42,2,27,0,0,0,0,0,0],"split_type":[0,0,0,0,0,0,0,0,0,0,0,0,0],"sum_hessian":[6.1343286E2,5.0244797E2,1.109849E2,4.9577213E2,6.6758413E0,4.03213E0,1.06952774E2,3.384668E0,3.291173E0,2.197325E0,1.8348048E0,1.0586113E2,1.0916432E0],"tree_param":{"num_deleted":"0","num_feature":"71","num_nodes":"13","size_leaf_vector":"0"}},{"base_weights":[1.8029924E-1,-5.024267E-1,7.650392E-1,-5.1101124E-1,3.39347E-1,-1.16681464E-1,7.71528E-1,-1.5395126E-1,-6.5717675E-2,-9.957682E-2,1.7617962E-1,7.2093005E-4,7.7316517E-1,4.0177435E-2,-7.8040965E-2,2.32377E-1,5.0322763E-3],"categories":[],"categories_nodes":[],"categories_segments":[],"categories_sizes":[],"default_left":[0,0,0,0,0,0,0,0,0,0,0,0,0,0,0,0,0],"id":45,"left_children":[1,3,5,7,9,-1,11,-1,13,-1,-1,-1,15,-1,-1,-1,-1],"loss_changes":[3.9377554E2,3.4629211E0,4.277588E0,3.999939E-1,1.0597215E0,0E0,6.636658E-1,0E0,1.638435E-1,0E0,0E0,0E0,5.554199E-1,0E0,0E0,0E0,0E0],"parents":[2147483647,0,0,1,1,2,2,3,3,4,4,6,6,8,8,12,12],"right_children":[2,4,6,8,10,-1,12,-1,14,-1,-1,-1,16,-1,-1,-1,-1],"split_conditions":[2.3968277E-2,6.5168905E-1,5.7396054E-4,9.9801385E-1,3.7695692E-4,-1.16681464E-1,2.5312524E-4,-1.5395126E-1,1.6530835E-4,-9.957682E-2,1.7617962E-1,7.2093005E-4,3.814921E-2,4.0177435E-2,-7.8040965E-2,2.32377E-1,5.0322763E-3],"split_indices":[3,17,17,13,11,0,28,0,5,0,0,0,50,0,0,0,0],"split_type":[0,0,0,0,0,0,0,0,0,0,0,0,0,0,0,0,0],"sum_hessian":[9.844065E2,4.5421667E2,5.301898E2,4.500202E2,4.196456E0,2.635023E0,5.275548E2,4.4769656E2,2.323644E0,1.0404552E0,3.1560006E0,1.1258153E0,5.26429E2,1.2999356E0,1.0237083E0,5.254152E2,1.0137614E0],"tree_param":{"num_deleted":"0","num_feature":"71","num_nodes":"17","size_leaf_vector":"0"}},{"base_weights":[-2.8132182E-1,-1.5396388E-1,7.7558863E-1,1.5648397E-2,7.8446007E-1,2.3705994E-1,2.8062353E-2],"categories":[],"categories_nodes":[],"categories_segments":[],"categories_sizes":[],"default_left":[0,0,0,0,0,0,0],"id":46,"left_children":[1,-1,3,-1,5,-1,-1],"loss_changes":[1.5011848E2,0E0,6.6706085E-1,0E0,3.5796356E-1,0E0,0E0],"parents":[2147483647,0,0,2,2,4,4],"right_children":[2,-1,4,-1,6,-1,-1],"split_conditions":[5.029453E-2,-1.5396388E-1,2.1695644E-3,1.5648397E-2,1.20012846E-4,2.3705994E-1,2.8062353E-2],"split_indices":[18,0,4,0,24,0,0],"split_type":[0,0,0,0,0,0,0],"sum_hessian":[6.0988416E2,5.0057095E2,1.0931318E2,1.407617E0,1.07905556E2,1.0687402E2,1.0315361E0],"tree_param":{"num_deleted":"0","num_feature":"71","num_nodes":"7","size_leaf_vector":"0"}},{"base_weights":[9.6455455E-2,-5.0508046E-1,7.61723E-1,-1.5393786E-1,-8.179256E-2,-7.553946E-2,7.674118E-1,-1.325119E-1,5.2015847E-1,1.1203692E-1,-1.1658497E-1,7.712007E-1,1.5459424E-3,3.6932713E-1,-9.945468E-2,3.2578894E-1,2.321015E-1,9.618744E-2,-9.752048E-2,-3.5456706E-2,1.6210485E-1],"categories":[],"categories_nodes":[],"categories_segments":[],"categories_sizes":[],"default_left":[0,0,0,0,0,0,0,0,0,0,0,0,0,0,0,0,0,0,0,0,0],"id":47,"left_children":[1,3,5,-1,7,9,11,-1,13,-1,-1,15,17,-1,-1,19,-1,-1,-1,-1,-1],"loss_changes":[3.560315E2,1.5495377E0,2.06987E0,0E0,2.3759978E0,6.738231E-1,1.2164917E0,0E0,2.9305975E0,0E0,0E0,2.0751953E-1,4.2393902E-1,0E0,0E0,4.4786483E-1,0E0,0E0,0E0,0E0,0E0],"parents":[2147483647,0,0,1,1,2,2,4,4,5,5,6,6,8,8,11,11,12,12,15,15],"right_children":[2,4,6,-1,8,10,12,-1,14,-1,-1,16,18,-1,-1,20,-1,-1,-1,-1,-1],"split_conditions":[3.1665724E-2,1.0314055E-3,8.317595E-3,-1.5393786E-1,1.2193344E-3,8.648461E-3,8.717299E-3,-1.325119E-1,1.1274161E-2,1.1203692E-1,-1.1658497E-1,6.4195767E-3,7.799167E-3,3.6932713E-1,-9.945468E-2,1.0815685E-8,2.321015E-1,9.618744E-2,-9.752048E-2,-3.5456706E-2,1.6210485E-1],"split_indices":[5,5,61,0,19,34,62,0,32,0,0,42,53,0,0,24,0,0,0,0,0],"split_type":[0,0,0,0,0,0,0,0,0,0,0,0,0,0,0,0,0,0,0,0,0],"sum_hessian":[8.877118E2,4.663123E2,4.213995E2,4.5740582E2,8.9064665E0,2.761048E0,4.1863846E2,5.740413E0,3.1660535E0,1.0550718E0,1.7059762E0,4.1657065E2,2.0678115E0,1.4827981E0,1.6832554E0,3.031081E0,4.1353958E2,1.0552474E0,1.012564E0,1.1339078E0,1.8971732E0],"tree_param":{"num_deleted":"0","num_feature":"71","num_nodes":"21","size_leaf_vector":"0"}},{"base_weights":[-6.6187285E-2,-5.1119095E-1,7.655747E-1,-1.5396021E-1,-1.2010213E-1,-9.2655696E-2,7.7268094E-1,-9.835957E-2,6.439348E-2,2.3293619E-1,-1.2900771E-3],"categories":[],"categories_nodes":[],"categories_segments":[],"categories_sizes":[],"default_left":[0,0,0,0,0,0,0,0,0,0,0],"id":48,"left_children":[1,3,5,-1,7,-1,9,-1,-1,-1,-1],"loss_changes":[2.7533713E2,3.1919098E-1,2.2184448E0,0E0,3.3345038E-1,0E0,7.593384E-1,0E0,0E0,0E0,0E0],"parents":[2147483647,0,0,1,1,2,2,4,4,6,6],"right_children":[2,4,6,-1,8,-1,10,-1,-1,-1,-1],"split_conditions":[4.8751906E-2,9.0943456E-1,3.4156332E-3,-1.5396021E-1,1.7396103E-16,-9.2655696E-2,1.6070856E-2,-9.835957E-2,6.439348E-2,2.3293619E-1,-1.2900771E-3],"split_indices":[20,42,6,0,16,0,51,0,0,0,0],"split_type":[0,0,0,0,0,0,0,0,0,0,0],"sum_hessian":[7.4182135E2,4.8351816E2,2.583032E2,4.807355E2,2.7826464E0,1.4181801E0,2.56885E2,1.7296718E0,1.0529745E0,2.5564427E2,1.240728E0],"tree_param":{"num_deleted":"0","num_feature":"71","num_nodes":"11","size_leaf_vector":"0"}},{"base_weights":[2.1307732E-1,-5.0269943E-1,7.451651E-1,-5.0862235E-1,1.6027719E-1,-2.3816094E-2,7.5945836E-1,-5.107836E-1,5.1803817E-4,-3.5346645E-1,6.787253E-1,7.711057E-1,4.2224607E-1,-1.071748E-1,-1.5390433E-1,6.875296E-2,-1.379577E-1,1.6447963E-2,2.901254E-1,7.7302897E-1,-1.4605593E-2,5.8483607E-1,-1.5207721E-1,-9.7015835E-2,6.682335E-2,7.747688E-1,3.1710092E-2,-6.745664E-2,6.767651E-1,6.020532E-2,2.3298486E-1,-1.5342097E-2,2.1867143E-1],"categories":[],"categories_nodes":[],"categories_segments":[],"categories_sizes":[],"default_left":[0,0,0,0,0,0,0,0,0,0,0,0,0,0,0,0,0,0,0,0,0,0,0,0,0,0,0,0,0,0,0,0,0],"id":49,"left_children":[1,3,5,7,-1,9,11,13,-1,15,17,19,21,23,-1,-1,-1,-1,-1,25,-1,27,-1,-1,-1,29,-1,-1,31,-1,-1,-1,-1],"loss_changes":[3.94198E2,2.9834366E0,6.541748E0,4.8566437E-1,0E0,2.972805E0,1.9631653E0,3.3908844E-1,0E0,6.4402854E-1,6.8660116E-1,9.238281E-1,3.5696387E0,3.3381233E-1,0E0,0E0,0E0,0E0,0E0,5.692444E-1,0E0,1.5592589E0,0E0,0E0,0E0,4.3719482E-1,0E0,0E0,6.9103956E-1,0E0,0E0,0E0,0E0],"parents":[2147483647,0,0,1,1,2,2,3,3,5,5,6,6,7,7,9,9,10,10,11,11,12,12,13,13,19,19,21,21,25,25,28,28],"right_children":[2,4,6,8,-1,10,12,14,-1,16,18,20,22,24,-1,-1,-1,-1,-1,26,-1,28,-1,-1,-1,30,-1,-1,32,-1,-1,-1,-1],"split_conditions":[1.1710967E-2,9.064395E-1,1.0276809E-2,3.0062267E-1,1.6027719E-1,5.703843E-2,7.470301E-3,5.2518416E-3,5.1803817E-4,7.692308E-2,7.1895365E-3,4.5234222E-2,3.3789112E-7,1.0823722E-3,-1.5390433E-1,6.875296E-2,-1.379577E-1,1.6447963E-2,2.901254E-1,9.0542454E-1,-1.4605593E-2,6.4122877E-3,-1.5207721E-1,-9.7015835E-2,6.682335E-2,5.733947E-3,3.1710092E-2,-6.745664E-2,1.9576578E-12,6.020532E-2,2.3298486E-1,-1.5342097E-2,2.1867143E-1],"split_indices":[21,63,49,49,0,63,57,49,0,70,69,17,26,3,0,0,0,0,0,67,0,44,0,0,0,69,0,0,24,0,0,0,0],"split_type":[0,0,0,0,0,0,0,0,0,0,0,0,0,0,0,0,0,0,0,0,0,0,0,0,0,0,0,0,0,0,0,0,0],"sum_hessian":[1.0330479E3,4.405138E2,5.9253406E2,4.3851855E2,1.9952413E0,1.0800437E1,5.8173364E2,4.366685E2,1.8500859E0,7.6892967E0,3.1111398E0,5.6106757E2,2.0666048E1,2.669865E0,4.339986E2,1.0090916E0,6.6802053E0,1.3596066E0,1.7515333E0,5.598113E2,1.2562772E0,1.7903757E1,2.7622907E0,1.6248369E0,1.0450281E0,5.5819495E2,1.6163334E0,1.678032E0,1.6225725E1,2.1420949E0,5.5605286E2,1.085839E0,1.5139886E1],"tree_param":{"num_deleted":"0","num_feature":"71","num_nodes":"33","size_leaf_vector":"0"}},{"base_weights":[1.0972502E-1,-5.1138604E-1,7.6401395E-1,-1.5395457E-1,1.7958758E-2,7.708719E-1,2.4778005E-3,2.3163627E-1,6.535327E-2,-1.401194E-1,1.5318064E-1],"categories":[],"categories_nodes":[],"categories_segments":[],"categories_sizes":[],"default_left":[0,0,0,0,0,0,0,0,0,0,0],"id":50,"left_children":[1,3,5,-1,-1,7,9,-1,-1,-1,-1],"loss_changes":[3.6792563E2,5.072937E-1,2.3003845E0,0E0,0E0,1.3357544E-1,1.4165535E0,0E0,0E0,0E0,0E0],"parents":[2147483647,0,0,1,1,2,2,5,5,6,6],"right_children":[2,4,6,-1,-1,8,10,-1,-1,-1,-1],"split_conditions":[5.1074494E-3,1.2842335E-1,9.229531E-4,-1.5395457E-1,1.7958758E-2,3.8399731E-3,9.892462E-1,2.3163627E-1,6.535327E-2,-1.401194E-1,1.5318064E-1],"split_indices":[8,22,12,0,0,11,22,0,0,0,0],"split_type":[0,0,0,0,0,0,0,0,0,0,0],"sum_hessian":[9.033983E2,4.6356158E2,4.3983676E2,4.6221017E2,1.3514012E0,4.3589905E2,3.937714E0,4.345215E2,1.377537E0,2.088552E0,1.8491621E0],"tree_param":{"num_deleted":"0","num_feature":"71","num_nodes":"11","size_leaf_vector":"0"}},{"base_weights":[-3.0273512E-1,-5.1129985E-1,7.331916E-1,-1.5396994E-1,-1.0919486E-1,-1.2160641E-1,7.75655E-1,-9.462143E-2,5.507034E-2,8.022209E-1,9.870513E-3,6.729876E-2,8.0848324E-1,1.3993078E-1,-1.1206253E-1,2.4592246E-1,3.0890226E-1,1.4426257E-1,-4.6060975E-3],"categories":[],"categories_nodes":[],"categories_segments":[],"categories_sizes":[],"default_left":[0,0,0,0,0,0,0,0,0,0,0,0,0,0,0,0,0,0,0],"id":51,"left_children":[1,3,5,-1,7,-1,9,-1,-1,11,13,-1,15,-1,-1,-1,17,-1,-1],"loss_changes":[1.3012892E2,3.3303833E-1,5.200203E0,0E0,2.791606E-1,0E0,1.9810371E0,0E0,0E0,1.6054153E-1,9.252797E-1,0E0,2.70298E-1,0E0,0E0,0E0,2.1125704E-1,0E0,0E0],"parents":[2147483647,0,0,1,1,2,2,4,4,6,6,9,9,10,10,12,12,16,16],"right_children":[2,4,6,-1,8,-1,10,-1,-1,12,14,-1,16,-1,-1,-1,18,-1,-1],"split_conditions":[7.8566006E-4,9.0736556E-1,3.3813164E-6,-1.5396994E-1,7.1550612E-3,-1.2160641E-1,7.3628314E-3,-9.462143E-2,5.507034E-2,6.1682733E-3,1.7229448E-9,6.729876E-2,7.2013573E-3,1.3993078E-1,-1.1206253E-1,2.4592246E-1,8.31552E-3,1.4426257E-1,-4.6060975E-3],"split_indices":[9,69,23,0,65,0,62,0,0,42,16,0,68,0,0,0,32,0,0],"split_type":[0,0,0,0,0,0,0,0,0,0,0,0,0,0,0,0,0,0,0],"sum_hessian":[5.995526E2,4.9949496E2,1.0005765E2,4.968299E2,2.6650715E0,3.2903166E0,9.676733E1,1.5183027E0,1.1467689E0,9.347693E1,3.2903996E0,1.3968515E0,9.208008E1,1.40308E0,1.8873197E0,8.942402E1,2.6560605E0,1.4199576E0,1.2361027E0],"tree_param":{"num_deleted":"0","num_feature":"71","num_nodes":"19","size_leaf_vector":"0"}},{"base_weights":[1.0948042E-1,-5.0388455E-1,7.661229E-1,-1.539453E-1,3.2336116E-2,7.7090746E-1,-1.0957617E-1,-1.3330108E-1,5.666944E-1,2.3178168E-1,6.910336E-3,3.1998175E-1,-3.0054072E-2],"categories":[],"categories_nodes":[],"categories_segments":[],"categories_sizes":[],"default_left":[0,0,0,0,0,0,0,0,0,0,0,0,0],"id":52,"left_children":[1,3,5,-1,7,9,-1,-1,11,-1,-1,-1,-1],"loss_changes":[3.6393158E2,2.3385391E0,2.6435242E0,0E0,2.513397E0,5.343933E-1,0E0,0E0,1.6489488E0,0E0,0E0,0E0,0E0],"parents":[2147483647,0,0,1,1,2,2,4,4,5,5,8,8],"right_children":[2,4,6,-1,8,10,-1,-1,12,-1,-1,-1,-1],"split_conditions":[2.2488146E-1,5.5668445E-4,9.3502484E-2,-1.539453E-1,1.396537E-2,1.1695935E-2,-1.0957617E-1,-1.3330108E-1,1.3214207E-2,2.3178168E-1,6.910336E-3,3.1998175E-1,-3.0054072E-2],"split_indices":[24,24,67,0,1,49,0,0,37,0,0,0,0],"split_type":[0,0,0,0,0,0,0,0,0,0,0,0,0],"sum_hessian":[9.016323E2,4.662987E2,4.3533365E2,4.5841977E2,7.8789473E0,4.3381763E2,1.5160049E0,4.253283E0,3.6256647E0,4.3280188E2,1.015755E0,1.729651E0,1.8960137E0],"tree_param":{"num_deleted":"0","num_feature":"71","num_nodes":"13","size_leaf_vector":"0"}},{"base_weights":[7.262493E-3,-5.004261E-1,7.386352E-1,4.57274E-1,-5.078169E-1,-3.1250264E-2,7.563943E-1,3.1272656E-1,-9.9070825E-2,-5.111159E-1,1.2350373E-1,1.9999431E-1,-3.649851E-1,-1.0260817E-1,7.634931E-1,-1.5389986E-1,-2.6287597E-1,-8.79661E-2,1.5051544E-1,5.5126965E-2,-1.5090656E-1,-1.1219529E-1,7.7051073E-1,6.9523394E-2,-1.2684643E-1,5.9905764E-2,-1.0040708E-1,7.751448E-1,-9.864223E-2,-4.496212E-3,2.3349188E-1],"categories":[],"categories_nodes":[],"categories_segments":[],"categories_sizes":[],"default_left":[0,0,0,0,0,0,0,0,0,0,0,0,0,0,0,0,0,0,0,0,0,0,0,0,0,0,0,0,0,0,0],"id":53,"left_children":[1,3,5,7,9,11,13,-1,-1,15,17,-1,19,-1,21,-1,23,-1,-1,-1,-1,25,27,-1,-1,-1,-1,29,-1,-1,-1],"loss_changes":[2.9826694E2,3.5883636E0,4.5236664E0,2.259984E0,1.0440903E0,2.1954265E0,2.7699738E0,0E0,0E0,8.43277E-2,6.5995616E-1,0E0,5.708586E-1,0E0,2.052887E0,0E0,5.3951174E-1,0E0,0E0,0E0,0E0,3.039363E-1,1.8726959E0,0E0,0E0,0E0,0E0,8.0236816E-1,0E0,0E0,0E0],"parents":[2147483647,0,0,1,1,2,2,3,3,4,4,5,5,6,6,9,9,10,10,12,12,14,14,16,16,21,21,22,22,27,27],"right_children":[2,4,6,8,10,12,14,-1,-1,16,18,-1,20,-1,22,-1,24,-1,-1,-1,-1,26,28,-1,-1,-1,-1,30,-1,-1,-1],"split_conditions":[1.8846976E-2,1.2086681E-3,1.422514E-2,6.984609E-3,7.1877784E-1,6.834739E-3,1.0039054E-2,3.1272656E-1,-9.9070825E-2,5.315313E-2,7.3620817E-3,1.9999431E-1,8.370283E-11,-1.0260817E-1,2.68316E-4,-1.5389986E-1,1.4799004E-12,-8.79661E-2,1.5051544E-1,5.5126965E-2,-1.5090656E-1,2.2216843E-2,9.0338457E-1,6.9523394E-2,-1.2684643E-1,5.9905764E-2,-1.0040708E-1,4.643782E-3,-9.864223E-2,-4.496212E-3,2.3349188E-1],"split_indices":[25,28,41,63,67,44,35,0,0,11,56,0,19,0,11,0,22,0,0,0,0,36,49,0,0,0,0,65,0,0,0],"split_type":[0,0,0,0,0,0,0,0,0,0,0,0,0,0,0,0,0,0,0,0,0,0,0,0,0,0,0,0,0,0,0],"sum_hessian":[8.012882E2,4.731576E2,3.281306E2,3.1573303E0,4.7000024E2,7.3812885E0,3.2074933E2,1.6256909E0,1.5316393E0,4.677464E2,2.2538478E0,2.0651538E0,5.3161345E0,1.7566435E0,3.189927E2,4.631654E2,4.580991E0,1.1792507E0,1.0745971E0,1.0019271E0,4.3142076E0,2.4168699E0,3.1657584E2,1.0096911E0,3.5712998E0,1.0489811E0,1.3678888E0,3.155406E2,1.0352454E0,1.2425866E0,3.14298E2],"tree_param":{"num_deleted":"0","num_feature":"71","num_nodes":"31","size_leaf_vector":"0"}},{"base_weights":[-2.537851E-1,-5.098665E-1,7.558225E-1,-1.325297E-1,-1.5397027E-1,-1.04301974E-1,7.753789E-1,8.6293355E-2,-1.1711882E-1,7.851213E-1,-1.8069124E-2,5.4208264E-2,2.374148E-1],"categories":[],"categories_nodes":[],"categories_segments":[],"categories_sizes":[],"default_left":[0,0,0,0,0,0,0,0,0,0,0,0,0],"id":54,"left_children":[1,3,5,7,-1,-1,9,-1,-1,11,-1,-1,-1],"loss_changes":[1.6228444E2,5.674896E-1,3.0124435E0,7.376879E-1,0E0,0E0,1.0664902E0,0E0,0E0,3.2561493E-1,0E0,0E0,0E0],"parents":[2147483647,0,0,1,1,2,2,3,3,6,6,9,9],"right_children":[2,4,6,8,-1,-1,10,-1,-1,12,-1,-1,-1],"split_conditions":[2.523018E-2,5.0169076E-3,4.665781E-4,1.0431761E-2,-1.5397027E-1,-1.04301974E-1,7.4462513E-3,8.6293355E-2,-1.1711882E-1,8.040305E-5,-1.8069124E-2,5.4208264E-2,2.374148E-1],"split_indices":[68,58,12,31,0,0,69,0,0,0,0,0,0],"split_type":[0,0,0,0,0,0,0,0,0,0,0,0,0],"sum_hessian":[6.25201E2,4.9910162E2,1.2609939E2,4.772032E0,4.943296E2,1.9036851E0,1.241957E2,1.7709385E0,3.0010931E0,1.2282411E2,1.3715904E0,1.5654472E0,1.2125867E2],"tree_param":{"num_deleted":"0","num_feature":"71","num_nodes":"13","size_leaf_vector":"0"}},{"base_weights":[-3.2426104E-1,-5.0947416E-1,7.8414613E-1,-1.539502E-1,-3.5804346E-2,7.938068E-1,3.629514E-3,1.7728718E-1,-1.18872076E-1,8.031797E-1,8.741691E-3,2.4312167E-1,8.4876895E-2],"categories":[],"categories_nodes":[],"categories_segments":[],"categories_sizes":[],"default_left":[0,0,0,0,0,0,0,0,0,0,0,0,0],"id":55,"left_children":[1,3,5,-1,7,9,-1,-1,-1,11,-1,-1,-1],"loss_changes":[1.2138876E2,8.6605835E-1,6.2268066E-1,0E0,1.3606293E0,5.765686E-1,0E0,0E0,0E0,8.1459045E-2,0E0,0E0,0E0],"parents":[2147483647,0,0,1,1,2,2,4,4,5,5,9,9],"right_children":[2,4,6,-1,8,10,-1,-1,-1,12,-1,-1,-1],"split_conditions":[1.6665438E-1,2.637554E-3,1.5078792E-4,-1.539502E-1,9.12479E-5,8.725468E-3,3.629514E-3,1.7728718E-1,-1.18872076E-1,1.6815622E-3,8.741691E-3,2.4312167E-1,8.4876895E-2],"split_indices":[13,27,20,0,11,59,0,0,0,0,0,0,0],"split_type":[0,0,0,0,0,0,0,0,0,0,0,0,0],"sum_hessian":[5.883533E2,5.0457922E2,8.377407E1,5.005928E2,3.9864163E0,8.271092E1,1.0631481E0,1.2219706E0,2.7644458E0,8.1659615E1,1.0513073E0,7.999091E1,1.6686978E0],"tree_param":{"num_deleted":"0","num_feature":"71","num_nodes":"13","size_leaf_vector":"0"}},{"base_weights":[-1.01886034E-1,-5.0740546E-1,6.7761886E-1,-1.5288447E-1,1.0911846E-2,-8.014411E-2,6.8381935E-1,6.380606E-2,2.0734708E-1,1.5259613E-1,-1.1021892E-1],"categories":[],"categories_nodes":[],"categories_segments":[],"categories_sizes":[],"default_left":[0,0,0,0,0,0,0,0,0,0,0],"id":56,"left_children":[1,3,5,-1,-1,-1,7,9,-1,-1,-1],"loss_changes":[1.8213641E2,4.7373962E-1,1.3380585E0,0E0,0E0,0E0,8.486099E-1,8.384477E-1,0E0,0E0,0E0],"parents":[2147483647,0,0,1,1,2,2,6,6,7,7],"right_children":[2,4,6,-1,-1,-1,8,10,-1,-1,-1],"split_conditions":[8.611459E-3,2.8314644E-2,1.6815622E-3,-1.5288447E-1,1.0911846E-2,-8.014411E-2,8.691204E-3,4.22814E-4,2.0734708E-1,1.5259613E-1,-1.1021892E-1],"split_indices":[14,42,0,0,0,0,30,6,0,0,0],"split_type":[0,0,0,0,0,0,0,0,0,0,0],"sum_hessian":[5.741031E2,3.7787265E2,1.9623044E2,3.7640607E2,1.4665781E0,1.0050558E0,1.9522537E2,2.3967896E0,1.9282858E2,1.0913191E0,1.3054706E0],"tree_param":{"num_deleted":"0","num_feature":"71","num_nodes":"11","size_leaf_vector":"0"}},{"base_weights":[2.5258616E-1,-1.5287864E-1,6.725663E-1,-1.2143848E-1,6.773811E-1,6.809915E-1,1.2875363E-1,6.819861E-1,2.3430247E-2,1.7463705E-1,-1.1592797E-1,6.8267703E-1,5.922757E-2,2.0546117E-1,1.2639995E-1],"categories":[],"categories_nodes":[],"categories_segments":[],"categories_sizes":[],"default_left":[0,0,0,0,0,0,0,0,0,0,0,0,0,0,0],"id":57,"left_children":[1,-1,3,-1,5,7,9,11,-1,-1,-1,13,-1,-1,-1],"loss_changes":[3.0124936E2,0E0,3.4203491E0,0E0,1.1090393E0,3.0651855E-1,1.4355433E0,6.573486E-2,0E0,0E0,0E0,5.404663E-2,0E0,0E0,0E0],"parents":[2147483647,0,0,2,2,4,4,5,5,6,6,7,7,11,11],"right_children":[2,-1,4,-1,6,8,10,12,-1,-1,-1,14,-1,-1,-1],"split_conditions":[1.557274E-3,-1.5287864E-1,1.021384E-2,-1.2143848E-1,7.5899693E-3,7.5769186E-1,6.689808E-3,1.5858049E-2,2.3430247E-2,1.7463705E-1,-1.1592797E-1,2.1007548E-7,5.922757E-2,2.0546117E-1,1.2639995E-1],"split_indices":[1,0,15,0,11,38,48,69,0,0,0,20,0,0,0],"split_type":[0,0,0,0,0,0,0,0,0,0,0,0,0,0,0],"sum_hessian":[9.3903613E2,3.3353043E2,6.0550574E2,2.32443E0,6.031813E2,5.989982E2,4.1830716E0,5.978807E2,1.1175482E0,2.1558952E0,2.0271766E0,5.966211E2,1.2595642E0,5.9004803E2,6.5730476E0],"tree_param":{"num_deleted":"0","num_feature":"71","num_nodes":"15","size_leaf_vector":"0"}},{"base_weights":[-2.6442948E-1,-5.034731E-1,6.4708394E-1,-1.5292573E-1,1.943557E-1,-9.050262E-2,6.8212116E-1,-1.0424381E-1,2.3672894E-1,-1.205884E-1,1.7576717E-1,6.990334E-1,-1.5140262E-2,2.1219553E-1,-9.578324E-3],"categories":[],"categories_nodes":[],"categories_segments":[],"categories_sizes":[],"default_left":[0,0,0,0,0,0,0,0,0,0,0,0,0,0,0],"id":58,"left_children":[1,3,5,-1,7,9,11,-1,-1,-1,-1,13,-1,-1,-1],"loss_changes":[1.0684374E2,1.7986069E0,2.6978302E0,0E0,1.6221354E0,1.3959922E0,1.2432251E0,0E0,0E0,0E0,0E0,6.001053E-1,0E0,0E0,0E0],"parents":[2147483647,0,0,1,1,2,2,4,4,5,5,6,6,11,11],"right_children":[2,4,6,-1,8,10,12,-1,-1,-1,-1,14,-1,-1,-1],"split_conditions":[5.7566212E-3,1.602217E-2,8.517936E-3,-1.5292573E-1,8.8860714E-1,1.936874E-5,9.0646094E-1,-1.0424381E-1,2.3672894E-1,-1.205884E-1,1.7576717E-1,1.3694628E-3,-1.5140262E-2,2.1219553E-1,-9.578324E-3],"split_indices":[2,16,44,0,67,22,63,0,0,0,0,10,0,0,0],"split_type":[0,0,0,0,0,0,0,0,0,0,0,0,0,0,0],"sum_hessian":[4.8785785E2,3.868535E2,1.0100435E2,3.8367062E2,3.1828868E0,4.5085917E0,9.649576E1,1.8830718E0,1.299815E0,3.3648894E0,1.1437023E0,9.436313E1,2.1326246E0,9.333755E1,1.0255841E0],"tree_param":{"num_deleted":"0","num_feature":"71","num_nodes":"15","size_leaf_vector":"0"}},{"base_weights":[1.6747828E-1,-5.0748754E-1,6.7080504E-1,-4.9210736E-3,-1.5296082E-1,-9.086884E-3,6.8372035E-1,3.941014E-1,-3.5132134E-1,6.866878E-1,1.9352366E-1,-7.9788245E-2,1.9468163E-1,-1.3055208E-1,6.8801357E-3,6.8819743E-1,4.1943535E-4,-9.1835216E-2,1.4874509E-1,6.807771E-1,2.8673127E-1,-1.4693561E-2,2.0487449E-1],"categories":[],"categories_nodes":[],"categories_segments":[],"categories_sizes":[],"default_left":[0,0,0,0,0,0,0,0,0,0,0,0,0,0,0,0,0,0,0,0,0,0,0],"id":59,"left_children":[1,3,5,-1,-1,7,9,11,13,15,17,-1,-1,-1,-1,19,-1,-1,-1,21,-1,-1,-1],"loss_changes":[2.7683087E2,3.9894867E-1,4.1037445E0,0E0,0E0,1.4749652E0,5.3326416E-1,9.998828E-1,1.9098163E-1,4.6954346E-1,7.782834E-1,0E0,0E0,0E0,0E0,2.5035095E-1,0E0,0E0,0E0,7.277527E-1,0E0,0E0,0E0],"parents":[2147483647,0,0,1,1,2,2,5,5,6,6,7,7,8,8,9,9,10,10,15,15,19,19],"right_children":[2,4,6,-1,-1,8,10,12,14,16,18,-1,-1,-1,-1,20,-1,-1,-1,22,-1,-1,-1],"split_conditions":[1.7830493E-3,5.32344E-3,2.3968277E-2,-4.9210736E-3,-1.5296082E-1,1.147621E-8,8.8860714E-1,1.3034912E-4,9.165026E-3,3.814921E-2,1.3847143E-2,-7.9788245E-2,1.9468163E-1,-1.3055208E-1,6.8801357E-3,3.2890707E-2,4.1943535E-4,-9.1835216E-2,1.4874509E-1,1.02917375E-2,2.8673127E-1,-1.4693561E-2,2.0487449E-1],"split_indices":[17,64,3,0,0,22,67,0,69,50,34,0,0,0,0,40,0,0,0,45,0,0,0],"split_type":[0,0,0,0,0,0,0,0,0,0,0,0,0,0,0,0,0,0,0,0,0,0,0],"sum_hessian":[8.128574E2,3.4722168E2,4.6563577E2,1.7140346E0,3.4550766E2,8.685906E0,4.5694986E2,3.9182453E0,4.7676606E0,4.5380188E2,3.147994E0,1.0792351E0,2.8390105E0,3.7620065E0,1.005654E0,4.5280014E2,1.0017272E0,1.1818839E0,1.9661101E0,4.440305E2,8.769665E0,1.2330211E0,4.4279745E2],"tree_param":{"num_deleted":"0","num_feature":"71","num_nodes":"23","size_leaf_vector":"0"}},{"base_weights":[-2.7267432E-1,-1.528905E-1,6.8309134E-1,2.2956284E-2,6.949759E-1,2.1057434E-1,4.8596885E-2],"categories":[],"categories_nodes":[],"categories_segments":[],"categories_sizes":[],"default_left":[0,0,0,0,0,0,0],"id":60,"left_children":[1,-1,3,-1,5,-1,-1],"loss_changes":[1.0999668E2,0E0,6.4328766E-1,0E0,2.3625946E-1,0E0,0E0],"parents":[2147483647,0,0,2,2,4,4],"right_children":[2,-1,4,-1,6,-1,-1],"split_conditions":[5.029453E-2,-1.528905E-1,7.2675864E-3,2.2956284E-2,7.4165966E-3,2.1057434E-1,4.8596885E-2],"split_indices":[18,0,61,0,65,0,0],"split_type":[0,0,0,0,0,0,0],"sum_hessian":[4.8314484E2,3.875318E2,9.561303E1,1.9802976E0,9.363274E1,9.21166E1,1.5161381E0],"tree_param":{"num_deleted":"0","num_feature":"71","num_nodes":"7","size_leaf_vector":"0"}},{"base_weights":[9.0141356E-2,-4.997057E-1,6.7382973E-1,-5.04558E-1,1.7697108E-1,-5.2046824E-2,6.7977536E-1,-1.5284957E-1,-1.9631115E-1,1.1707389E-1,-1.0605117E-1,6.835084E-1,-4.0391266E-2,9.684975E-2,-1.2791082E-1,2.9475772E-1,2.0567347E-1,1.0504193E-2,1.288096E-1],"categories":[],"categories_nodes":[],"categories_segments":[],"categories_sizes":[],"default_left":[0,0,0,0,0,0,0,0,0,0,0,0,0,0,0,0,0,0,0],"id":61,"left_children":[1,3,5,7,-1,9,11,-1,13,-1,-1,15,-1,-1,-1,17,-1,-1,-1],"loss_changes":[2.5117303E2,2.216591E0,1.6176453E0,4.5108032E-1,0E0,6.589445E-1,1.197815E0,0E0,1.0137365E0,0E0,0E0,8.937073E-2,0E0,0E0,0E0,1.1337161E-1,0E0,0E0,0E0],"parents":[2147483647,0,0,1,1,2,2,3,3,5,5,6,6,8,8,11,11,15,15],"right_children":[2,4,6,8,-1,10,12,-1,14,-1,-1,16,-1,-1,-1,18,-1,-1,-1],"split_conditions":[3.1665724E-2,9.062052E-1,1.6188925E-2,1.2193344E-3,1.7697108E-1,8.432461E-5,1.2556593E-3,-1.5284957E-1,9.915609E-3,1.1707389E-1,-1.0605117E-1,6.4195767E-3,-4.0391266E-2,9.684975E-2,-1.2791082E-1,1.12232236E-4,2.0567347E-1,1.0504193E-2,1.288096E-1],"split_indices":[5,47,47,19,0,0,6,0,32,0,0,42,0,0,0,1,0,0,0],"split_type":[0,0,0,0,0,0,0,0,0,0,0,0,0,0,0,0,0,0,0],"sum_hessian":[7.2756775E2,3.6194632E2,3.6562146E2,3.608762E2,1.0701424E0,2.90746E0,3.62714E2,3.5454077E2,6.335397E0,1.0590721E0,1.8483877E0,3.61219E2,1.4950002E0,1.8215866E0,4.51381E0,2.6725574E0,3.5854642E2,1.3423771E0,1.3301804E0],"tree_param":{"num_deleted":"0","num_feature":"71","num_nodes":"19","size_leaf_vector":"0"}},{"base_weights":[-6.345218E-2,-5.070315E-1,6.785947E-1,-1.5288185E-1,-8.1614174E-2,-8.896331E-2,6.857028E-1,-9.07624E-2,6.7617685E-2,2.0676403E-1,2.8477719E-2],"categories":[],"categories_nodes":[],"categories_segments":[],"categories_sizes":[],"default_left":[0,0,0,0,0,0,0,0,0,0,0],"id":62,"left_children":[1,3,5,-1,7,-1,9,-1,-1,-1,-1],"loss_changes":[1.9760413E2,3.698578E-1,1.7603989E0,0E0,3.022208E-1,0E0,3.977356E-1,0E0,0E0,0E0,0E0],"parents":[2147483647,0,0,1,1,2,2,4,4,6,6],"right_children":[2,4,6,-1,8,-1,10,-1,-1,-1,-1],"split_conditions":[4.8751906E-2,9.0943456E-1,1.29382005E-2,-1.5288185E-1,2.0993686E-12,-8.896331E-2,2.4975536E-3,-9.07624E-2,6.7617685E-2,2.0676403E-1,2.8477719E-2],"split_indices":[20,42,48,0,27,0,25,0,0,0,0],"split_type":[0,0,0,0,0,0,0,0,0,0,0],"sum_hessian":[5.9828925E2,3.7464902E2,2.2364023E2,3.7219858E2,2.450448E0,1.323711E0,2.2231651E2,1.4334539E0,1.0169941E0,2.208376E2,1.478914E0],"tree_param":{"num_deleted":"0","num_feature":"71","num_nodes":"11","size_leaf_vector":"0"}},{"base_weights":[1.9742185E-1,-4.9654797E-1,6.56453E-1,-5.037198E-1,4.4262883E-1,6.985596E-2,6.7083263E-1,-5.0649947E-1,5.7771136E-3,1.8415698E-1,2.1718662E-2,-1.3279982E-1,4.9738902E-1,3.1492126E-1,6.8384564E-1,-7.250787E-2,-1.5281269E-1,8.418557E-1,-1.5387365E-1,5.000718E-1,-3.609454E-1,6.856498E-1,-2.2176782E-2,-9.075913E-2,7.161071E-2,3.1523025E-1,2.1079464E-2,-9.9152155E-2,4.3560795E-2,1.9077648E-1,-9.418271E-2,8.443163E-2,-1.8450102E-1,2.471287E-1,6.894755E-1,-1.2083303E-1,1.5243676E-1,2.074114E-1,2.1885324E-2],"categories":[],"categories_nodes":[],"categories_segments":[],"categories_sizes":[],"default_left":[0,0,0,0,0,0,0,0,0,0,0,0,0,0,0,0,0,0,0,0,0,0,0,0,0,0,0,0,0,0,0,0,0,0,0,0,0,0,0],"id":63,"left_children":[1,3,5,7,9,11,13,15,-1,-1,-1,-1,17,19,21,23,-1,25,27,29,31,33,-1,-1,-1,-1,-1,-1,-1,-1,-1,-1,-1,35,37,-1,-1,-1,-1],"loss_changes":[2.742336E2,2.5325317E0,4.3221283E0,5.051193E-1,1.5403682E-1,3.1803696E0,2.125595E0,3.8620758E-1,0E0,0E0,0E0,0E0,1.8875222E0,2.6434681E0,7.16156E-1,3.1544772E-1,0E0,7.772608E-1,2.3586355E-1,1.9544926E0,9.5861155E-1,6.444702E-1,0E0,0E0,0E0,0E0,0E0,0E0,0E0,0E0,0E0,0E0,0E0,1.181572E0,5.1168823E-1,0E0,0E0,0E0,0E0],"parents":[2147483647,0,0,1,1,2,2,3,3,4,4,5,5,6,6,7,7,12,12,13,13,14,14,15,15,17,17,18,18,19,19,20,20,21,21,33,33,34,34],"right_children":[2,4,6,8,10,12,14,16,-1,-1,-1,-1,18,20,22,24,-1,26,28,30,32,34,-1,-1,-1,-1,-1,-1,-1,-1,-1,-1,-1,36,38,-1,-1,-1,-1],"split_conditions":[1.1710967E-2,9.064395E-1,2.33672E-2,3.0062267E-1,6.7941193E-3,3.8196262E-2,6.8420437E-3,5.2518416E-3,5.7771136E-3,1.8415698E-1,2.1718662E-2,-1.3279982E-1,2.9902355E-4,6.0874368E-6,4.5234222E-2,1.2300255E-2,-1.5281269E-1,1.8648517E-7,8.8821935E-8,9.029063E-8,6.9393483E-3,6.3931937E-3,-2.2176782E-2,-9.075913E-2,7.161071E-2,3.1523025E-1,2.1079464E-2,-9.9152155E-2,4.3560795E-2,1.9077648E-1,-9.418271E-2,8.443163E-2,-1.8450102E-1,7.3958053E-3,9.0542454E-1,-1.2083303E-1,1.5243676E-1,2.074114E-1,2.1885324E-2],"split_indices":[21,63,49,49,43,7,44,49,0,0,0,0,5,17,17,32,0,16,23,24,66,69,0,0,0,0,0,0,0,0,0,0,0,47,67,0,0,0,0],"split_type":[0,0,0,0,0,0,0,0,0,0,0,0,0,0,0,0,0,0,0,0,0,0,0,0,0,0,0,0,0,0,0,0,0,0,0,0,0,0,0],"sum_hessian":[8.588474E2,3.4189062E2,5.1695685E2,3.3975977E2,2.130841E0,1.2509451E1,5.044474E2,3.379948E2,1.7649648E0,1.0070621E0,1.1237789E0,5.673147E0,6.8363037E0,1.868217E1,4.857652E2,2.3978033E0,3.3559702E2,4.279915E0,2.5563893E0,1.4868983E1,3.8131871E0,4.8470633E2,1.0588614E0,1.3947802E0,1.0030231E0,3.0832822E0,1.1966324E0,1.5411172E0,1.0152721E0,1.2929911E1,1.9390728E0,1.0501401E0,2.763047E0,4.759371E0,4.7994696E2,1.2080188E0,3.5513523E0,4.7835464E2,1.5923216E0],"tree_param":{"num_deleted":"0","num_feature":"71","num_nodes":"39","size_leaf_vector":"0"}},{"base_weights":[1.0224952E-1,-5.07322E-1,6.775589E-1,-1.5287256E-1,1.7233577E-2,-1.1019702E-1,6.8140376E-1,-2.8144639E-2,6.844557E-1,2.058195E-1,4.2867187E-2],"categories":[],"categories_nodes":[],"categories_segments":[],"categories_sizes":[],"default_left":[0,0,0,0,0,0,0,0,0,0,0],"id":64,"left_children":[1,3,5,-1,-1,-1,7,-1,9,-1,-1],"loss_changes":[2.6012973E2,4.8770142E-1,1.7830658E0,0E0,0E0,0E0,9.6440125E-1,0E0,2.323761E-1,0E0,0E0],"parents":[2147483647,0,0,1,1,2,2,6,6,8,8],"right_children":[2,4,6,-1,-1,-1,8,-1,10,-1,-1],"split_conditions":[5.1074494E-3,1.2842335E-1,6.0016564E-3,-1.5287256E-1,1.7233577E-2,-1.1019702E-1,1.1745653E-2,-2.8144639E-2,7.8566006E-4,2.058195E-1,4.2867187E-2],"split_indices":[8,22,63,0,0,0,36,0,9,0,0],"split_type":[0,0,0,0,0,0,0,0,0,0,0],"sum_hessian":[7.3978064E2,3.592519E2,3.8052872E2,3.5792166E2,1.3302239E0,1.0485157E0,3.7948022E2,1.3714972E0,3.781087E2,3.7672247E2,1.3862376E0],"tree_param":{"num_deleted":"0","num_feature":"71","num_nodes":"11","size_leaf_vector":"0"}},{"base_weights":[-2.924053E-1,-5.071437E-1,6.3705724E-1,-1.5288891E-1,-7.425032E-2,-1.1655636E-1,6.750296E-1,6.2188115E-2,-8.8552356E-2,6.9401455E-1,-4.4645615E-2,2.1087565E-1,-6.6571147E-3],"categories":[],"categories_nodes":[],"categories_segments":[],"categories_sizes":[],"default_left":[0,0,0,0,0,0,0,0,0,0,0,0,0],"id":65,"left_children":[1,3,5,-1,7,-1,9,-1,-1,11,-1,-1,-1],"loss_changes":[9.545424E1,3.7943268E-1,3.7630959E0,0E0,2.7170488E-1,0E0,1.464817E0,0E0,0E0,5.593643E-1,0E0,0E0,0E0],"parents":[2147483647,0,0,1,1,2,2,4,4,6,6,9,9],"right_children":[2,4,6,-1,8,-1,10,-1,-1,12,-1,-1,-1],"split_conditions":[7.8566006E-4,9.0736556E-1,3.3813164E-6,-1.5288891E-1,2.8455662E-4,-1.1655636E-1,2.5524078E-3,6.2188115E-2,-8.8552356E-2,3.0062267E-1,-4.4645615E-2,2.1087565E-1,-6.6571147E-3],"split_indices":[9,69,23,0,6,0,3,0,0,49,0,0,0],"split_type":[0,0,0,0,0,0,0,0,0,0,0,0,0],"sum_hessian":[4.756299E2,3.86735E2,8.889493E1,3.8435046E2,2.3845246E0,2.8442454E0,8.605068E1,1.07555E0,1.3089746E0,8.426642E1,1.7842618E0,8.324996E1,1.016459E0],"tree_param":{"num_deleted":"0","num_feature":"71","num_nodes":"13","size_leaf_vector":"0"}},{"base_weights":[1.01927E-1,-5.0005007E-1,6.7729425E-1,-1.5711856E-1,-1.5294975E-1,-1.2234536E-1,6.84083E-1,-1.3738218E-1,2.787417E-1,2.058458E-1,9.888279E-3],"categories":[],"categories_nodes":[],"categories_segments":[],"categories_sizes":[],"default_left":[0,0,0,0,0,0,0,0,0,0,0],"id":66,"left_children":[1,3,5,7,-1,-1,9,-1,-1,-1,-1],"loss_changes":[2.567507E2,1.1355286E0,3.0704956E0,4.1818953E0,0E0,0E0,4.8538208E-1,0E0,0E0,0E0,0E0],"parents":[2147483647,0,0,1,1,2,2,3,3,6,6],"right_children":[2,4,6,8,-1,-1,10,-1,-1,-1,-1],"split_conditions":[4.7742976E-3,4.510281E-5,7.838539E-3,5.5668445E-4,-1.5294975E-1,-1.2234536E-1,2.9642044E-2,-1.3738218E-1,2.787417E-1,2.058458E-1,9.888279E-3],"split_indices":[10,7,52,24,0,0,53,0,0,0,0],"split_type":[0,0,0,0,0,0,0,0,0,0,0],"sum_hessian":[7.393095E2,3.6136395E2,3.7794556E2,1.0495557E1,3.5086838E2,1.9825417E0,3.75963E2,8.6723175E0,1.8232392E0,3.7471814E2,1.2448771E0],"tree_param":{"num_deleted":"0","num_feature":"71","num_nodes":"11","size_leaf_vector":"0"}},{"base_weights":[8.255177E-3,-4.943418E-1,6.430488E-1,3.8580564E-1,-5.0308025E-1,-8.482055E-2,6.588454E-1,2.4936289E-1,-9.3424276E-2,-1.5283725E-1,-5.7524588E-2,-1.3000043E-1,2.0579244E-1,-2.1440637E-1,6.667075E-1,1.4586906E-1,-1.24292545E-1,1.0068629E-2,-1.0221859E-1,6.9012105E-1,3.787557E-1,6.9708043E-1,2.0219797E-1,-4.5020506E-1,5.5477184E-1,4.2054273E-2,2.0966174E-1,-1.6685069E-1,1.6458288E-1,-2.0848727E-1,6.2242184E-2,-7.030811E-2,1.981193E-1],"categories":[],"categories_nodes":[],"categories_segments":[],"categories_sizes":[],"default_left":[0,0,0,0,0,0,0,0,0,0,0,0,0,0,0,0,0,0,0,0,0,0,0,0,0,0,0,0,0,0,0,0,0],"id":67,"left_children":[1,3,5,7,9,11,13,-1,-1,-1,15,-1,-1,17,19,-1,-1,-1,-1,21,23,25,27,29,31,-1,-1,-1,-1,-1,-1,-1,-1],"loss_changes":[2.1056041E2,3.0270996E0,3.4089584E0,1.5591354E0,1.0082703E0,2.1993203E0,2.103386E0,0E0,0E0,0E0,1.4198022E0,0E0,0E0,1.1494726E-1,1.6482086E0,0E0,0E0,0E0,0E0,7.4438477E-1,3.680863E0,1.5816498E-1,1.6383777E0,8.960001E-1,1.8088679E0,0E0,0E0,0E0,0E0,0E0,0E0,0E0,0E0],"parents":[2147483647,0,0,1,1,2,2,3,3,4,4,5,5,6,6,10,10,13,13,14,14,19,19,20,20,21,21,22,22,23,23,24,24],"right_children":[2,4,6,8,10,12,14,-1,-1,-1,16,-1,-1,18,20,-1,-1,-1,-1,22,24,26,28,30,32,-1,-1,-1,-1,-1,-1,-1,-1],"split_conditions":[1.8846976E-2,1.2086681E-3,7.4930633E-3,6.984609E-3,5.315313E-2,9.9422395E-1,6.830662E-3,2.4936289E-1,-9.3424276E-2,-1.5283725E-1,3.4310194E-12,-1.3000043E-1,2.0579244E-1,1.2384044E-4,8.088821E-3,1.4586906E-1,-1.24292545E-1,1.0068629E-2,-1.0221859E-1,5.5126183E-2,6.7652008E-3,2.2720367E-5,3.2855588E-4,7.385723E-3,7.255633E-3,4.2054273E-2,2.0966174E-1,-1.6685069E-1,1.6458288E-1,-2.0848727E-1,6.2242184E-2,-7.030811E-2,1.981193E-1],"split_indices":[25,28,53,63,11,11,67,0,0,0,20,0,0,12,42,0,0,0,0,2,51,9,5,62,66,0,0,0,0,0,0,0,0],"split_type":[0,0,0,0,0,0,0,0,0,0,0,0,0,0,0,0,0,0,0,0,0,0,0,0,0,0,0,0,0,0,0,0,0],"sum_hessian":[6.5797375E2,3.6734787E2,2.9062592E2,3.187113E0,3.6416077E2,6.080525E0,2.8454538E2,1.8274858E0,1.3596271E0,3.5888068E2,5.2800756E0,4.48875E0,1.5917747E0,2.3045566E0,2.822408E2,1.9481668E0,3.3319087E0,1.0256118E0,1.278945E0,2.597257E2,2.2515114E1,2.5565063E2,4.075075E0,3.6705668E0,1.8844545E1,1.0741377E0,2.5457649E2,1.0879067E0,2.9871688E0,2.6337469E0,1.0368199E0,2.0807145E0,1.6763832E1],"tree_param":{"num_deleted":"0","num_feature":"71","num_nodes":"33","size_leaf_vector":"0"}},{"base_weights":[-2.4530752E-1,-5.054274E-1,6.6426635E-1,-1.0357414E-1,-1.5289436E-1,6.855647E-1,-2.1376708E-1,9.1222525E-2,-1.1294862E-1,1.9238427E-2,6.9578975E-1,1.854558E-2,-1.0639842E-1,2.105778E-1,3.5048E-2],"categories":[],"categories_nodes":[],"categories_segments":[],"categories_sizes":[],"default_left":[0,0,0,0,0,0,0,0,0,0,0,0,0,0,0],"id":68,"left_children":[1,3,5,7,-1,9,11,-1,-1,-1,13,-1,-1,-1,-1],"loss_changes":[1.181758E2,6.050339E-1,2.2259216E0,7.026129E-1,0E0,6.46698E-1,1.537708E-1,0E0,0E0,0E0,2.9789352E-1,0E0,0E0,0E0,0E0],