{"learner":{"attributes":{"best_iteration":"99","best_ntree_limit":"100","scikit_learn":"{\"use_label_encoder\": false, \"n_estimators\": 100, \"objective\": \"multi:softprob\", \"max_depth\": null, \"max_leaves\": null, \"max_bin\": null, \"grow_policy\": null, \"learning_rate\": null, \"verbosity\": null, \"booster\": null, \"tree_method\": \"gpu_hist\", \"gamma\": null, \"min_child_weight\": null, \"max_delta_step\": null, \"subsample\": null, \"sampling_method\": null, \"colsample_bytree\": null, \"colsample_bylevel\": null, \"colsample_bynode\": null, \"reg_alpha\": null, \"reg_lambda\": null, \"scale_pos_weight\": null, \"base_score\": null, \"missing\": NaN, \"num_parallel_tree\": null, \"random_state\": null, \"n_jobs\": null, \"monotone_constraints\": null, \"interaction_constraints\": null, \"importance_type\": null, \"gpu_id\": 0, \"validate_parameters\": null, \"predictor\": null, \"enable_categorical\": false, \"max_cat_to_onehot\": null, \"eval_metric\": null, \"early_stopping_rounds\": null, \"callbacks\": null, \"kwargs\": {\"num_class\": 14}, \"classes_\": [0, 1, 2, 3, 4, 5, 6, 7, 8, 9, 10, 11, 12, 13], \"n_classes_\": 14, \"_estimator_type\": \"classifier\"}"},"feature_names":[],"feature_types":[],"gradient_booster":{"model":{"gbtree_model_param":{"num_parallel_tree":"1","num_trees":"1400","size_leaf_vector":"0"},"tree_info":[0,1,2,3,4,5,6,7,8,9,10,11,12,13,0,1,2,3,4,5,6,7,8,9,10,11,12,13,0,1,2,3,4,5,6,7,8,9,10,11,12,13,0,1,2,3,4,5,6,7,8,9,10,11,12,13,0,1,2,3,4,5,6,7,8,9,10,11,12,13,0,1,2,3,4,5,6,7,8,9,10,11,12,13,0,1,2,3,4,5,6,7,8,9,10,11,12,13,0,1,2,3,4,5,6,7,8,9,10,11,12,13,0,1,2,3,4,5,6,7,8,9,10,11,12,13,0,1,2,3,4,5,6,7,8,9,10,11,12,13,0,1,2,3,4,5,6,7,8,9,10,11,12,13,0,1,2,3,4,5,6,7,8,9,10,11,12,13,0,1,2,3,4,5,6,7,8,9,10,11,12,13,0,1,2,3,4,5,6,7,8,9,10,11,12,13,0,1,2,3,4,5,6,7,8,9,10,11,12,13,0,1,2,3,4,5,6,7,8,9,10,11,12,13,0,1,2,3,4,5,6,7,8,9,10,11,12,13,0,1,2,3,4,5,6,7,8,9,10,11,12,13,0,1,2,3,4,5,6,7,8,9,10,11,12,13,0,1,2,3,4,5,6,7,8,9,10,11,12,13,0,1,2,3,4,5,6,7,8,9,10,11,12,13,0,1,2,3,4,5,6,7,8,9,10,11,12,13,0,1,2,3,4,5,6,7,8,9,10,11,12,13,0,1,2,3,4,5,6,7,8,9,10,11,12,13,0,1,2,3,4,5,6,7,8,9,10,11,12,13,0,1,2,3,4,5,6,7,8,9,10,11,12,13,0,1,2,3,4,5,6,7,8,9,10,11,12,13,0,1,2,3,4,5,6,7,8,9,10,11,12,13,0,1,2,3,4,5,6,7,8,9,10,11,12,13,0,1,2,3,4,5,6,7,8,9,10,11,12,13,0,1,2,3,4,5,6,7,8,9,10,11,12,13,0,1,2,3,4,5,6,7,8,9,10,11,12,13,0,1,2,3,4,5,6,7,8,9,10,11,12,13,0,1,2,3,4,5,6,7,8,9,10,11,12,13,0,1,2,3,4,5,6,7,8,9,10,11,12,13,0,1,2,3,4,5,6,7,8,9,10,11,12,13,0,1,2,3,4,5,6,7,8,9,10,11,12,13,0,1,2,3,4,5,6,7,8,9,10,11,12,13,0,1,2,3,4,5,6,7,8,9,10,11,12,13,0,1,2,3,4,5,6,7,8,9,10,11,12,13,0,1,2,3,4,5,6,7,8,9,10,11,12,13,0,1,2,3,4,5,6,7,8,9,10,11,12,13,0,1,2,3,4,5,6,7,8,9,10,11,12,13,0,1,2,3,4,5,6,7,8,9,10,11,12,13,0,1,2,3,4,5,6,7,8,9,10,11,12,13,0,1,2,3,4,5,6,7,8,9,10,11,12,13,0,1,2,3,4,5,6,7,8,9,10,11,12,13,0,1,2,3,4,5,6,7,8,9,10,11,12,13,0,1,2,3,4,5,6,7,8,9,10,11,12,13,0,1,2,3,4,5,6,7,8,9,10,11,12,13,0,1,2,3,4,5,6,7,8,9,10,11,12,13,0,1,2,3,4,5,6,7,8,9,10,11,12,13,0,1,2,3,4,5,6,7,8,9,10,11,12,13,0,1,2,3,4,5,6,7,8,9,10,11,12,13,0,1,2,3,4,5,6,7,8,9,10,11,12,13,0,1,2,3,4,5,6,7,8,9,10,11,12,13,0,1,2,3,4,5,6,7,8,9,10,11,12,13,0,1,2,3,4,5,6,7,8,9,10,11,12,13,0,1,2,3,4,5,6,7,8,9,10,11,12,13,0,1,2,3,4,5,6,7,8,9,10,11,12,13,0,1,2,3,4,5,6,7,8,9,10,11,12,13,0,1,2,3,4,5,6,7,8,9,10,11,12,13,0,1,2,3,4,5,6,7,8,9,10,11,12,13,0,1,2,3,4,5,6,7,8,9,10,11,12,13,0,1,2,3,4,5,6,7,8,9,10,11,12,13,0,1,2,3,4,5,6,7,8,9,10,11,12,13,0,1,2,3,4,5,6,7,8,9,10,11,12,13,0,1,2,3,4,5,6,7,8,9,10,11,12,13,0,1,2,3,4,5,6,7,8,9,10,11,12,13,0,1,2,3,4,5,6,7,8,9,10,11,12,13,0,1,2,3,4,5,6,7,8,9,10,11,12,13,0,1,2,3,4,5,6,7,8,9,10,11,12,13,0,1,2,3,4,5,6,7,8,9,10,11,12,13,0,1,2,3,4,5,6,7,8,9,10,11,12,13,0,1,2,3,4,5,6,7,8,9,10,11,12,13,0,1,2,3,4,5,6,7,8,9,10,11,12,13,0,1,2,3,4,5,6,7,8,9,10,11,12,13,0,1,2,3,4,5,6,7,8,9,10,11,12,13,0,1,2,3,4,5,6,7,8,9,10,11,12,13,0,1,2,3,4,5,6,7,8,9,10,11,12,13,0,1,2,3,4,5,6,7,8,9,10,11,12,13,0,1,2,3,4,5,6,7,8,9,10,11,12,13,0,1,2,3,4,5,6,7,8,9,10,11,12,13,0,1,2,3,4,5,6,7,8,9,10,11,12,13,0,1,2,3,4,5,6,7,8,9,10,11,12,13,0,1,2,3,4,5,6,7,8,9,10,11,12,13,0,1,2,3,4,5,6,7,8,9,10,11,12,13,0,1,2,3,4,5,6,7,8,9,10,11,12,13,0,1,2,3,4,5,6,7,8,9,10,11,12,13,0,1,2,3,4,5,6,7,8,9,10,11,12,13,0,1,2,3,4,5,6,7,8,9,10,11,12,13,0,1,2,3,4,5,6,7,8,9,10,11,12,13,0,1,2,3,4,5,6,7,8,9,10,11,12,13,0,1,2,3,4,5,6,7,8,9,10,11,12,13,0,1,2,3,4,5,6,7,8,9,10,11,12,13,0,1,2,3,4,5,6,7,8,9,10,11,12,13,0,1,2,3,4,5,6,7,8,9,10,11,12,13,0,1,2,3,4,5,6,7,8,9,10,11,12,13,0,1,2,3,4,5,6,7,8,9,10,11,12,13,0,1,2,3,4,5,6,7,8,9,10,11,12,13],"trees":[{"base_weights":[-1.556251E-1,-5.371933E-1,6.7899895E0,-1.6140512E-1,-7.040799E-9,5.141079E-1,2.0631926E0],"categories":[],"categories_nodes":[],"categories_segments":[],"categories_sizes":[],"default_left":[0,0,0,0,0,0,0],"id":0,"left_children":[1,3,5,-1,-1,-1,-1],"loss_changes":[3.3925288E3,5.3674316E-1,1.7763184E1,0E0,0E0,0E0,0E0],"parents":[2147483647,0,0,1,1,2,2],"right_children":[2,4,6,-1,-1,-1,-1],"split_conditions":[3.1063594E-2,2.8314644E-2,3.189266E-2,-1.6140512E-1,-7.040799E-9,5.141079E-1,2.0631926E0],"split_indices":[0,42,28,0,0,0,0],"split_type":[0,0,0,0,0,0,0],"sum_hessian":[1.2777142E3,1.212051E3,6.566326E1,1.2101938E3,1.8571428E0,1.4591837E0,6.420408E1],"tree_param":{"num_deleted":"0","num_feature":"57","num_nodes":"7","size_leaf_vector":"0"}},{"base_weights":[6.5065354E-1,-5.3424066E-1,6.8777447E0,-5.370258E-1,2.1212119E-1,3.223256E-1,6.9065404E0,-1.6138738E-1,-8.4337376E-2,-1.1565219E-1,3.223256E-1,2.0791776E0,7.110237E-1,-9.210527E-2,6.2376235E-2],"categories":[],"categories_nodes":[],"categories_segments":[],"categories_sizes":[],"default_left":[0,0,0,0,0,0,0,0,0,0,0,0,0,0,0],"id":1,"left_children":[1,3,5,7,9,-1,11,-1,13,-1,-1,-1,-1,-1,-1],"loss_changes":[9.438595E3,2.3490295E0,2.6751953E1,4.0679932E-1,2.8436253E0,0E0,5.754883E0,0E0,2.8431076E-1,0E0,0E0,0E0,0E0,0E0,0E0],"parents":[2147483647,0,0,1,1,2,2,3,3,4,4,6,6,8,8],"right_children":[2,4,6,8,10,-1,12,-1,14,-1,-1,-1,-1,-1,-1],"split_conditions":[4.6546867E-1,2.4255542E-1,1.7362889E-2,1.0713694E-2,5.344177E-3,3.223256E-1,2.4975536E-3,-1.6138738E-1,3.9211786E-6,-1.1565219E-1,3.223256E-1,2.0791776E0,7.110237E-1,-9.210527E-2,6.2376235E-2],"split_indices":[15,29,29,1,10,0,25,0,0,0,0,0,0,0,0],"split_type":[0,0,0,0,0,0,0,0,0,0,0,0,0,0,0],"sum_hessian":[1.2777142E3,1.0742245E3,2.0348979E2,1.0705101E3,3.7142856E0,1.1938775E0,2.0229591E2,1.0681224E3,2.387755E0,2.5204082E0,1.1938775E0,2.0070407E2,1.5918367E0,1.3265306E0,1.0612245E0],"tree_param":{"num_deleted":"0","num_feature":"57","num_nodes":"15","size_leaf_vector":"0"}},{"base_weights":[-3.5191602E-1,-5.268178E-1,2.003575E0,-5.34819E-1,2.3463688E0,-5.3640914E-1,-2.8844225E-1,9.394737E-1,1.6578947E-1,-2.7208483E-1,-1.6116387E-1,-1.4350799E-1,1.8558139E-1,-1.2727274E-1,6.2376235E-2],"categories":[],"categories_nodes":[],"categories_segments":[],"categories_sizes":[],"default_left":[0,0,0,0,0,0,0,0,0,0,0,0,0,0,0],"id":2,"left_children":[1,3,-1,5,7,9,11,-1,-1,13,-1,-1,-1,-1,-1],"loss_changes":[1.5758851E3,2.9958984E1,0E0,3.3340454E-1,3.4145832E0,1.1654663E-1,2.0449252E0,0E0,0E0,5.1003194E-1,0E0,0E0,0E0,0E0,0E0],"parents":[2147483647,0,0,1,1,3,3,4,4,5,5,6,6,9,9],"right_children":[2,4,-1,6,8,10,12,-1,-1,14,-1,-1,-1,-1,-1],"split_conditions":[6.064073E-1,3.6627433E-1,2.003575E0,1.7819875E-4,2.254475E-2,4.643978E-3,1.936874E-5,9.394737E-1,1.6578947E-1,1.1755549E-6,-1.6116387E-1,-1.4350799E-1,1.8558139E-1,-1.2727274E-1,6.2376235E-2],"split_indices":[44,16,0,2,35,51,22,0,0,12,0,0,0,0,0],"split_type":[0,0,0,0,0,0,0,0,0,0,0,0,0,0,0],"sum_hessian":[1.2777142E3,1.247602E3,3.0112244E1,1.244949E3,2.6530612E0,1.2357959E3,9.153061E0,1.3265306E0,1.3265306E0,4.77551E0,1.2310204E3,7.9591837E0,1.1938775E0,3.7142856E0,1.0612245E0],"tree_param":{"num_deleted":"0","num_feature":"57","num_nodes":"15","size_leaf_vector":"0"}},{"base_weights":[3.683387E-1,-5.13159E-1,6.914376E0,-5.3263086E-1,2.4666667E0,4.990099E-1,2.0820916E0,-5.361871E-1,1.8122974E-1,-1.11912236E-1,3.7587547E0,-1.6139337E-1,1.0937497E-1,-1.3073932E-1,4.990099E-1,1.2853904E0,3.223256E-1,2.0792079E-1,-1.0500001E-1],"categories":[],"categories_nodes":[],"categories_segments":[],"categories_sizes":[],"default_left":[0,0,0,0,0,0,0,0,0,0,0,0,0,0,0,0,0,0,0],"id":3,"left_children":[1,3,5,7,9,-1,-1,11,13,-1,15,-1,17,-1,-1,-1,-1,-1,-1],"loss_changes":[7.382135E3,6.675705E1,9.127441E0,2.9440002E0,2.8920815E1,0E0,0E0,1.34906E0,6.4919596E0,0E0,2.8004074E0,0E0,1.293224E0,0E0,0E0,0E0,0E0,0E0,0E0],"parents":[2147483647,0,0,1,1,2,2,3,3,4,4,7,7,8,8,10,10,12,12],"right_children":[2,4,6,8,10,-1,-1,12,14,-1,16,-1,18,-1,-1,-1,-1,-1,-1],"split_conditions":[6.5168905E-1,1.7098448E-1,1.149531E-2,2.4115948E-2,1.7830493E-3,4.990099E-1,2.0820916E0,8.337772E-2,9.761834E-3,-1.11912236E-1,5.2763926E-7,-1.6139337E-1,3.8030953E-11,-1.3073932E-1,4.990099E-1,1.2853904E0,3.223256E-1,2.0792079E-1,-1.0500001E-1],"split_indices":[17,45,32,3,17,0,0,31,30,0,8,0,4,0,0,0,0,0,0],"split_type":[0,0,0,0,0,0,0,0,0,0,0,0,0,0,0,0,0,0,0],"sum_hessian":[1.2777142E3,1.1268877E3,1.5082652E2,1.1203877E3,6.5E0,1.0612245E0,1.497653E2,1.1150815E3,5.3061223E0,2.255102E0,4.244898E0,1.1121632E3,2.9183674E0,4.244898E0,1.0612245E0,3.0510204E0,1.1938775E0,1.0612245E0,1.8571428E0],"tree_param":{"num_deleted":"0","num_feature":"57","num_nodes":"19","size_leaf_vector":"0"}},{"base_weights":[-3.5426214E-1,-5.308223E-1,2.02286E0,-1.6140884E-1,2.1710145E0,8.6930233E-1,1.6578947E-1],"categories":[],"categories_nodes":[],"categories_segments":[],"categories_sizes":[],"default_left":[0,0,0,0,0,0,0],"id":4,"left_children":[1,3,-1,-1,5,-1,-1],"loss_changes":[1.6058977E3,2.5481628E1,0E0,0E0,2.538702E0,0E0,0E0],"parents":[2147483647,0,0,1,1,4,4],"right_children":[2,4,-1,-1,6,-1,-1],"split_conditions":[8.306074E-1,5.029453E-2,2.02286E0,-1.6140884E-1,6.8544955E-3,8.6930233E-1,1.6578947E-1],"split_indices":[46,18,0,0,37,0,0],"split_type":[0,0,0,0,0,0,0],"sum_hessian":[1.2777142E3,1.247602E3,3.0112244E1,1.2450815E3,2.5204082E0,1.1938775E0,1.3265306E0],"tree_param":{"num_deleted":"0","num_feature":"57","num_nodes":"7","size_leaf_vector":"0"}},{"base_weights":[1.7986813E-1,-5.2762395E-1,6.845246E0,-5.328036E-1,6.8157893E-1,2.07519E0,4.2000002E-1,-5.353915E-1,3.3501256E-1,-1.613969E-1,-2.5630596E-1,-1.0750855E-1,3.5346535E-1,-1.449791E-1,3.9622638E-1,3.223256E-1,-9.921261E-2],"categories":[],"categories_nodes":[],"categories_segments":[],"categories_sizes":[],"default_left":[0,0,0,0,0,0,0,0,0,0,0,0,0,0,0,0,0],"id":5,"left_children":[1,3,5,7,-1,-1,-1,9,11,-1,13,-1,-1,-1,15,-1,-1],"loss_changes":[6.033647E3,1.7986786E1,3.8486816E1,2.7746887E0,0E0,0E0,0E0,6.9784546E-1,2.7906852E0,0E0,2.0487418E0,0E0,0E0,0E0,2.221683E0,0E0,0E0],"parents":[2147483647,0,0,1,1,2,2,3,3,7,7,8,8,10,10,14,14],"right_children":[2,4,6,8,-1,-1,-1,10,12,-1,14,-1,-1,-1,16,-1,-1],"split_conditions":[4.4736576E-1,8.6394954E-1,6.8892404E-3,1.0488775E-1,6.8157893E-1,2.07519E0,4.2000002E-1,1.2193344E-3,4.800578E-3,-1.613969E-1,1.2158532E-7,-1.0750855E-1,3.5346535E-1,-1.449791E-1,9.474427E-8,3.223256E-1,-9.921261E-2],"split_indices":[19,47,34,47,0,0,0,19,5,0,4,0,0,0,18,0,0],"split_type":[0,0,0,0,0,0,0,0,0,0,0,0,0,0,0,0,0],"sum_hessian":[1.2777142E3,1.1559387E3,1.21775505E2,1.1546122E3,1.3265306E0,1.19918365E2,1.8571428E0,1.1515612E3,3.0510204E0,1.1400204E3,1.1540816E1,1.9897959E0,1.0612245E0,8.755102E0,2.7857141E0,1.1938775E0,1.5918367E0],"tree_param":{"num_deleted":"0","num_feature":"57","num_nodes":"17","size_leaf_vector":"0"}},{"base_weights":[-9.697244E-2,-5.3386164E-1,6.854658E0,-5.3718257E-1,4.590698E-1,2.0718584E0,4.990099E-1,-1.614036E-1,-2.8925622E-1,6.2376235E-2,-1.2994014E-1],"categories":[],"categories_nodes":[],"categories_segments":[],"categories_sizes":[],"default_left":[0,0,0,0,0,0,0,0,0,0,0],"id":6,"left_children":[1,3,5,7,-1,-1,-1,-1,9,-1,-1],"loss_changes":[3.8872327E3,9.075226E0,8.760742E0,9.173584E-2,0E0,0E0,0E0,0E0,5.316618E-1,0E0,0E0],"parents":[2147483647,0,0,1,1,2,2,3,3,8,8],"right_children":[2,4,6,8,-1,-1,-1,-1,10,-1,-1],"split_conditions":[7.222665E-1,9.050216E-1,7.630121E-3,9.0943456E-1,4.590698E-1,2.0718584E0,4.990099E-1,-1.614036E-1,5.759521E-3,6.2376235E-2,-1.2994014E-1],"split_indices":[6,48,33,42,0,0,0,0,54,0,0],"split_type":[0,0,0,0,0,0,0,0,0,0,0],"sum_hessian":[1.2777142E3,1.2030306E3,7.468367E1,1.2018367E3,1.1938775E0,7.3622444E1,1.0612245E0,1.1966632E3,5.173469E0,1.0612245E0,4.1122446E0],"tree_param":{"num_deleted":"0","num_feature":"57","num_nodes":"11","size_leaf_vector":"0"}},{"base_weights":[4.4888836E-1,-5.190386E-1,6.730673E0,-5.3344005E-1,1.8345534E0,1.880597E0,6.890882E0,-3.5000002E-1,-5.370369E-1,-1.0500001E-1,2.6966069E0,3.0731705E-1,3.1675978E0,2.0778742E0,3.0062695E0,-1.5287358E-1,1.664025E-1,-1.6138849E-1,-1.4583336E-1,1.4813277E-1,1.0324023E0,3.5346535E-1,-1.0980394E-1,1.1240665E0,3.223256E-1,1.1427908E0,2.0792079E-1,3.5346535E-1,-2.5237194E-1,6.2376235E-2,-1.0500001E-1,-1.24113485E-1,6.2376235E-2],"categories":[],"categories_nodes":[],"categories_segments":[],"categories_sizes":[],"default_left":[0,0,0,0,0,0,0,0,0,0,0,0,0,0,0,0,0,0,0,0,0,0,0,0,0,0,0,0,0,0,0,0,0],"id":7,"left_children":[1,3,5,7,9,11,13,15,17,-1,19,21,23,-1,25,-1,27,-1,29,-1,-1,-1,-1,-1,-1,-1,-1,-1,31,-1,-1,-1,-1],"loss_changes":[7.77847E3,3.856555E1,1.19754395E2,5.397644E-1,1.4068571E1,1.2869648E1,1.8393555E0,2.0692847E0,3.1219482E-1,0E0,6.6875076E0,2.8845649E0,4.0382385E-1,0E0,3.4064884E0,0E0,3.0256023E0,0E0,3.5577554E-1,0E0,0E0,0E0,0E0,0E0,0E0,0E0,0E0,0E0,4.8537484E-1,0E0,0E0,0E0,0E0],"parents":[2147483647,0,0,1,1,2,2,3,3,4,4,5,5,6,6,7,7,8,8,10,10,11,11,12,12,14,14,16,16,18,18,28,28],"right_children":[2,4,6,8,10,12,14,16,18,-1,20,22,24,-1,26,-1,28,-1,30,-1,-1,-1,-1,-1,-1,-1,-1,-1,32,-1,-1,-1,-1],"split_conditions":[3.0062267E-1,4.3386832E-1,9.477091E-2,6.2616407E-3,1.8769493E-2,1.5701199E-1,2.7869606E-2,8.977568E-1,4.8303142E-2,-1.0500001E-1,5.12571E-9,7.473265E-3,1.4623661E-2,2.0778742E0,5.2639113E-8,-1.5287358E-1,8.3894366E-1,-1.6138849E-1,1.37319045E-11,1.4813277E-1,1.0324023E0,3.5346535E-1,-1.0980394E-1,1.1240665E0,3.223256E-1,1.1427908E0,2.0792079E-1,3.5346535E-1,1.3847143E-2,6.2376235E-2,-1.0500001E-1,-1.24113485E-1,6.2376235E-2],"split_indices":[49,21,7,44,35,21,40,53,49,0,15,51,41,0,3,0,25,0,9,0,0,0,0,0,0,0,0,0,34,0,0,0,0],"split_type":[0,0,0,0,0,0,0,0,0,0,0,0,0,0,0,0,0,0,0,0,0,0,0,0,0,0,0,0,0,0,0,0,0],"sum_hessian":[1.2777142E3,1.1079183E3,1.6979591E2,1.101949E3,5.9693875E0,5.836735E0,1.6395918E2,2.3081633E1,1.0788673E3,1.8571428E0,4.1122446E0,3.1836734E0,2.6530612E0,1.6170407E2,2.255102E0,1.7642857E1,5.4387755E0,1.075949E3,2.9183674E0,1.4591837E0,2.6530612E0,1.0612245E0,2.122449E0,1.4591837E0,1.1938775E0,1.1938775E0,1.0612245E0,1.0612245E0,4.377551E0,1.0612245E0,1.8571428E0,3.3163264E0,1.0612245E0],"tree_param":{"num_deleted":"0","num_feature":"57","num_nodes":"33","size_leaf_vector":"0"}},{"base_weights":[2.1349566E-1,-5.3105074E-1,2.0811841E0,-1.6139795E-1,1.7988826E0,-8.316832E-2,8.267717E-1],"categories":[],"categories_nodes":[],"categories_segments":[],"categories_sizes":[],"default_left":[0,0,0,0,0,0,0],"id":8,"left_children":[1,3,-1,-1,5,-1,-1],"loss_changes":[6.4051445E3,1.960437E1,0E0,0E0,8.022226E0,0E0,0E0],"parents":[2147483647,0,0,1,1,4,4],"right_children":[2,4,-1,-1,6,-1,-1],"split_conditions":[9.682335E-1,1.2842335E-1,2.0811841E0,-1.6139795E-1,6.9746164E-10,-8.316832E-2,8.267717E-1],"split_indices":[8,22,0,0,2,0,0],"split_type":[0,0,0,0,0,0,0],"sum_hessian":[1.2777142E3,1.1511632E3,1.2655102E2,1.1485101E3,2.6530612E0,1.0612245E0,1.5918367E0],"tree_param":{"num_deleted":"0","num_feature":"57","num_nodes":"7","size_leaf_vector":"0"}},{"base_weights":[-3.8006932E-1,-5.308449E-1,6.525512E0,5.9527564E-1,-5.3563243E-1,1.9969627E0,5.9581393E-1,-5.364266E-1,-1.8203312E-1,-1.6140728E-1,-3.9073637E-1,6.2376235E-2,-1.11912236E-1,9.317406E-2,-1.5090667E-1],"categories":[],"categories_nodes":[],"categories_segments":[],"categories_sizes":[],"default_left":[0,0,0,0,0,0,0,0,0,0,0,0,0,0,0],"id":9,"left_children":[1,3,5,-1,7,-1,-1,9,11,-1,13,-1,-1,-1,-1],"loss_changes":[1.3348527E3,1.614209E1,3.0761719E0,0E0,2.5357056E-1,0E0,0E0,8.010864E-2,3.9906096E-1,0E0,1.5094068E0,0E0,0E0,0E0,0E0],"parents":[2147483647,0,0,1,1,2,2,4,4,7,7,8,8,10,10],"right_children":[2,4,6,-1,8,-1,-1,10,12,-1,14,-1,-1,-1,-1],"split_conditions":[3.3937272E-1,8.4639E-4,2.5844745E-5,5.9527564E-1,2.7560822E-3,1.9969627E0,5.9581393E-1,1.6080936E-5,1.5477195E-8,-1.6140728E-1,1.7902846E-7,6.2376235E-2,-1.11912236E-1,9.317406E-2,-1.5090667E-1],"split_indices":[23,32,17,0,9,0,0,23,2,0,25,0,0,0,0],"split_type":[0,0,0,0,0,0,0,0,0,0,0,0,0,0,0],"sum_hessian":[1.2777142E3,1.2513163E3,2.6397959E1,1.5918367E0,1.2497245E3,2.520408E1,1.1938775E0,1.2464081E3,3.3163264E0,1.2302245E3,1.6183674E1,1.0612245E0,2.255102E0,1.9897959E0,1.4193877E1],"tree_param":{"num_deleted":"0","num_feature":"57","num_nodes":"15","size_leaf_vector":"0"}},{"base_weights":[2.0802142E-1,-5.224029E-1,2.0808454E0,-5.3364456E-1,1.8607595E0,-1.6139686E-1,7.035143E-3,1.3207544E-1,1.0500001E0,-1.4000002E-1,9.776536E-1,2.0792079E-1,-1.022472E-1,-9.210527E-2,5.526316E-1],"categories":[],"categories_nodes":[],"categories_segments":[],"categories_sizes":[],"default_left":[0,0,0,0,0,0,0,0,0,0,0,0,0,0,0],"id":10,"left_children":[1,3,-1,5,7,-1,9,11,-1,-1,13,-1,-1,-1,-1],"loss_changes":[6.2877236E3,3.1920776E1,0E0,2.704834E0,1.5528063E1,0E0,5.1244507E0,1.2405407E0,0E0,0E0,4.6224146E0,0E0,0E0,0E0,0E0],"parents":[2147483647,0,0,1,1,3,3,4,4,6,6,7,7,10,10],"right_children":[2,4,-1,6,8,-1,10,12,-1,-1,14,-1,-1,-1,-1],"split_conditions":[9.8978615E-1,2.2488146E-1,2.0808454E0,5.5668445E-4,4.8325732E-2,-1.6139686E-1,1.0713694E-2,9.5811734E-11,1.0500001E0,-1.4000002E-1,8.275721E-3,2.0792079E-1,-1.022472E-1,-9.210527E-2,5.526316E-1],"split_indices":[24,24,0,24,38,0,1,13,0,0,53,0,0,0,0],"split_type":[0,0,0,0,0,0,0,0,0,0,0,0,0,0,0],"sum_hessian":[1.2777142E3,1.1534183E3,1.2429591E2,1.1487755E3,4.642857E0,1.1396224E3,9.153061E0,2.7857141E0,1.8571428E0,6.5E0,2.6530612E0,1.0612245E0,1.7244897E0,1.3265306E0,1.3265306E0],"tree_param":{"num_deleted":"0","num_feature":"57","num_nodes":"15","size_leaf_vector":"0"}},{"base_weights":[-4.6922495E-3,-5.0104165E-1,6.5976734E0,-5.244729E-1,2.6469247E0,1.05E-1,6.7260976E0,-5.337421E-1,6.443514E-1,3.9148147E0,4.8165134E-1,2.0441198E0,4.4831464E-1,-5.354405E-1,2.4137929E-1,4.5992084E-2,5.948805E-1,6.2376235E-2,1.4256881E0,-8.4337376E-2,3.5346535E-1,-1.6114332E-1,4.964536E-2,2.0792079E-1,-8.790698E-2,-1.2821054E-1,6.197916E-1,6.2376235E-2,-9.210527E-2,-1.11912236E-1,2.0792079E-1,4.590698E-1,-1.022472E-1],"categories":[],"categories_nodes":[],"categories_segments":[],"categories_sizes":[],"default_left":[0,0,0,0,0,0,0,0,0,0,0,0,0,0,0,0,0,0,0,0,0,0,0,0,0,0,0,0,0,0,0,0,0],"id":11,"left_children":[1,3,5,7,9,-1,11,13,15,17,19,-1,-1,21,23,25,-1,-1,-1,27,-1,-1,29,-1,-1,-1,31,-1,-1,-1,-1,-1,-1],"loss_changes":[4.193755E3,8.918082E1,6.943994E1,1.3152679E1,2.2710327E1,0E0,2.9990967E1,1.6741943E0,7.7221894E0,1.6118027E1,1.8533726E0,0E0,0E0,1.1943054E0,9.8881596E-1,2.3740456E0,0E0,0E0,0E0,2.8431076E-1,0E0,0E0,1.4324389E0,0E0,0E0,0E0,3.9484806E0,0E0,0E0,0E0,0E0,0E0,0E0],"parents":[2147483647,0,0,1,1,2,2,3,3,4,4,6,6,7,7,8,8,9,9,10,10,13,13,14,14,15,15,19,19,22,22,26,26],"right_children":[2,4,6,8,10,-1,12,14,16,18,20,-1,-1,22,24,26,-1,-1,-1,28,-1,-1,30,-1,-1,-1,32,-1,-1,-1,-1,-1,-1],"split_conditions":[5.1570773E-1,3.011513E-1,7.5149653E-3,5.9206367E-2,7.1890075E-3,1.05E-1,1.710184E-2,1.77852E-1,4.237289E-6,1.2247256E-3,9.713564E-5,2.0441198E0,4.4831464E-1,2.1124654E-1,1.6238865E-9,7.6965876E-3,5.948805E-1,6.2376235E-2,1.4256881E0,7.107241E-9,3.5346535E-1,-1.6114332E-1,6.872777E-7,2.0792079E-1,-8.790698E-2,-1.2821054E-1,7.4887774E-3,6.2376235E-2,-9.210527E-2,-1.11912236E-1,2.0792079E-1,4.590698E-1,-1.022472E-1],"split_indices":[25,53,53,11,52,0,28,39,24,11,17,0,0,25,10,53,0,0,0,2,0,0,26,0,0,0,43,0,0,0,0,0,0],"split_type":[0,0,0,0,0,0,0,0,0,0,0,0,0,0,0,0,0,0,0,0,0,0,0,0,0,0,0,0,0,0,0,0,0],"sum_hessian":[1.2777142E3,1.1892346E3,8.847959E1,1.1812755E3,7.9591837E0,1.8571428E0,8.6622444E1,1.1725204E3,8.755102E0,4.510204E0,3.4489794E0,8.489796E1,1.7244897E0,1.1702653E3,2.255102E0,6.765306E0,1.9897959E0,1.0612245E0,3.4489794E0,2.387755E0,1.0612245E0,1.166949E3,3.3163264E0,1.0612245E0,1.1938775E0,3.8469386E0,2.9183674E0,1.0612245E0,1.3265306E0,2.255102E0,1.0612245E0,1.1938775E0,1.7244897E0],"tree_param":{"num_deleted":"0","num_feature":"57","num_nodes":"33","size_leaf_vector":"0"}},{"base_weights":[-3.2767293E-1,-5.315976E-1,2.0328767E0,4.7952756E-1,-5.356134E-1,-1.6116473E-1,-2.3728816E-1,1.4813277E-1,-1.3836019E-1],"categories":[],"categories_nodes":[],"categories_segments":[],"categories_sizes":[],"default_left":[0,0,0,0,0,0,0,0,0],"id":12,"left_children":[1,3,-1,-1,5,-1,7,-1,-1],"loss_changes":[1.856033E3,1.1496582E1,0E0,0E0,4.6643066E-1,0E0,1.6074392E0,0E0,0E0],"parents":[2147483647,0,0,1,1,4,4,6,6],"right_children":[2,4,-1,-1,6,-1,8,-1,-1],"split_conditions":[9.8677164E-1,1.6639916E-4,2.0328767E0,4.7952756E-1,3.964625E-4,-1.6116473E-1,1.1015226E-2,1.4813277E-1,-1.3836019E-1],"split_indices":[12,38,0,0,26,0,32,0,0],"split_type":[0,0,0,0,0,0,0,0,0],"sum_hessian":[1.2777142E3,1.2429591E3,3.47551E1,1.5918367E0,1.2413673E3,1.2339387E3,7.428571E0,1.4591837E0,5.9693875E0],"tree_param":{"num_deleted":"0","num_feature":"57","num_nodes":"9","size_leaf_vector":"0"}},{"base_weights":[-3.9805612E-1,-5.3563964E-1,6.302491E0,-1.6140914E-1,4.7297265E-2,1.9637169E0,4.7952756E-1,-1.2727274E-1,2.9473683E-1],"categories":[],"categories_nodes":[],"categories_segments":[],"categories_sizes":[],"default_left":[0,0,0,0,0,0,0,0,0],"id":13,"left_children":[1,3,5,-1,7,-1,-1,-1,-1],"loss_changes":[1.1822031E3,1.7730103E0,1.9063965E1,0E0,3.0805852E0,0E0,0E0,0E0,0E0],"parents":[2147483647,0,0,1,1,2,2,4,4],"right_children":[2,4,6,-1,8,-1,-1,-1,-1],"split_conditions":[3.5446146E-1,2.637554E-3,3.4597673E-7,-1.6140914E-1,2.0221983E-6,1.9637169E0,4.7952756E-1,-1.2727274E-1,2.9473683E-1],"split_indices":[27,27,0,0,10,0,0,0,0],"split_type":[0,0,0,0,0,0,0,0,0],"sum_hessian":[1.2777142E3,1.2529081E3,2.4806122E1,1.2478673E3,5.0408163E0,2.3214285E1,1.5918367E0,3.7142856E0,1.3265306E0],"tree_param":{"num_deleted":"0","num_feature":"57","num_nodes":"9","size_leaf_vector":"0"}},{"base_weights":[-1.2295252E-1,-5.218553E-1,1.2013918E0,-1.5692995E-1,1.7110445E-2,3.620138E-1,1.2641534E-2],"categories":[],"categories_nodes":[],"categories_segments":[],"categories_sizes":[],"default_left":[0,0,0,0,0,0,0],"id":14,"left_children":[1,3,5,-1,-1,-1,-1],"loss_changes":[5.4323645E2,5.990448E-1,1.417572E0,0E0,0E0,0E0,0E0],"parents":[2147483647,0,0,1,1,2,2],"right_children":[2,4,6,-1,-1,-1,-1],"split_conditions":[3.1063594E-2,2.8314644E-2,4.710405E-2,-1.5692995E-1,1.7110445E-2,3.620138E-1,1.2641534E-2],"split_indices":[0,42,29,0,0,0,0],"split_type":[0,0,0,0,0,0,0],"sum_hessian":[1.026116E3,7.8905304E2,2.3706291E2,7.874564E2,1.596578E0,2.3593906E2,1.1238613E0],"tree_param":{"num_deleted":"0","num_feature":"57","num_nodes":"7","size_leaf_vector":"0"}},{"base_weights":[3.573304E-1,-5.193699E-1,1.1832688E0,-1.5691182E-1,4.1528836E-2,-9.502647E-2,1.1866462E0,3.3641642E-1,-1.4874698E-1,-2.272071E-2,1.1895545E0,3.575257E-1,6.678233E-2],"categories":[],"categories_nodes":[],"categories_segments":[],"categories_sizes":[],"default_left":[0,0,0,0,0,0,0,0,0,0,0,0,0],"id":15,"left_children":[1,3,5,-1,7,-1,9,-1,-1,-1,11,-1,-1],"loss_changes":[1.0456982E3,1.4641571E0,4.142578E0,0E0,3.7367377E0,0E0,2.814087E0,0E0,0E0,0E0,1.3081055E0,0E0,0E0],"parents":[2147483647,0,0,1,1,2,2,4,4,6,6,10,10],"right_children":[2,4,6,-1,8,-1,10,-1,-1,-1,12,-1,-1],"split_conditions":[1.0713694E-2,1.11017406E-1,1.021384E-2,-1.5691182E-1,9.8700735E-11,-9.502647E-2,5.782852E-3,3.3641642E-1,-1.4874698E-1,-2.272071E-2,5.9206367E-2,3.575257E-1,6.678233E-2],"split_indices":[1,15,15,0,14,0,45,0,0,0,11,0,0],"split_type":[0,0,0,0,0,0,0,0,0,0,0,0,0],"sum_hessian":[1.4422855E3,6.998229E2,7.4246265E2,6.953414E2,4.4815125E0,1.459534E0,7.410031E2,1.1279379E0,3.3535745E0,1.6456013E0,7.393575E2,7.374488E2,1.9087172E0],"tree_param":{"num_deleted":"0","num_feature":"57","num_nodes":"13","size_leaf_vector":"0"}},{"base_weights":[-3.0259424E-1,-5.112933E-1,1.2563832E0,-5.1822203E-1,5.69057E-1,3.2067493E-2,3.8024652E-1,-5.2061266E-1,-2.0475411E-1,2.9308057E-1,-1.2985265E-1,-2.107462E-1,-1.565436E-1,-1.3452545E-1,2.098095E-1,-1.1680979E-1,6.627488E-2],"categories":[],"categories_nodes":[],"categories_segments":[],"categories_sizes":[],"default_left":[0,0,0,0,0,0,0,0,0,0,0,0,0,0,0,0,0],"id":16,"left_children":[1,3,5,7,9,-1,-1,11,13,-1,-1,15,-1,-1,-1,-1,-1],"loss_changes":[3.0145236E2,6.403824E0,1.2616425E0,5.0146484E-1,2.7429E0,0E0,0E0,1.8907166E-1,2.0296803E0,0E0,0E0,4.5456332E-1,0E0,0E0,0E0,0E0,0E0],"parents":[2147483647,0,0,1,1,2,2,3,3,4,4,7,7,8,8,11,11],"right_children":[2,4,6,8,10,-1,-1,12,14,-1,-1,16,-1,-1,-1,-1,-1],"split_conditions":[3.6627433E-1,6.064073E-1,5.6031332E-3,1.7819875E-4,7.730163E-3,3.2067493E-2,3.8024652E-1,4.643978E-3,3.3361226E-2,2.9308057E-1,-1.2985265E-1,7.33764E-6,-1.565436E-1,-1.3452545E-1,2.098095E-1,-1.1680979E-1,6.627488E-2],"split_indices":[16,44,30,2,43,0,0,51,38,0,0,3,0,0,0,0,0],"split_type":[0,0,0,0,0,0,0,0,0,0,0,0,0,0,0,0,0],"sum_hessian":[9.235533E2,8.151075E2,1.08445755E2,8.1043024E2,4.677291E0,1.1393442E0,1.0730641E2,8.0364056E2,6.7896614E0,3.34176E0,1.3355308E0,3.7798903E0,7.9986066E2,5.7453046E0,1.044357E0,2.7428837E0,1.0370066E0],"tree_param":{"num_deleted":"0","num_feature":"57","num_nodes":"17","size_leaf_vector":"0"}},{"base_weights":[2.272787E-1,-5.1902527E-1,1.179027E0,-1.5690973E-1,2.2293526E-1,1.979595E-1,1.1952258E0,-1.0893845E-1,2.7490488E-1,-1.3136601E-1,7.996807E-1,1.1994728E0,-1.1083496E-1,3.4960386E-1,1.6396806E-1,1.4346394E-2,1.2020823E0,-8.713909E-2,1.7081267E-1,1.6613966E0,3.5726038E-1,5.42075E-1,1.3462383E-1],"categories":[],"categories_nodes":[],"categories_segments":[],"categories_sizes":[],"default_left":[0,0,0,0,0,0,0,0,0,0,0,0,0,0,0,0,0,0,0,0,0,0,0],"id":17,"left_children":[1,3,5,-1,7,9,11,-1,-1,-1,13,15,-1,-1,17,-1,19,-1,-1,21,-1,-1,-1],"loss_changes":[9.201438E2,2.276001E0,8.810547E0,0E0,2.2032008E0,4.3466473E0,4.16333E0,0E0,0E0,0E0,1.1387208E0,1.6210938E0,0E0,0E0,7.646259E-1,0E0,8.918457E-1,0E0,0E0,1.0862141E0,0E0,0E0,0E0],"parents":[2147483647,0,0,1,1,2,2,4,4,5,5,6,6,10,10,11,11,14,14,16,16,19,19],"right_children":[2,4,6,-1,8,10,12,-1,-1,-1,14,16,-1,-1,18,-1,20,-1,-1,22,-1,-1,-1],"split_conditions":[6.689772E-3,2.4115948E-2,1.02917375E-2,-1.5690973E-1,9.479106E-3,4.065812E-3,6.009498E-2,-1.0893845E-1,2.7490488E-1,-1.3136601E-1,6.569173E-6,2.5312524E-4,-1.1083496E-1,3.4960386E-1,3.2723565E-2,1.4346394E-2,6.5168905E-1,-8.713909E-2,1.7081267E-1,1.5035906E-4,3.5726038E-1,5.42075E-1,1.3462383E-1],"split_indices":[17,3,45,0,30,3,28,0,0,0,11,28,0,0,37,0,17,0,0,10,0,0,0],"split_type":[0,0,0,0,0,0,0,0,0,0,0,0,0,0,0,0,0,0,0,0,0,0,0],"sum_hessian":[1.2935802E3,7.252989E2,5.682813E2,7.216962E2,3.6026537E0,9.445518E0,5.5883575E2,2.2106035E0,1.3920503E0,4.7249165E0,4.720601E0,5.5755585E2,1.2799456E0,2.4679115E0,2.2526896E0,1.304216E0,5.562516E2,1.1958061E0,1.0568833E0,9.750367E0,5.465012E2,8.268125E0,1.482243E0],"tree_param":{"num_deleted":"0","num_feature":"57","num_nodes":"23","size_leaf_vector":"0"}},{"base_weights":[-3.0658185E-1,-1.569313E-1,1.2342414E0,3.391119E-3,3.7449387E-1],"categories":[],"categories_nodes":[],"categories_segments":[],"categories_sizes":[],"default_left":[0,0,0,0,0],"id":18,"left_children":[1,-1,3,-1,-1],"loss_changes":[3.0887393E2,0E0,1.9498749E0,0E0,0E0],"parents":[2147483647,0,0,2,2],"right_children":[2,-1,4,-1,-1],"split_conditions":[5.029453E-2,-1.569313E-1,5.1673115E-3,3.391119E-3,3.7449387E-1],"split_indices":[18,0,30,0,0],"split_type":[0,0,0,0,0],"sum_hessian":[9.2288245E2,8.0975323E2,1.13129166E2,1.3074006E0,1.1182177E2],"tree_param":{"num_deleted":"0","num_feature":"57","num_nodes":"5","size_leaf_vector":"0"}},{"base_weights":[1.18883274E-1,-5.15426E-1,1.1879115E0,-5.1911604E-1,1.8109684E-1,-1.12485535E-1,1.1967347E0,-1.5690927E-1,-1.6976531E-1,6.0630834E-1,1.1871293E0,-1.3712445E-1,5.06318E-1,1.1901498E0,8.69499E-3,3.560582E-1,-9.1277085E-2,3.849276E-1,3.5838968E-1,2.1280985E-1,-2.9133622E-2],"categories":[],"categories_nodes":[],"categories_segments":[],"categories_sizes":[],"default_left":[0,0,0,0,0,0,0,0,0,0,0,0,0,0,0,0,0,0,0,0,0],"id":19,"left_children":[1,3,5,7,-1,-1,9,-1,11,-1,13,-1,15,17,-1,-1,-1,19,-1,-1,-1],"loss_changes":[8.134593E2,3.422943E0,6.6083984E0,9.3844604E-1,0E0,0E0,1.1196289E0,0E0,2.1358643E0,0E0,1.5108032E0,0E0,2.2357326E0,1.130249E0,0E0,0E0,0E0,6.8104005E-1,0E0,0E0,0E0],"parents":[2147483647,0,0,1,1,2,2,3,3,6,6,8,8,10,10,12,12,13,13,17,17],"right_children":[2,4,6,8,-1,-1,10,-1,12,-1,14,-1,16,18,-1,-1,-1,20,-1,-1,-1],"split_conditions":[1.0488775E-1,4.4736576E-1,5.318633E-3,1.2193344E-3,1.8109684E-1,-1.12485535E-1,4.4736576E-1,-1.5690927E-1,1.967618E-4,6.0630834E-1,4.433565E-2,-1.3712445E-1,7.175352E-3,5.778878E-3,8.69499E-3,3.560582E-1,-9.1277085E-2,5.755257E-9,3.5838968E-1,2.1280985E-1,-2.9133622E-2],"split_indices":[47,19,19,19,0,0,19,0,22,0,36,0,47,50,0,0,0,11,0,0,0],"split_type":[0,0,0,0,0,0,0,0,0,0,0,0,0,0,0,0,0,0,0,0,0],"sum_hessian":[1.1977222E3,7.520251E2,4.4569714E2,7.500879E2,1.9372045E0,2.2691007E0,4.4342804E2,7.412838E2,8.804061E0,2.6956606E0,4.407324E2,6.405733E0,2.3983274E0,4.3955832E2,1.1740608E0,1.0513848E0,1.3469427E0,2.9142098E0,4.366441E2,1.4599755E0,1.4542345E0],"tree_param":{"num_deleted":"0","num_feature":"57","num_nodes":"21","size_leaf_vector":"0"}},{"base_weights":[-7.520407E-2,-5.218616E-1,1.193396E0,-1.569388E-1,-1.9213702E-1,-1.0672435E-1,3.6187765E-1,-1.1328477E-1,6.885635E-2],"categories":[],"categories_nodes":[],"categories_segments":[],"categories_sizes":[],"default_left":[0,0,0,0,0,0,0,0,0],"id":20,"left_children":[1,3,5,-1,7,-1,-1,-1,-1],"loss_changes":[5.993502E2,2.2645569E-1,5.9179993E0,0E0,4.4458264E-1,0E0,0E0,0E0,0E0],"parents":[2147483647,0,0,1,1,2,2,4,4],"right_children":[2,4,6,-1,8,-1,-1,-1,-1],"split_conditions":[4.8751906E-2,9.0943456E-1,1.29382005E-2,-1.569388E-1,2.0993686E-12,-1.0672435E-1,3.6187765E-1,-1.1328477E-1,6.885635E-2],"split_indices":[20,42,48,0,27,0,0,0,0],"split_type":[0,0,0,0,0,0,0,0,0],"sum_hessian":[1.0556467E3,7.811889E2,2.744578E2,7.7761255E2,3.57637E0,2.0405893E0,2.724172E2,2.5563388E0,1.020031E0],"tree_param":{"num_deleted":"0","num_feature":"57","num_nodes":"9","size_leaf_vector":"0"}},{"base_weights":[2.724975E-1,-5.0996876E-1,1.1853206E0,-5.163821E-1,3.4631395E-1,2.2768795E-1,1.1986212E0,-1.5689178E-1,-1.4857128E-1,5.778163E-1,-2.4632616E-1,1.190373E0,1.6867063E0,-3.9638236E-1,6.015724E-1,1.4873329E-1,-1.4015318E-1,3.577761E-1,4.0617654E-1,3.2673057E-2,1.9990388E0,-1.4425641E-1,5.204329E-2,3.567094E-1,-9.074681E-2,1.6285013E-1,2.5804322E-2,1.7280878E-1,6.662299E-1],"categories":[],"categories_nodes":[],"categories_segments":[],"categories_sizes":[],"default_left":[0,0,0,0,0,0,0,0,0,0,0,0,0,0,0,0,0,0,0,0,0,0,0,0,0,0,0,0,0],"id":21,"left_children":[1,3,5,7,-1,9,11,-1,13,-1,15,17,19,21,23,-1,-1,-1,25,-1,27,-1,-1,-1,-1,-1,-1,-1,-1],"loss_changes":[9.527847E2,8.265488E0,7.567993E0,1.6589966E0,0E0,8.257227E0,4.356079E-1,0E0,2.8424845E0,0E0,1.615644E0,5.578003E-1,3.5708885E0,6.1930597E-1,2.4180431E0,0E0,0E0,0E0,9.359878E-2,0E0,7.274685E-1,0E0,0E0,0E0,0E0,0E0,0E0,0E0,0E0],"parents":[2147483647,0,0,1,1,2,2,3,3,5,5,6,6,8,8,10,10,11,11,12,12,13,13,14,14,18,18,20,20],"right_children":[2,4,6,8,-1,10,12,-1,14,-1,16,18,20,22,24,-1,-1,-1,26,-1,28,-1,-1,-1,-1,-1,-1,-1,-1],"split_conditions":[1.5701199E-1,8.98082E-1,1.1695935E-2,6.973229E-4,3.4631395E-1,5.8759417E-15,2.7869606E-2,-1.5689178E-1,8.088821E-3,5.778163E-1,6.594547E-3,1.16864145E-2,4.3386832E-1,4.6331326E-5,7.074578E-8,1.4873329E-1,-1.4015318E-1,3.577761E-1,4.501819E-9,3.2673057E-2,7.122512E-3,-1.4425641E-1,5.204329E-2,3.567094E-1,-9.074681E-2,1.6285013E-1,2.5804322E-2,1.7280878E-1,6.662299E-1],"split_indices":[21,49,49,7,0,13,40,0,42,0,54,43,21,10,10,0,0,0,24,0,45,0,0,0,0,0,0,0,0],"split_type":[0,0,0,0,0,0,0,0,0,0,0,0,0,0,0,0,0,0,0,0,0,0,0,0,0,0,0,0,0],"sum_hessian":[1.3321129E3,7.175095E2,6.146034E2,7.1544244E2,2.0671155E0,8.667465E0,6.059359E2,7.0243427E2,1.3008161E1,1.2228339E0,7.444631E0,5.992479E2,6.687964E0,1.0132474E1,2.8756864E0,1.4219029E0,6.022728E0,5.970415E2,2.2064543E0,1.3280108E0,5.3599534E0,8.960426E0,1.1720474E0,1.5519924E0,1.323694E0,1.0589556E0,1.1474986E0,1.2076131E0,4.1523404E0],"tree_param":{"num_deleted":"0","num_feature":"57","num_nodes":"29","size_leaf_vector":"0"}},{"base_weights":[1.365768E-1,-5.2217793E-1,1.1902286E0,3.1314164E-2,-1.5699261E-1,2.9031774E-2,1.1928228E0,3.5843623E-1,4.154297E-2],"categories":[],"categories_nodes":[],"categories_segments":[],"categories_sizes":[],"default_left":[0,0,0,0,0,0,0,0,0],"id":22,"left_children":[1,3,5,-1,-1,-1,7,-1,-1],"loss_changes":[8.459249E2,5.860138E-1,1.2143555E0,0E0,0E0,0E0,8.0322266E-1,0E0,0E0],"parents":[2147483647,0,0,1,1,2,2,6,6],"right_children":[2,4,6,-1,-1,-1,8,-1,-1],"split_conditions":[1.2842335E-1,7.887713E-3,7.346788E-3,3.1314164E-2,-1.5699261E-1,2.9031774E-2,1.0936136E-5,3.5843623E-1,4.154297E-2],"split_indices":[22,35,50,0,0,0,4,0,0],"split_type":[0,0,0,0,0,0,0,0,0],"sum_hessian":[1.2168442E3,7.4904034E2,4.678039E2,1.1848869E0,7.4785547E2,1.1978742E0,4.6660605E2,4.6560522E2,1.0008152E0],"tree_param":{"num_deleted":"0","num_feature":"57","num_nodes":"9","size_leaf_vector":"0"}},{"base_weights":[-3.3210388E-1,-5.171692E-1,1.220116E0,-5.194479E-1,1.7708185E-1,1.2823638E0,5.479052E-1,-1.5691411E-1,-2.6410043E-1,1.2376249E0,6.7388135E-1,8.850165E-1,-1.306759E-1,1.8125969E-1,-4.0215957E-1,1.2349218E-1,3.7381744E-1,-8.294038E-2,3.342123E-1,5.1421326E-2,-1.4394662E-1],"categories":[],"categories_nodes":[],"categories_segments":[],"categories_sizes":[],"default_left":[0,0,0,0,0,0,0,0,0,0,0,0,0,0,0,0,0,0,0,0,0],"id":23,"left_children":[1,3,5,7,-1,9,11,-1,13,15,-1,17,-1,-1,19,-1,-1,-1,-1,-1,-1],"loss_changes":[2.6195398E2,2.359558E0,3.3647766E0,6.084442E-1,0E0,1.024353E0,3.6957836E0,0E0,1.838649E0,8.982849E-2,0E0,2.3736835E0,0E0,0E0,6.2057114E-1,0E0,0E0,0E0,0E0,0E0,0E0],"parents":[2147483647,0,0,1,1,2,2,3,3,5,5,6,6,8,8,9,9,11,11,14,14],"right_children":[2,4,6,8,-1,10,12,-1,14,16,-1,18,-1,-1,20,-1,-1,-1,-1,-1,-1],"split_conditions":[2.7560822E-3,8.790124E-1,1.649645E-2,1.6080936E-5,1.7708185E-1,1.4483489E-5,1.09023385E-5,-1.5691411E-1,9.838834E-3,6.9034235E-3,6.7388135E-1,3.3937272E-1,-1.306759E-1,1.8125969E-1,6.0568484E-3,1.2349218E-1,3.7381744E-1,-8.294038E-2,3.342123E-1,5.1421326E-2,-1.4394662E-1],"split_indices":[9,51,35,23,0,17,27,0,35,42,0,23,0,0,44,0,0,0,0,0,0],"split_type":[0,0,0,0,0,0,0,0,0,0,0,0,0,0,0,0,0,0,0,0,0],"sum_hessian":[9.087025E2,8.124983E2,9.620427E1,8.113597E2,1.138571E0,8.721989E1,8.98438E0,7.990488E2,1.2310888E1,8.553388E1,1.68601E0,6.765498E0,2.2188816E0,1.2256972E0,1.1085192E1,1.3678944E0,8.4165985E1,1.0801953E0,5.685303E0,1.1780256E0,9.907166E0],"tree_param":{"num_deleted":"0","num_feature":"57","num_nodes":"21","size_leaf_vector":"0"}},{"base_weights":[1.3528651E-1,-5.164945E-1,1.1873751E0,-1.5691432E-1,1.1867917E-1,1.1956586E0,-1.9306743E-1,3.7843773E-1,-3.1194317E-1,3.319309E-2,1.1980696E0,-1.1594135E-1,4.6243124E-2,6.309467E-2,-1.3217202E-1,1.7902762E0,3.5642424E-1,6.448012E-1,4.9857754E-2],"categories":[],"categories_nodes":[],"categories_segments":[],"categories_sizes":[],"default_left":[0,0,0,0,0,0,0,0,0,0,0,0,0,0,0,0,0,0,0],"id":24,"left_children":[1,3,5,-1,7,9,11,-1,13,-1,15,-1,-1,-1,-1,17,-1,-1,-1],"loss_changes":[8.326466E2,3.1835175E0,5.541748E0,0E0,4.5631304E0,1.0755615E0,3.0342227E-1,0E0,5.599371E-1,0E0,5.9814453E-1,0E0,0E0,0E0,0E0,2.94845E0,0E0,0E0,0E0],"parents":[2147483647,0,0,1,1,2,2,4,4,5,5,6,6,8,8,10,10,15,15],"right_children":[2,4,6,-1,8,10,12,-1,14,-1,16,-1,-1,-1,-1,18,-1,-1,-1],"split_conditions":[2.2488146E-1,5.5668445E-4,2.9642044E-2,-1.5691432E-1,1.3214207E-2,8.691204E-3,1.7830493E-3,3.7843773E-1,2.6902737E-13,3.319309E-2,9.8978615E-1,-1.1594135E-1,4.6243124E-2,6.309467E-2,-1.3217202E-1,7.250453E-3,3.5642424E-1,6.448012E-1,4.9857754E-2],"split_indices":[24,24,53,0,37,30,17,0,2,0,24,0,0,0,0,54,0,0,0],"split_type":[0,0,0,0,0,0,0,0,0,0,0,0,0,0,0,0,0,0,0],"sum_hessian":[1.2123517E3,7.4890533E2,4.634464E2,7.414323E2,7.473017E0,4.608151E2,2.6313198E0,1.5172291E0,5.955788E0,1.1256894E0,4.596894E2,1.6173502E0,1.0139695E0,1.051499E0,4.9042892E0,4.668663E0,4.5502072E2,3.5585127E0,1.1101505E0],"tree_param":{"num_deleted":"0","num_feature":"57","num_nodes":"19","size_leaf_vector":"0"}},{"base_weights":[4.288562E-3,-5.1431006E-1,1.1752452E0,-5.2039146E-1,5.4491514E-1,1.9724353E-1,1.2090454E0,4.4295453E-2,-1.5650567E-1,3.950088E-1,-1.1693878E-1,-2.4589631E-1,8.142052E-1,-1.0461322E-1,1.2153519E0,-1.3678654E-1,7.674575E-2,-9.8833196E-2,1.3613564E0,1.2240216E0,3.2503882E-1,5.7221746E-1,2.636961E-2,1.2279147E0,2.8404076E-2,-1.0058908E-1,2.0763281E-1,5.0359976E-1,3.609428E-1],"categories":[],"categories_nodes":[],"categories_segments":[],"categories_sizes":[],"default_left":[0,0,0,0,0,0,0,0,0,0,0,0,0,0,0,0,0,0,0,0,0,0,0,0,0,0,0,0,0],"id":25,"left_children":[1,3,5,7,9,11,13,-1,-1,-1,-1,15,17,-1,19,-1,-1,-1,21,23,25,-1,-1,27,-1,-1,-1,-1,-1],"loss_changes":[6.6846173E2,5.1979523E0,1.0930725E1,7.3324585E-1,4.0074315E0,3.6128352E0,3.63031E0,0E0,0E0,0E0,0E0,9.631803E-1,3.8586357E0,0E0,2.1130676E0,0E0,0E0,0E0,2.5310035E0,1.2986145E0,1.3225137E0,0E0,0E0,1.5603333E0,0E0,0E0,0E0,0E0,0E0],"parents":[2147483647,0,0,1,1,2,2,3,3,4,4,5,5,6,6,11,11,12,12,14,14,18,18,19,19,20,20,23,23],"right_children":[2,4,6,8,10,12,14,-1,-1,-1,-1,16,18,-1,20,-1,-1,-1,22,24,26,-1,-1,28,-1,-1,-1,-1,-1],"split_conditions":[1.8846976E-2,7.359261E-1,8.594732E-3,1.2086681E-3,1.4691404E-2,9.978286E-8,1.3614182E-2,4.4295453E-2,-1.5650567E-1,3.950088E-1,-1.1693878E-1,7.7678403E-3,6.6559403E-3,-1.0461322E-1,1.0488775E-1,-1.3678654E-1,7.674575E-2,-9.8833196E-2,7.3712585E-3,8.98082E-1,1.879475E-1,5.7221746E-1,2.636961E-2,5.1570773E-1,2.8404076E-2,-1.0058908E-1,2.0763281E-1,5.0359976E-1,3.609428E-1],"split_indices":[25,53,53,28,36,26,41,0,0,0,0,46,52,0,47,0,0,0,44,49,11,0,0,25,0,0,0,0,0],"split_type":[0,0,0,0,0,0,0,0,0,0,0,0,0,0,0,0,0,0,0,0,0,0,0,0,0,0,0,0,0],"sum_hessian":[1.0987944E3,7.619149E2,3.3687958E2,7.580712E2,3.8436756E0,1.1482156E1,3.2539743E2,1.2469656E0,7.568243E2,1.8814864E0,1.9621892E0,7.0324545E0,4.449702E0,1.093124E0,3.243043E2,5.021327E0,2.0111272E0,1.5687047E0,2.880997E0,3.2080554E2,3.498752E0,1.6679889E0,1.2130079E0,3.196165E2,1.1890748E0,1.2809561E0,2.217796E0,1.3172122E1,3.0644437E2],"tree_param":{"num_deleted":"0","num_feature":"57","num_nodes":"29","size_leaf_vector":"0"}},{"base_weights":[-2.798819E-1,-5.1857907E-1,1.2095244E0,8.252963E-2,-5.208042E-1,-6.273889E-3,1.2261639E0,-1.5655816E-1,-1.2042091E-1,3.6991405E-1,1.12237014E-1,-1.08988464E-1,6.7581385E-2],"categories":[],"categories_nodes":[],"categories_segments":[],"categories_sizes":[],"default_left":[0,0,0,0,0,0,0,0,0,0,0,0,0],"id":26,"left_children":[1,3,5,-1,7,-1,9,-1,11,-1,-1,-1,-1],"loss_changes":[3.341102E2,1.5722656E0,2.6844788E0,0E0,2.785492E-1,0E0,2.9022217E-1,0E0,3.6931866E-1,0E0,0E0,0E0,0E0],"parents":[2147483647,0,0,1,1,2,2,4,4,6,6,8,8],"right_children":[2,4,6,-1,8,-1,10,-1,12,-1,-1,-1,-1],"split_conditions":[3.3519324E-2,1.6639916E-4,1.9190097E-2,8.252963E-2,1.0653275E-2,-6.273889E-3,2.3497188E-2,-1.5655816E-1,1.3795747E-2,3.6991405E-1,1.12237014E-1,-1.08988464E-1,6.7581385E-2],"split_indices":[26,38,40,0,12,0,39,0,29,0,0,0,0],"split_type":[0,0,0,0,0,0,0,0,0,0,0,0,0],"sum_hessian":[9.370223E2,8.081563E2,1.2886598E2,1.9165399E0,8.0623975E2,1.7159935E0,1.27149994E2,8.0381573E2,2.424012E0,1.2568749E2,1.462497E0,1.393827E0,1.030185E0],"tree_param":{"num_deleted":"0","num_feature":"57","num_nodes":"13","size_leaf_vector":"0"}},{"base_weights":[-3.521068E-1,-5.194654E-1,1.2299112E0,-1.5692367E-1,1.3479042E-1,1.2556037E0,-1.6197504E-2,2.9329848E-1,-1.2020407E-1,1.2786287E0,4.375326E-1,3.8873947E-1,8.72637E-2,-1.9203063E-2,2.273465E-1],"categories":[],"categories_nodes":[],"categories_segments":[],"categories_sizes":[],"default_left":[0,0,0,0,0,0,0,0,0,0,0,0,0,0,0],"id":27,"left_children":[1,3,5,-1,7,9,-1,-1,-1,11,13,-1,-1,-1,-1],"loss_changes":[2.3939755E2,2.0001526E0,2.9233704E0,0E0,2.7740185E0,1.0399475E0,0E0,0E0,0E0,1.0148468E0,6.661045E-1,0E0,0E0,0E0,0E0],"parents":[2147483647,0,0,1,1,2,2,4,4,5,5,9,9,10,10],"right_children":[2,4,6,-1,8,10,-1,-1,-1,12,14,-1,-1,-1,-1],"split_conditions":[3.5446146E-1,2.637554E-3,1.2436273E-6,-1.5692367E-1,1.2719347E-6,1.21701E-2,-1.6197504E-2,2.9329848E-1,-1.2020407E-1,5.029453E-2,1.4400124E-10,3.8873947E-1,8.72637E-2,-1.9203063E-2,2.273465E-1],"split_indices":[27,27,16,0,23,45,0,0,0,18,0,0,0,0,0],"split_type":[0,0,0,0,0,0,0,0,0,0,0,0,0,0,0],"sum_hessian":[9.007783E2,8.1521045E2,8.556785E1,8.109321E2,4.2783422E0,8.3910736E1,1.6571132E0,1.3412751E0,2.937067E0,8.106611E1,2.84463E0,7.937452E1,1.6915865E0,1.420464E0,1.424166E0],"tree_param":{"num_deleted":"0","num_feature":"57","num_nodes":"15","size_leaf_vector":"0"}},{"base_weights":[-1.1411196E-1,-5.160855E-1,9.168978E-1,-1.5529333E-1,1.9274024E-2,9.2101187E-1,5.230838E-3,2.7743283E-1,2.4789082E-2],"categories":[],"categories_nodes":[],"categories_segments":[],"categories_sizes":[],"default_left":[0,0,0,0,0,0,0,0,0],"id":28,"left_children":[1,3,5,-1,-1,7,-1,-1,-1],"loss_changes":[3.6025302E2,5.988922E-1,8.864136E-1,0E0,0E0,6.8966675E-1,0E0,0E0,0E0],"parents":[2147483647,0,0,1,1,2,2,5,5],"right_children":[2,4,6,-1,-1,8,-1,-1,-1],"split_conditions":[3.1063594E-2,2.8314644E-2,4.710405E-2,-1.5529333E-1,1.9274024E-2,1.3610472E-4,5.230838E-3,2.7743283E-1,2.4789082E-2],"split_indices":[0,42,29,0,0,4,0,0,0],"split_type":[0,0,0,0,0,0,0,0,0],"sum_hessian":[8.671136E2,6.242344E2,2.4287918E2,6.226698E2,1.5646044E0,2.4174947E2,1.1297119E0,2.4056631E2,1.1831552E0],"tree_param":{"num_deleted":"0","num_feature":"57","num_nodes":"9","size_leaf_vector":"0"}},{"base_weights":[3.0620933E-1,-5.129154E-1,9.061069E-1,-1.5526512E-1,4.5833033E-2,-8.952133E-2,9.0855E-1,3.44709E-1,-1.4437534E-1,-2.6071962E-2,9.108217E-1,9.12547E-1,5.1014975E-2,2.739717E-1,9.085428E-2],"categories":[],"categories_nodes":[],"categories_segments":[],"categories_sizes":[],"default_left":[0,0,0,0,0,0,0,0,0,0,0,0,0,0,0],"id":29,"left_children":[1,3,5,-1,7,-1,9,-1,-1,-1,11,13,-1,-1,-1],"loss_changes":[6.45105E2,1.4616852E0,2.5007324E0,0E0,3.74334E0,0E0,1.7894897E0,0E0,0E0,0E0,8.093872E-1,4.1015625E-2,0E0,0E0,0E0],"parents":[2147483647,0,0,1,1,2,2,4,4,6,6,10,10,11,11],"right_children":[2,4,6,-1,8,-1,10,-1,-1,-1,12,14,-1,-1,-1],"split_conditions":[1.0713694E-2,1.11017406E-1,1.021384E-2,-1.5526512E-1,9.597318E-8,-8.952133E-2,5.782852E-3,3.44709E-1,-1.4437534E-1,-2.6071962E-2,5.9206367E-2,1.3610472E-4,5.1014975E-2,2.739717E-1,9.085428E-2],"split_indices":[1,15,15,0,21,0,45,0,0,0,11,4,0,0,0],"split_type":[0,0,0,0,0,0,0,0,0,0,0,0,0,0,0],"sum_hessian":[1.3108684E3,5.542364E2,7.566321E2,5.497497E2,4.486656E0,1.2863861E0,7.553457E2,1.0690792E0,3.417577E0,1.6349591E0,7.5371075E2,7.51728E2,1.9827117E0,7.5037854E2,1.3494773E0],"tree_param":{"num_deleted":"0","num_feature":"57","num_nodes":"15","size_leaf_vector":"0"}},{"base_weights":[-2.8701487E-1,-5.099798E-1,9.165664E-1,-5.1347136E-1,1.7689186E-1,5.151544E-2,9.469961E-1,-1.8754536E-1,-5.1495105E-1,-1.1589029E-1,1.9368789E-1,2.858945E-1,4.2009525E-2,-1.1202071E-1,6.6816516E-2,-1.5493602E-1,-2.313398E-1,6.1780494E-2,-1.1876152E-1],"categories":[],"categories_nodes":[],"categories_segments":[],"categories_sizes":[],"default_left":[0,0,0,0,0,0,0,0,0,0,0,0,0,0,0,0,0,0,0],"id":30,"left_children":[1,3,5,7,-1,9,11,13,15,-1,-1,-1,-1,-1,-1,-1,17,-1,-1],"loss_changes":[2.046629E2,2.77005E0,3.0912018E0,2.1263123E-1,0E0,1.5788422E0,4.2286682E-1,4.2403397E-1,1.5220642E-1,0E0,0E0,0E0,0E0,0E0,0E0,0E0,4.535774E-1,0E0,0E0],"parents":[2147483647,0,0,1,1,2,2,3,3,5,5,6,6,7,7,8,8,16,16],"right_children":[2,4,6,8,-1,10,12,14,16,-1,-1,-1,-1,-1,-1,-1,18,-1,-1],"split_conditions":[1.602217E-2,9.0481085E-1,1.3384293E-2,4.643978E-3,1.7689186E-1,3.511115E-1,1.412998E-4,2.7995932E-6,1.7819875E-4,-1.1589029E-1,1.9368789E-1,2.858945E-1,4.2009525E-2,-1.1202071E-1,6.6816516E-2,-1.5493602E-1,7.0139766E-3,6.1780494E-2,-1.1876152E-1],"split_indices":[16,44,31,51,0,2,27,26,2,0,0,0,0,0,0,0,46,0,0],"split_type":[0,0,0,0,0,0,0,0,0,0,0,0,0,0,0,0,0,0,0],"sum_hessian":[7.599115E2,6.416258E2,1.182857E2,6.401263E2,1.4995036E0,4.1110253E0,1.14174675E2,3.4703565E0,6.3665594E2,2.5682185E0,1.5428069E0,1.1315441E2,1.0202638E0,2.4502244E0,1.0201321E0,6.324846E2,4.1713147E0,1.0716254E0,3.0996895E0],"tree_param":{"num_deleted":"0","num_feature":"57","num_nodes":"19","size_leaf_vector":"0"}},{"base_weights":[1.9927533E-1,-5.1261705E-1,9.0362084E-1,-1.5526623E-1,2.1164936E-1,-4.786593E-2,9.1327137E-1,-1.1605662E-1,3.3685586E-1,-1.3546179E-1,2.6666072E-1,9.1714585E-1,-9.5044866E-2,9.1926575E-1,-3.8714542E-3,4.999087E-2,-9.198103E-2,9.213604E-1,4.7745E-2,2.7435553E-1,3.889989E-1],"categories":[],"categories_nodes":[],"categories_segments":[],"categories_sizes":[],"default_left":[0,0,0,0,0,0,0,0,0,0,0,0,0,0,0,0,0,0,0,0,0],"id":31,"left_children":[1,3,5,-1,7,9,11,-1,-1,-1,-1,13,15,17,-1,-1,-1,19,-1,-1,-1],"loss_changes":[5.7965985E2,2.165985E0,5.3786316E0,0E0,2.9449596E0,2.9665692E0,2.334381E0,0E0,0E0,0E0,0E0,1.1417847E0,2.2314939E-1,7.637634E-1,0E0,0E0,0E0,2.7792358E-1,0E0,0E0,0E0],"parents":[2147483647,0,0,1,1,2,2,4,4,5,5,6,6,11,11,12,12,13,13,17,17],"right_children":[2,4,6,-1,8,10,12,-1,-1,-1,-1,14,16,18,-1,-1,-1,20,-1,-1,-1],"split_conditions":[6.689772E-3,2.4115948E-2,6.3497355E-5,-1.5526623E-1,1.1903007E-2,8.337772E-2,6.6702455E-1,-1.1605662E-1,3.3685586E-1,-1.3546179E-1,2.6666072E-1,3.814921E-2,7.462445E-3,1.2608853E-3,-3.8714542E-3,4.999087E-2,-9.198103E-2,1.16864145E-2,4.7745E-2,2.7435553E-1,3.889989E-1],"split_indices":[17,3,3,0,47,31,25,0,0,0,0,50,50,6,0,0,0,43,0,0,0],"split_type":[0,0,0,0,0,0,0,0,0,0,0,0,0,0,0,0,0,0,0,0,0],"sum_hessian":[1.154117E3,5.741188E2,5.799981E2,5.7051526E2,3.6035275E0,5.783848E0,5.742143E2,2.522272E0,1.0812554E0,4.4039774E0,1.3798704E0,5.721063E2,2.1079376E0,5.7081683E2,1.2894897E0,1.0372642E0,1.0706732E0,5.690367E2,1.7801796E0,5.622238E2,6.8128276E0],"tree_param":{"num_deleted":"0","num_feature":"57","num_nodes":"21","size_leaf_vector":"0"}},{"base_weights":[-2.91941E-1,-1.5529627E-1,9.3004775E-1,-8.2688674E-2,9.428759E-1,1.4704536E-2,9.5078164E-1,4.17769E-1,2.7716553E-1],"categories":[],"categories_nodes":[],"categories_segments":[],"categories_sizes":[],"default_left":[0,0,0,0,0,0,0,0,0],"id":32,"left_children":[1,-1,3,-1,5,-1,7,-1,-1],"loss_changes":[2.098074E2,0E0,2.0955048E0,0E0,7.848511E-1,0E0,9.8609924E-2,0E0,0E0],"parents":[2147483647,0,0,2,2,4,4,6,6],"right_children":[2,-1,4,-1,6,-1,8,-1,-1],"split_conditions":[5.029453E-2,-1.5529627E-1,1.5205309E-2,-8.2688674E-2,5.1673115E-3,1.4704536E-2,8.306074E-1,4.17769E-1,2.7716553E-1],"split_indices":[18,0,32,0,30,0,46,0,0],"split_type":[0,0,0,0,0,0,0,0,0],"sum_hessian":[7.579252E2,6.4024255E2,1.17682625E2,1.0232627E0,1.1665936E2,1.0858654E0,1.155735E2,3.718684E0,1.1185481E2],"tree_param":{"num_deleted":"0","num_feature":"57","num_nodes":"9","size_leaf_vector":"0"}},{"base_weights":[1.0563874E-1,-5.14719E-1,9.0169024E-1,-1.2925616E-1,-5.159845E-1,-1.3344987E-1,9.140879E-1,3.2336116E-2,-8.6233765E-2,-1.5527011E-1,-2.9935688E-1,1.6916153E-1,-1.2734304E-1,9.1815054E-1,2.7070898E-1,-1.3058744E-1,6.994217E-2,9.21381E-1,-6.4658294E-3,-1.1921523E-1,2.0043439E-1,9.124343E-1,1.2216371E0,2.7479082E-1,6.0194373E-2,2.5082514E-1,5.024281E-1],"categories":[],"categories_nodes":[],"categories_segments":[],"categories_sizes":[],"default_left":[0,0,0,0,0,0,0,0,0,0,0,0,0,0,0,0,0,0,0,0,0,0,0,0,0,0,0],"id":33,"left_children":[1,3,5,7,9,11,13,-1,-1,-1,15,-1,-1,17,19,-1,-1,21,-1,-1,-1,23,25,-1,-1,-1,-1],"loss_changes":[5.201925E2,2.2213745E-1,6.042053E0,1.536694E-1,4.7286987E-2,1.5243988E0,9.432678E-1,0E0,0E0,0E0,5.828274E-1,0E0,0E0,1.3940735E0,1.4016764E0,0E0,0E0,9.732056E-2,0E0,0E0,0E0,9.2852783E-1,3.6487103E-1,0E0,0E0,0E0,0E0],"parents":[2147483647,0,0,1,1,2,2,3,3,4,4,5,5,6,6,10,10,13,13,14,14,17,17,21,21,22,22],"right_children":[2,4,6,8,10,12,14,-1,-1,-1,16,-1,-1,18,20,-1,-1,22,-1,-1,-1,24,26,-1,-1,-1,-1],"split_conditions":[4.800578E-3,6.8892404E-3,1.6188925E-2,4.688589E-15,1.2193344E-3,7.0935935E-3,6.725423E-7,3.2336116E-2,-8.6233765E-2,-1.5527011E-1,2.4255542E-1,1.6916153E-1,-1.2734304E-1,4.334199E-2,2.3765037E-5,-1.3058744E-1,6.994217E-2,1.3899365E-9,-6.4658294E-3,-1.1921523E-1,2.0043439E-1,1.4615189E-2,7.174066E-3,2.7479082E-1,6.0194373E-2,2.5082514E-1,5.024281E-1],"split_indices":[5,34,47,1,19,45,9,0,0,0,29,0,0,31,9,0,0,23,0,0,0,54,43,0,0,0,0],"split_type":[0,0,0,0,0,0,0,0,0,0,0,0,0,0,0,0,0,0,0,0,0,0,0,0,0,0,0],"sum_hessian":[1.0514296E3,5.9112396E2,4.6030563E2,2.271831E0,5.888521E2,5.3321786E0,4.5497348E2,1.0368139E0,1.2350172E0,5.8320233E2,5.6497846E0,1.2940401E0,4.0381384E0,4.5169415E2,3.2793276E0,4.6462493E0,1.0035352E0,4.5016608E2,1.528068E0,1.2231313E0,2.0561962E0,4.410626E2,9.1034775E0,4.3859744E2,2.4651399E0,6.4556518E0,2.6478257E0],"tree_param":{"num_deleted":"0","num_feature":"57","num_nodes":"27","size_leaf_vector":"0"}},{"base_weights":[-6.959369E-2,-5.1608074E-1,9.135536E-1,-1.5530212E-1,-1.5136391E-1,-9.975956E-2,9.2243606E-1,-1.057509E-1,7.0448905E-2,2.776584E-1,7.015877E-2],"categories":[],"categories_nodes":[],"categories_segments":[],"categories_sizes":[],"default_left":[0,0,0,0,0,0,0,0,0,0,0],"id":34,"left_children":[1,3,5,-1,7,-1,9,-1,-1,-1,-1],"loss_changes":[3.9522693E2,2.8131104E-1,3.4193573E0,0E0,4.016807E-1,0E0,3.7857056E-1,0E0,0E0,0E0,0E0],"parents":[2147483647,0,0,1,1,2,2,4,4,6,6],"right_children":[2,4,6,-1,8,-1,10,-1,-1,-1,-1],"split_conditions":[4.8751906E-2,9.0943456E-1,1.29382005E-2,-1.5530212E-1,2.0993686E-12,-9.975956E-2,8.102427E-5,-1.057509E-1,7.0448905E-2,2.776584E-1,7.015877E-2],"split_indices":[20,42,48,0,27,0,21,0,0,0,0],"split_type":[0,0,0,0,0,0,0,0,0,0,0],"sum_hessian":[8.98292E2,6.180744E2,2.802176E2,6.14969E2,3.1054094E0,1.7254469E0,2.7849213E2,2.0992868E0,1.0061226E0,2.7690463E2,1.5874913E0],"tree_param":{"num_deleted":"0","num_feature":"57","num_nodes":"11","size_leaf_vector":"0"}},{"base_weights":[2.376184E-1,-5.0183636E-1,9.055923E-1,-5.0936455E-1,2.6200128E-1,3.190671E-1,9.164919E-1,-1.5524237E-1,-1.1044361E-1,-1.1259684E-1,2.506603E-1,2.7546203E-1,7.113958E-3,2.605893E-1,-3.2408273E-1,1.7764917E-1,-1.3441043E-1,-1.4225358E-1,1.07917465E-1],"categories":[],"categories_nodes":[],"categories_segments":[],"categories_sizes":[],"default_left":[0,0,0,0,0,0,0,0,0,0,0,0,0,0,0,0,0,0,0],"id":35,"left_children":[1,3,5,7,-1,9,11,-1,13,15,-1,-1,-1,-1,17,-1,-1,-1,-1],"loss_changes":[5.929925E2,6.345749E0,3.7391357E0,1.7789154E0,0E0,3.0011065E0,9.251709E-1,0E0,2.9126487E0,2.1527863E0,0E0,0E0,0E0,0E0,1.3051358E0,0E0,0E0,0E0,0E0],"parents":[2147483647,0,0,1,1,2,2,3,3,5,5,6,6,8,8,9,9,14,14],"right_children":[2,4,6,8,-1,10,12,-1,14,16,-1,-1,-1,-1,18,-1,-1,-1,-1],"split_conditions":[1.5701199E-1,8.98082E-1,2.6164085E-2,6.973229E-4,2.6200128E-1,3.0062267E-1,7.144446E-3,-1.5524237E-1,6.566594E-3,4.6665245E-11,2.506603E-1,2.7546203E-1,7.113958E-3,2.605893E-1,1.1305535E-2,1.7764917E-1,-1.3441043E-1,-1.4225358E-1,1.07917465E-1],"split_indices":[21,49,35,7,0,49,24,0,47,5,0,0,0,0,54,0,0,0,0],"split_type":[0,0,0,0,0,0,0,0,0,0,0,0,0,0,0,0,0,0,0],"sum_hessian":[1.1986239E3,5.68992E2,6.296319E2,5.6652026E2,2.4717402E0,1.2039493E1,6.175924E2,5.549412E2,1.1579039E1,6.9841323E0,5.0553603E0,6.1638007E2,1.2123593E0,1.524879E0,1.005416E1,2.0054023E0,4.97873E0,8.495876E0,1.5582838E0],"tree_param":{"num_deleted":"0","num_feature":"57","num_nodes":"19","size_leaf_vector":"0"}},{"base_weights":[1.2057252E-1,-5.164912E-1,9.120489E-1,3.043722E-2,-1.553596E-1,1.2469185E-2,9.140032E-1,2.7467766E-1,3.2792382E-2],"categories":[],"categories_nodes":[],"categories_segments":[],"categories_sizes":[],"default_left":[0,0,0,0,0,0,0,0,0],"id":36,"left_children":[1,3,5,-1,-1,-1,7,-1,-1],"loss_changes":[5.401712E2,5.566559E-1,7.746887E-1,0E0,0E0,0E0,5.0927734E-1,0E0,0E0],"parents":[2147483647,0,0,1,1,2,2,6,6],"right_children":[2,4,6,-1,-1,-1,8,-1,-1],"split_conditions":[1.2842335E-1,7.887713E-3,1.1745653E-2,3.043722E-2,-1.553596E-1,1.2469185E-2,8.6394954E-1,2.7467766E-1,3.2792382E-2],"split_indices":[22,35,36,0,0,0,47,0,0],"split_type":[0,0,0,0,0,0,0,0,0],"sum_hessian":[1.0693646E3,5.926693E2,4.7669534E2,1.1533927E0,5.9151587E2,1.117735E0,4.755776E2,4.7450284E2,1.0747694E0],"tree_param":{"num_deleted":"0","num_feature":"57","num_nodes":"9","size_leaf_vector":"0"}},{"base_weights":[-3.1589055E-1,-5.115995E-1,9.0940195E-1,-1.5527019E-1,-2.0794833E-1,-9.791479E-2,9.32382E-1,3.0001488E-1,-4.0577626E-1,2.85149E-1,2.1628664E-1,6.6443644E-2,-1.4406773E-1,2.1195462E-1,-1.0900579E-1],"categories":[],"categories_nodes":[],"categories_segments":[],"categories_sizes":[],"default_left":[0,0,0,0,0,0,0,0,0,0,0,0,0,0,0],"id":37,"left_children":[1,3,5,-1,7,-1,9,-1,11,-1,13,-1,-1,-1,-1],"loss_changes":[1.7917847E2,1.0580292E0,3.2293777E0,0E0,3.768214E0,0E0,1.1095047E0,0E0,7.041764E-1,0E0,1.3353306E0,0E0,0E0,0E0,0E0],"parents":[2147483647,0,0,1,1,2,2,4,4,6,6,8,8,10,10],"right_children":[2,4,6,-1,8,-1,10,-1,12,-1,14,-1,-1,-1,-1],"split_conditions":[1.0792098E-2,3.3813164E-6,1.7924998E-4,-1.5527019E-1,1.0674494E-2,-9.791479E-2,2.7995932E-6,3.0001488E-1,4.6369005E-3,2.85149E-1,5.240381E-9,6.6443644E-2,-1.4406773E-1,2.1195462E-1,-1.0900579E-1],"split_indices":[23,23,9,0,36,0,26,0,30,0,2,0,0,0,0],"split_type":[0,0,0,0,0,0,0,0,0,0,0,0,0,0,0],"sum_hessian":[7.4425726E2,6.4225586E2,1.0200138E2,6.291857E2,1.3070122E1,1.6211073E0,1.0038027E2,1.2685877E0,1.1801534E1,9.7584404E1,2.7958627E0,1.0425885E0,1.0758945E1,1.3961681E0,1.3996946E0],"tree_param":{"num_deleted":"0","num_feature":"57","num_nodes":"15","size_leaf_vector":"0"}},{"base_weights":[1.1985894E-1,-5.1601917E-1,9.032112E-1,-1.5529935E-1,-5.8962977E-3,-1.19762115E-1,9.130686E-1,-1.1282486E-1,9.1880596E-1,9.2267233E-1,-2.694499E-2,2.740184E-1,4.5722073E-1],"categories":[],"categories_nodes":[],"categories_segments":[],"categories_sizes":[],"default_left":[0,0,0,0,0,0,0,0,0,0,0,0,0],"id":38,"left_children":[1,3,5,-1,-1,-1,7,-1,9,11,-1,-1,-1],"loss_changes":[5.320176E2,4.7135925E-1,6.5075073E0,0E0,0E0,0E0,3.8602295E0,0E0,1.928894E0,1.239563E0,0E0,0E0,0E0],"parents":[2147483647,0,0,1,1,2,2,6,6,8,8,9,9],"right_children":[2,4,6,-1,-1,-1,8,-1,10,12,-1,-1,-1],"split_conditions":[5.5056403E-4,4.3443467E-2,5.5668445E-4,-1.5529935E-1,-5.8962977E-3,-1.19762115E-1,7.0611914E-3,-1.1282486E-1,2.447448E-2,1.021384E-2,-2.694499E-2,2.740184E-1,4.5722073E-1],"split_indices":[10,52,24,0,0,0,52,0,47,15,0,0,0],"split_type":[0,0,0,0,0,0,0,0,0,0,0,0,0],"sum_hessian":[1.0661228E3,5.8864087E2,4.774819E2,5.866534E2,1.9874649E0,3.29001E0,4.741919E2,1.8150246E0,4.7237686E2,4.706579E2,1.7189626E0,4.6598795E2,4.6699524E0],"tree_param":{"num_deleted":"0","num_feature":"57","num_nodes":"13","size_leaf_vector":"0"}},{"base_weights":[5.2691028E-3,-5.0702536E-1,8.86231E-1,-5.1424146E-1,4.2578498E-1,-6.807329E-2,9.0776515E-1,4.464266E-2,-5.1586354E-1,2.881546E-1,-1.1263916E-1,-1.4194636E-1,7.010626E-1,4.700367E-2,9.202111E-1,-1.5523659E-1,-3.1747738E-1,3.5385254E-1,-1.8726734E-3,-1.21981256E-1,2.2199833E-1,9.259128E-1,2.8109807E-1,-1.3162878E-1,4.3956295E-2,3.8648513E-1,9.3096226E-1,1.8390605E-1,-9.6180946E-2,-1.2693404E-1,2.2015864E-1,6.376703E-2,2.8016287E-1],"categories":[],"categories_nodes":[],"categories_segments":[],"categories_sizes":[],"default_left":[0,0,0,0,0,0,0,0,0,0,0,0,0,0,0,0,0,0,0,0,0,0,0,0,0,0,0,0,0,0,0,0,0],"id":39,"left_children":[1,3,5,7,9,11,13,-1,15,-1,-1,-1,17,19,21,-1,23,-1,-1,-1,-1,25,27,-1,-1,29,31,-1,-1,-1,-1,-1,-1],"loss_changes":[4.3143082E2,4.2877197E0,7.2850647E0,7.223511E-1,2.5830894E0,3.038199E0,3.6399536E0,0E0,2.4871826E-2,0E0,0E0,0E0,1.1578559E0,2.172556E0,9.7454834E-1,0E0,4.7823048E-1,0E0,0E0,0E0,0E0,5.53833E-1,1.081735E0,0E0,0E0,1.6662165E0,4.956665E-1,0E0,0E0,0E0,0E0,0E0,0E0],"parents":[2147483647,0,0,1,1,2,2,3,3,4,4,5,5,6,6,8,8,12,12,13,13,14,14,16,16,21,21,22,22,25,25,26,26],"right_children":[2,4,6,8,10,12,14,-1,16,-1,-1,-1,18,20,22,-1,24,-1,-1,-1,-1,26,28,-1,-1,30,32,-1,-1,-1,-1,-1,-1],"split_conditions":[1.8846976E-2,7.359261E-1,1.2190484E-4,1.2086681E-3,1.4691404E-2,1.6391646E-2,7.4930633E-3,4.464266E-2,1.9838633E-2,2.881546E-1,-1.1263916E-1,-1.4194636E-1,8.4493705E-12,2.3497188E-2,1.0488775E-1,-1.5523659E-1,9.9586457E-1,3.5385254E-1,-1.8726734E-3,-1.21981256E-1,2.2199833E-1,1.2525389E-2,5.2763926E-7,-1.3162878E-1,4.3956295E-2,6.959527E-3,5.032699E-3,1.8390605E-1,-9.6180946E-2,-1.2693404E-1,2.2015864E-1,6.376703E-2,2.8016287E-1],"split_indices":[25,53,11,28,36,39,53,0,53,0,0,0,4,39,47,0,21,0,0,0,0,40,8,0,0,43,43,0,0,0,0,0,0],"split_type":[0,0,0,0,0,0,0,0,0,0,0,0,0,0,0,0,0,0,0,0,0,0,0,0,0,0,0,0,0,0,0,0,0],"sum_hessian":[9.539526E2,6.034566E2,3.5049594E2,5.992695E2,4.1871634E0,7.6868224E0,3.428091E2,1.2409887E0,5.980285E2,2.3920233E0,1.79514E0,5.287091E0,2.3997316E0,4.9541745E0,3.3785495E2,5.916729E2,6.355559E0,1.0332174E0,1.3665141E0,3.2440155E0,1.710159E0,3.344227E2,3.4322462E0,5.081647E0,1.273912E0,3.8205426E0,3.3060214E2,2.1998892E0,1.2323569E0,1.0816408E0,2.7389016E0,1.6342291E0,3.2896793E2],"tree_param":{"num_deleted":"0","num_feature":"57","num_nodes":"33","size_leaf_vector":"0"}},{"base_weights":[-2.6507014E-1,-5.120083E-1,9.184521E-1,6.805572E-2,-5.1475924E-1,-1.2326427E-3,9.2968404E-1,-1.1811336E-1,-1.548887E-1,2.8059065E-1,3.4370575E-2,-9.87316E-2,6.475686E-2],"categories":[],"categories_nodes":[],"categories_segments":[],"categories_sizes":[],"default_left":[0,0,0,0,0,0,0,0,0,0,0,0,0],"id":40,"left_children":[1,3,5,-1,7,-1,9,11,-1,-1,-1,-1,-1],"loss_changes":[2.2667596E2,1.4197235E0,1.3920593E0,0E0,3.2839966E-1,0E0,4.989853E-1,3.3613065E-1,0E0,0E0,0E0,0E0,0E0],"parents":[2147483647,0,0,1,1,2,2,4,4,6,6,7,7],"right_children":[2,4,6,-1,8,-1,10,12,-1,-1,-1,-1,-1],"split_conditions":[3.3519324E-2,1.6639916E-4,1.9190097E-2,6.805572E-2,3.977808E-3,-1.2326427E-3,2.341347E-2,5.922395E-8,-1.548887E-1,2.8059065E-1,3.4370575E-2,-9.87316E-2,6.475686E-2],"split_indices":[26,38,40,0,46,0,33,11,0,0,0,0,0],"split_type":[0,0,0,0,0,0,0,0,0,0,0,0,0],"sum_hessian":[7.7299646E2,6.400247E2,1.3297174E2,2.0719671E0,6.3795276E2,1.6070576E0,1.3136469E2,2.7620325E0,6.3519073E2,1.3031903E2,1.0456529E0,1.7015862E0,1.0604464E0],"tree_param":{"num_deleted":"0","num_feature":"57","num_nodes":"13","size_leaf_vector":"0"}},{"base_weights":[-3.3679813E-1,-5.130981E-1,9.193093E-1,-1.5528743E-1,1.4318521E-1,9.3841684E-1,-1.920354E-2,-1.16184734E-1,2.5759566E-1,2.8721106E-1,3.8904825E-1,2.5743654E-1,-1.3033722E-1],"categories":[],"categories_nodes":[],"categories_segments":[],"categories_sizes":[],"default_left":[0,0,0,0,0,0,0,0,0,0,0,0,0],"id":41,"left_children":[1,3,5,-1,7,9,-1,-1,-1,-1,11,-1,-1],"loss_changes":[1.6349123E2,1.9937744E0,1.7691345E0,0E0,2.3098114E0,5.572815E-1,0E0,0E0,0E0,0E0,2.1738346E0,0E0,0E0],"parents":[2147483647,0,0,1,1,2,2,4,4,5,5,10,10],"right_children":[2,4,6,-1,8,10,-1,-1,-1,-1,12,-1,-1],"split_conditions":[3.5446146E-1,2.637554E-3,1.2436273E-6,-1.5528743E-1,3.4597673E-7,2.512679E-2,-1.920354E-2,-1.16184734E-1,2.5759566E-1,2.8721106E-1,1.9954762E-6,2.5743654E-1,-1.3033722E-1],"split_indices":[27,27,16,0,0,34,0,0,0,0,18,0,0],"split_type":[0,0,0,0,0,0,0,0,0,0,0,0,0],"sum_hessian":[7.3514044E2,6.4517847E2,8.996199E1,6.409687E2,4.209759E0,8.8292E1,1.6699877E0,2.6808214E0,1.5289379E0,8.462959E1,3.6624093E0,2.30655E0,1.3558592E0],"tree_param":{"num_deleted":"0","num_feature":"57","num_nodes":"13","size_leaf_vector":"0"}},{"base_weights":[-1.0777807E-1,-5.1127124E-1,7.6971954E-1,-1.5397483E-1,2.2791654E-2,7.7371085E-1,-3.6832218E-3,2.331248E-1,2.21349E-2],"categories":[],"categories_nodes":[],"categories_segments":[],"categories_sizes":[],"default_left":[0,0,0,0,0,0,0,0,0],"id":42,"left_children":[1,3,5,-1,-1,7,-1,-1,-1],"loss_changes":[2.5325224E2,6.0798645E-1,7.128601E-1,0E0,0E0,4.7183228E-1,0E0,0E0,0E0],"parents":[2147483647,0,0,1,1,2,2,5,5],"right_children":[2,4,6,-1,-1,8,-1,-1,-1],"split_conditions":[3.1063594E-2,2.8314644E-2,4.710405E-2,-1.5397483E-1,2.2791654E-2,1.3610472E-4,-3.6832218E-3,2.331248E-1,2.21349E-2],"split_indices":[0,42,29,0,0,4,0,0,0],"split_type":[0,0,0,0,0,0,0,0,0],"sum_hessian":[7.131604E2,4.888113E2,2.243491E2,4.8729584E2,1.5154772E0,2.2322038E2,1.1287245E0,2.2204051E2,1.1798795E0],"tree_param":{"num_deleted":"0","num_feature":"57","num_nodes":"9","size_leaf_vector":"0"}},{"base_weights":[2.739206E-1,-5.073277E-1,7.610873E-1,-1.53935E-1,4.8137438E-2,-8.3986625E-2,7.6317775E-1,-1.3915241E-1,2.6899934E-1,-2.5696766E-2,7.652487E-1,7.6797974E-1,1.7162783E-1,7.690485E-1,5.589599E-3,1.5116678E-1,-7.535045E-2,2.3103209E-1,1.0139974E-1],"categories":[],"categories_nodes":[],"categories_segments":[],"categories_sizes":[],"default_left":[0,0,0,0,0,0,0,0,0,0,0,0,0,0,0,0,0,0,0],"id":43,"left_children":[1,3,5,-1,7,-1,9,-1,-1,-1,11,13,15,17,-1,-1,-1,-1,-1],"loss_changes":[4.3138885E2,1.4252167E0,1.7324829E0,0E0,2.7646735E0,0E0,1.2904053E0,0E0,0E0,0E0,9.9520874E-1,5.396118E-1,7.5469804E-1,5.480957E-2,0E0,0E0,0E0,0E0,0E0],"parents":[2147483647,0,0,1,1,2,2,4,4,6,6,10,10,11,11,12,12,13,13],"right_children":[2,4,6,-1,8,-1,10,-1,-1,-1,12,14,16,18,-1,-1,-1,-1,-1],"split_conditions":[1.0713694E-2,1.11017406E-1,1.021384E-2,-1.53935E-1,5.5056403E-4,-8.3986625E-2,5.782852E-3,-1.3915241E-1,2.6899934E-1,-2.5696766E-2,1.967618E-4,1.1636779E-2,1.1703588E-2,1.0936136E-5,5.589599E-3,1.5116678E-1,-7.535045E-2,2.3103209E-1,1.0139974E-1],"split_indices":[1,15,15,0,10,0,45,0,0,0,22,46,39,4,0,0,0,0,0],"split_type":[0,0,0,0,0,0,0,0,0,0,0,0,0,0,0,0,0,0,0],"sum_hessian":[1.1314352E3,4.3454028E2,6.968949E2,4.301337E2,4.4065685E0,1.1302243E0,6.957647E2,3.0310624E0,1.3755059E0,1.5951451E0,6.9416956E2,6.906982E2,3.4714017E0,6.8968823E2,1.0099497E0,1.8364185E0,1.6349831E0,6.872143E2,2.4739354E0],"tree_param":{"num_deleted":"0","num_feature":"57","num_nodes":"19","size_leaf_vector":"0"}},{"base_weights":[-2.746538E-1,-5.0397414E-1,7.6163E-1,-5.078918E-1,1.5124081E-1,7.766802E-1,-8.8938765E-2,-1.6367568E-1,-5.097548E-1,7.8504395E-1,-2.6010366E-3,7.0253156E-2,-1.08806305E-1,-1.5349513E-1,-1.9983935E-1,4.0748864E-2,2.3799068E-1,-1.1326311E-1,6.6099495E-2],"categories":[],"categories_nodes":[],"categories_segments":[],"categories_sizes":[],"default_left":[0,0,0,0,0,0,0,0,0,0,0,0,0,0,0,0,0,0,0],"id":44,"left_children":[1,3,5,7,-1,9,-1,11,13,15,-1,-1,-1,-1,17,-1,-1,-1,-1],"loss_changes":[1.4656148E2,2.2475739E0,2.0114822E0,2.3901367E-1,0E0,7.330322E-1,0E0,4.1587085E-1,1.9126892E-1,4.788208E-1,0E0,0E0,0E0,0E0,4.3250275E-1,0E0,0E0,0E0,0E0],"parents":[2147483647,0,0,1,1,2,2,3,3,5,5,7,7,8,8,9,9,14,14],"right_children":[2,4,6,8,-1,10,-1,12,14,16,-1,-1,-1,-1,18,-1,-1,-1,-1],"split_conditions":[1.602217E-2,9.0481085E-1,8.929017E-1,4.643978E-3,1.5124081E-1,1.4237776E-4,-8.8938765E-2,1.1552094E-2,1.7819875E-4,6.0175885E-3,-2.6010366E-3,7.0253156E-2,-1.08806305E-1,-1.5349513E-1,2.1007548E-7,4.0748864E-2,2.3799068E-1,-1.1326311E-1,6.6099495E-2],"split_indices":[16,44,49,51,0,3,0,32,2,51,0,0,0,0,20,0,0,0,0],"split_type":[0,0,0,0,0,0,0,0,0,0,0,0,0,0,0,0,0,0,0],"sum_hessian":[6.141197E2,5.0326526E2,1.1085444E2,5.0181137E2,1.4538851E0,1.0956201E2,1.292432E0,3.179694E0,4.9863168E2,1.08407875E2,1.1541303E0,1.0012854E0,2.1784086E0,4.9495328E2,3.6783948E0,1.5808265E0,1.0682705E2,2.6563766E0,1.0220181E0],"tree_param":{"num_deleted":"0","num_feature":"57","num_nodes":"19","size_leaf_vector":"0"}},{"base_weights":[1.8100977E-1,-5.0702596E-1,7.58566E-1,-1.5393844E-1,2.0562361E-1,-2.9861888E-2,7.6661384E-1,-1.1037305E-1,2.687738E-1,-1.2965347E-1,2.0950396E-1,7.699702E-1,-2.500452E-2,7.725671E-1,1.6776461E-2,7.7559155E-1,1.4498746E-1,2.3064683E-1,3.1261492E-1,1.263551E-1,-8.694709E-2],"categories":[],"categories_nodes":[],"categories_segments":[],"categories_sizes":[],"default_left":[0,0,0,0,0,0,0,0,0,0,0,0,0,0,0,0,0,0,0,0,0],"id":45,"left_children":[1,3,5,-1,7,9,11,-1,-1,-1,-1,13,-1,15,-1,17,19,-1,-1,-1,-1],"loss_changes":[3.924035E2,2.0659027E0,3.4284058E0,0E0,2.1274805E0,2.1726027E0,1.5799255E0,0E0,0E0,0E0,0E0,9.38385E-1,0E0,8.8845825E-1,0E0,1.4498901E-1,5.735103E-1,0E0,0E0,0E0,0E0],"parents":[2147483647,0,0,1,1,2,2,4,4,5,5,6,6,11,11,13,13,15,15,16,16],"right_children":[2,4,6,-1,8,10,12,-1,-1,-1,-1,14,-1,16,-1,18,20,-1,-1,-1,-1],"split_conditions":[6.689772E-3,2.4115948E-2,6.3497355E-5,-1.5393844E-1,1.1903007E-2,8.337772E-2,6.6702455E-1,-1.1037305E-1,2.687738E-1,-1.2965347E-1,2.0950396E-1,3.1063594E-2,-2.500452E-2,2.33672E-2,1.6776461E-2,9.9396445E-3,1.410189E-6,2.3064683E-1,3.1261492E-1,1.263551E-1,-8.694709E-2],"split_indices":[17,3,3,0,47,31,25,0,0,0,0,0,0,49,0,43,1,0,0,0,0],"split_type":[0,0,0,0,0,0,0,0,0,0,0,0,0,0,0,0,0,0,0,0,0],"sum_hessian":[9.855105E2,4.4979608E2,5.357144E2,4.462549E2,3.541164E0,5.385608E0,5.3032886E2,2.1892352E0,1.3519287E0,3.7309005E0,1.6547076E0,5.283366E2,1.9922028E0,5.263404E2,1.9962119E0,5.235813E2,2.759093E0,5.143994E2,9.1819315E0,1.7064688E0,1.0526243E0],"tree_param":{"num_deleted":"0","num_feature":"57","num_nodes":"21","size_leaf_vector":"0"}},{"base_weights":[-2.8046113E-1,-1.5398005E-1,7.731944E-1,-9.305079E-2,7.866255E-1,-7.551485E-3,2.3893969E-1],"categories":[],"categories_nodes":[],"categories_segments":[],"categories_sizes":[],"default_left":[0,0,0,0,0,0,0],"id":46,"left_children":[1,-1,3,-1,5,-1,-1],"loss_changes":[1.5055986E2,0E0,1.8617554E0,0E0,8.995514E-1,0E0,0E0],"parents":[2147483647,0,0,2,2,4,4],"right_children":[2,-1,4,-1,6,-1,-1],"split_conditions":[5.029453E-2,-1.5398005E-1,1.3610472E-4,-9.305079E-2,5.1673115E-3,-7.551485E-3,2.3893969E-1],"split_indices":[18,0,4,0,30,0,0],"split_type":[0,0,0,0,0,0,0],"sum_hessian":[6.111681E2,5.0098755E2,1.10180565E2,1.0786972E0,1.0910187E2,1.2879602E0,1.078139E2],"tree_param":{"num_deleted":"0","num_feature":"57","num_nodes":"7","size_leaf_vector":"0"}},{"base_weights":[9.677078E-2,-5.096126E-1,7.566804E-1,-5.1109844E-1,-3.268436E-2,-1.1582759E-1,7.6422673E-1,-1.5394098E-1,-2.5686884E-1,7.700664E-1,-1.5162771E-4,-1.2353032E-1,6.925777E-2,7.751157E-1,1.4410305E-1,-1.2634069E-1,1.9177537E-1,7.766035E-1,3.2510123E-1,1.954168E-1,-2.4899605E-1,4.3691212E-1,2.3109396E-1,-3.493209E-3,1.5404332E-1,-1.1696478E-1,9.50055E-3],"categories":[],"categories_nodes":[],"categories_segments":[],"categories_sizes":[],"default_left":[0,0,0,0,0,0,0,0,0,0,0,0,0,0,0,0,0,0,0,0,0,0,0,0,0,0,0],"id":47,"left_children":[1,3,5,7,-1,-1,9,-1,11,13,15,-1,-1,17,19,-1,-1,21,23,-1,25,-1,-1,-1,-1,-1,-1],"loss_changes":[3.562054E2,2.2053528E-1,3.970581E0,1.0758209E-1,0E0,0E0,1.8915863E0,0E0,5.2392924E-1,1.2174835E0,1.4031402E0,0E0,0E0,2.6687622E-2,1.0782003E0,0E0,0E0,6.520386E-1,2.0224461E-1,0E0,1.4328909E-1,0E0,0E0,0E0,0E0,0E0,0E0],"parents":[2147483647,0,0,1,1,2,2,3,3,6,6,8,8,9,9,10,10,13,13,14,14,17,17,18,18,20,20],"right_children":[2,4,6,8,-1,-1,10,-1,12,14,16,-1,-1,18,20,-1,-1,22,24,-1,26,-1,-1,-1,-1,-1,-1],"split_conditions":[4.800578E-3,5.5846527E-2,7.978517E-3,1.2193344E-3,-3.268436E-2,-1.1582759E-1,4.334199E-2,-1.5394098E-1,2.4255542E-1,3.4597673E-7,5.7777108E-8,-1.2353032E-1,6.925777E-2,3.2057935E-7,6.369812E-7,-1.2634069E-1,1.9177537E-1,1.0384264E-2,1.2696336E-6,1.954168E-1,3.003956E-4,4.3691212E-1,2.3109396E-1,-3.493209E-3,1.5404332E-1,-1.1696478E-1,9.50055E-3],"split_indices":[5,33,28,19,0,0,31,0,29,0,9,0,0,20,10,0,0,32,20,0,1,0,0,0,0,0,0],"split_type":[0,0,0,0,0,0,0,0,0,0,0,0,0,0,0,0,0,0,0,0,0,0,0,0,0,0,0],"sum_hessian":[8.8819775E2,4.6298965E2,4.2520813E2,4.6100443E2,1.9852207E0,2.4603784E0,4.2274774E2,4.563277E2,4.676732E0,4.195352E2,3.2125554E0,3.667655E0,1.0090773E0,4.1594168E2,3.5934992E0,2.1429768E0,1.0695788E0,4.1384772E2,2.0939708E0,1.2820189E0,2.3114803E0,1.680863E0,4.1216687E2,1.0877235E0,1.0062474E0,1.2798746E0,1.0316057E0],"tree_param":{"num_deleted":"0","num_feature":"57","num_nodes":"27","size_leaf_vector":"0"}},{"base_weights":[-6.576312E-2,-5.112497E-1,7.679373E-1,-1.5398249E-1,-1.0966555E-1,-9.3159065E-2,7.7529985E-1,-9.588409E-2,6.206175E-2,2.3347433E-1,5.5899344E-2],"categories":[],"categories_nodes":[],"categories_segments":[],"categories_sizes":[],"default_left":[0,0,0,0,0,0,0,0,0,0,0],"id":48,"left_children":[1,3,5,-1,7,-1,9,-1,-1,-1,-1],"loss_changes":[2.7643558E2,3.3816528E-1,2.2991943E0,0E0,3.1236467E-1,0E0,3.02536E-1,0E0,0E0,0E0,0E0],"parents":[2147483647,0,0,1,1,2,2,4,4,6,6],"right_children":[2,4,6,-1,8,-1,10,-1,-1,-1,-1],"split_conditions":[4.8751906E-2,9.0943456E-1,1.29382005E-2,-1.5398249E-1,1.0365681E-13,-9.3159065E-2,8.102427E-5,-9.588409E-2,6.206175E-2,2.3347433E-1,5.5899344E-2],"split_indices":[20,42,48,0,19,0,21,0,0,0,0],"split_type":[0,0,0,0,0,0,0,0,0,0,0],"sum_hessian":[7.4224506E2,4.8400467E2,2.5824042E2,4.8129932E2,2.7053587E0,1.4718153E0,2.567686E2,1.6206949E0,1.0846639E0,2.5517006E2,1.5985265E0],"tree_param":{"num_deleted":"0","num_feature":"57","num_nodes":"11","size_leaf_vector":"0"}},{"base_weights":[2.1479736E-1,-4.941283E-1,7.5752276E-1,-5.0862604E-1,3.485694E-1,2.2159141E-1,7.6690656E-1,-1.5391825E-1,5.7017498E-2,7.5762856E-1,-2.387157E-1,3.347159E-1,-9.646019E-2,4.8869148E-1,2.3210189E-1,2.1174759E-1,-1.08375706E-1,-1.8179372E-2,1.1077756E0,-1.1053242E-1,2.393874E-2,4.0196776E-1,-1.3492543E-1,6.86584E-1,-1.83828E-1,9.4896294E-2,4.3352988E-1,-8.703784E-2,7.1075875E-1,2.2267075E-1,4.5298706E-3,-1.8269451E-1,1.8318394E-1,2.6295385E-1,5.3529676E-2],"categories":[],"categories_nodes":[],"categories_segments":[],"categories_sizes":[],"default_left":[0,0,0,0,0,0,0,0,0,0,0,0,0,0,0,0,0,0,0,0,0,0,0,0,0,0,0,0,0,0,0,0,0,0,0],"id":49,"left_children":[1,3,5,7,9,11,13,-1,15,17,19,-1,21,23,-1,-1,-1,-1,25,-1,-1,27,-1,29,31,-1,-1,-1,33,-1,-1,-1,-1,-1,-1],"loss_changes":[3.9724832E2,5.6490707E0,2.7702026E0,1.134758E0,2.1431546E0,3.368517E0,7.027893E-1,0E0,1.4295915E0,1.5151803E0,1.993857E-1,0E0,1.8322495E0,2.3018284E0,0E0,0E0,0E0,0E0,5.0171757E-1,0E0,0E0,1.1504414E0,0E0,4.6868563E-1,1.893614E0,0E0,0E0,0E0,1.3874888E-1,0E0,0E0,0E0,0E0,0E0,0E0],"parents":[2147483647,0,0,1,1,2,2,3,3,4,4,5,5,6,6,8,8,9,9,10,10,12,12,13,13,18,18,21,21,23,23,24,24,28,28],"right_children":[2,4,6,8,10,12,14,-1,16,18,20,-1,22,24,-1,-1,-1,-1,26,-1,-1,28,-1,30,32,-1,-1,-1,34,-1,-1,-1,-1,-1,-1],"split_conditions":[1.5701199E-1,4.8303142E-2,2.33672E-2,1.8590963E-2,7.6954504E-3,5.8759417E-15,6.7875823E-3,-1.5391825E-1,6.5276613E-3,2.1124654E-1,3.011513E-1,3.347159E-1,6.4966944E-3,2.9846503E-6,2.3210189E-1,2.1174759E-1,-1.08375706E-1,-1.8179372E-2,5.98225E-9,-1.1053242E-1,2.393874E-2,9.797918E-8,-1.3492543E-1,4.9930332E-8,1.9198187E-2,9.4896294E-2,4.3352988E-1,-8.703784E-2,1.355665E-2,2.2267075E-1,4.5298706E-3,-1.8269451E-1,1.8318394E-1,2.6295385E-1,5.3529676E-2],"split_indices":[21,49,49,7,51,13,44,0,52,25,53,0,47,17,0,0,0,0,3,0,0,15,0,24,32,0,0,0,37,0,0,0,0,0,0],"split_type":[0,0,0,0,0,0,0,0,0,0,0,0,0,0,0,0,0,0,0,0,0,0,0,0,0,0,0,0,0,0,0,0,0,0,0],"sum_hessian":[1.0305061E3,4.4687408E2,5.83632E2,4.397058E2,7.1682606E0,1.0466724E1,5.731653E2,4.3637747E2,3.3283396E0,4.054291E0,3.1139703E0,2.0882137E0,8.37851E0,1.5347364E1,5.5781793E2,1.035153E0,2.2931864E0,1.4628427E0,2.5914478E0,2.101355E0,1.0126152E0,3.4182365E0,4.960274E0,1.1841906E1,3.505459E0,1.3535007E0,1.2379471E0,1.0732359E0,2.3450007E0,1.0838277E1,1.003628E0,2.435514E0,1.0699451E0,1.295151E0,1.0498496E0],"tree_param":{"num_deleted":"0","num_feature":"57","num_nodes":"35","size_leaf_vector":"0"}},{"base_weights":[1.0975416E-1,-5.118222E-1,7.668572E-1,2.8327063E-2,-1.540465E-1,3.8262114E-2,7.695913E-1,2.314172E-1,2.3926051E-2],"categories":[],"categories_nodes":[],"categories_segments":[],"categories_sizes":[],"default_left":[0,0,0,0,0,0,0,0,0],"id":50,"left_children":[1,3,5,-1,-1,-1,7,-1,-1],"loss_changes":[3.696371E2,5.183487E-1,6.706848E-1,0E0,0E0,0E0,4.8187256E-1,0E0,0E0],"parents":[2147483647,0,0,1,1,2,2,6,6],"right_children":[2,4,6,-1,-1,-1,8,-1,-1],"split_conditions":[1.2842335E-1,7.887713E-3,1.18621485E-2,2.8327063E-2,-1.540465E-1,3.8262114E-2,6.428125E-4,2.314172E-1,2.3926051E-2],"split_indices":[22,35,50,0,0,0,12,0,0],"split_type":[0,0,0,0,0,0,0,0,0],"sum_hessian":[9.030368E2,4.6417694E2,4.3885986E2,1.1196043E0,4.6305734E2,2.0717115E0,4.3678815E2,4.355339E2,1.2542263E0],"tree_param":{"num_deleted":"0","num_feature":"57","num_nodes":"9","size_leaf_vector":"0"}},{"base_weights":[-3.0324715E-1,-5.0429577E-1,7.572308E-1,-1.5395449E-1,-8.881013E-2,8.0051404E-1,3.0171087E-1,2.3618883E-1,-3.049417E-1,8.087409E-1,5.4356214E-2,5.2919745E-1,-1.2433451E-1,1.5751396E-1,-1.3691792E-1,2.3146515E-1,3.556455E-1,-3.3151887E-2,2.1289144E-1,-9.3153454E-2,1.8156338E-1],"categories":[],"categories_nodes":[],"categories_segments":[],"categories_sizes":[],"default_left":[0,0,0,0,0,0,0,0,0,0,0,0,0,0,0,0,0,0,0,0,0],"id":51,"left_children":[1,3,5,-1,7,9,11,-1,13,15,-1,17,-1,19,-1,-1,-1,-1,-1,-1,-1],"loss_changes":[1.2843735E2,1.8206787E0,1.653595E0,0E0,2.4732683E0,2.976265E-1,1.8396167E0,0E0,7.849456E-1,2.8669357E-1,0E0,1.0003636E0,0E0,8.699639E-1,0E0,0E0,0E0,0E0,0E0,0E0,0E0],"parents":[2147483647,0,0,1,1,2,2,4,4,5,5,6,6,8,8,9,9,11,11,13,13],"right_children":[2,4,6,-1,8,10,12,-1,14,16,-1,18,-1,20,-1,-1,-1,-1,-1,-1,-1],"split_conditions":[2.7560822E-3,1.6080936E-5,1.649645E-2,-1.5395449E-1,7.5462265E-3,9.935629E-3,1.09023385E-5,2.3618883E-1,7.667791E-9,1.134831E-6,5.4356214E-2,7.1957447E-3,-1.2433451E-1,9.255756E-6,-1.3691792E-1,2.3146515E-1,3.556455E-1,-3.3151887E-2,2.1289144E-1,-9.3153454E-2,1.8156338E-1],"split_indices":[9,23,35,0,31,54,27,0,11,17,0,52,0,22,0,0,0,0,0,0,0],"split_type":[0,0,0,0,0,0,0,0,0,0,0,0,0,0,0,0,0,0,0,0,0],"sum_hessian":[5.9961383E2,5.0449466E2,9.511916E1,4.9370096E2,1.079371E1,8.617364E1,8.945527E0,1.6129245E0,9.180785E0,8.474212E1,1.4315184E0,6.987138E0,1.9583894E0,2.2550313E0,6.925754E0,7.990246E1,4.839661E0,1.6225168E0,5.364621E0,1.2522973E0,1.002734E0],"tree_param":{"num_deleted":"0","num_feature":"57","num_nodes":"21","size_leaf_vector":"0"}},{"base_weights":[1.0919003E-1,-5.111575E-1,7.5847745E-1,-1.5397269E-1,-3.4685465E-4,-1.2011888E-1,7.6638013E-1,-9.79687E-2,7.714086E-1,7.7591485E-1,-3.8841877E-2,7.683833E-1,3.735666E-1,9.045252E-2,-9.777265E-2,8.650135E-2,2.310123E-1],"categories":[],"categories_nodes":[],"categories_segments":[],"categories_sizes":[],"default_left":[0,0,0,0,0,0,0,0,0,0,0,0,0,0,0,0,0],"id":52,"left_children":[1,3,5,-1,-1,-1,7,-1,9,11,13,15,-1,-1,-1,-1,-1],"loss_changes":[3.6372507E2,4.9051666E-1,4.3470306E0,0E0,0E0,0E0,2.6618958E0,0E0,1.625E0,5.7870483E-1,4.2734352E-1,1.2030029E-1,0E0,0E0,0E0,0E0,0E0],"parents":[2147483647,0,0,1,1,2,2,6,6,8,8,9,9,10,10,11,11],"right_children":[2,4,6,-1,-1,-1,8,-1,10,12,14,16,-1,-1,-1,-1,-1],"split_conditions":[5.5056403E-4,4.3443467E-2,7.1179257E-3,-1.5397269E-1,-3.4685465E-4,-1.2011888E-1,5.5668445E-4,-9.79687E-2,3.7779345E-4,1.11017406E-1,7.039267E-3,3.3361226E-2,3.735666E-1,9.045252E-2,-9.777265E-2,8.650135E-2,2.310123E-1],"split_indices":[10,52,52,0,0,0,24,0,5,15,49,38,0,0,0,0,0],"split_type":[0,0,0,0,0,0,0,0,0,0,0,0,0,0,0,0,0],"sum_hessian":[9.010653E2,4.6091083E2,4.4015448E2,4.5902814E2,1.882703E0,2.6448176E0,4.3750967E2,1.7108623E0,4.3579883E2,4.3343066E2,2.368149E0,4.2918036E2,4.2503E0,1.0604998E0,1.3076491E0,2.0789497E0,4.271014E2],"tree_param":{"num_deleted":"0","num_feature":"57","num_nodes":"17","size_leaf_vector":"0"}},{"base_weights":[6.8606418E-3,-5.004695E-1,7.360453E-1,-5.0893885E-1,3.4339017E-1,-5.024017E-2,7.538187E-1,4.7458325E-2,-5.10997E-1,2.2515343E-1,-1.0747256E-1,-1.3697183E-1,5.63888E-1,-1.4666349E-1,7.6204437E-1,-1.539073E-1,-2.8883106E-1,3.0967817E-1,-9.074657E-2,5.7735093E-2,-1.0348264E-1,7.668112E-1,-8.934234E-2,4.6987135E-2,-1.2699991E-1,7.7141356E-1,-9.542474E-2,-8.161273E-2,2.3268685E-1],"categories":[],"categories_nodes":[],"categories_segments":[],"categories_sizes":[],"default_left":[0,0,0,0,0,0,0,0,0,0,0,0,0,0,0,0,0,0,0,0,0,0,0,0,0,0,0,0,0],"id":53,"left_children":[1,3,5,7,9,11,13,-1,15,-1,-1,-1,17,19,21,-1,23,-1,-1,-1,-1,25,-1,-1,-1,27,-1,-1,-1],"loss_changes":[2.9750076E2,3.564186E0,4.64888E0,7.260895E-1,1.7855412E0,2.3113918E0,2.5021515E0,0E0,6.2942505E-2,0E0,0E0,0E0,1.823736E0,3.1919354E-1,1.8448334E0,0E0,4.573624E-1,0E0,0E0,0E0,0E0,1.837204E0,0E0,0E0,0E0,1.6066132E0,0E0,0E0,0E0],"parents":[2147483647,0,0,1,1,2,2,3,3,4,4,5,5,6,6,8,8,12,12,13,13,14,14,16,16,21,21,25,25],"right_children":[2,4,6,8,10,12,14,-1,16,-1,-1,-1,18,20,22,-1,24,-1,-1,-1,-1,26,-1,-1,-1,28,-1,-1,-1],"split_conditions":[1.8846976E-2,7.359261E-1,1.2190484E-4,1.2086681E-3,1.4691404E-2,1.6391646E-2,7.261904E-3,4.7458325E-2,1.9838633E-2,2.2515343E-1,-1.0747256E-1,-1.3697183E-1,2.8734572E-2,1.134831E-6,9.0850466E-1,-1.539073E-1,1.533904E-9,3.0967817E-1,-9.074657E-2,5.7735093E-2,-1.0348264E-1,9.0338457E-1,-8.934234E-2,4.6987135E-2,-1.2699991E-1,8.476189E-3,-9.542474E-2,-8.161273E-2,2.3268685E-1],"split_indices":[25,53,11,28,36,39,53,0,53,0,0,0,34,17,45,0,19,0,0,0,0,49,0,0,0,32,0,0,0],"split_type":[0,0,0,0,0,0,0,0,0,0,0,0,0,0,0,0,0,0,0,0,0,0,0,0,0,0,0,0,0],"sum_hessian":[8.021965E2,4.7324792E2,3.2894852E2,4.6893835E2,4.309576E0,7.2308793E0,3.2171765E2,1.2089295E0,4.6772943E2,2.683065E0,1.626511E0,4.506045E0,2.7248342E0,2.7598605E0,3.189578E2,4.6220248E2,5.5269356E0,1.6443905E0,1.0804437E0,1.0291357E0,1.7307248E0,3.178049E2,1.1528801E0,1.2436476E0,4.283288E0,3.1675012E2,1.0547872E0,1.0169615E0,3.1573315E2],"tree_param":{"num_deleted":"0","num_feature":"57","num_nodes":"29","size_leaf_vector":"0"}},{"base_weights":[-2.5385666E-1,-5.06189E-1,7.6688707E-1,1.4460774E-1,-5.100755E-1,1.6927863E-3,2.3431559E-1,2.1842806E-1,-9.95797E-2,-2.9385503E-2,-1.5345076E-1,9.946989E-2,-8.7618686E-2],"categories":[],"categories_nodes":[],"categories_segments":[],"categories_sizes":[],"default_left":[0,0,0,0,0,0,0,0,0,0,0,0,0],"id":54,"left_children":[1,3,5,7,9,11,-1,-1,-1,-1,-1,-1,-1],"loss_changes":[1.617464E2,1.3457794E0,1.3488617E0,1.2884414E0,2.4401855E-1,4.133398E-1,0E0,0E0,0E0,0E0,0E0,0E0,0E0],"parents":[2147483647,0,0,1,1,2,2,3,3,4,4,5,5],"right_children":[2,4,6,8,10,12,-1,-1,-1,-1,-1,-1,-1],"split_conditions":[3.3519324E-2,3.977808E-3,2.5466142E-2,8.458147E-3,1.6639916E-4,6.6146264E-3,2.3431559E-1,2.1842806E-1,-9.95797E-2,-2.9385503E-2,-1.5345076E-1,9.946989E-2,-8.7618686E-2],"split_indices":[26,46,54,30,38,43,0,0,0,0,0,0,0],"split_type":[0,0,0,0,0,0,0,0,0,0,0,0,0],"sum_hessian":[6.254718E2,5.0190323E2,1.23568565E2,2.7646008E0,4.991386E2,2.2662046E0,1.2130236E2,1.0055317E0,1.7590692E0,1.9626284E0,4.97176E2,1.0068458E0,1.2593588E0],"tree_param":{"num_deleted":"0","num_feature":"57","num_nodes":"13","size_leaf_vector":"0"}},{"base_weights":[-3.2455042E-1,-1.5396956E-1,7.311595E-1,7.685791E-1,-1.2624665E-1,-3.2294657E-2,7.858098E-1,8.078001E-1,1.7847776E-1,8.2652116E-1,4.3971917E-1,-1.2334454E-1,1.5526336E-1,2.3387653E-1,4.8912886E-1,1.8159428E-1,-4.418526E-4],"categories":[],"categories_nodes":[],"categories_segments":[],"categories_sizes":[],"default_left":[0,0,0,0,0,0,0,0,0,0,0,0,0,0,0,0,0],"id":55,"left_children":[1,-1,3,5,-1,-1,7,9,11,13,15,-1,-1,-1,-1,-1,-1],"loss_changes":[1.181879E2,0E0,4.206978E0,1.407341E0,0E0,0E0,1.0049438E0,2.0679474E-1,1.0704834E0,1.6571159E0,4.4961774E-1,0E0,0E0,0E0,0E0,0E0,0E0],"parents":[2147483647,0,0,2,2,3,3,6,6,7,7,8,8,9,9,10,10],"right_children":[2,-1,4,6,-1,-1,8,10,12,14,16,-1,-1,-1,-1,-1,-1],"split_conditions":[2.637554E-3,-1.5396956E-1,4.3051268E-4,1.575716E-2,-1.2624665E-1,-3.2294657E-2,1.21701E-2,2.4559301E-6,2.2866405E-11,3.4597673E-7,6.311531E-6,-1.2334454E-1,1.5526336E-1,2.3387653E-1,4.8912886E-1,1.8159428E-1,-4.418526E-4],"split_indices":[27,0,21,41,0,0,45,20,12,0,9,0,0,0,0,0,0],"split_type":[0,0,0,0,0,0,0,0,0,0,0,0,0,0,0,0,0],"sum_hessian":[5.9045026E2,5.0135895E2,8.9091354E1,8.661081E1,2.4805448E0,1.5691227E0,8.504169E1,8.175155E1,3.290139E0,7.66096E1,5.14195E0,1.1236167E0,2.1665223E0,7.424487E1,2.3647208E0,3.46821E0,1.6737403E0],"tree_param":{"num_deleted":"0","num_feature":"57","num_nodes":"17","size_leaf_vector":"0"}},{"base_weights":[-1.03227116E-1,-5.07266E-1,6.8070084E-1,-1.529413E-1,2.5708318E-2,6.8477064E-1,-8.329575E-3,2.0654441E-1,-4.779952E-3],"categories":[],"categories_nodes":[],"categories_segments":[],"categories_sizes":[],"default_left":[0,0,0,0,0,0,0,0,0],"id":56,"left_children":[1,3,5,-1,-1,7,-1,-1,-1],"loss_changes":[1.8247375E2,6.156769E-1,5.8412933E-1,0E0,0E0,5.1776123E-1,0E0,0E0,0E0],"parents":[2147483647,0,0,1,1,2,2,5,5],"right_children":[2,4,6,-1,-1,8,-1,-1,-1],"split_conditions":[8.611459E-3,2.8314644E-2,4.710405E-2,-1.529413E-1,2.5708318E-2,5.3942745E-7,-8.329575E-3,2.0654441E-1,-4.779952E-3],"split_indices":[14,42,29,0,0,19,0,0,0],"split_type":[0,0,0,0,0,0,0,0,0],"sum_hessian":[5.7401416E2,3.7901932E2,1.949948E2,3.7754337E2,1.4759606E0,1.9391429E2,1.080502E0,1.9291016E2,1.0041351E0],"tree_param":{"num_deleted":"0","num_feature":"57","num_nodes":"9","size_leaf_vector":"0"}},{"base_weights":[2.5187966E-1,-5.0237066E-1,6.735116E-1,-1.528477E-1,4.109155E-2,3.0954314E-2,6.7696786E-1,2.2543445E-1,-1.3492508E-1,-1.1257095E-1,2.0272839E-1,6.8325555E-1,3.001219E-1,6.8527067E-1,1.9646107E-1,1.7071417E-1,-2.4745919E-1,2.057441E-1,6.0559683E-2,1.3633221E-1,-6.604028E-2,-1.685735E-1,1.098338E-1],"categories":[],"categories_nodes":[],"categories_segments":[],"categories_sizes":[],"default_left":[0,0,0,0,0,0,0,0,0,0,0,0,0,0,0,0,0,0,0,0,0,0,0],"id":57,"left_children":[1,3,5,-1,7,9,11,-1,-1,-1,-1,13,15,17,19,-1,21,-1,-1,-1,-1,-1,-1],"loss_changes":[3.0007654E2,1.3311768E0,1.3226624E0,0E0,2.1873922E0,1.3757949E0,1.2206726E0,0E0,0E0,0E0,0E0,4.451599E-1,1.8575779E0,1.5991211E-2,5.125726E-1,0E0,1.0810246E0,0E0,0E0,0E0,0E0,0E0,0E0],"parents":[2147483647,0,0,1,1,2,2,4,4,5,5,6,6,11,11,12,12,13,13,14,14,16,16],"right_children":[2,4,6,-1,8,10,12,-1,-1,-1,-1,14,16,18,20,-1,22,-1,-1,-1,-1,-1,-1],"split_conditions":[1.0713694E-2,1.11017406E-1,4.6546867E-1,-1.528477E-1,9.597318E-8,3.189266E-2,5.5056403E-4,2.2543445E-1,-1.3492508E-1,-1.1257095E-1,2.0272839E-1,1.967618E-4,5.5668445E-4,2.7487678E-2,8.102427E-5,1.7071417E-1,1.5033998E-9,2.057441E-1,6.0559683E-2,1.3633221E-1,-6.604028E-2,-1.685735E-1,1.098338E-1],"split_indices":[1,15,15,0,21,28,10,0,0,0,0,22,24,5,21,0,4,0,0,0,0,0,0],"split_type":[0,0,0,0,0,0,0,0,0,0,0,0,0,0,0,0,0,0,0,0,0,0,0],"sum_hessian":[9.4152545E2,3.375308E2,6.039946E2,3.332266E2,4.3041954E0,3.2846956E0,6.0070996E2,1.5418541E0,2.7623413E0,2.2717128E0,1.0129828E0,5.9005176E2,1.065816E1,5.872133E2,2.8384917E0,7.1214886E0,3.5366716E0,5.8613617E2,1.0771368E0,1.6968567E0,1.141635E0,2.39397E0,1.1427016E0],"tree_param":{"num_deleted":"0","num_feature":"57","num_nodes":"23","size_leaf_vector":"0"}},{"base_weights":[-2.6451117E-1,-4.983419E-1,6.6315436E-1,-5.0271237E-1,1.31574E-1,5.4438305E-3,6.88846E-1,-5.072334E-1,-2.6496527E-1,-1.0991716E-1,1.3868637E-1,2.0972587E-1,3.0929463E-2,-1.5287684E-1,-3.202925E-1,-1.3945086E-1,1.3635477E-1,6.0247194E-2,-1.3310069E-1],"categories":[],"categories_nodes":[],"categories_segments":[],"categories_sizes":[],"default_left":[0,0,0,0,0,0,0,0,0,0,0,0,0,0,0,0,0,0,0],"id":58,"left_children":[1,3,5,7,-1,9,11,13,15,-1,-1,-1,-1,-1,17,-1,-1,-1,-1],"loss_changes":[1.0664877E2,1.8257828E0,1.670845E0,2.8552246E-1,0E0,9.734734E-1,4.9996185E-1,5.1574707E-3,1.5607531E0,0E0,0E0,0E0,0E0,0E0,5.6809664E-1,0E0,0E0,0E0,0E0],"parents":[2147483647,0,0,1,1,2,2,3,3,5,5,6,6,7,7,8,8,14,14],"right_children":[2,4,6,8,-1,10,12,14,16,-1,-1,-1,-1,-1,18,-1,-1,-1,-1],"split_conditions":[1.602217E-2,9.0481085E-1,1.3384293E-2,7.041115E-6,1.31574E-1,3.511115E-1,1.63423E-5,8.958033E-3,1.412998E-4,-1.0991716E-1,1.3868637E-1,2.0972587E-1,3.0929463E-2,-1.5287684E-1,7.7392464E-3,-1.3945086E-1,1.3635477E-1,6.0247194E-2,-1.3310069E-1],"split_indices":[16,44,31,16,0,2,10,44,27,0,0,0,0,0,45,0,0,0,0],"split_type":[0,0,0,0,0,0,0,0,0,0,0,0,0,0,0,0,0,0,0],"sum_hessian":[4.8913428E2,3.910321E2,9.810216E1,3.896778E2,1.3543046E0,3.7335851E0,9.4368576E1,3.812936E2,8.384187E0,2.1674511E0,1.5661341E0,9.255698E1,1.8115988E0,3.7484344E2,6.4501677E0,6.8384132E0,1.545774E0,1.1145991E0,5.3355684E0],"tree_param":{"num_deleted":"0","num_feature":"57","num_nodes":"19","size_leaf_vector":"0"}},{"base_weights":[1.6836171E-1,-5.068662E-1,6.674877E-1,-1.528493E-1,-1.0177935E-2,-4.0609095E-2,6.7798E-1,-1.3153051E-1,6.1992276E-1,-1.0288039E-1,6.814078E-1,2.594493E-1,1.7436575E-2,6.8502533E-1,-2.8172031E-2,6.882661E-1,-2.7756258E-3,4.06052E-2,2.0704545E-1],"categories":[],"categories_nodes":[],"categories_segments":[],"categories_sizes":[],"default_left":[0,0,0,0,0,0,0,0,0,0,0,0,0,0,0,0,0,0,0],"id":59,"left_children":[1,3,5,-1,-1,7,9,-1,11,-1,13,-1,-1,15,-1,17,-1,-1,-1],"loss_changes":[2.753178E2,4.1498566E-1,3.516159E0,0E0,0E0,2.3213594E0,1.8531036E0,0E0,4.1011834E-1,0E0,1.358841E0,0E0,0E0,1.0402985E0,0E0,3.834076E-1,0E0,0E0,0E0],"parents":[2147483647,0,0,1,1,2,2,5,5,6,6,8,8,10,10,13,13,15,15],"right_children":[2,4,6,-1,-1,8,10,-1,12,-1,14,-1,-1,16,-1,18,-1,-1,-1],"split_conditions":[1.7830493E-3,2.4115948E-2,1.4237776E-4,-1.528493E-1,-1.0177935E-2,8.337772E-2,7.803999E-3,-1.3153051E-1,1.3610821E-6,-1.0288039E-1,6.6702455E-1,2.594493E-1,1.7436575E-2,2.33672E-2,-2.8172031E-2,7.4303043E-3,-2.7756258E-3,4.06052E-2,2.0704545E-1],"split_indices":[17,3,3,0,0,31,39,0,26,0,25,0,0,49,0,45,0,0,0],"split_type":[0,0,0,0,0,0,0,0,0,0,0,0,0,0,0,0,0,0,0],"sum_hessian":[8.149052E2,3.4634586E2,4.6855936E2,3.443526E2,1.9932475E0,6.7996407E0,4.617597E2,4.453575E0,2.3460653E0,1.2137655E0,4.6054596E2,1.2581874E0,1.0878779E0,4.5852298E2,2.022972E0,4.564012E2,2.1217463E0,1.7983469E0,4.5460287E2],"tree_param":{"num_deleted":"0","num_feature":"57","num_nodes":"19","size_leaf_vector":"0"}},{"base_weights":[-2.7192545E-1,-1.5291022E-1,6.800756E-1,-7.904199E-3,6.895923E-1,8.09238E-2,2.082968E-1],"categories":[],"categories_nodes":[],"categories_segments":[],"categories_sizes":[],"default_left":[0,0,0,0,0,0,0],"id":60,"left_children":[1,-1,3,-1,5,-1,-1],"loss_changes":[1.1028947E2,0E0,6.7360306E-1,0E0,3.8337708E-3,0E0,0E0],"parents":[2147483647,0,0,2,2,4,4],"right_children":[2,-1,4,-1,6,-1,-1],"split_conditions":[5.029453E-2,-1.5291022E-1,5.1673115E-3,-7.904199E-3,6.5276613E-3,8.09238E-2,2.082968E-1],"split_indices":[18,0,30,0,52,0,0],"split_type":[0,0,0,0,0,0,0],"sum_hessian":[4.8469415E2,3.882004E2,9.649375E1,1.2591474E0,9.5234604E1,1.7075133E0,9.352709E1],"tree_param":{"num_deleted":"0","num_feature":"57","num_nodes":"7","size_leaf_vector":"0"}},{"base_weights":[9.054397E-2,-5.0509125E-1,6.689336E-1,-2.4045179E-2,-5.069275E-1,-2.0437185E-1,6.7800087E-1,-1.5286566E-1,-2.3151457E-1,-1.1314173E-1,6.1924104E-2,-1.3901443E-2,6.815288E-1,-1.19306006E-1,6.867383E-2,6.8409723E-1,2.4903937E-1,6.756771E-1,2.818839E-1,1.7286636E-1,-9.312074E-2,2.0397641E-1,-1.0574541E-1],"categories":[],"categories_nodes":[],"categories_segments":[],"categories_sizes":[],"default_left":[0,0,0,0,0,0,0,0,0,0,0,0,0,0,0,0,0,0,0,0,0,0,0],"id":61,"left_children":[1,3,5,-1,7,9,11,-1,13,-1,-1,-1,15,-1,-1,17,19,21,-1,-1,-1,-1,-1],"loss_changes":[2.5185312E2,2.4045563E-1,3.0749664E0,0E0,1.4118958E-1,4.0282184E-1,9.70047E-1,0E0,4.9018642E-1,0E0,0E0,0E0,2.3565674E-1,0E0,0E0,1.4567566E-1,8.61666E-1,1.787857E0,0E0,0E0,0E0,0E0,0E0],"parents":[2147483647,0,0,1,1,2,2,4,4,5,5,6,6,8,8,12,12,15,15,16,16,17,17],"right_children":[2,4,6,-1,8,10,12,-1,14,-1,-1,-1,16,-1,-1,18,20,22,-1,-1,-1,-1,-1],"split_conditions":[4.800578E-3,6.8892404E-3,5.318633E-3,-2.4045179E-2,1.2193344E-3,1.0936136E-5,1.0185623E-2,-1.5286566E-1,1.412998E-4,-1.1314173E-1,6.1924104E-2,-1.3901443E-2,5.5056403E-4,-1.19306006E-1,6.867383E-2,7.3820934E-7,8.361928E-9,4.334199E-2,2.818839E-1,1.7286636E-1,-9.312074E-2,2.0397641E-1,-1.0574541E-1],"split_indices":[5,34,19,0,19,4,35,0,27,0,0,0,10,0,0,13,4,31,0,0,0,0,0],"split_type":[0,0,0,0,0,0,0,0,0,0,0,0,0,0,0,0,0,0,0,0,0,0,0],"sum_hessian":[7.290683E2,3.5924182E2,3.6982648E2,1.7377521E0,3.5750406E2,3.5790312E0,3.6624747E2,3.532871E2,4.216965E0,2.5770774E0,1.0019538E0,1.7163543E0,3.645311E2,3.198769E0,1.0181962E0,3.6180072E2,2.7303793E0,3.5378665E2,8.014061E0,1.70389E0,1.0264894E0,3.526696E2,1.1170917E0],"tree_param":{"num_deleted":"0","num_feature":"57","num_nodes":"23","size_leaf_vector":"0"}},{"base_weights":[-6.313558E-2,-5.0708956E-1,6.802369E-1,-1.5290761E-1,-6.834936E-2,-8.69246E-2,6.8702453E-1,-8.832518E-2,6.703156E-2,6.901017E-1,3.4194287E-2,2.0778097E-1,4.3254666E-2],"categories":[],"categories_nodes":[],"categories_segments":[],"categories_sizes":[],"default_left":[0,0,0,0,0,0,0,0,0,0,0,0,0],"id":62,"left_children":[1,3,5,-1,7,-1,9,-1,-1,11,-1,-1,-1],"loss_changes":[1.9842279E2,3.9487457E-1,1.6794281E0,0E0,2.8834948E-1,0E0,3.1558228E-1,0E0,0E0,2.0357513E-1,0E0,0E0,0E0],"parents":[2147483647,0,0,1,1,2,2,4,4,6,6,9,9],"right_children":[2,4,6,-1,8,-1,10,-1,-1,12,-1,-1,-1],"split_conditions":[4.8751906E-2,9.0943456E-1,1.29382005E-2,-1.5290761E-1,1.9314404E-11,-8.69246E-2,1.16864145E-2,-8.832518E-2,6.703156E-2,4.5234222E-2,3.4194287E-2,2.0778097E-1,4.3254666E-2],"split_indices":[20,42,48,0,2,0,43,0,0,17,0,0,0],"split_type":[0,0,0,0,0,0,0,0,0,0,0,0,0],"sum_hessian":[5.991937E2,3.753478E2,2.238459E2,3.7297375E2,2.3740487E0,1.2658304E0,2.2258006E2,1.3325896E0,1.041459E0,2.2118806E2,1.3920088E0,2.1991167E2,1.2763926E0],"tree_param":{"num_deleted":"0","num_feature":"57","num_nodes":"13","size_leaf_vector":"0"}},{"base_weights":[1.995616E-1,-4.8619583E-1,6.682382E-1,-5.0378275E-1,3.166811E-1,2.0733935E-1,6.7699647E-1,-1.5282843E-1,8.354926E-2,5.873215E-1,-1.0507656E-1,2.6968518E-1,-8.2014725E-2,4.0430596E-1,6.841423E-1,2.1155621E-1,-1.0515418E-1,-1.2355572E-2,8.7001675E-1,3.3633158E-1,-1.2927411E-1,5.8999103E-1,-1.7375505E-1,6.8551415E-1,4.478633E-2,1.3057886E-1,3.419939E-1,-8.128241E-2,5.923628E-1,1.9194609E-1,1.2239382E-2,-1.7246625E-1,1.52683E-1,2.0587611E-1,4.9301554E-2,2.4675606E-2,2.383804E-1],"categories":[],"categories_nodes":[],"categories_segments":[],"categories_sizes":[],"default_left":[0,0,0,0,0,0,0,0,0,0,0,0,0,0,0,0,0,0,0,0,0,0,0,0,0,0,0,0,0,0,0,0,0,0,0,0,0],"id":63,"left_children":[1,3,5,7,9,11,13,-1,15,17,-1,-1,19,21,23,-1,-1,-1,25,27,-1,29,31,33,-1,-1,-1,-1,35,-1,-1,-1,-1,-1,-1,-1,-1],"loss_changes":[2.7608215E2,5.086136E0,1.9186707E0,1.175911E0,1.6664882E0,2.2657738E0,6.979523E-1,0E0,1.3570647E0,1.1250584E0,0E0,0E0,1.4058905E0,1.7357569E0,2.5419617E-1,0E0,0E0,0E0,5.4006577E-3,8.586323E-1,0E0,2.9528427E-1,1.5172175E0,7.392883E-2,0E0,0E0,0E0,0E0,2.928654E-1,0E0,0E0,0E0,0E0,0E0,0E0,0E0,0E0],"parents":[2147483647,0,0,1,1,2,2,3,3,4,4,5,5,6,6,8,8,9,9,12,12,13,13,14,14,18,18,19,19,21,21,22,22,23,23,28,28],"right_children":[2,4,6,8,10,12,14,-1,16,18,-1,-1,20,22,24,-1,-1,-1,26,28,-1,30,32,34,-1,-1,-1,-1,36,-1,-1,-1,-1,-1,-1,-1,-1],"split_conditions":[1.5701199E-1,4.8303142E-2,2.33672E-2,1.8590963E-2,1.16864145E-2,5.8759417E-15,6.7875823E-3,-1.5282843E-1,6.7941193E-3,9.939575E-11,-1.0507656E-1,2.6968518E-1,6.4966944E-3,2.9846503E-6,4.7800243E-2,2.1155621E-1,-1.0515418E-1,-1.2355572E-2,9.713564E-5,4.3386832E-1,-1.2927411E-1,1.7074635E-2,1.9198187E-2,6.064073E-1,4.478633E-2,1.3057886E-1,3.419939E-1,-8.128241E-2,4.879998E-8,1.9194609E-1,1.2239382E-2,-1.7246625E-1,1.52683E-1,2.0587611E-1,4.9301554E-2,2.4675606E-2,2.383804E-1],"split_indices":[21,49,49,7,43,13,44,0,43,23,0,0,47,17,34,0,0,0,17,21,0,31,32,44,0,0,0,0,22,0,0,0,0,0,0,0,0],"split_type":[0,0,0,0,0,0,0,0,0,0,0,0,0,0,0,0,0,0,0,0,0,0,0,0,0,0,0,0,0,0,0,0,0,0,0,0,0],"sum_hessian":[8.5699176E2,3.4790594E2,5.090858E2,3.4081302E2,7.0929437E0,9.953632E0,4.9913214E2,3.3769974E2,3.1132784E0,5.1304135E0,1.9625301E0,2.3145852E0,7.6390476E0,1.4215987E1,4.8491617E2,1.0232396E0,2.0900388E0,1.8567271E0,3.2736864E0,3.490179E0,4.1488686E0,1.0744118E1,3.4718697E0,4.833946E2,1.5215534E0,2.2548058E0,1.0188807E0,1.017816E0,2.472363E0,9.699085E0,1.0450327E0,2.2863815E0,1.1854882E0,4.8239334E2,1.0012548E0,1.1012821E0,1.371081E0],"tree_param":{"num_deleted":"0","num_feature":"57","num_nodes":"37","size_leaf_vector":"0"}},{"base_weights":[1.0200727E-1,-5.0785476E-1,6.798799E-1,2.837511E-2,-1.5297538E-1,6.824103E-1,-1.992007E-2,3.7152242E-2,6.849502E-1,2.0579375E-1,4.5589447E-2],"categories":[],"categories_nodes":[],"categories_segments":[],"categories_sizes":[],"default_left":[0,0,0,0,0,0,0,0,0,0,0],"id":64,"left_children":[1,3,5,-1,-1,7,-1,-1,9,-1,-1],"loss_changes":[2.6144482E2,4.969635E-1,7.6449585E-1,0E0,0E0,4.5376587E-1,0E0,0E0,1.0290527E-1,0E0,0E0],"parents":[2147483647,0,0,1,1,2,2,5,5,8,8],"right_children":[2,4,6,-1,-1,8,-1,-1,10,-1,-1],"split_conditions":[1.2842335E-1,7.887713E-3,1.0936136E-5,2.837511E-2,-1.5297538E-1,1.18621485E-2,-1.992007E-2,3.7152242E-2,6.428125E-4,2.0579375E-1,4.5589447E-2],"split_indices":[22,35,4,0,0,50,0,0,12,0,0],"split_type":[0,0,0,0,0,0,0,0,0,0,0],"sum_hessian":[7.3987067E2,3.6003076E2,3.798399E2,1.0757147E0,3.5895505E2,3.786416E2,1.1982921E0,1.9391578E0,3.7670245E2,3.7569012E2,1.0123395E0],"tree_param":{"num_deleted":"0","num_feature":"57","num_nodes":"11","size_leaf_vector":"0"}},{"base_weights":[-2.9205906E-1,-5.002057E-1,6.5470284E-1,-1.5287374E-1,-1.4244215E-1,2.1437582E-1,7.0043796E-1,2.1473755E-1,-3.641048E-1,-1.08157784E-1,4.3143177E-1,7.0818955E-1,3.2210368E-1,-1.3776974E-1,6.585969E-2,1.6527289E-1,-2.3017734E-2,2.1427697E-1,5.2845974E-2,-1.8687116E-2,1.5626512E-1],"categories":[],"categories_nodes":[],"categories_segments":[],"categories_sizes":[],"default_left":[0,0,0,0,0,0,0,0,0,0,0,0,0,0,0,0,0,0,0,0,0],"id":65,"left_children":[1,3,5,-1,7,9,11,-1,13,-1,15,17,19,-1,-1,-1,-1,-1,-1,-1,-1],"loss_changes":[9.443533E1,1.2421265E0,1.5918198E0,0E0,2.4288409E0,1.3510063E0,4.043579E-4,0E0,6.405128E-1,0E0,4.9213743E-1,1.17954254E-1,2.9214126E-1,0E0,0E0,0E0,0E0,0E0,0E0,0E0,0E0],"parents":[2147483647,0,0,1,1,2,2,4,4,5,5,6,6,8,8,10,10,11,11,12,12],"right_children":[2,4,6,-1,8,10,12,-1,14,-1,16,18,20,-1,-1,-1,-1,-1,-1,-1,-1],"split_conditions":[1.0792098E-2,3.3813164E-6,5.9926618E-2,-1.5287374E-1,1.0674494E-2,3.3937272E-1,1.7273162E-2,2.1473755E-1,6.306119E-1,-1.08157784E-1,1.7803231E-2,8.388447E-3,3.3361226E-2,-1.3776974E-1,6.585969E-2,1.6527289E-1,-2.3017734E-2,2.1427697E-1,5.2845974E-2,-1.8687116E-2,1.5626512E-1],"split_indices":[23,23,37,0,36,23,34,0,48,0,38,47,38,0,0,0,0,0,0,0,0],"split_type":[0,0,0,0,0,0,0,0,0,0,0,0,0,0,0,0,0,0,0,0,0],"sum_hessian":[4.7654657E2,3.910463E2,8.5500275E1,3.8064893E2,1.0397371E1,8.580125E0,7.692015E1,1.6766231E0,8.720748E0,2.1704404E0,6.409684E0,7.452144E1,2.3987124E0,7.6818314E0,1.0389167E0,5.121408E0,1.2882758E0,7.334259E1,1.1788483E0,1.0516686E0,1.3470438E0],"tree_param":{"num_deleted":"0","num_feature":"57","num_nodes":"21","size_leaf_vector":"0"}},{"base_weights":[1.01656206E-1,-5.0696456E-1,6.716715E-1,-1.5289E-1,4.808952E-3,-1.1366095E-1,6.7894197E-1,-9.1288894E-2,6.8349385E-1,6.8730456E-1,-3.762362E-2,6.891902E-1,3.3331655E-2,2.0454885E-1,3.035224E-1],"categories":[],"categories_nodes":[],"categories_segments":[],"categories_sizes":[],"default_left":[0,0,0,0,0,0,0,0,0,0,0,0,0,0,0],"id":66,"left_children":[1,3,5,-1,-1,-1,7,-1,9,11,-1,13,-1,-1,-1],"loss_changes":[2.5703156E2,5.084076E-1,3.1787567E0,0E0,0E0,0E0,1.9097443E0,0E0,1.2537994E0,3.3322144E-1,0E0,2.0227051E-1,0E0,0E0,0E0],"parents":[2147483647,0,0,1,1,2,2,6,6,8,8,9,9,11,11],"right_children":[2,4,6,-1,-1,-1,8,-1,10,12,-1,14,-1,-1,-1],"split_conditions":[5.5056403E-4,4.3443467E-2,7.1179257E-3,-1.5289E-1,4.808952E-3,-1.1366095E-1,5.5668445E-4,-9.1288894E-2,2.447448E-2,3.7779345E-4,-3.762362E-2,1.021384E-2,3.3331655E-2,2.0454885E-1,3.035224E-1],"split_indices":[10,52,52,0,0,0,24,0,47,5,0,15,0,0,0],"split_type":[0,0,0,0,0,0,0,0,0,0,0,0,0,0,0],"sum_hessian":[7.389075E2,3.57406E2,3.815015E2,3.5561694E2,1.7890735E0,2.2708268E0,3.7923065E2,1.4440953E0,3.7778656E2,3.761648E2,1.6217684E0,3.7474234E2,1.422458E0,3.6942575E2,5.316583E0],"tree_param":{"num_deleted":"0","num_feature":"57","num_nodes":"15","size_leaf_vector":"0"}},{"base_weights":[7.7427533E-3,-4.94306E-1,6.401498E-1,-5.041702E-1,2.8166485E-1,-1.4687808E-2,6.580067E-1,4.8069526E-2,-5.067975E-1,1.8253651E-1,-1.0196153E-1,5.6367004E-1,-3.0107564E-1,6.7228234E-1,7.8312255E-2,-1.528235E-1,-2.5953424E-1,1.0185478E-2,2.3855895E-1,4.7328107E-2,-1.4442445E-1,6.7722094E-1,-9.399537E-2,3.989227E-1,-3.3807918E-1,-1.2257996E-1,5.7030015E-2,-8.6277224E-2,6.8235016E-1,-4.594925E-2,2.1694194E-1,-7.960167E-3,-1.2992996E-1,2.1885764E-2,2.0579945E-1],"categories":[],"categories_nodes":[],"categories_segments":[],"categories_sizes":[],"default_left":[0,0,0,0,0,0,0,0,0,0,0,0,0,0,0,0,0,0,0,0,0,0,0,0,0,0,0,0,0,0,0,0,0,0,0],"id":67,"left_children":[1,3,5,7,9,11,13,-1,15,-1,-1,17,19,21,23,-1,25,-1,-1,-1,-1,27,-1,29,31,-1,-1,-1,33,-1,-1,-1,-1,-1,-1],"loss_changes":[2.0998117E2,2.9640427E0,3.432045E0,7.173233E-1,1.2770939E0,1.6185769E0,2.3052826E0,0E0,1.0257721E-1,0E0,0E0,3.7099802E-1,6.139835E-1,1.5651093E0,1.2001781E0,0E0,4.6900707E-1,0E0,0E0,0E0,0E0,1.5664597E0,0E0,9.998681E-1,1.07296705E-1,0E0,0E0,0E0,5.6288147E-1,0E0,0E0,0E0,0E0,0E0,0E0],"parents":[2147483647,0,0,1,1,2,2,3,3,4,4,5,5,6,6,8,8,11,11,12,12,13,13,14,14,16,16,21,21,23,23,24,24,28,28],"right_children":[2,4,6,8,10,12,14,-1,16,-1,-1,18,20,22,24,-1,26,-1,-1,-1,-1,28,-1,30,32,-1,-1,-1,34,-1,-1,-1,-1,-1,-1],"split_conditions":[1.8846976E-2,7.359261E-1,1.4254918E-2,1.2086681E-3,1.4691404E-2,6.834739E-3,8.337772E-2,4.8069526E-2,1.9838633E-2,1.8253651E-1,-1.0196153E-1,2.565366E-7,6.9804257E-3,9.0338457E-1,6.7307977E-3,-1.528235E-1,9.9586457E-1,1.0185478E-2,2.3855895E-1,4.7328107E-2,-1.4442445E-1,4.847777E-7,-9.399537E-2,1.4154111E-4,7.0625506E-3,-1.2257996E-1,5.7030015E-2,-8.6277224E-2,3.977808E-3,-4.594925E-2,2.1694194E-1,-7.960167E-3,-1.2992996E-1,2.1885764E-2,2.0579945E-1],"split_indices":[25,53,41,28,36,44,31,0,53,0,0,17,47,49,44,0,21,0,0,0,0,11,0,7,43,0,0,0,46,0,0,0,0,0,0],"split_type":[0,0,0,0,0,0,0,0,0,0,0,0,0,0,0,0,0,0,0,0,0,0,0,0,0,0,0,0,0,0,0,0,0,0,0],"sum_hessian":[6.593631E2,3.676864E2,2.916767E2,3.634169E2,4.2694917E0,7.7473817E0,2.8392932E2,1.1951532E0,3.6222174E2,2.812034E0,1.4574577E0,2.2451384E0,5.5022435E0,2.7694943E2,6.9798884E0,3.5738315E2,4.838599E0,1.0315826E0,1.2135558E0,1.5877477E0,3.9144957E0,2.7587994E2,1.069489E0,3.9672008E0,3.0126874E0,3.702413E0,1.136186E0,1.167695E0,2.7471225E2,1.6629928E0,2.304208E0,1.0030899E0,2.0095975E0,1.7596464E0,2.729526E2],"tree_param":{"num_deleted":"0","num_feature":"57","num_nodes":"35","size_leaf_vector":"0"}},{"base_weights":[-2.4488321E-1,-5.025446E-1,6.6963905E-1,1.4998048E-2,-5.071439E-1,6.8927443E-1,-1.1927262E-1,-1.1545644E-1,2.0455204E-1,-1.5291226E-1,-3.044502E-1,2.0994474E-1,-2.7305253E-2,-1.2883896E-1,7.1409985E-2],"categories":[],"categories_nodes":[],"categories_segments":[],"categories_sizes":[],"default_left":[0,0,0,0,0,0,0,0,0,0,0,0,0,0,0],"id":68,"left_children":[1,3,5,7,9,11,-1,-1,-1,-1,13,-1,-1,-1,-1],"loss_changes":[1.1789136E2,9.354477E-1,2.5809746E0,1.4368908E0,4.560089E-2,9.5586777E-1,0E0,0E0,0E0,0E0,5.979165E-1,0E0,0E0,0E0,0E0],"parents":[2147483647,0,0,1,1,2,2,3,3,4,4,5,5,10,10],"right_children":[2,4,6,8,10,12,-1,-1,-1,-1,14,-1,-1,-1,-1],"split_conditions":[1.0653275E-2,4.9935756E-3,4.6619283E-5,1.3754299E-4,9.0371627E-1,2.0221983E-6,-1.1927262E-1,-1.1545644E-1,2.0455204E-1,-1.5291226E-1,7.0087347E-10,2.0994474E-1,-2.7305253E-2,-1.2883896E-1,7.1409985E-2],"split_indices":[12,38,13,5,49,10,0,0,0,0,8,0,0,0,0],"split_type":[0,0,0,0,0,0,0,0,0,0,0,0,0,0,0],"sum_hessian":[4.9788092E2,3.887916E2,1.0908932E2,3.4047675E0,3.8538684E2,1.0746622E2,1.6231017E0,2.3928392E0,1.0119283E0,3.7907767E2,6.3091784E0,1.0613551E2,1.3307036E0,5.2968755E0,1.0123029E0],"tree_param":{"num_deleted":"0","num_feature":"57","num_nodes":"15","size_leaf_vector":"0"}},{"base_weights":[-3.142002E-1,-1.5289807E-1,6.307314E-1,6.6467005E-1,-1.1992096E-1,-3.3231877E-2,6.83769E-1,8.800509E-2,-1.0420688E-1,6.9710535E-1,1.7203612E-2,7.145723E-1,3.7016442E-1,2.0263381E-1,3.5918668E-1,1.5504785E-1,-8.3518313E-4],"categories":[],"categories_nodes":[],"categories_segments":[],"categories_sizes":[],"default_left":[0,0,0,0,0,0,0,0,0,0,0,0,0,0,0,0,0],"id":69,"left_children":[1,-1,3,5,-1,7,9,-1,-1,11,-1,13,15,-1,-1,-1,-1],"loss_changes":[8.6962036E1,0E0,3.0931969E0,1.0710182E0,0E0,4.1464287E-1,5.9994125E-1,0E0,0E0,1.632843E-1,0E0,5.140915E-1,3.2273E-1,0E0,0E0,0E0,0E0],"parents":[2147483647,0,0,2,2,3,3,5,5,6,6,9,9,11,11,12,12],"right_children":[2,